{
  "layer_0": {
    "weights": [
      [
        0.6109130448369701,
        -0.4760543772259924,
        -0.7784694212626453,
        0.19026558901350188,
        -0.6686644507391282,
        0.2889452642048034,
        0.28874667391786624,
        -0.7765748470261085,
        -0.49114232257686624,
        0.9476790428161621,
        -0.6844219964339134,
        -0.3302420748751205,
        -0.10030147602899177,
        -0.4045066150905118,
        0.4102434864394905,
        0.839183829394671,
        -0.34874386981193223,
        -0.028635531087949473,
        0.691779775147939,
        -0.12489586878061834,
        0.3213591448032208,
        0.45636840360860015,
        -0.5343078297692372,
        0.08370202546384786,
        0.20084694623420865,
        -0.01268212349321939,
        -0.6670800514341055,
        0.8613209598335424,
        -0.21246947658155116,
        -0.044927073751334576,
        0.45338005645083584,
        -0.6996728797865015,
        -0.8180158137054138,
        -0.05379872141423603,
        -0.056419297489136336,
        -0.02050202644649712,
        -0.22178096636584196,
        -0.3636945281534134,
        0.26811497142406227,
        0.6807749962165665,
        0.20492058061775878,
        -0.5755532709989719,
        0.06096756805828111,
        -0.626155600854632,
        -0.4982406249743604,
        0.04712257531710918,
        -0.006567309208503574,
        0.9497014706757057,
        -0.1541640885420257,
        -0.43983470784735085,
        -0.18074999692627639,
        -0.19332251116786925,
        0.0459473945161321,
        -0.13603716137625924,
        0.1931604491556705,
        -0.046173039037566685,
        -0.9180406933189349,
        -0.5711249725403099,
        0.815039161688915,
        -0.38167701092042927,
        0.07964301342280095,
        0.867358243404253,
        -0.12131943221645432,
        0.5565766183695151
      ],
      [
        -0.014342235357721026,
        -0.16431413668314546,
        -0.3229071922805906,
        0.6837110314139431,
        -0.23548723156407025,
        0.6036735476788825,
        0.6988109170125334,
        -0.2990508757676104,
        0.6400416461774114,
        0.02934590583229374,
        -0.015203574792856549,
        0.16426089896763083,
        0.5557085212031972,
        0.3344944689466471,
        0.6934337704444652,
        0.005573187037368169,
        0.11028255910931235,
        -0.38621677457454145,
        -0.13457721708627177,
        0.37217001591953147,
        0.5723257722046422,
        -0.3358794870897144,
        -0.33213102799108324,
        0.4336134513445992,
        -0.08924945050894002,
        -0.2404362048555484,
        0.11386053122736041,
        0.4858476666017311,
        -0.3179804583775546,
        -0.1809548663985632,
        0.043306940788414336,
        -0.1424312989176763,
        -0.5255492219187747,
        -0.13206463941155083,
        0.33196617966106307,
        -0.6819190909809697,
        0.01047038968502666,
        0.19581291979626006,
        0.20189179086006206,
        -1,
        0.10353065342732527,
        0.03097100171881343,
        0.20707339656478,
        -0.24425830689725322,
        -0.10310323708047539,
        -0.5518536609869956,
        -0.9935785210267483,
        -0.7881867946789913,
        -0.38154584329693947,
        -0.5422198048656919,
        -0.16675362254640197,
        -0.3828782188877744,
        -0.7152399344503405,
        0.7102647996779156,
        -0.3835805308412649,
        0.05627314286816942,
        0.5866789447785565,
        0.4157396046951245,
        -0.02586807634456683,
        0.6230537069583784,
        -0.3750261053930213,
        0.3066380088911988,
        0.3025770906407289,
        -0.15861492438067573
      ],
      [
        0.17701128369707114,
        -0.15314311086926535,
        -0.023891141137768204,
        -0.15720548475370197,
        0.4066260011313948,
        0.2892738499899982,
        0.6532642923703765,
        -1,
        -0.930344432130652,
        -0.23084304455425786,
        0.24357964617698544,
        -0.08616472681272597,
        -0.33051439973822105,
        -0.3036490729469069,
        -0.15688951401512627,
        1,
        -0.12672632203181824,
        0.8366795164559409,
        0.01971502208295599,
        0.14367019675393722,
        -0.10781756026919072,
        -0.26342678902566186,
        -0.050804715944861883,
        0.47520336213428777,
        -0.20205975611435237,
        -0.012809408715973488,
        0.8385340671178335,
        0.40065892649377427,
        -0.08950206237589164,
        -0.06787366349019903,
        -0.028781845621389066,
        0.014360150598676876,
        -0.4668025200739999,
        -0.17055595730339773,
        -0.31963859833916136,
        0.0686950768693589,
        0.7345932176393458,
        0.3990536755146781,
        0.1290841085462391,
        0.2588419123770974,
        -0.6918112328872846,
        0.4715945851732335,
        0.05631819123267729,
        -0.2340073211753666,
        -0.19590605071568234,
        0.8582097044887581,
        -0.14550401586156644,
        0.41114942825149253,
        0.6031951263974416,
        -0.5217982193920205,
        0.3747112378945821,
        -0.3405121895419958,
        -0.041960359733036155,
        0.10119420128821814,
        -0.08353040513834101,
        0.3379845938255536,
        -0.6142930215799987,
        -0.2004643855283942,
        -0.30244978854459553,
        -0.2734197334094057,
        -0.22386549119246,
        -0.8475731709656878,
        0.09048765325548175,
        -0.3316530202066497
      ],
      [
        0.8117620328402517,
        0.3240656632959481,
        0.28168140304884176,
        0.6254838437053568,
        0.747615109816203,
        -0.16234735226881436,
        -0.07457383175038652,
        0.1135404860563774,
        0.457052123315374,
        0.026167271607816484,
        -0.4202075630074799,
        0.05836666284620361,
        -0.648019355965231,
        -0.6234184416589699,
        0.6922502176783827,
        -0.3488604291497426,
        -0.38214438516544064,
        -0.01664586588342906,
        0.5609378629416436,
        0.351618679556075,
        -0.7526703175954819,
        0.43066822432281,
        -0.08363266553083702,
        0.05489621901124194,
        -0.3225453736986417,
        -0.2280136392919888,
        0.0009368624533507118,
        0.823351873394835,
        0.10998618501393226,
        -0.39502359478091886,
        -0.32282455752566563,
        0.05926393307410081,
        -0.5390930421962701,
        -0.120367032605716,
        -0.10996950501756039,
        0.19776075229912204,
        0.13419683349149958,
        0.19137592622387764,
        -0.3433794814339016,
        -0.6814478654579692,
        0.1626044466926244,
        -0.26928933023656254,
        0.2967766723401785,
        0.2815700940298231,
        -0.23571775594490207,
        0.6563160429355465,
        -0.043526608167946186,
        0.015964038514568055,
        -0.06989465798840672,
        0.6023053387589361,
        -0.2098297143753109,
        0.4044888757619176,
        0.029883033029447573,
        0.15206012582002182,
        -0.23468666166018037,
        0.14164258235550012,
        -0.6710990983026788,
        0.6583233858154003,
        -0.8183696191989073,
        -0.028526646799492787,
        -0.06415365184659406,
        0.870102938599535,
        0.012751262553694197,
        -0.013602720886599824
      ],
      [
        0.05112105985623368,
        -0.278584356265552,
        -0.02057780869885911,
        -0.17973432872483264,
        -0.12335831505844008,
        -0.013954395283048135,
        -0.006616748609570634,
        -0.13978674402995228,
        -0.5532682953231441,
        0.6027582988600514,
        0.6647199185051531,
        0.18523608062463595,
        0.06500853308376066,
        -0.5627546368328588,
        0.4645079016552062,
        0.17155819987740267,
        -1,
        -0.3107441024125012,
        -0.044935372559433105,
        0.12603032258372796,
        0.6341176033061467,
        0.3384378453231886,
        0.5679617019268872,
        0.15428599170342167,
        -0.2540864441421869,
        -0.1956507545273025,
        -0.5933139187387064,
        0.5719864972174061,
        0.7766508362963149,
        -0.305941177724604,
        0.3698213532947707,
        0.11615548865886943,
        -0.5093213121527705,
        -0.406216520818333,
        -0.18053705384345714,
        -0.07285646626662015,
        0.5775308034563655,
        -0.8468266635262264,
        -0.48021872832858353,
        0.3072425359338639,
        0.24499282022277036,
        0.18742421910472848,
        -0.08129094106543816,
        0.48719481565562356,
        -0.1309448511241248,
        -0.7463103182407749,
        -0.1955410895486705,
        0.4425778892617606,
        -0.2433732750027362,
        -0.4560782719847451,
        0.37721160767165957,
        -0.025422975801004357,
        0.18599074602142807,
        0.7824081750632182,
        0.1090487424720805,
        -0.02355821260894272,
        0.3980184073035909,
        0.34053029070395874,
        0.4121066748380795,
        -0.3696479558737596,
        0.6137488383897846,
        -0.52103917118368,
        -0.5434152760878342,
        -0.501087761828022
      ],
      [
        0.6683413799572258,
        -0.7162178991548073,
        -0.24710030872359603,
        0.04596485394711071,
        0.45989655407120655,
        -0.4204257256016013,
        0.10654225656079876,
        0.18022186432123635,
        0.06491306483808162,
        -0.11612054840745155,
        -0.33315388859233724,
        -0.05541932326448589,
        -0.3621318202874406,
        0.34216639251964265,
        -0.05281514277995186,
        0.23184460799880607,
        -0.35185455252710995,
        -0.31097697690335335,
        -0.48074254172771325,
        0.6635330064720795,
        0.27516356224882504,
        -0.23084703587052458,
        -0.057549536983663815,
        0.4227481152615159,
        0.017281681535229243,
        -0.10068851555824504,
        0.5335704723526069,
        0.002395226901844404,
        -0.5356909978582243,
        0.11077687266311723,
        -0.06113137415916479,
        0.31256027761033445,
        0.7020136415083625,
        0.7799872780221979,
        -0.0764491256794441,
        1,
        0.3522368326808243,
        0.22104537512800598,
        0.19520293193464353,
        -0.21945981812617205,
        -0.040924463699266174,
        0.39740285893177085,
        -0.965697688788342,
        0.15159487419460785,
        -0.07054403624047491,
        -0.3522822814528747,
        -0.15333382517930066,
        0.770192092974752,
        -0.5481388077310118,
        0.6062808007856736,
        -0.19401820088090474,
        0.343476543009876,
        0.12077724028758252,
        0.0818738432880205,
        -0.2783163032361619,
        -0.33161750202490364,
        -0.777490162847467,
        0.4099218819694633,
        -0.09437585282233275,
        0.6360364974509287,
        0.2437780744647217,
        0.39030796883999647,
        0.24672186153607886,
        -0.19748838351848966
      ],
      [
        -0.09902462230470405,
        -0.7113976878425243,
        0.249749249725691,
        0.14630107667224562,
        -0.1545811753105666,
        0.13948969979445888,
        -0.4272948287364637,
        -0.4658145108556866,
        0.6818484081846524,
        0.379897007133769,
        -0.015774834206354567,
        -0.3515585058695181,
        0.12044481124086028,
        -0.09848917978540254,
        0.6333772247595455,
        0.0011549213473272299,
        0.1705175634809039,
        0.09848089361530502,
        0.6977838426571453,
        -0.2195238116712774,
        0.4524145207344404,
        -0.716976240536131,
        -0.29649976809898115,
        0.09314459061025958,
        -0.03195845118401989,
        -0.3845643806910913,
        -0.31800451169229504,
        0.3641088653755881,
        0.3721036116056876,
        0.26253507802320325,
        -0.06431966081588811,
        -0.27262367433268253,
        -1,
        0.1285101018965238,
        -0.04411852378936966,
        0.2558883705701935,
        0.2896725964640821,
        0.04037477958109156,
        0.34591426038852,
        -0.11638208593201016,
        -0.2337103518512086,
        0.822511868838635,
        -0.795973586398354,
        0.7369475391306843,
        -0.6472012243046295,
        0.11635959947094694,
        0.518963622571874,
        1,
        0.7484665062826674,
        0.6665401013937453,
        -0.0702901455586678,
        -0.7215029261008957,
        -0.19314807072623244,
        0.3879880634879089,
        -0.28410881810849836,
        -0.2740611963194675,
        -0.20228372896053073,
        -0.6438785464234703,
        -0.3029269045892999,
        0.14902249835193254,
        0.11638671142539374,
        0.5168726438537338,
        -0.25478268032850737,
        0.6873878350400443
      ],
      [
        -0.005294246839667846,
        -0.6126323821068668,
        0.19547226458593805,
        -0.1021914578224581,
        -0.09485487383769745,
        0.20966479246864866,
        -0.1288830894908231,
        0.016715206833622168,
        -0.12737138776895013,
        0.8831948849384024,
        0.3975375307586199,
        -0.626836514094753,
        0.34989246091226983,
        -0.056224346325941074,
        0.4612775567643815,
        -0.13278874854912065,
        0.930501515981536,
        -0.4192553183401487,
        0.6713891673528025,
        0.34203055895136625,
        -0.29310022240574535,
        0.5495837693371949,
        -0.11923674266482193,
        0.22017890265956264,
        0.10201454597990876,
        0.6230559893269021,
        0.6869387621196392,
        0.1624334686904852,
        -0.02108043398388916,
        0.01117241433637847,
        0.4109410234551017,
        0.24480250310486973,
        0.2607093712631266,
        -0.17768540827912382,
        -0.4844747487332973,
        -0.9757159948348999,
        -0.005716904383891647,
        0.527676252605402,
        -0.22764420495649487,
        -0.21188336969409385,
        -0.33158008328759214,
        0.2599051675227872,
        -0.1374147692084645,
        0.3956779355403788,
        0.08716284679749675,
        0.5773315410694304,
        0.10565775740808202,
        -0.21363683894193508,
        -0.7509752147312938,
        0.3732019964907934,
        -0.2867240525302128,
        -0.10256156739914471,
        0.4626392266979857,
        0.19886357202168828,
        -0.5122743555690311,
        1,
        0.7027086326440389,
        0.2778635106163,
        0.45015159793402787,
        -0.449966431470013,
        -0.3427735617087946,
        0.47529907564216195,
        -0.3380197319203984,
        0.7215393827028868
      ],
      [
        -0.014971728616889363,
        0.5019139587434641,
        0.8482624658017653,
        -0.2725435891645862,
        0.5853606620806681,
        0.06959690701843055,
        -0.12605960617832587,
        0.06920861330710751,
        -0.050347157567348436,
        0.370635701030583,
        0.07875373175664306,
        0.31344572452343666,
        -0.2989406716016127,
        -0.09089953498600492,
        0.5546550740456097,
        -0.03123499465231437,
        -0.32970733646870304,
        -0.27631859385872903,
        -0.11371986277801747,
        -0.1577519068461017,
        -0.42680869492163964,
        0.13485729436946212,
        -0.3117518324434045,
        -0.49133314516126375,
        -0.7207677619673146,
        -0.37225725173279545,
        0.5564599309194406,
        -0.6545925679532151,
        -0.7358356023288933,
        -0.5911411807410129,
        0.019027367305478094,
        0.05650073516303629,
        -0.3361079016362113,
        -0.15809370616207225,
        -0.017675929212775072,
        -0.46871610320868856,
        0.3269019984025931,
        0.4994409486935204,
        0.22410139965701606,
        -0.21021352576207722,
        0.6484969332688534,
        -0.3914488953275665,
        -0.14655512526240116,
        0.07948273913960412,
        -0.9347961741854085,
        -0.6767642318104783,
        -0.32106015841539487,
        -0.07816901624066828,
        0.1252346481804182,
        0.07186649020298744,
        -0.3830586126670878,
        0.8940267026594066,
        0.24682324772881964,
        -0.9992102081371184,
        -0.0035989675275863047,
        -0.5139210331004225,
        0.023010446438307113,
        0.4157019746712379,
        0.439147692871198,
        0.28712135268942757,
        -0.10618223174346285,
        0.3040864048898966,
        -0.8605526882299224,
        -0.3166370738235964
      ],
      [
        -0.6334779745386495,
        -0.1473264140265486,
        -0.020901198551924342,
        -0.10366042181575692,
        0.07421836790285201,
        0.5636733875297584,
        -0.7603930115172028,
        0.8718705214243503,
        -0.572226675229579,
        -0.3408838971378606,
        0.1262485704170155,
        0.9037344888916393,
        0.07648570397844692,
        -0.17726230495274578,
        -0.25520737456118947,
        0.057286766844782885,
        -0.010605991148283301,
        0.36705043753631955,
        0.11470903171348995,
        -0.9516509175300598,
        0.6506348543468313,
        -0.34432224667371275,
        0.5490382795490512,
        -0.20099200524752417,
        -1,
        -0.21971262524504045,
        -0.24969031208136658,
        0.7133511037687538,
        0.25902111343234774,
        0.443042369914528,
        -0.1195603985536208,
        0.1978192572625191,
        -0.21235061770357036,
        -0.4244108819857326,
        0.9132686257362366,
        -0.31885360809031427,
        0.5437486807104468,
        -0.028542379220605606,
        -0.6017945318323639,
        -0.20292983078340993,
        0.2416673166591509,
        -0.15333219040128354,
        0.22218811208254857,
        -0.6958289698374865,
        0.36497541260051264,
        -0.12758671416122705,
        -0.17488023783595713,
        0.44482710830254185,
        -0.29760497362877497,
        0.16381914044649357,
        -0.009868759258338284,
        1,
        -0.6055733195538303,
        0.14416997320514274,
        -0.8940780177840727,
        0.0067301336041537966,
        -0.9734750330458226,
        -0.016330722972446785,
        0.26042929885702215,
        -0.009833559186640476,
        0.24418512626902755,
        -0.4294464578405527,
        -0.10694016891065063,
        -0.1898838231984745
      ],
      [
        -0.47550908637142547,
        0.4735740160496396,
        -0.17100820998746433,
        0.9968544327368466,
        -0.05170271773907398,
        0.03574288689002007,
        -0.9351117133377883,
        -0.2168717201126771,
        0.31483971878134737,
        -0.14476242362840933,
        -0.4567313912667198,
        0.848174622398607,
        -0.21027046141118974,
        0.2103351739975524,
        -0.39390415067970647,
        0.17127387697750396,
        -0.33946209851961634,
        0.44045422501823683,
        0.12592190667430123,
        0.7489402617920119,
        0.2096708209254327,
        -0.289297870876845,
        -0.17475978267674908,
        -0.24155004764566726,
        0.3737170422702111,
        1,
        0.07629061443349486,
        -0.04291323682960811,
        -0.08220821434876344,
        -0.45440002295023285,
        -0.05610616597035605,
        -0.6514120650095802,
        0.3173184419010251,
        0.047040749253681714,
        -0.262251596221113,
        -0.03178439646950588,
        0.23980410138629013,
        -0.540873931529246,
        -0.6817396564793942,
        -0.06304053316259343,
        -0.9511032700538635,
        0.3309156968190341,
        -0.4991132286349289,
        -0.595549122551274,
        0.12840684977629702,
        0.041701171950908,
        0.8436658705472612,
        0.6230113902295853,
        0.11846387072838861,
        1,
        0.19097866119987025,
        -0.021101882736158338,
        0.05524561902997246,
        0.5764911085526485,
        -0.27788211477255753,
        0.15255038008073554,
        0.14705244367080098,
        0.2925692926372901,
        -0.6157786193432946,
        -0.47599047627342156,
        -0.7054273447406363,
        0.04367526242732712,
        -0.10550974466346741,
        0.19821054181197031
      ]
    ],
    "biases": [
      0.08248885201866973,
      -0.2546869786314022,
      0.14677002963293795,
      -0.518568881184579,
      0.8719415707438579,
      0.2982757012336157,
      -0.4671259716843702,
      -0.19972035516551534,
      0.3992880884736034,
      -0.10266017090180556,
      0.6908550362388528,
      0.3751208399959719,
      -0.9115818738937378,
      0.36366292557552493,
      -0.1203294141252335,
      0.2595245015263294,
      -0.07825901874784402,
      0.767483323704764,
      -0.10698359459703866,
      -0.3160139359864083,
      -0.5343735646345019,
      0.39243592734247174,
      0.27738594804478933,
      -0.2985935097445322,
      -0.33194151718733544,
      0.50357504365062,
      0.024378174056164596,
      -0.1507717961513766,
      0.04181727927747393,
      -0.06830907533337797,
      -0.09567577530596223,
      0.02877001100455984,
      0.6400715039322984,
      0.17066184133338358,
      0.37591088355768393,
      -0.14035875123754096,
      0.6492538517437727,
      -0.46033486182429556,
      -0.21068221032717208,
      -0.3584938751090563,
      0.8572255091526171,
      0.7187746162669333,
      -0.049155149123522,
      0.37661120151367006,
      -0.6032577249810254,
      0.016491671733110704,
      0.15396437737494717,
      0.07354582508036744,
      0.35948694553157473,
      0.08144707835948718,
      0.6793325912338148,
      0.21896663073938258,
      0.6040556478556586,
      0.25985032282863035,
      -0.06232200253531458,
      0.09626513364402445,
      0.04114321803109214,
      -0.18966872343827987,
      -0.21881497003522643,
      0.5544439119161992,
      -0.20361702454071692,
      -0.29567909220382815,
      -0.2372194973758144,
      -0.38401223832530007
    ]
  },
  "layer_1": {
    "weights": [
      [
        -0.3307062462624819,
        0.424339753913628,
        -0.17416802324489655,
        -0.2281924584678637,
        -0.14119044673146325,
        -0.02302248135646131,
        -0.6168203626500596,
        0.6800835567146065,
        -0.24126525565270815,
        0.431036154398976,
        -0.9121970146958489,
        0.030139848014667927,
        0.8551290305405859,
        0.6953467658038283,
        -0.17425691589419323,
        -0.03015995954373159
      ],
      [
        -0.29336199933011786,
        0.4699893865438196,
        -0.7036251012250782,
        -0.2671616322988139,
        -0.048852991002314695,
        -0.06389360775964029,
        0.3459620367495652,
        -0.32532893763431864,
        0.008045726551868899,
        0.22774335150152278,
        0.12082836499069467,
        -0.2837699134273472,
        -0.16393714284964445,
        0.8504247922225582,
        0.08567235908814405,
        -0.750220414672457
      ],
      [
        -0.2376146080243691,
        0.5531734297697676,
        -0.04021359301483602,
        0.3289445715082688,
        0.6457272506454268,
        0.1560841400661902,
        0.5021653088835055,
        0.7203738699301885,
        -0.25229037821290384,
        0.19530702752804774,
        0.021521075081402247,
        -0.21751902360862058,
        -0.8497332633330739,
        0.2764187828143263,
        0.11641371621955945,
        -1
      ],
      [
        -0.018133135834625464,
        0.340720375850151,
        -0.6652430891726937,
        0.5226419117689822,
        -0.06874543552177192,
        -0.31063982986619765,
        0.06606440804784329,
        -0.1058399328049205,
        0.3919390209193217,
        0.7351331900163057,
        0.09630410321502234,
        -0.07402641102226358,
        -1,
        0.6400267391443968,
        0.2541461945594137,
        0.8508486217932726
      ],
      [
        0.19340266632812453,
        -0.0673116572576338,
        0.10621291305309588,
        0.1692977116934895,
        -0.95128063230686,
        0.17484704516555233,
        0.0014000241655604461,
        0.31878849107651613,
        -0.2778480389749105,
        0.34630449716026973,
        -0.05225237929736564,
        0.28344588978545515,
        -0.30239756317039096,
        0.42261919562839884,
        0.3372163137136874,
        -0.619852301859666
      ],
      [
        0.5182026869527864,
        0.8022706109293425,
        0.05206140265362017,
        0.5642718807019559,
        0.5201230694501997,
        0.1969744235094569,
        0.8166819201207716,
        -0.049640358126946255,
        -0.9096192743299444,
        -0.25607023537806406,
        -0.2818247729190408,
        0.09246817260175799,
        -0.5412045427662221,
        -0.9574140754034808,
        0.009102601511873266,
        -0.15310133873541898
      ],
      [
        -0.16360406261145713,
        0.35453828771924656,
        -0.16953338030869664,
        -0.10779108679016304,
        -0.011986973427612646,
        0.4259520942236429,
        -0.3409960087683632,
        0.10121013456048879,
        0.22089518285953633,
        0.017365121912714044,
        -0.13758353705389828,
        0.3002577203099592,
        0.3905602617635553,
        0.11524395050782252,
        0.3719429663844136,
        0.3192128815879724
      ],
      [
        0.5460968576488868,
        0.2546339472422622,
        0.14663538165256063,
        0.10498171315266364,
        -0.14265241991888364,
        0.09789106208215975,
        0.5303329813882129,
        0.535647809204279,
        0.6707713095421922,
        -0.5248392806972858,
        -0.23809449160387947,
        0.2562657572087693,
        0.10963490822444553,
        0.5120447636417044,
        -0.1878216893978438,
        0.31199067321236085
      ],
      [
        0.6649368162146947,
        -0.29532282013036043,
        1,
        -1,
        -0.19731238105752377,
        -0.022131780346980677,
        0.6849369240650667,
        0.4272462770474139,
        0.8962627203711161,
        0.7585072740018164,
        -0.6454413365669073,
        0.11036443944492119,
        0.07130000047530691,
        -0.47823568875789574,
        -0.36168226373355983,
        -0.3249412881176509
      ],
      [
        0.964873606259674,
        -0.11336795430064599,
        -0.23966658251641665,
        0.6132811749816546,
        -0.6396546257775237,
        -0.030293145218082997,
        0.4199397358018261,
        0.2797873079432032,
        -0.32507294939495085,
        -0.02208428670041211,
        0.2127036359932069,
        -0.23509833082486448,
        -0.5965651914468256,
        -0.7072507909503083,
        0.3742655603930239,
        -0.04635567379781797
      ],
      [
        0.18576585745521715,
        -0.9717843877124799,
        0.2821724649447809,
        -0.48189982060135644,
        -0.4292995803624168,
        -0.3344639497326116,
        0.25217089630280154,
        -0.5971134580466748,
        0.09025843788492392,
        0.685909914463704,
        -0.7307535170218137,
        -0.5779672007849919,
        0.14696046771321733,
        -0.3837215848230025,
        0.6556979789447918,
        -0.23167059655212544
      ],
      [
        -0.47136755843433203,
        0.5307721298944972,
        -0.15419221042962408,
        0.6882581623249976,
        -0.9029498004061975,
        -0.01901430250650623,
        -0.29097270235214245,
        -0.36117563126137214,
        -0.5695064372763987,
        -0.3009161880892521,
        0.6053273907864027,
        -0.3908285772183205,
        -0.2918929391028676,
        -0.5667966507562666,
        1,
        -0.6917860373879766
      ],
      [
        -0.19360335468562453,
        -0.21365893086047558,
        -0.25051971629499487,
        -0.258561502642565,
        0.10443486336410676,
        0.08023176973191821,
        -0.386555680223984,
        0.32188040719868144,
        -0.7882834341386953,
        0.5629337402772749,
        0.38781873224030633,
        0.481071769539251,
        1,
        -0.28331318135331957,
        -0.6814138890253295,
        -0.006607039680543554
      ],
      [
        0.6376003803831076,
        -0.23231450562769776,
        0.8087509910221142,
        0.1851289419309673,
        -0.3716367719981235,
        0.10286261989571309,
        -0.2540156767886005,
        -0.0933640194670129,
        -0.3839636937850528,
        -0.26954005758783867,
        -0.4327669589633779,
        -0.26114244408594994,
        0.0542625750670485,
        -0.4417589103640334,
        -0.3422730092056503,
        0.9755569400354602
      ],
      [
        0.13414920258069216,
        0.202347756765082,
        -0.20258096514132554,
        -0.7917549225620839,
        -0.6487287823264887,
        0.640801428222115,
        0.25754355825908004,
        0.3091043658809694,
        0.25898955076815894,
        -0.9522870500378452,
        -0.3881056898878088,
        -0.3110446696670811,
        0.22541318346478012,
        0.05983317006040877,
        0.04250500594705511,
        -0.370554861130156
      ],
      [
        0.08868166260038296,
        -0.42327716632957024,
        0.2824223438910474,
        0.9667751479329072,
        0.6736703377095888,
        0.7719467864027861,
        0.2200178073957404,
        0.31023720157949874,
        0.5468001712776793,
        0.27340496953426685,
        -0.02442915736123949,
        -0.5321862074356303,
        0.3726430873312224,
        0.029418939475857706,
        -0.5896146093676405,
        -0.12977096079115433
      ],
      [
        0.5383073336075778,
        0.7645607608330613,
        -0.3580080557377393,
        -0.5346849238977114,
        -0.25471703832518167,
        0.2132914634328039,
        0.3074143950382646,
        -0.09842141530846735,
        0.05027136380565192,
        -0.07921154786976996,
        -0.33777392427916925,
        -0.052246154995085135,
        -0.0701236676178597,
        -0.07761430258880522,
        0.27578198890201316,
        -0.03134416934507249
      ],
      [
        0.32594777728847363,
        -0.0932966457921341,
        -0.656372156534805,
        -0.13429337723857185,
        -0.24928733690978486,
        0.17794301028455092,
        0.6600890910970135,
        0.8132563404271729,
        -0.7262650683897978,
        -0.22365407383484776,
        0.4983823716609548,
        -0.11951442433292173,
        -0.2560793250902804,
        -0.6737426635457019,
        -0.35085365258252055,
        0.36449243078266547
      ],
      [
        0.4335714207123518,
        -0.5532222515841837,
        0.3088928198561478,
        0.07333003277545516,
        0.0619760978873783,
        0.3436884630647294,
        0.26409841078655233,
        -0.2647732325358929,
        0.4022474674346954,
        0.3211098259605263,
        -0.3772205415236247,
        0.5150952759296604,
        0.11376821767330676,
        -0.5223292148737786,
        -0.20816232107841803,
        -0.08346291623906694
      ],
      [
        -0.3256565813812971,
        -0.06116881114058628,
        -0.13209549278807645,
        0.4070715220019441,
        0.07132334450877537,
        -0.211663059514767,
        -0.14191258855733305,
        -0.04487131957605773,
        -0.41563888682643396,
        0.12885941737702492,
        -0.018682500387192144,
        0.0850575875363182,
        0.40602857068185094,
        0.4573245897072214,
        0.13200479981587296,
        -0.6360727386607333
      ],
      [
        -1,
        0.01598915554448767,
        0.30438248542894064,
        0.26125728658994835,
        -0.599173777592405,
        0.06780072846723223,
        -0.03017670706603956,
        -0.04146251877795905,
        -0.17187447356481378,
        -0.6453853712336025,
        -0.30636226963701235,
        -0.21436451804654794,
        -0.6422611045775245,
        0.030906963160977095,
        0.3837289902130337,
        0.7633597384015496
      ],
      [
        -0.30267753940619174,
        0.30301386690101695,
        -0.11374068052211939,
        0.05178167861028084,
        0.15626898138483242,
        -1,
        -0.4652789596867177,
        0.5186678530148485,
        0.6445766694147123,
        -0.6231901136405076,
        0.05637962046754993,
        -0.06295265113033431,
        -0.5215743659330726,
        0.06661778326840585,
        -0.39958629966616915,
        -0.27224249427788055
      ],
      [
        1,
        -0.16215540273474222,
        0.7985687172927382,
        0.06661002820148224,
        0.6138771307560683,
        0.6666292251938335,
        -0.3023135906128383,
        -0.6185441927935934,
        -0.9748463384448086,
        0.15352337458503398,
        0.3294822502654767,
        0.8719818181472122,
        -0.027705255685531432,
        -0.2017917204117639,
        -0.4836351489827599,
        0.4821147280481174
      ],
      [
        -0.09965025622619887,
        -0.37737969415659484,
        0.5100845573996665,
        -0.4852369712404846,
        0.09338200255492075,
        -0.021294449521003705,
        0.5256949771936178,
        0.16936781827644598,
        0.0789329801114319,
        -0.5635076807597195,
        0.2637571060324732,
        -0.40548929170112263,
        -0.6218196520177016,
        0.23527724138983333,
        -0.934062589887354,
        0.005704550756455206
      ],
      [
        0.006054161541377041,
        0.014101248400736103,
        0.5239151164812842,
        -0.14683586272744809,
        -0.022690279280966986,
        -0.7336615868814321,
        -0.4980718784334225,
        0.13591765922115442,
        0.050496341988762676,
        -0.34372344722243636,
        -0.4475960022481444,
        0.017729204424631457,
        0.16512564208391717,
        -0.8490853250213518,
        0.1764509766041537,
        -0.012971984267576236
      ],
      [
        -0.6963559960930266,
        0.37532312335007106,
        0.45814208230372216,
        -0.5975103522568812,
        -0.9866609034148439,
        0.25020825988600537,
        -0.5284607214235272,
        0.3901268277740031,
        0.49803168584347607,
        -0.51556900901947,
        0.05408894595389282,
        -0.41396818817553216,
        -0.006932701968314016,
        0.148128978908508,
        0.23231604436559175,
        -0.18483305225398292
      ],
      [
        -0.27506087795145523,
        -0.3659882203358396,
        0.3050174363348528,
        -0.004098729412780806,
        0.010807966862529734,
        0.46046824325578484,
        0.893867453504593,
        0.2644319845670138,
        -0.31528946063949476,
        0.936757504940033,
        0.10879627554772099,
        -0.20598080823786896,
        0.7826778288265123,
        -0.21879857385869597,
        -0.41608448326304753,
        -0.3884823252343716
      ],
      [
        -0.14794517914699448,
        -0.08569825530019724,
        0.20626549027713487,
        0.3762926000548876,
        0.17998650829435092,
        -0.15735400659102147,
        0.6714935336821841,
        -0.2721203155149827,
        -0.19115248389227696,
        1,
        -0.3610924928816034,
        0.22710421102913592,
        0.1548074243846277,
        -0.1061990037410247,
        -0.4026041749541575,
        -0.051387607079593244
      ],
      [
        0.5549362250599352,
        0.8374154638193454,
        0.2009124151320526,
        0.6602698631096725,
        -0.07849217906125207,
        -0.6682510186523065,
        0.10504463382351946,
        -0.23041026506517673,
        0.6229586102581843,
        0.38323927652999557,
        0.5618195750089179,
        0.07503966618212261,
        1,
        0.15536264830286917,
        0.19185032720680062,
        -0.7165979718875908
      ],
      [
        0.07339271164883632,
        -0.293680207455843,
        -0.4576246591591545,
        -0.07097574811551893,
        0.5062694230816865,
        -0.45355708514034304,
        -0.2682048743009424,
        0.0564593242665627,
        0.5601879842262779,
        0.9747881293296814,
        0.259217762965086,
        -0.11967247785012147,
        0.3691234012222393,
        0.16759351390558586,
        -0.03041514006468103,
        0.02948144704364262
      ],
      [
        0.7180864133045555,
        0.17277684488743014,
        0.5793759394783141,
        -0.4474016750823756,
        -0.22677500359612268,
        -0.8644901928343529,
        0.19316224685492048,
        0.03886297330087792,
        0.13941934124429997,
        -0.5438551738081634,
        -0.2973883829378128,
        0.6139756639351599,
        -0.8793472066060081,
        0.26439642737682506,
        0.11086159842206739,
        -0.820302329895837
      ],
      [
        0.813205864263932,
        -0.3864713417548167,
        0.12240677704324371,
        0.5103585350829262,
        -0.5069577086750768,
        -0.700227658420795,
        -0.170007293327428,
        -0.20931560356696735,
        0.004963251989341303,
        0.20443364061972083,
        0.7793695525291887,
        -0.305342003661644,
        -0.6418176742960185,
        0.6981810850743133,
        0.915361798586516,
        -0.2709943964433719
      ],
      [
        0.19765311572871166,
        0.49105899870895897,
        -0.25773239449876617,
        -0.5925649023797535,
        -0.6294215939300274,
        0.4384582060130228,
        -0.7803952286142603,
        -0.530019405437738,
        -0.1149863283897797,
        0.05425111294211102,
        -0.7370866712294918,
        1,
        0.0031204300303035097,
        -0.7230246130218427,
        0.10825921117557855,
        -0.6344793240261937
      ],
      [
        0.43009682721232073,
        0.0821921559962782,
        -0.810862653836054,
        0.4808422862455112,
        -0.37307324243346907,
        0.3432711988784854,
        -0.5321892800321626,
        -0.1940352913032407,
        -0.5584712516659287,
        -0.867006768382876,
        0.09712022608343546,
        0.682577248616349,
        0.6942491170297407,
        0.5954103583408058,
        0.21441177412339213,
        0.10893463622522434
      ],
      [
        -0.8843951831431138,
        0.3210430517296646,
        0.17599355809285397,
        0.16883682230000926,
        -0.2468509155000747,
        -0.8468190330516968,
        -0.18526768637592184,
        0.09702375921620345,
        -0.4731449249222893,
        -0.23575429098587306,
        -0.08555847998666012,
        -0.8943591468869353,
        0.6285512084486542,
        0.1317829225675207,
        0.3416617120183644,
        0.3742870297521546
      ],
      [
        0.3738081609421949,
        0.43119621457738255,
        0.10808305595111144,
        -0.5810571049985589,
        -0.017241277696790836,
        0.15635634244524582,
        -0.25478180474737394,
        -0.3588125979903936,
        0.2375617434561364,
        -0.7039324675589779,
        -0.2272290383551996,
        -0.29230064262117283,
        -0.3934518126313138,
        -0.6632395350334238,
        0.3310584078978416,
        -0.02990954139944012
      ],
      [
        -0.1571679501376664,
        0.30320370899078897,
        0.38425856851494355,
        0.7035518302272853,
        -0.14950330190466826,
        -0.18502679197123445,
        -0.4055995896702424,
        0.45954758850056254,
        0.005059733864456006,
        0.660885574588179,
        0.16345515626906632,
        0.31218858189719856,
        -0.18005125181346068,
        0.02973797635188128,
        0.36047708501520326,
        0.14523211683554066
      ],
      [
        0.4565876025822217,
        -0.09066773516365985,
        -0.07517573472999552,
        0.2942679788244788,
        1,
        -0.0737061751913489,
        -0.26214902744443513,
        -0.09177155026893091,
        -0.010699079190979477,
        0.614918779702093,
        -0.27726622506240506,
        0.2743831490888617,
        0.3978734707956294,
        -0.6297528653586635,
        -0.31468244588687394,
        -0.25695549541702767
      ],
      [
        -0.19820782652985877,
        0.5747708748205214,
        -0.011892109679439964,
        -0.22076726616350015,
        -0.40539030608441257,
        0.06579127957734844,
        0.884949438471169,
        -0.19625105420392436,
        -0.5819823607128936,
        -0.08530708706030071,
        -0.42106803648209357,
        0.520869023441952,
        0.0503618804365533,
        -0.18517510108107849,
        -0.5763803474199521,
        -0.2181910935459243
      ],
      [
        -0.7664712650205122,
        -0.6476624094472381,
        0.43869490507608366,
        -0.608284282058233,
        -0.02701082707605813,
        -0.24542263128765798,
        -0.14573277969102807,
        0.4998686899011131,
        -0.5329288228081495,
        -0.12789734695806496,
        0.5844685872168552,
        -0.08095303066775261,
        0.1602516641857069,
        -0.2722157020268128,
        0.39235161989671147,
        0.07316863885913408
      ],
      [
        0.6032994484916908,
        0.7403971958364337,
        0.08505893232781146,
        0.04726155838838019,
        0.35150127368436523,
        -0.7086423017549489,
        -0.11827691054510539,
        0.37480402458275935,
        0.21381509273177773,
        -0.907806399519602,
        -0.18194449857204156,
        -0.05223475544079333,
        0.7680099374994281,
        -0.45109524225848346,
        -0.7619609621943253,
        -0.6592274036020744
      ],
      [
        0.273933055820571,
        -0.38465388651877247,
        -0.10912147382802417,
        -0.0138056679725233,
        -0.7297433020594352,
        -0.23585574206631443,
        -0.01783474296309258,
        0.4008618429510317,
        -0.9081153555723868,
        -0.42431437059374566,
        0.8445226670701658,
        -0.2991677950869636,
        0.5128269580254731,
        -0.48622610295735275,
        -0.04640894457105047,
        -0.042489433792142796
      ],
      [
        0.26512151014695323,
        -0.21657080500972484,
        0.09496071623763831,
        0.7576968924082157,
        -0.2708496165426465,
        0.947220118727685,
        0.7857928810242792,
        -0.500293463672187,
        -0.2806244776181428,
        -0.12658769325463537,
        -0.4741526083024802,
        -0.4151342933806079,
        -0.07582848319646997,
        0.19425709214713494,
        0.18777893946902025,
        -0.5671880325734489
      ],
      [
        0.33770900259969555,
        0.08075272408105322,
        0.6384951398697362,
        -0.05755232513842542,
        0.015917519254898226,
        -0.6879145245984877,
        0.08899994165386192,
        -0.045209283420886266,
        -0.23390219729101297,
        0.06993188623498135,
        0.23316945890041416,
        -0.11513639329824973,
        0.137531185267714,
        0.10738327808992358,
        -0.20308292211183382,
        0.1649218475628377
      ],
      [
        0.03716260672211237,
        -0.1569080961036098,
        -0.5954959450896105,
        -0.09650445792044868,
        0.5718762880166446,
        -0.4108216846255404,
        1,
        -0.22134122791027103,
        0.19303286157483437,
        0.35619564707446394,
        0.06509865103625323,
        -0.2774248195501019,
        0.46270513091007814,
        0.01607870714589738,
        -0.1773283917338944,
        -0.26896351672132945
      ],
      [
        0.3139417840446495,
        -0.44330733714488973,
        -0.8351177793734124,
        0.11870733319695582,
        -0.2988608118471669,
        0.4507713693865246,
        0.07944277580842429,
        -0.2549538875053543,
        0.7414964898300472,
        -0.11447087506652369,
        -0.12001812057907327,
        0.8934722150084295,
        -0.17351506364644373,
        -0.745721799212019,
        0.6522743375545526,
        -0.21726190716837931
      ],
      [
        -0.34387209617833286,
        -0.498922101880413,
        0.8191641866122864,
        0.055791680751088375,
        0.05395621714461617,
        0.34406121105365556,
        -0.18964777421807164,
        0.1484163743167879,
        0.35047281651224227,
        -0.3528659677574944,
        0.3479076018689998,
        0.14443882455329146,
        0.5014968856076574,
        0.722453339542045,
        0.3476794595263366,
        -0.35157671873266677
      ],
      [
        0.45593964004405513,
        0.4948856690219321,
        -0.8224883524880812,
        -0.5658186228252851,
        -0.15950310313280242,
        0.42994618728778,
        -0.5874528386320116,
        -0.949205219745636,
        0.3797470192433542,
        -0.01740038839996798,
        -0.17294825688468254,
        0.06480992479826397,
        -0.07375989129151951,
        -0.3987454757579016,
        -0.5384548935471806,
        -0.2203409369111439
      ],
      [
        -0.07762318646702536,
        -0.6886386839231228,
        -0.5378132014443858,
        0.7849187752078134,
        -0.0021252885137849004,
        0.8186049608863116,
        -0.9654151767250339,
        0.14239794045677434,
        -0.796151838185237,
        0.27985598051886146,
        0.13328653278781144,
        0.857278651176006,
        -0.38004930111084756,
        -0.2714610482008136,
        0.32854047494713795,
        -0.2641960027209492
      ],
      [
        0.05614058410980159,
        -0.06145258989532222,
        -0.3453690124969184,
        0.8999858191086605,
        0.1465791390045224,
        -0.8690036317686847,
        -0.15794334559133918,
        -0.90367059527334,
        -0.2459159288741292,
        0.9369378401062761,
        0.020250088219939857,
        -0.24102770134385937,
        -0.10195818408149494,
        -0.41785314081853164,
        0.1888502590630527,
        -0.4866677419517427
      ],
      [
        -0.448310242322451,
        0.5704363161334806,
        -0.07120678536654933,
        -0.09418310757765992,
        -0.021603607758760135,
        0.22337334148360485,
        0.3282737579953445,
        -0.5581813910062772,
        0.4939630981191799,
        -0.22796363366452457,
        -0.10076145940179988,
        0.22555230246382774,
        0.02117690471901181,
        -0.1114830216842124,
        -0.5774123604900453,
        -0.12650023492452392
      ],
      [
        0.11834004917924644,
        0.4849946798218131,
        0.23567193132311431,
        -0.2838053713579006,
        0.36937709311473965,
        -0.05523142361242133,
        0.029141065215170778,
        0.3208151045876577,
        0.5876922424847663,
        -0.49412337204967965,
        -0.9361887152009974,
        -0.9226438999176025,
        -0.24532125254107393,
        -0.08530312060670449,
        -0.7461951196832907,
        0.21525210653398966
      ],
      [
        -0.36466546515777787,
        -0.2548851178609536,
        -0.8244455340165656,
        -0.4841485610940986,
        0.13657253153447338,
        -0.48420536272409626,
        -0.2923677251306773,
        0.7841178640437313,
        0.12295230498948143,
        0.8354561401185379,
        -0.552458842991378,
        0.7591225335909171,
        -0.6402925733570611,
        -0.3947875528120451,
        -0.030702854598740333,
        -0.5146301070960209
      ],
      [
        -0.12853271760371596,
        0.04754336678606228,
        -0.04545884326000577,
        -0.5487279738113743,
        0.1669749383080761,
        -0.6928450985239668,
        0.2798216350351585,
        0.04400590232379082,
        0.030721564874802095,
        0.579152178567354,
        0.18039985844266,
        0.6983522895728245,
        -0.2297367954149077,
        0.804951854686504,
        -0.8759528064493383,
        0.18097955179782085
      ],
      [
        -0.26740439791293813,
        -0.7013204542779401,
        -0.38483569464240297,
        0.3324859307546624,
        0.0222106244549156,
        -0.011325043488345931,
        0.11352874616664872,
        -0.21834476595448718,
        0.053675108452968,
        -0.0255741977460057,
        0.6533628599331325,
        0.06085390766871688,
        0.010029136400561895,
        -0.14137669887112975,
        -0.19341139079920125,
        0.7132412763980782
      ],
      [
        -0.055972345772829724,
        -0.27437790006583257,
        0.12333234935277504,
        -0.1660856865961402,
        0.7091101759525075,
        0.8888446956336509,
        0.3930096073825778,
        0.2791117113564568,
        -0.6658594468648934,
        0.6431513152686082,
        0.7007599351825131,
        0.651172898294294,
        -0.04187514328120349,
        0.6566585016571074,
        0.8368555752858441,
        -0.15074806980649344
      ],
      [
        0.028155982106525878,
        0.485915355749816,
        0.025918100182523007,
        -0.38683987876071607,
        -0.5058438254542968,
        0.5790921004612875,
        -0.638117647618059,
        0.1552106816391824,
        -0.2033577603706778,
        0.9299146731321374,
        0.033805987244088426,
        0.2507075576209098,
        0.4751527493025627,
        0.18777605580282442,
        -0.3576318240752415,
        -0.24621732690591933
      ],
      [
        -0.13571742832959802,
        -0.0219339564583518,
        0.3656358799268879,
        0.1783721355028567,
        -0.2385639374403902,
        0.2628001194314098,
        -0.23519562825105678,
        -0.6441042757230955,
        -0.18048291347065645,
        -0.04316520296093305,
        -0.1794360692562606,
        -0.05404829413776571,
        0.08794749772462572,
        0.23071101566555513,
        0.47481266774166003,
        -0.9315845602581209
      ],
      [
        0.06203855111944676,
        0.08247986157955532,
        -0.499602535332865,
        -0.5189083205416026,
        -0.08178987677251952,
        0.7785271822156695,
        0.6995679528877472,
        0.23117100691820827,
        -0.4539722036057013,
        -0.11608638243039308,
        0.16907724016641368,
        -0.3827534258733511,
        -0.3689841049242611,
        -0.23797871768276466,
        -0.45620434960393935,
        0.045446606141941806
      ],
      [
        -0.9226008677701601,
        0.0754469823891576,
        0.4801921718698746,
        0.610036836297438,
        -0.22155131814204657,
        -0.2564189151277271,
        -0.2632446240766445,
        -0.6843972955761256,
        0.2972128510055362,
        0.2341859150933649,
        -0.09322616073527992,
        -0.08677198950517097,
        -0.45264257115250944,
        0.17195127998970022,
        -0.6259956961990897,
        -0.32080255950456626
      ],
      [
        -0.05414499731530765,
        -0.37147763517506477,
        0.5353987563839562,
        -0.004095539281643486,
        0.2608734009798791,
        -0.11947666199445843,
        -0.42386720058494537,
        -0.5872182335529799,
        0.41841654926269506,
        -0.04147868730156211,
        -0.3179706568941448,
        0.34478712712010323,
        -0.05301496466205517,
        0.03025485734947641,
        0.5041182538241117,
        -0.2003579140914069
      ],
      [
        0.017178898322024707,
        0.2657446190334564,
        0.3750663311903272,
        0.6057094333773235,
        0.3847870024074636,
        -0.3005461554630155,
        -0.32126622842261954,
        -0.16492509682192785,
        -1,
        -0.4417089326199118,
        0.13324423729763055,
        0.04057994562745958,
        0.7070278089223316,
        -0.1793446373040363,
        -0.49422237064016894,
        -0.9336200157690497
      ],
      [
        -0.31046496652051847,
        -0.3555926294103226,
        -0.012592250074591535,
        0.15664318384518444,
        -0.34534985899261694,
        0.8360234940884602,
        0.18465953003751165,
        0.11658904344982152,
        -0.41538984806699686,
        -0.4341271430650486,
        -0.4505328958245818,
        -0.5305699858827336,
        -0.12051218159607514,
        -0.2315026915992004,
        -0.2733349915314529,
        0.07312342486139993
      ],
      [
        0.7272430213423569,
        -0.38237639430107867,
        -0.34164963185256814,
        -0.09137297618477715,
        0.9811230597141511,
        -0.4160019037539463,
        -0.09146565332927221,
        0.8790599206931935,
        -0.34099473028897986,
        -0.26313903014959117,
        -0.7263439008565508,
        -0.39535963221231946,
        -0.0015803114559659402,
        -0.12852352478308648,
        0.05084737043205635,
        0.13859234051467517
      ]
    ],
    "biases": [
      -0.009998233902639007,
      -0.749198886885812,
      0.21553947313552074,
      -0.5974927474880156,
      0.2988627802719745,
      -1,
      0.11194565840581301,
      0.1790803712391089,
      -0.5591198396645107,
      0.13770242044810313,
      -0.33673566251531245,
      -0.6824300947258882,
      0.3750419138119557,
      0.38432882682991404,
      0.3109405731680501,
      -0.45352100421510955
    ]
  },
  "layer_2": {
    "weights": [
      [
        -0.6979708653322682,
        0.6482762792706219,
        -0.04320292411813547,
        0.06508556401412736,
        -0.04878398021932641,
        -0.5600879487474933,
        -0.6381640370862878,
        0.016196939705620014
      ],
      [
        -0.9264025092124939,
        -0.661653565217863,
        0.4714886904451316,
        -0.1479553117749553,
        0.041675775976121834,
        0.152561171081439,
        0.3868479585445031,
        0.13553500379394157
      ],
      [
        -0.20116961666060193,
        0.9208252109041687,
        -0.30667900317386954,
        0.1843188059952331,
        0.17446680310762613,
        -0.8721046196735982,
        -0.19757218189319536,
        -0.41135094343144046
      ],
      [
        0.33975362640881246,
        -0.5423873994875534,
        0.5486030119760705,
        -0.2793251124822888,
        -0.1480519960366946,
        -0.2713956822242008,
        -0.591043720447626,
        -0.34345359332072334
      ],
      [
        -0.13962089528214724,
        0.6019595730921944,
        0.5471136821217244,
        -0.4318907638137982,
        0.34870326032294524,
        -0.5751835048654518,
        0.81844437942367,
        -0.20742169758204793
      ],
      [
        0.022343253624882507,
        0.022456108907966083,
        0.04558643395257494,
        -0.11432066689510824,
        0.5544992209704277,
        0.3206347658528578,
        0.4607993137486021,
        -0.1826922815370078
      ],
      [
        -0.07456752862142127,
        0.82155662686728,
        0.3165103274873033,
        -0.05986795662015202,
        0.004695538984544667,
        0.49430730420654373,
        -0.3249977857171827,
        0.0566414702322036
      ],
      [
        0.42257369626079466,
        0.3303358028936162,
        0.5525551994625068,
        0.166272947462025,
        0.49456451885238484,
        -0.3975109602531255,
        0.046078116375726834,
        0.652545600446908
      ],
      [
        -0.01606405363917983,
        -0.5867168111976145,
        -0.9054667949676514,
        0.3434136059312664,
        -0.4881842761945972,
        -0.5001804297678647,
        0.5029544923111843,
        -0.016219358387482414
      ],
      [
        0.3714102590444743,
        -0.13215964349354828,
        -0.2289567951440154,
        0.6393282636289033,
        0.06357836898811126,
        -0.6556442740750306,
        0.3591632189782486,
        0.14362125094262226
      ],
      [
        -0.6338329173766177,
        -0.1983813115098458,
        0.3106702520064168,
        0.04718493578477925,
        0.054395634763459676,
        0.5204630273139632,
        -0.10058753976230438,
        -0.8689811276494377
      ],
      [
        1,
        -0.04761107357392,
        -0.4012102767285123,
        0.17141754596921566,
        0.32268047091645796,
        0.4220964149827746,
        -0.09979827787544772,
        -0.07484435523875621
      ],
      [
        -0.558982506979034,
        -0.6819683484037193,
        -0.010351057064098779,
        -0.15025748708495773,
        -0.13465521573159972,
        -0.2573153578525942,
        0.43511361794776715,
        0.39860165501796174
      ],
      [
        0.3423650167002733,
        0.2026139557156461,
        -0.28413061858197886,
        0.15080621577065148,
        -0.39662223567396915,
        -0.23555787403649592,
        0.5192743445590381,
        0.9134515928776005
      ],
      [
        -0.3614171027664788,
        -0.735602871483776,
        0.0004593808383604531,
        0.05940256846694721,
        0.10589163900775339,
        -0.6452920404051357,
        0.33206043236913796,
        -0.34078834521354273
      ],
      [
        -0.522772089434622,
        -0.32639819872539494,
        -0.020609362502412916,
        0.24568780027978576,
        0.6008374891232273,
        -0.07790351622734383,
        -0.09963028906473716,
        -0.23190173978601558
      ]
    ],
    "biases": [
      0.5108830113708673,
      -0.3730351985964682,
      -0.5411096688979954,
      -0.05026468577302843,
      0.05124061017841021,
      -0.6213695985411186,
      0.09235281719391386,
      0.08760147027402344
    ]
  },
  "layer_3": {
    "weights": [
      [
        0.29941121744185856,
        -0.391062004262238,
        0.5637294785414864,
        0.04660104265652459,
        -0.09767089126861855
      ],
      [
        0.2795930799526197,
        0.07994132967885682,
        0.4843866935917902,
        0.7526912410897002,
        0.8827406576299819
      ],
      [
        0.050290499994804186,
        -0.6303916969748958,
        0.07268634052563368,
        0.23021505290114844,
        -0.5556158023429687
      ],
      [
        -0.2245366485489374,
        -0.4519383357419507,
        -0.3519950068630047,
        0.10718712302263236,
        0.9760982221347579
      ],
      [
        0.22277684343903956,
        -0.05302585823966126,
        0.5260315841420334,
        0.18421525920978715,
        -0.18231033783769388
      ],
      [
        -0.3102218432664605,
        -0.867176460307448,
        0.08267741222919121,
        0.1282001323838068,
        -0.433682235280892
      ],
      [
        -0.25936994660297247,
        0.7562858667006228,
        -1,
        0.2702643287794562,
        -0.7485351048117597
      ],
      [
        0.7795563219690649,
        0.25655612942641126,
        -0.14362941973512258,
        -0.22651470936496756,
        0.3152552945673638
      ]
    ],
    "biases": [
      -0.7013644891202389,
      0.04913744982248916,
      -0.1415243659698867,
      0.09839179955637273,
      0.11371101200057138
    ]
  }
}