{
  "layer_0": {
    "weights": [
      [
        0.5565693720607569,
        -0.922860324382782,
        -0.6833447623127451,
        0.4575643204247333,
        -0.6427534138746723,
        0.41936299307841274,
        0.1888456247728073,
        -0.8530293503916742,
        -0.6822131546161706,
        0.7176979792882364,
        -0.3814966919877821,
        -1,
        -0.0852156378102301,
        -0.28677935321226933,
        0.3418307365398125,
        0.44975502815769114,
        -0.4011663085516398,
        -0.013015613847458408,
        0.6978302865221101,
        -0.1211324206107658,
        0.3795827291662413,
        0.8077343597632319,
        -0.6190627779761781,
        0.1572244323496821,
        0.4006024772806374,
        -0.017010606099340488,
        -0.8895268228462904,
        0.6285482548696653,
        -0.24576034081284098,
        -0.0416254330718085,
        0.6449193126749786,
        -0.5976995950497911,
        -0.5644456032835299,
        -0.01927170796165486,
        -0.057758532457919454,
        -0.024615415332633016,
        -0.16452222475575892,
        -0.3257341166579332,
        0.22557982954257144,
        0.6293732255516643,
        0.3714149121594707,
        -0.32050679747479366,
        0.10737858406889743,
        -0.7099322868127694,
        -0.25301242249870826,
        0.0736381603745991,
        -0.012176786446692286,
        0.6744297140565815,
        -0.1351212896767831,
        -0.4364371491524789,
        -0.18533051721783117,
        -0.07093971260880483,
        0.06738212540270887,
        -0.047514010015225636,
        0.1655802385718559,
        -0.011741196645242737,
        -0.36590892661104385,
        -0.8299631098675562,
        0.9720998055548589,
        -0.3974012628625935,
        0.0346329171664994,
        0.6061544681522585,
        -0.1177681044772542,
        0.327164426336559
      ],
      [
        -0.02260031868018633,
        -0.14955819329463035,
        -0.1268255929145024,
        0.31990413847519056,
        -0.4740544782883121,
        0.5141958390884908,
        0.7547575778318745,
        -0.14614927503383865,
        0.28005993273974494,
        0.02765115230286921,
        -0.024174362107621403,
        0.18742954304577025,
        0.3382571284327342,
        0.2059761967712887,
        0.5374103798829613,
        0.004941440074985758,
        0.09843509762869762,
        -0.27639698107298366,
        -0.14732392481701445,
        0.26853260188433087,
        0.5324851559797327,
        -0.27268129405667796,
        -0.8265045837050504,
        0.5165983029437793,
        -0.050540046097036544,
        -0.08657956840687214,
        0.19679034363163467,
        0.3991117101591344,
        -0.5760865675518521,
        -0.11575185483677501,
        0.05264276423335668,
        -0.19351556332120687,
        -0.3891154476316948,
        -0.09381732003260852,
        0.12375354671678207,
        -0.5585348649650403,
        0.01925331542548651,
        0.42875497586670713,
        0.3973367680174819,
        -0.7031568680566233,
        0.08769212030340938,
        0.01717713188617807,
        0.05805101743299129,
        -0.36181128791803907,
        -0.06969398400185124,
        -0.5161964213039089,
        -0.5573415348810102,
        -0.46303369557558227,
        -0.40512943617177555,
        -0.3223757436350367,
        -0.07540427873675258,
        -0.36161808360907627,
        -0.6126628697210937,
        0.30544669239337946,
        -0.3821577769521393,
        0.07523868456211857,
        0.6985703998837984,
        0.4052575274030349,
        -0.025592870968961515,
        0.735583265645381,
        -0.2551200944296992,
        0.24937133847531945,
        0.7293774243143982,
        -0.13383673074288288
      ],
      [
        0.07005604494066539,
        -0.1449821866466486,
        -0.04399372358102955,
        -0.16803957861828894,
        0.9557619959983739,
        0.2709892157630389,
        0.5025882523279841,
        -0.27497183948157417,
        -0.5095927628054666,
        -0.09186467642026244,
        0.3822721671737136,
        -0.08712929627884454,
        -0.5448249251162529,
        -0.6730428912578792,
        -0.17664973366106357,
        0.832500390268934,
        -0.18712536373499258,
        0.2934153124529172,
        0.015073013935716013,
        0.33336973134874864,
        -0.054500101377565335,
        -0.29117773248478146,
        -0.04349888555566043,
        0.2253767335821348,
        -0.16917101500232437,
        -0.041879034823365316,
        0.8192884823567305,
        0.3226740971069954,
        -0.02878773069879178,
        -0.06262292754489651,
        -0.04383350450624625,
        0.009422657693387858,
        -0.400192727586662,
        -0.1750889617008302,
        -0.36172708624096483,
        0.08936245474959048,
        0.8919807122289782,
        0.6080500926385841,
        0.08152443713504981,
        0.2559377576122213,
        -0.5367178908762902,
        0.31344828505374106,
        0.13535528019102566,
        -0.46091552518601736,
        -0.2139852910872485,
        0.7525576773904947,
        -0.305738231432433,
        0.8021880732005259,
        0.8924926095419394,
        -0.49253699881764174,
        0.39761456672770445,
        -0.6558559731204794,
        -0.06859383516035149,
        0.192971381078781,
        -0.09690048544440343,
        1,
        -0.44056147276116747,
        -0.40624045958011556,
        -0.18701482153515026,
        -0.552652634610536,
        -0.4079177469777223,
        -0.8586092225273729,
        0.05024435645120677,
        -0.2528405303744568
      ],
      [
        0.24633883217255806,
        0.2912107619664185,
        0.5523099470306073,
        0.8340861867024465,
        0.33490489989137656,
        -0.09622339491657067,
        -0.06065828311637841,
        0.11536878661289492,
        0.6482492748494577,
        0.040227025312856296,
        -0.27331751778920854,
        0.03504663097616648,
        -0.8705906148968281,
        -0.6031309472027259,
        0.6251844304066331,
        -0.3551730880092999,
        -0.41125598951343645,
        -0.02463334045690425,
        0.6441619825347774,
        0.21487138304834927,
        -0.9911557180554347,
        0.36424624027289376,
        -0.1455115652681523,
        0.03637956393069448,
        -0.35957169653074683,
        -0.5580447362381193,
        0.0009253167310291128,
        0.32665598459319145,
        0.2662037612688274,
        -0.5388406758739003,
        -0.22407031305129282,
        0.03533577776904334,
        -0.3970298246069532,
        -0.1419364145752006,
        -0.12770019169036692,
        0.15695586533372377,
        0.12097767076606827,
        0.2591372228772366,
        -0.5473777877421998,
        -0.2909407443467764,
        0.10583930238484651,
        -0.2080252169099158,
        0.3294207488849956,
        0.23588508808529407,
        -0.19805450514817058,
        0.4246512985717594,
        -0.026685015926138592,
        0.02260753786562026,
        -0.05235970892477859,
        0.2863150783170088,
        -0.14222961934790707,
        0.28230847113262325,
        0.02263826664576378,
        0.28354622509559685,
        -0.25528941654647785,
        0.12266420475613433,
        -0.4285609055935977,
        0.8124625605386461,
        -0.4660129012145853,
        -0.05330670376978603,
        -0.056392029824548745,
        1,
        0.015625571493332793,
        -0.01721131181338733
      ],
      [
        0.03255268236586929,
        -0.30670281956279605,
        -0.03361207596645029,
        -0.08515735785999803,
        -0.140909394777369,
        -0.013578381600453293,
        -0.006456630650271938,
        -0.450962244470597,
        -0.31496310279594203,
        0.5172809020481022,
        0.7790091179554868,
        0.11210127386068322,
        0.05079027757455826,
        -0.9033604250755431,
        0.361646719956659,
        0.22179004624693566,
        -1,
        -0.34257706708572855,
        -0.0536382808293424,
        0.0763039330185272,
        0.342083630739611,
        0.43380826567978265,
        0.7583933567617596,
        0.17283755006359638,
        -0.10486436611863935,
        -0.49968164272718724,
        -0.4550017049645529,
        0.33988983074678975,
        0.5698695935142022,
        -0.48377528695882815,
        0.7268974600706284,
        0.29502983558600543,
        -0.5221198154304694,
        -0.20910922725350092,
        -0.36091135676857,
        -0.09249316798160542,
        0.40285429936122186,
        -0.886976041913978,
        -0.8639398867446445,
        0.16833174039856608,
        0.12237057824658941,
        0.21337510948798263,
        -0.311249463256485,
        0.2716783565815805,
        -0.13321927783763193,
        -0.9088197424787219,
        -0.18909520930775858,
        0.8504295634478674,
        -0.18243818457132266,
        -0.6718216748875295,
        0.25517449134546705,
        -0.041723566810895986,
        0.14800184699785465,
        0.6524418995808818,
        0.10500014300729092,
        -0.03507660876598209,
        0.3445904887386401,
        0.16643870187227594,
        0.3892294531976617,
        -0.4144450718170326,
        0.3373352192554814,
        -1,
        -1,
        -0.32981486074984917
      ],
      [
        0.46066302351863575,
        -0.5581204921514433,
        -0.17834049046735578,
        0.027912168883572466,
        0.484566773960694,
        -0.47112539007717275,
        0.07436574571488475,
        0.10049440545568657,
        0.19488983985972372,
        -0.1267429216558351,
        -0.3300314105594628,
        -0.09830975382431709,
        -0.17313218203449535,
        0.6432491604440401,
        -0.059109505450883795,
        0.3780681800072326,
        -0.45030821583624636,
        -0.23126695965971897,
        -0.3299286588230503,
        0.9255459828309714,
        0.49038487751347004,
        -0.0787912682921519,
        -0.0843473230433462,
        0.4310960754957469,
        0.017518382096182363,
        -0.16079677850338772,
        0.9272681464294242,
        0.007012771897707439,
        -0.6358308235376536,
        0.1423968112877496,
        -0.10510035598466523,
        0.40047615191361696,
        0.5047878843817337,
        0.3470828303147165,
        -0.04652258273611275,
        0.7893201447398612,
        0.061788834787068876,
        0.22350066022867343,
        0.5404378679709625,
        -0.45254506038406855,
        -0.39444878006389633,
        0.326937761306083,
        -0.6302251939575386,
        0.16418223275816377,
        -0.08672080022869505,
        -0.4335553429588881,
        -0.23636193065823732,
        1,
        -0.490661757475318,
        0.41172051906124235,
        -0.10553451787764062,
        0.35970564605420435,
        0.23073886105736285,
        0.102360666999442,
        -0.19528432743679588,
        -0.33112776840666425,
        -0.70756484376507,
        0.528166301116952,
        -0.07318088704847607,
        0.3873889477582612,
        0.35689541729991087,
        0.2630720002040556,
        0.2776251107223657,
        -0.22161956276911213
      ],
      [
        -0.20052714780156317,
        -0.4128307955724633,
        0.3162025119283389,
        0.16240622185365572,
        -0.17155013038739553,
        0.106600688648703,
        -0.5329361886313784,
        -0.3842960189127064,
        0.478823252574247,
        0.24363874588913287,
        -0.017603869905571855,
        -0.985314309006453,
        0.152012028139878,
        -0.05649013384865383,
        0.5681909273079089,
        0.0016450801926289926,
        0.19444994685148015,
        0.06717973899844797,
        0.4498855653446913,
        -0.1429894432103055,
        0.27329998585236487,
        -0.33308848040946126,
        -0.12881231681960434,
        0.44028365795612256,
        -0.02992122855523599,
        -0.3185633207591814,
        -0.27344521827872664,
        0.6489934794870479,
        0.5819149238348393,
        0.16508572627377277,
        -0.10780953142560273,
        -0.21925796541514375,
        -0.4532278985350108,
        0.19035552611069778,
        -0.06755004425708515,
        0.32087382980456863,
        0.48670901282294476,
        0.07607255470895555,
        0.27532755865744934,
        -0.03858277506770751,
        -0.214940064416567,
        0.838119627719755,
        -0.42307858115496644,
        0.8944811658661824,
        -0.6453137251399005,
        0.15875713374623626,
        0.2107807695295082,
        0.9788393479647981,
        0.4826542547037526,
        0.4660968927870175,
        -0.10606594619611687,
        -0.4373192600177668,
        -0.2091365033328323,
        0.5197848739724892,
        -0.19393295020575202,
        -0.8054062875636172,
        -0.10004422435901135,
        -0.32571298874621846,
        -0.07533499490632399,
        0.15043770251813324,
        0.46964569379107546,
        0.8176848526514455,
        -0.14717200156253632,
        0.2898769637815862
      ],
      [
        -0.005409372733989004,
        -0.7015435553045001,
        0.07703377537070276,
        -0.11969054710442749,
        -0.11574806573268726,
        0.14931562358022168,
        -0.09469682594478661,
        0.012294083623537035,
        -0.21099225742858166,
        0.7794452268219484,
        0.20778940186106162,
        -0.3512760167425566,
        0.36158033203713735,
        -0.040878317405306314,
        0.6111576426982784,
        -0.1236020961525798,
        0.5048948023732144,
        -0.720604399750893,
        0.17051618092367832,
        0.18715852841914726,
        -0.6356309905686642,
        0.5099782856398777,
        -0.17519365617813978,
        0.09362486850835602,
        0.08345350479909422,
        0.5315381183499854,
        0.5130444998232426,
        0.1613260968474016,
        -0.017433228648096717,
        0.0050074466759232605,
        0.8999984223002855,
        0.18415076880463255,
        0.2993901778606337,
        -0.08936436708043373,
        -0.7067983954023959,
        -0.3298341145004022,
        -0.0043254965144261925,
        0.9101998805999756,
        -0.3161380845823577,
        -0.5736368547376183,
        -0.2760376947919495,
        0.5128782930180448,
        -0.11202611864293556,
        0.3963758719922163,
        0.08317552820147547,
        0.2653609182234494,
        0.05930643842589828,
        -0.1316464859962674,
        -0.5553126058514086,
        0.6227912829728435,
        -0.12861662269863933,
        -0.11272174512208118,
        0.44502342415758933,
        0.35928780861925225,
        -0.21919359148994783,
        0.5611127974294071,
        0.37783078560491534,
        0.39629375777596904,
        0.5215946674634963,
        -0.46270867762532536,
        -0.21805408957031533,
        0.61333117752633,
        -0.2686575026359349,
        0.6380536720607801
      ],
      [
        -0.009819692000539226,
        0.19307298786892207,
        0.46914997057234953,
        -0.22973945100227422,
        0.4408779409721298,
        0.04711005127344125,
        -0.13239295765118547,
        0.0659603095423224,
        -0.03397193801028907,
        0.1443598663888723,
        0.06354436910359822,
        0.25125142201574135,
        -0.09589696028865184,
        -0.09345678913427025,
        0.28446862766459136,
        -0.02041799204712442,
        -0.7102555698375193,
        -0.38164423748087806,
        -0.23824583528230267,
        -0.21422538373594047,
        -0.3218940665542206,
        0.12452908416055662,
        -0.13038080213250447,
        -0.4723791947862604,
        -1,
        -0.20613439092692132,
        0.3739714715770872,
        -0.40893919728566436,
        -0.5819330321989964,
        -0.6439840431720734,
        0.012554675061486041,
        0.04760238399367396,
        -0.3754151779059106,
        -0.1457855356463625,
        -0.04616865219007386,
        -0.3298868929492274,
        0.2066878680423,
        0.3920013389594782,
        0.21848785560945722,
        -0.8967766051243757,
        0.8075714729240662,
        -0.31670672048227466,
        -0.6610565808163582,
        0.0593245872207408,
        -0.5099728361896113,
        -0.4617920654235792,
        -0.18534097198483715,
        -0.17404114338853696,
        0.11205068331890058,
        0.13153784850983669,
        -0.2526790968952945,
        0.9604733959332242,
        0.2447323818901541,
        -0.5971425635705253,
        -0.0030618644960011144,
        -0.3841966462831531,
        0.019823322569047487,
        0.6017631041755406,
        0.26031890730478446,
        0.054699591971879104,
        -0.06427722715166427,
        0.4917627692393257,
        -0.5133898969352026,
        -0.3656520914908701
      ],
      [
        -0.4836076277472423,
        -0.10709393914977378,
        -0.01637034536661629,
        -0.11673757337531816,
        0.43944938172164427,
        0.44958277131995544,
        -0.1944535914103531,
        0.39225486371698104,
        -0.8175593896407933,
        -0.2510876616816594,
        0.07729035276779557,
        0.4942489044471937,
        0.1319867778338257,
        -0.13238781990121304,
        -0.3219498802885145,
        0.029921518653568263,
        -0.026022500302507343,
        0.5822706614354753,
        0.09931562104665571,
        -0.8174545083465147,
        0.41505654874487713,
        -0.2661362982509998,
        0.3606162992379139,
        -0.21336697431171736,
        -0.8857110473640448,
        -0.3509998969216934,
        -0.18273148695942454,
        0.2962371063648251,
        0.26690344998364,
        0.25071069364880955,
        -0.10165650650226847,
        0.23707853806515758,
        -0.15495178550341754,
        -0.5986232929100991,
        0.9516938328742981,
        -0.17977835223441727,
        0.5419119793278336,
        -0.04751479469821287,
        -0.8799186771232116,
        -0.08616178497525175,
        0.33437931184280417,
        -0.14245353118448367,
        0.16742334583342097,
        -0.6609217613639287,
        0.6565435597053414,
        -0.1408486362936184,
        -0.2493540347594542,
        0.7203881111446425,
        -0.7525403629310905,
        0.09417974216804732,
        -0.007811357704654226,
        0.7884952310224091,
        -0.44290599707928263,
        0.08568394336719394,
        -0.910291727251149,
        0.011110872680573272,
        -0.5236522810854961,
        -0.015765905455902486,
        0.2849192426626773,
        -0.011208480286852767,
        0.34036618720907713,
        -0.6825976995736763,
        -0.17848224560682682,
        -0.1790079838318483
      ],
      [
        -0.17295453554096574,
        0.6467535702292746,
        -0.22150618782289128,
        0.4387573876236612,
        -0.06470690402494347,
        0.015602112937240982,
        -0.8494985256975269,
        -0.4092272277633597,
        0.2496594213023512,
        -0.09078882478630745,
        -0.3914005700045298,
        0.32413637235884907,
        -0.3100812688563179,
        0.2184131116534988,
        -0.7126671130477162,
        0.3012321596978289,
        -0.6550657377219178,
        0.4394188212298011,
        0.1156919098069174,
        0.7872344219837355,
        0.29117013072319414,
        -0.7502129810752226,
        -0.15934926414410183,
        -0.12558866580135272,
        0.3062372605111153,
        1,
        0.19264053597469707,
        -0.09900368552279568,
        -0.06841071988707643,
        -0.11473343211944169,
        -0.04352692323616676,
        -0.23763233741866638,
        0.39614292373781246,
        0.10576762290122577,
        -0.3493777025335667,
        -0.039066450264658846,
        0.7516332023163721,
        -0.8307956956104005,
        -0.6460173625298082,
        -0.14469605431620206,
        -0.25977487499211555,
        0.3536667825097788,
        -0.929087245968833,
        -0.25894998870942304,
        0.11423037780459247,
        0.025611874186356638,
        1,
        0.6869024481339576,
        0.05526408004864448,
        0.7042006264985838,
        0.10261218292903895,
        -0.021647842291996396,
        0.07878664403312102,
        0.5043070926212334,
        -0.13241876305000957,
        0.19984912884097134,
        0.0726037126029277,
        0.3920565768946481,
        -0.9277914891286088,
        -0.6592495926201831,
        -0.445012060268328,
        0.10551403088819619,
        -0.11692584593612773,
        0.26719773550064807
      ]
    ],
    "biases": [
      0.09865993068286952,
      -0.45696128532048724,
      0.19468807923869233,
      -0.2935556794898339,
      0.9744879301847198,
      0.6552298205819039,
      -0.4654893187735353,
      -0.2356003625782809,
      0.8453643599063262,
      -0.11756123174632988,
      0.8242495179418706,
      0.2669544849506741,
      -0.7966172615372963,
      0.6301833443908387,
      -0.23258270520149602,
      0.1567909517569255,
      -0.13229344605850563,
      0.5505496425580628,
      -0.06034937021726438,
      -0.37061635220412686,
      -0.25496185491040363,
      0.3117744291213239,
      0.1389561945359128,
      -0.3646101918851315,
      -1,
      0.2257376031620909,
      0.04975272865350573,
      -0.09549120060299783,
      0.04611630946423195,
      -0.04917814146088133,
      -0.10882009812008675,
      0.020104177739990795,
      0.4321545988998546,
      0.32843030536515977,
      0.5797273568708147,
      -0.1592332586975563,
      0.5005074692737778,
      -0.7375325014588341,
      -0.4336751943568355,
      -0.32735908378068973,
      0.5032100163094578,
      0.7856657199580502,
      -0.07259765534398897,
      0.3495863044412975,
      -0.40359009206043356,
      0.026538384547174595,
      0.09112184721005093,
      0.13067783977148706,
      0.37158567477051674,
      0.07560669000642059,
      0.6153750113828151,
      0.136126319661033,
      0.38914366409356843,
      0.1312761662441093,
      -0.04532014430499425,
      0.10401600823915338,
      0.04728041970298022,
      -0.2062375420483348,
      -0.16057584871431851,
      0.5469808998363798,
      -0.24886399353796523,
      -0.3195758942735002,
      -0.40238913251027564,
      -0.2691621116666311
    ]
  },
  "layer_1": {
    "weights": [
      [
        -0.28806841537803957,
        0.6389330800068383,
        -0.10075078693602127,
        -0.26362467785142124,
        -0.10222425097726012,
        -0.013126147322299353,
        -0.3166118555705944,
        0.3295044086144812,
        -0.24504714498359775,
        0.626619137938956,
        -0.70206084145076,
        0.034365874971874634,
        0.6466681097342998,
        0.6332510604077282,
        -0.13409457034185493,
        -0.08849933375275151
      ],
      [
        -0.19779249434199583,
        0.5151641911431241,
        -0.24541970368598975,
        -0.2852919310738483,
        -0.013801716972268202,
        -0.051219606037367735,
        0.22121802755912112,
        -0.31137395172395016,
        0.004167423184153603,
        0.2192740703785666,
        0.04746276336697634,
        -0.6131964571722633,
        -0.13130805800077008,
        0.7692463247464383,
        0.023162791996510886,
        -0.4500775782392142
      ],
      [
        -0.32732013995286574,
        0.1903317691614606,
        -0.03828191073347372,
        0.660843398232481,
        0.8075144440074766,
        0.07913784184019089,
        0.6889637259052547,
        0.3677003165871014,
        -0.8374329688974735,
        0.146244948663434,
        0.007719489879578675,
        -0.3779283490319328,
        -0.6084359985564513,
        0.12175017053675635,
        0.07315796328231604,
        -0.4513049993798799
      ],
      [
        -0.005909609760573991,
        0.5460743727430989,
        -0.5997114409298697,
        0.39251869530737005,
        -0.0613305592557807,
        -0.4036696348139696,
        0.0541208430710544,
        -0.04712437216394311,
        0.21903341572026644,
        0.8960229199762114,
        0.12555836113889424,
        -0.0612455411671498,
        -0.4337330929751927,
        0.5791237815900139,
        0.2367198908675531,
        0.8663714247896077
      ],
      [
        0.08850302479760423,
        -0.06687504976252114,
        0.11272679052874207,
        0.32775891663957674,
        -0.34385529283072575,
        0.3313016050865811,
        0.001904334380289532,
        0.1675856938159534,
        -0.1803289815790772,
        0.2445365768554078,
        -0.05417184731637374,
        0.30899034701879563,
        -0.25302748600688835,
        0.2699996536680364,
        0.2161537478304221,
        -0.4843014418049469
      ],
      [
        0.319543537533282,
        0.6232247163264439,
        0.06354478776899605,
        0.46682676276303464,
        0.6873408023052532,
        0.13491216270060466,
        0.7225856964836236,
        -0.0470101249397189,
        -0.7687982786549704,
        -0.48124607192705565,
        -0.21515223945139964,
        0.10216971909441273,
        -0.7931493467323072,
        -0.6930725326334279,
        0.01160475965916551,
        -0.3159828326140786
      ],
      [
        -0.09345084098218633,
        0.2016543526138318,
        -0.0707516970822967,
        -0.2063650300103574,
        -0.012793881991350847,
        0.5661886491854266,
        -0.4940829370795158,
        0.039149358387024435,
        0.23038170749607315,
        0.023496340357284384,
        -0.23378055928565125,
        0.3883690580257957,
        0.1745500430952648,
        0.12945336022424253,
        0.3237080875144726,
        0.27402124215322
      ],
      [
        0.9192847013473511,
        0.39279473185513747,
        0.17510240906466762,
        0.06467557386850799,
        -0.3485019929824749,
        0.15695896920204017,
        0.7613165916128579,
        0.23420403491874328,
        0.3673614663195708,
        -0.588726197999805,
        -0.06631093517948874,
        0.26270526677935263,
        0.10034352042930288,
        0.3504367214780196,
        -0.38425387485030815,
        0.1540531762253001
      ],
      [
        0.7527541272701235,
        -0.28607141509442713,
        0.6297990057379219,
        -0.48019660356935,
        -0.17624454885913204,
        -0.02586622004064508,
        0.6200119083674237,
        0.5087902359481493,
        1,
        0.40448645967457564,
        -0.6784163685795951,
        0.1740714243388553,
        0.14470280274023886,
        -0.4525230172400863,
        -0.5888179584440334,
        -0.4296682489685219
      ],
      [
        0.8639311934241671,
        -0.36431334490220185,
        -0.32087020861000776,
        0.27046717887440364,
        -0.6333018932937698,
        -0.038729645654767234,
        0.4744415509557463,
        0.31116593027716566,
        -0.14427612248262353,
        -0.045904617268645406,
        0.42805226999010815,
        -0.17314242569794439,
        -0.3808834160630002,
        -0.3748829289562373,
        0.3314645804150784,
        -0.03756270509127342
      ],
      [
        0.16823632329930122,
        -0.41174398431701187,
        0.5099419198622817,
        -0.48624564722278546,
        -0.26809673454877936,
        -0.17976923807171163,
        0.532688274573432,
        -0.3334789312732087,
        0.06439392376457338,
        0.7573796878170072,
        -0.5840124558065695,
        -0.3884093904108581,
        0.2753666505427784,
        -0.48112060303649073,
        0.35428610137852284,
        -0.36587631145245914
      ],
      [
        -0.5235551094948332,
        0.27992171075369116,
        -0.09640887825048808,
        0.6231716490607286,
        -0.8317883217237503,
        -0.012305874344885037,
        -0.45215718294410523,
        -0.39301942060175965,
        -0.2781957775854438,
        -0.1424618170303888,
        0.3845361996994255,
        -0.9561337790539388,
        -0.9642461538314819,
        -0.8651861173354645,
        0.4876239325736159,
        -0.7723292432059903
      ],
      [
        -0.08257654529864879,
        -0.26742267032553974,
        -0.5862831481198211,
        -0.3242898230643837,
        0.2230320415508894,
        0.0691497931930394,
        -0.5480614292929541,
        0.1754529812993922,
        -0.6997544259707544,
        0.4528024147163077,
        0.9063831604174417,
        0.47155982305527944,
        0.8423384438019248,
        -0.4821941040176911,
        -0.7088018476673217,
        -0.0035404232236453067
      ],
      [
        0.677603759341581,
        -0.5747609555251119,
        0.3372180873586809,
        0.5560083730216014,
        -0.37399302360589326,
        0.04712313524552897,
        -0.22710067279939558,
        -0.0678463281620488,
        -0.23071747316175995,
        -0.28636266350267514,
        -0.468731156114806,
        -0.262348581652732,
        0.0855026640651011,
        -0.39113367832186047,
        -0.6011471025032706,
        0.3525984582795553
      ],
      [
        0.1443647567168318,
        0.20192674855223003,
        -0.3486941331998626,
        -0.5953456489086387,
        -0.5104547632420553,
        0.7096693515906504,
        0.16842667536434863,
        0.45139985677570804,
        0.29849076644654854,
        -0.3335099704892901,
        -0.3063287926092313,
        -0.3489544630072274,
        0.2113967190957716,
        0.047925425887056276,
        0.06387919098425643,
        -0.9401829242706299
      ],
      [
        0.14426621401218248,
        -0.34267405213587065,
        0.2598890052797861,
        0.3726719824984028,
        0.5628986064586017,
        0.5313630170606667,
        0.3311652667303265,
        0.45027542893409717,
        0.1921924822964565,
        0.292911413281308,
        -0.025904203113917865,
        -0.6010661157214993,
        0.5771456737838571,
        0.025118949489783785,
        -0.6344900184252775,
        -0.05481268016743278
      ],
      [
        0.12838313332014623,
        0.7241962508406059,
        -0.37040914005904857,
        -1,
        -0.12361638759753586,
        0.38123019375111294,
        0.18021987135520695,
        -0.09716713165420043,
        0.030768796638530767,
        -0.04271598492446722,
        -0.4386724659278042,
        -0.1402074667844674,
        -0.07142165030954889,
        -0.0788689760206161,
        0.33559846104853547,
        -0.04299308058448208
      ],
      [
        0.7327712221703112,
        -0.21707472823576174,
        -0.4592316892787836,
        -0.0813530292039741,
        -0.2897680985237367,
        0.1997365779491467,
        0.6548151923001183,
        0.6254485233301356,
        -0.8774677058988942,
        -0.42400502004636337,
        0.1396478207300888,
        -0.08911528186698303,
        -0.20415262001560797,
        -0.7506380344380511,
        -0.559673400685569,
        0.23068048732987548
      ],
      [
        0.5612542306667906,
        -0.7543452719627508,
        0.27343770365959535,
        0.07640610306339618,
        0.08328148742394773,
        0.16071640651470276,
        0.35041431505546733,
        -0.584665666329176,
        0.24846755224736025,
        0.7432764958189813,
        -0.19777209210208388,
        0.2668335748682088,
        0.16153384239592092,
        -0.414385231280976,
        -0.19586932013780475,
        -0.026572696224283696
      ],
      [
        -0.7559916283092107,
        -0.07892602213353947,
        -0.050178159928264694,
        0.7427041173349745,
        0.13332676076670213,
        -0.3103109244431788,
        -0.39218814317259915,
        -0.03908574342131307,
        -0.20364717448147682,
        0.14214887675735363,
        -0.014179553599910705,
        0.12317447645800257,
        0.1440101358857605,
        0.6077152781715304,
        0.3864027097678031,
        -0.3683592692186254
      ],
      [
        -0.7731811844389711,
        0.012030998837562312,
        0.19191276891368184,
        0.19810803527454432,
        -0.8625725749233886,
        0.22344931357247047,
        -0.03539752909599732,
        -0.06297675199477472,
        -0.20062263493898086,
        -1,
        -0.6001886627528935,
        -0.19585176214496477,
        -0.4393336913254056,
        0.03406235627891712,
        0.15811009952942914,
        0.4872869685581509
      ],
      [
        -0.5001771241415665,
        0.1648278046558436,
        -0.09128900537550041,
        0.05988194749123815,
        0.045157305841756167,
        -0.7860909606818393,
        -0.4315876451631919,
        0.877804151840541,
        0.29781577649839397,
        -0.7191909983796895,
        0.060320642151424714,
        -0.10122316913204336,
        -0.5913921303349375,
        0.05167710929309975,
        -0.49871638417991104,
        -0.46332140757735496
      ],
      [
        0.9496790170669556,
        -0.06535790523306013,
        0.7389321546629061,
        0.0722992008116277,
        0.2480759358627636,
        0.35344843663607894,
        -0.809254001503572,
        -0.3958936914121087,
        -0.6043302319110171,
        0.20636447913662928,
        0.16244315424312206,
        0.5645653512557591,
        -0.008421013115696952,
        -0.4007288931219892,
        -0.7450982777843056,
        0.599158361715333
      ],
      [
        -0.06723071347247449,
        -0.48002217654927226,
        0.8534443049596162,
        -0.761766765274799,
        0.09551484942811936,
        -0.013032840692309608,
        0.7035205768394744,
        0.12461723330530758,
        0.13658788996484883,
        -0.740805785936077,
        0.5308974688360802,
        -0.5064339891631015,
        -0.46773838672976725,
        0.054191303544122604,
        -0.5457696524572961,
        0.004660729633648737
      ],
      [
        0.010796196831598284,
        0.017365329737164776,
        0.3995991863137825,
        -0.19915614835634807,
        -0.004102457309100074,
        -1,
        -0.3358123152536191,
        0.20513250117416743,
        0.0499626155386656,
        -0.5159577893250391,
        -0.9578200623760191,
        0.01793456567382971,
        0.1543397481358039,
        -0.9928319454193115,
        0.08428882752154987,
        -0.02497974177952242
      ],
      [
        -0.2854515450576367,
        0.5197015561847744,
        0.39377900762519935,
        -0.7160365192875772,
        -0.3899754087519411,
        0.14100635548468649,
        -0.48989479575282013,
        0.7354974058428493,
        0.1570394596527924,
        -0.41836730724171517,
        0.06651309067056872,
        -0.433782993327687,
        -0.005509205897425786,
        0.18219707548904476,
        0.14619496061529091,
        -0.27795509666694335
      ],
      [
        -0.1432282573109258,
        -0.20251149881322633,
        0.14219279216540315,
        -0.008476589479014794,
        0.006085628831153584,
        0.07257150901085953,
        0.6025937893915231,
        0.17334401880900574,
        -0.3116285950900564,
        0.4426695178953682,
        0.11570228257474684,
        -0.39923507878596787,
        0.9008430937005932,
        -0.30264833508068767,
        -0.503697615634457,
        -0.18448768953957057
      ],
      [
        -0.11525911442851279,
        -0.14231696111500394,
        0.0773868531447917,
        0.6057234423372448,
        0.25999805337738485,
        -0.27685784839097266,
        0.8834933823288267,
        -0.2729966156768378,
        -0.3006194157262741,
        0.3648391266309418,
        -0.38319433527288116,
        0.2397865053121291,
        0.2225486729804749,
        -0.0887709760921818,
        -0.4785643756117841,
        -0.0511517822145558
      ],
      [
        0.4781223185847389,
        0.36897367938411696,
        0.345024378746645,
        0.4223027961827212,
        -0.027706626485313773,
        -0.4718366367230899,
        0.05596908609934839,
        -0.2172771494185029,
        0.47808537378800425,
        0.2655851446621358,
        0.4358789515103586,
        0.13015714281598825,
        0.9213793760498035,
        0.18875768072306837,
        0.08359773924562885,
        -0.650335915471464
      ],
      [
        0.0816119764379512,
        -0.2955391319220697,
        -0.6192516706008515,
        -0.07650919405123777,
        0.8151049315583742,
        -0.6985224584737276,
        -0.19894457684503686,
        0.08720916847989565,
        0.17837786262143973,
        0.8746670450105402,
        0.2346389666444684,
        -0.12283049987575737,
        0.6250090921213692,
        0.10115438636475675,
        -0.08669761667375764,
        0.05416075424898993
      ],
      [
        0.5311905723331629,
        0.1277755845198873,
        0.837335491864836,
        -0.627703819689931,
        -0.22294367314170635,
        -0.4127903830695344,
        0.5981195392610661,
        0.038411899245333087,
        0.03939237819665868,
        -0.3946121771472898,
        -0.42566469463087214,
        0.4725140505198051,
        -0.7749960960723938,
        0.16742966812140722,
        0.2406362000741718,
        -1
      ],
      [
        0.7354434390473436,
        -0.3902805128223803,
        0.08338062520071211,
        0.9965798985614301,
        -0.35207075061509235,
        -0.806583187584493,
        -0.21801979288805315,
        -0.2923284367902475,
        0.005445027164224448,
        0.12367805684675941,
        0.31198782202954356,
        -0.49138641192779253,
        -0.7505389876572539,
        0.8973440079709796,
        0.8801223359894252,
        -0.3083566424480967
      ],
      [
        0.3251363670792452,
        0.6429106470970716,
        -0.3181397730537154,
        -0.2526190106913907,
        -0.4196953992659026,
        0.192186396883851,
        -0.3457607856012778,
        -0.934906502964629,
        -0.08369517609988204,
        0.06735681312819077,
        -0.5414714670034011,
        1,
        0.00450530087170632,
        -0.5918449811339389,
        0.19670752556681978,
        -0.42185825554949224
      ],
      [
        0.2196903215544816,
        0.15346055527428168,
        -0.7985025127477261,
        0.40389776358919083,
        -0.7943372415582778,
        0.4841623027482595,
        -0.6879229167890825,
        -0.15518837100283273,
        -0.2837465661243017,
        -0.665972311969812,
        0.06322654241357047,
        0.3630949124746708,
        0.4841165541194456,
        0.9361742734909058,
        0.16906491518391215,
        0.1153294138016875
      ],
      [
        -0.3351230972475986,
        0.2751930689311851,
        0.24833920325493591,
        0.26333125991406264,
        -0.17407877974764416,
        -0.704931982952157,
        -0.1422805022344478,
        0.0696740282320886,
        -0.4792474517968574,
        -0.22956960986542058,
        -0.06607812692829658,
        -0.493326803507918,
        0.8654599105154213,
        0.22242551915067818,
        0.10875174165978889,
        0.143491724162794
      ],
      [
        0.11369225330196867,
        0.2655614029714091,
        0.11390770115077413,
        -0.43440648328010345,
        -0.007477180167142808,
        0.27334267355601183,
        -0.20293460842886146,
        -0.24855214320775182,
        0.25899147092293895,
        -0.5681412163233154,
        -0.2018554797414183,
        -0.34098590818839153,
        -0.5991830275880691,
        -0.6265371593087449,
        0.20098232219018547,
        -0.06586285678422439
      ],
      [
        -0.06503268015568887,
        0.2114523074211634,
        0.1721195183667468,
        0.8533572840379134,
        -0.12350619511433582,
        -0.0961161046322339,
        -0.34581038466757247,
        0.35770479964207863,
        0.002707429278574581,
        0.9067615866661072,
        0.1896364895550664,
        0.24004041320652908,
        -0.06190897642556948,
        0.04463410016825164,
        0.3922157721627806,
        0.2401728126429009
      ],
      [
        0.20115328956357922,
        -0.06452018964867552,
        -0.05932477113432771,
        0.24686641761380174,
        0.9806828699809039,
        -0.023838732390204148,
        -0.14834101357323354,
        -0.03347257906541107,
        -0.004403948158668558,
        0.8349874830217849,
        -0.18892723832578728,
        0.7703255917316922,
        0.3819644013442778,
        -0.5362422862534724,
        -0.47202602324431087,
        -0.1933107059679654
      ],
      [
        -0.33179682559993146,
        0.5386681871893697,
        -0.01145229608772826,
        -0.12532520183435109,
        -0.28476955442558627,
        0.058132015854486296,
        0.8783261732209099,
        -0.2949385977251507,
        -0.4107355750128113,
        -0.07943630184915162,
        -0.5883705352684175,
        0.8881303071975708,
        0.08763477301132568,
        -0.11835306916564171,
        -0.3616191232519728,
        -0.09056308508440342
      ],
      [
        -0.9324407577514648,
        -0.8516606886111693,
        0.21963953292055435,
        -0.23958675744162278,
        -0.03304875622049378,
        -0.09967334717766865,
        -0.1393883482458048,
        0.6407647820069567,
        -0.4082188621237535,
        -0.0696602708489723,
        0.2724901434469795,
        -0.16488106500198152,
        0.17855930474338222,
        -0.1178029128164234,
        0.3434303380332363,
        0.046830833701863674
      ],
      [
        0.7311325196838914,
        0.5250449515054949,
        0.062200019524771076,
        0.04562935973089684,
        0.7900768043786374,
        -0.3828349725217037,
        -0.08847470642290399,
        0.2756608912819489,
        0.09528388538464094,
        -0.9496434059447543,
        -0.24944598239784377,
        -0.10438146353976106,
        0.1728541574659886,
        -0.8944919679062123,
        -0.2797795480063277,
        -0.5805253411870286
      ],
      [
        0.4173969348173004,
        -0.845499509316958,
        -0.08400557133668982,
        -0.02648920284786401,
        -0.4861332175449179,
        -0.17300388498681693,
        -0.007094520309512331,
        0.37269207252631886,
        -0.40730401065141336,
        -0.13697493008787787,
        0.5594278512033309,
        -0.37173767416595155,
        0.8779247657294645,
        -0.7336754975452707,
        -0.028081079531667504,
        -0.0397611664069348
      ],
      [
        0.2624999633292408,
        -0.3560855743563382,
        0.22972071224819882,
        0.47060745298314766,
        -0.23762155573995627,
        0.8643686155830956,
        0.5725969455160299,
        -0.2632218667198268,
        -0.11161862541626409,
        -0.05010565610303892,
        -0.2644709482018269,
        -0.21821475277180954,
        -0.07426585975280273,
        0.1926989240655223,
        0.1717633818763396,
        -0.5428478864238856
      ],
      [
        0.7750437366186648,
        0.06949087539448125,
        0.3453380819071946,
        -0.11644272112106356,
        0.009623714233586768,
        -0.7656483317958127,
        0.06536724603100384,
        -0.052032877846582413,
        -0.3060797625882217,
        0.09630457657809373,
        0.24793524481790688,
        -0.2608545016583771,
        0.087712643283067,
        0.09374017702567825,
        -0.21248512768327252,
        0.24933115586090626
      ],
      [
        0.05749359585921424,
        -0.18607402121987784,
        -0.5106373758230727,
        -0.07956528260827192,
        0.5094062280636983,
        -0.40149507409969437,
        0.7945969428197014,
        -0.24068901919684946,
        0.09613313731209376,
        0.4557190436141038,
        0.17384856064944387,
        -0.15218687770697079,
        0.2789436104712893,
        0.01228400562903389,
        -0.27395949045215146,
        -0.09786629571726618
      ],
      [
        0.21537665747099866,
        -0.517687049061859,
        -1,
        0.27159884653641,
        -0.466281979542287,
        0.958465640895321,
        0.08543430900932943,
        -0.24911896094151656,
        0.8939705390669609,
        -0.21065110757680186,
        -0.1117014730928496,
        0.8723057376716107,
        -0.30189111659671547,
        -0.5944725697717868,
        0.6541390593691173,
        -0.2577155580322728
      ],
      [
        -0.9048598180906475,
        -0.27968876799774767,
        0.6128925510911921,
        0.06829749151768144,
        0.10212609763364246,
        0.4373724129810134,
        -0.17643263997848846,
        0.0969176673470413,
        0.16252865378755443,
        -0.43852199505125855,
        0.20840338611902548,
        0.466317490139688,
        0.23074289293402345,
        0.5922997769413203,
        0.6902863743985139,
        -0.8605031856665313
      ],
      [
        0.6844826312727456,
        0.599761249702133,
        -0.7999123699473176,
        -0.3586098101777801,
        -0.17489120415868636,
        0.8874831199645996,
        -0.5412348807327063,
        -1,
        0.28442243138448675,
        -0.029904716762061676,
        -0.3926685627440389,
        0.044478415301436404,
        -0.065940900608667,
        -0.5374533359989393,
        -0.9235691380709923,
        -0.18981808624451474
      ],
      [
        -0.0609558545363126,
        -0.6315955632370231,
        -0.3658546900041038,
        0.7351229707916637,
        -0.005148454905861769,
        0.4432571054387499,
        -0.6713692045859659,
        0.25441277370587323,
        -0.8437470351544835,
        0.2831849931152112,
        0.06956361120214487,
        1,
        -0.5094247863121028,
        -0.14045498084896796,
        0.17821507102346087,
        -0.5967152963848507
      ],
      [
        0.09052387138241269,
        -0.04744708434689159,
        -0.5924968933547378,
        1,
        0.24672584856486454,
        -0.5649535068930904,
        -0.11580311164781218,
        -0.8767549721567214,
        -0.41861035193042845,
        0.896859347820282,
        0.027972329895333475,
        -0.20751017272937344,
        -0.1566606411996854,
        -0.632266468456903,
        0.40620945546563103,
        -0.8645563536583871
      ],
      [
        -0.3726254169277262,
        0.46887056195132404,
        -0.07851718324557144,
        -0.14050821627344082,
        -0.0372965994416701,
        0.3498032224412848,
        0.5515462646625946,
        -0.7020451364461712,
        0.6601210057926828,
        -0.2782568582943183,
        -0.1648109628135911,
        0.5978331813835892,
        0.00971796942647915,
        -0.06741540424793888,
        -0.7167341195581606,
        -0.23590438518059073
      ],
      [
        0.09695395579848748,
        0.8791604464410834,
        0.49753057590951666,
        -0.26112735294588707,
        0.9068561708607087,
        -0.03904294795006263,
        0.038317177631370325,
        0.3146267855459674,
        0.3788304980055719,
        -0.32025833372912377,
        -0.858164524858983,
        -0.6243629208255402,
        -0.3895323107354843,
        -0.05168545089124006,
        -0.7241029907653742,
        0.06042081899249127
      ],
      [
        -0.28192512941782877,
        -0.286760191689901,
        -0.5771067597963746,
        -0.2363284101034702,
        0.12714256955330022,
        -0.7648795144797026,
        -0.4240792888792783,
        0.8139856334303204,
        0.20429850318402676,
        0.46107589407439803,
        -0.14851265402484387,
        0.9099622016045761,
        -0.4849145308577149,
        -0.49966331791591306,
        -0.03233837099120811,
        -0.24449156270728906
      ],
      [
        -0.17091152987614583,
        0.04616235880127035,
        -0.020872391504951973,
        -0.3283316807385113,
        0.20583466956778468,
        -0.8511881553772285,
        0.14983759054524337,
        0.03428984586193383,
        0.019649604916714997,
        0.6470248315612915,
        0.44172226368393225,
        0.7329653000978968,
        -0.22252915097717083,
        0.8484418614009621,
        -0.8716277913944034,
        0.16089736339089097
      ],
      [
        -0.23176958907110437,
        -1,
        -0.4211455754970806,
        0.3489579433366174,
        0.048091223866532515,
        -0.003996112096576561,
        0.14584683646257188,
        -0.21271904430929753,
        0.055568436948709506,
        -0.03711936924388904,
        0.8045936470057317,
        0.09016242715060574,
        0.004078619111842394,
        -0.07655286091500996,
        -0.28637069810055044,
        0.7388857737435707
      ],
      [
        -0.1599443011017885,
        -0.23285450455146117,
        0.16301287363784822,
        -0.6634398471716026,
        0.43667956573933703,
        0.6781124161047372,
        0.2370246908437974,
        0.557347725397754,
        -0.33220746930497924,
        0.5574423457398069,
        0.6946769668327395,
        0.8874670272310969,
        -0.04704627612761055,
        0.7161889717483018,
        0.6561897508570897,
        -0.07439460721768568
      ],
      [
        0.026193031472705523,
        0.43044195348130315,
        0.019895668771167743,
        -0.27431057242132795,
        -0.5649614726625322,
        0.6832697708388962,
        -0.7794931747906724,
        0.20564108844210918,
        -0.25388275281592976,
        0.7561162390728624,
        0.023326707119591044,
        0.16188412260024848,
        0.30956092193291823,
        0.2516457296136604,
        -0.8479911282786216,
        -0.095820971935619
      ],
      [
        -0.1046424722707462,
        -0.01857875988786183,
        0.31404148934050724,
        0.14923828659706226,
        -0.7317874648434808,
        0.5183274992795887,
        -0.2108192642997746,
        -0.8611154861132284,
        -0.09618766961240967,
        -0.02317855124148597,
        -0.19013355801273715,
        -0.1063362012597268,
        0.06174309911945628,
        0.1733520041085253,
        0.18990732630920157,
        -0.910320040131471
      ],
      [
        0.04032938864476904,
        0.07610166645962999,
        -0.4162284153364617,
        -0.4310465739876439,
        -0.052531829402932426,
        0.7195910498302329,
        0.3775013891440581,
        0.2661289424321342,
        -0.22949474071157858,
        -0.05410629725830735,
        0.15812334795668084,
        -0.24627715537971015,
        -0.3086303944355424,
        -0.19170409611125605,
        -0.5822475051254713,
        0.06163923741188416
      ],
      [
        -0.5454303826526232,
        0.09596520772640273,
        0.24736787687864073,
        0.5348813762152361,
        -0.2317652219576643,
        -0.30646507043468907,
        -0.28144637310006865,
        -0.5114193002630091,
        0.3368265705748791,
        0.7523780809006452,
        -0.0940269650023728,
        -0.3100793525356882,
        -0.3567806097564191,
        0.2289139106084389,
        -0.5927724278092966,
        -0.1884935649917566
      ],
      [
        -0.08601784244071897,
        -0.3165465401317918,
        0.39062691028426255,
        -0.006297648575258304,
        0.15329700500030713,
        -0.08485822993248009,
        -0.2608139224113225,
        -0.847858066672174,
        0.7695612141558901,
        -0.08917420032634274,
        -0.3902904873745242,
        0.32396148455619966,
        -0.0697851345226206,
        0.04039522233689366,
        0.3308374871579448,
        -0.18585641993781635
      ],
      [
        0.009848140192483607,
        0.1940896815298283,
        0.5518787211777858,
        0.2919524174146292,
        0.506002043704128,
        -0.21599476606583148,
        -0.6527713408353081,
        -0.2426592674907636,
        -0.5056984984862257,
        -0.16888249609604591,
        0.16442322775591955,
        0.019594846326076575,
        0.2641176967325674,
        -0.12462172769745389,
        -0.8926124147238712,
        -0.5605702117756829
      ],
      [
        -0.3299472152891104,
        -0.4569088247438464,
        -0.021735915720758038,
        0.21407322772870596,
        -0.6616145187302782,
        0.7127876595572914,
        0.16310849686424017,
        0.06661621554679681,
        -0.390320172474284,
        -0.254046034580104,
        -0.7262079154638617,
        -0.7512456963202975,
        -0.04830151026279219,
        -0.19097308905919302,
        -0.4311114282635662,
        0.033903709546926154
      ],
      [
        0.5395198334788642,
        -0.4570185776536942,
        -0.4164046021645397,
        -0.07654509208071249,
        1,
        -0.494937264887846,
        -0.05188859158937944,
        0.44700121663909403,
        -0.2727689020983297,
        -0.36389736934529576,
        -0.5951104467457584,
        -0.22776819319018435,
        -0.001250320522355251,
        -0.11768543359732492,
        0.06786811277580747,
        0.3286565053658513
      ]
    ],
    "biases": [
      -0.011506313801147522,
      -0.47668338664357535,
      0.18903886959278843,
      -0.5695806034063439,
      0.49223713538653596,
      -0.7345559911173477,
      0.11545622073025526,
      0.2731415611305755,
      -0.6415751624661045,
      0.1297582150634553,
      -0.49730154337241383,
      -0.582811721064791,
      0.1646045179477513,
      0.7254771857385366,
      0.0900708161213574,
      -0.591178614909565
    ]
  },
  "layer_2": {
    "weights": [
      [
        -1,
        0.5235312312616589,
        -0.07580956142808776,
        0.24624116056402137,
        -0.04793296454643559,
        -0.27606257881023893,
        -0.8426239839840781,
        0.013185145372187658
      ],
      [
        -0.7347032659519301,
        -0.7488594942241157,
        0.5404203137831778,
        -0.07760375972114422,
        0.0424302806716113,
        0.10744077175484604,
        0.14230113255447316,
        0.15816788490700057
      ],
      [
        -0.3745346811209411,
        0.9099361500127642,
        -0.31095452041491506,
        0.3678281732886424,
        0.14948873544139693,
        -0.49910974979483214,
        -0.1435914331986201,
        -0.18141992939583237
      ],
      [
        0.11765050496372112,
        -0.4647773647729301,
        0.26597538576688,
        -0.4576698936578055,
        -0.12072396171903607,
        -0.08576292347766451,
        -0.30910471069904344,
        -0.3313081000567011
      ],
      [
        -0.22965135579471618,
        0.2375942333780549,
        0.48431350220171904,
        -0.5433542510810331,
        0.29051536486138,
        -0.9003913632493491,
        0.7493345236405002,
        -0.1144342391765321
      ],
      [
        0.022781078642524665,
        0.04567357358951818,
        0.03664969300692613,
        -0.07493584440310695,
        0.2489497270441383,
        0.2604131663771488,
        0.38323835023413955,
        -0.18797384729825461
      ],
      [
        -0.07614661052286252,
        0.18542898560921722,
        0.246996613236095,
        -0.0857534007214215,
        0.005333835932264624,
        0.4767466828346452,
        -0.5886436226077517,
        0.05888954340951325
      ],
      [
        0.7711110234325979,
        0.4227199634897711,
        0.3409809116430162,
        0.23565340912570992,
        0.5493210183011187,
        -0.2301963062207574,
        0.04476623359047697,
        0.5066799711867704
      ],
      [
        -0.01160911981161117,
        -0.47699740816170283,
        -0.9113881845752403,
        0.19407036305553063,
        -0.45256341367190783,
        -0.442696132025369,
        0.5236445687113229,
        -0.04597759228234922
      ],
      [
        0.56305998770136,
        -0.15897435245286734,
        -0.11283160800997583,
        0.8053716823344,
        0.1107130668635698,
        -0.8036340511053724,
        0.31832012298557916,
        0.4396517177743386
      ],
      [
        -0.3733847230367869,
        -0.22495531424277546,
        0.4551014871015954,
        0.07997503657985108,
        0.051569900701890214,
        0.34768891322170586,
        -0.19730157740962856,
        -1
      ],
      [
        0.880601465705711,
        -0.06046068453964055,
        -0.2179283137776102,
        0.16738737456256778,
        0.42144799791275056,
        0.5601358963056352,
        -0.16538416517089474,
        -0.13937920204239607
      ],
      [
        -0.6000265485961438,
        -0.5856011842596144,
        -0.0098138531364247,
        -0.3395622244007948,
        -0.12461362094733437,
        -0.13942014845379072,
        0.6618028895297295,
        0.5801745973029965
      ],
      [
        0.7800123354725573,
        0.18451027171404386,
        -0.18712267540054173,
        0.19623226732934648,
        -0.34035637031815275,
        -0.30853453029200717,
        0.4686922292521401,
        0.8746413038266467
      ],
      [
        -0.2724639674872473,
        -0.6524138461925604,
        0.0006426737906703412,
        0.028657722534505038,
        0.07642281243777745,
        -0.42254830004140076,
        0.3046977608932115,
        -0.31702520351199703
      ],
      [
        -0.5074012312249008,
        -0.29137799809144116,
        -0.02177505422382204,
        0.31272038413995246,
        0.731832869273651,
        -0.09346729629692078,
        -0.06564748787770396,
        -0.20618836471033386
      ]
    ],
    "biases": [
      0.4295103441509932,
      -0.4434777454599944,
      -0.6451165757910607,
      -0.06763253453665376,
      0.02616457023684973,
      -0.2769819004626407,
      0.14061797357469524,
      0.12408292001584205
    ]
  },
  "layer_3": {
    "weights": [
      [
        0.34917044207961667,
        -0.6046240650306345,
        0.5785411316833421,
        0.08245290630072956,
        -0.11874874949780273
      ],
      [
        0.46416718492439163,
        0.10961504460175717,
        0.37734012360683433,
        0.6477834113527027,
        0.7779725113326912
      ],
      [
        0.03953172346896671,
        -0.3875511727071916,
        0.06596772227462216,
        0.14701619051713888,
        -0.3169630217623768
      ],
      [
        -0.9702722135856915,
        -0.45782170775108194,
        -0.17682476335502081,
        0.07748427146978518,
        0.7582538496826773
      ],
      [
        0.14865013127845725,
        -0.11551219778704028,
        0.45582880771065665,
        0.13744629697442498,
        -0.1365523292092869
      ],
      [
        -0.2925725722337629,
        -0.7656169320738248,
        0.2131846579144367,
        0.14515443547007195,
        -0.6004611829235688
      ],
      [
        -0.25537958121133614,
        0.7871639191296079,
        -0.8998467448970306,
        0.2649149617761036,
        -0.6602068318227345
      ],
      [
        0.7771178387638519,
        0.4350071608110842,
        -0.22131742262360465,
        -0.2795963847949993,
        0.24222926869445718
      ]
    ],
    "biases": [
      -0.628787413827052,
      0.04232380391331805,
      -0.11619993960728603,
      0.0654005412913857,
      0.12935781511660768
    ]
  }
}