{
  "layer_0": {
    "weights": [
      [
        0.5795289365820303,
        -0.8785191608713896,
        -0.6792621060297502,
        0.38207622915272915,
        -0.6879280419097356,
        0.34446372288652555,
        0.13504201436679344,
        -0.7588636153595619,
        -0.8293501804370529,
        0.4992855698781102,
        -0.4851900746652455,
        -0.7128349270886921,
        -0.0832343427211081,
        -0.3051760160364526,
        0.5130399268903408,
        0.7658398617614149,
        -0.5487697894382847,
        -0.011777506478302077,
        0.5258932773704328,
        -0.07781022217095562,
        0.3453244102891873,
        0.8196012259167947,
        -0.6890557817120041,
        0.19599907636794006,
        0.5590777447120238,
        -0.01436144246868525,
        -0.9720597727589452,
        0.8366944140495387,
        -0.15854598381142446,
        -0.028073760951554637,
        1,
        -0.7038194256354167,
        -0.6102724302517075,
        -0.021654604240723827,
        -0.056531050621909114,
        -0.029915527101162992,
        -0.13859318808848373,
        -0.648212312410591,
        0.2536961079373743,
        0.595351931747126,
        0.23688786021249003,
        -0.35951800760619723,
        0.10899312434014907,
        -0.8621924037973662,
        -0.2668753277452212,
        0.04766967021453516,
        -0.011005274979819724,
        0.5046032712913985,
        -0.20277580981831636,
        -0.461620134467543,
        -0.14048730819248326,
        -0.08166763092498934,
        0.039712047546745025,
        -0.06869021788778526,
        0.25851513377531876,
        -0.010437784854385923,
        -0.5171539462882736,
        -0.7315458910502435,
        0.988551676273346,
        -0.37458138983574796,
        0.040287593609849064,
        0.5724879227593731,
        -0.12912322229865741,
        0.2751508805817573
      ],
      [
        -0.016578422224942144,
        -0.1709123392875026,
        -0.16237913797325976,
        0.3966976663652241,
        -0.45466029093086113,
        0.2877985439499367,
        0.6849848892973308,
        -0.1399650017244899,
        0.2170013401888559,
        0.020758891266077047,
        -0.032899733921299475,
        0.1489781096680538,
        0.43136427945163464,
        0.17457698707317199,
        0.6538247964238139,
        0.0035834277825568836,
        0.10632081277491655,
        -0.4177594003484583,
        -0.13010046713731638,
        0.19201419366845485,
        0.38106782581098486,
        -0.26328083371890965,
        -0.9110516346492101,
        0.3871334684897288,
        -0.03879097194198875,
        -0.11087686532874345,
        0.18234724090011756,
        0.5532225811081066,
        -0.6466890033874774,
        -0.16962737887653329,
        0.046658978692025135,
        -0.24113678483932025,
        -0.3438747224695614,
        -0.10355035365816627,
        0.1463586934218175,
        -0.5558575038996809,
        0.021307769440109148,
        0.47910671583335696,
        0.3049627568114536,
        -0.6348220462367473,
        0.07917948390126527,
        0.02283471339761796,
        0.052288623916883485,
        -0.44141352219671226,
        -0.1011047435844089,
        -0.4737319558801199,
        -0.45300494203848385,
        -0.4311637764652867,
        -0.2811986410869693,
        -0.3291890641572428,
        -0.12473670081600756,
        -0.3330321049377627,
        -0.7513730753062776,
        0.3037707215761554,
        -0.32961073587258505,
        0.07816264755479148,
        0.7375103600287404,
        0.3782954006078256,
        -0.027623417871768016,
        0.6345898109671899,
        -0.1893702267752122,
        0.3455177497609464,
        0.8861008882522583,
        -0.19179782537325074
      ],
      [
        0.07314945530033154,
        -0.152013064390497,
        -0.04841518206420732,
        -0.16507263090179444,
        0.9327578342760035,
        0.22584945014081606,
        0.4183727687040591,
        -0.36637116919840906,
        -0.6527876404231286,
        -0.08797751904799753,
        0.43533759292132324,
        -0.08360440011083778,
        -0.5139546364255224,
        -0.7279467826948164,
        -0.16158185448162554,
        0.9617427859288377,
        -0.11590225995453961,
        0.2983683292993491,
        0.015315231917220853,
        0.2648179504214733,
        -0.08633998836997367,
        -0.2565258959745663,
        -0.05282289688715272,
        0.20493319973184485,
        -0.2446854270668223,
        -0.04184968190587761,
        0.9951053161822677,
        0.337413453577423,
        -0.03687160075037508,
        -0.07893961596425499,
        -0.025212452895706387,
        0.007095748799848336,
        -0.5148508429960852,
        -0.2506994817248964,
        -0.5875804680844041,
        0.0751391036746784,
        0.7091397981512778,
        0.5458374151029549,
        0.10134802614044107,
        0.2955266601098565,
        -0.5412272239416404,
        0.34277744520926035,
        0.1563157218776174,
        -0.38994153298950746,
        -0.19330478258421296,
        0.6710815548487623,
        -0.22094127257101487,
        0.5864006932568853,
        0.743561009184321,
        -0.356317921360668,
        0.3762438337170944,
        -0.7930119961572745,
        -0.09140028859189032,
        0.17126059198519403,
        -0.08670438933300748,
        0.8224368039512143,
        -0.4697411086038549,
        -0.264370214482756,
        -0.151355066134722,
        -0.618318852216313,
        -0.39660396396182795,
        -0.6665337617596125,
        0.039179645503034446,
        -0.24452678093496336
      ],
      [
        0.27402234015743027,
        0.4678068659250588,
        0.4149661786759329,
        0.8909830248322017,
        0.3153452077063286,
        -0.10410455085288997,
        -0.07955114383364723,
        0.15289225923595115,
        0.8942688638558924,
        0.050886001359562116,
        -0.5039563655882657,
        0.05093491637136614,
        -0.7172670118749601,
        -0.6397075750274959,
        0.9162504076957703,
        -0.32773703903607965,
        -0.49392125985603774,
        -0.02417248610516093,
        0.7111343942874228,
        0.2618479247405351,
        -0.7492231215281578,
        0.4307984647281178,
        -0.20576968668200254,
        0.04656237449358268,
        -0.354644007206601,
        -0.6092758195041952,
        0.0011087570617903972,
        0.2713385459567803,
        0.3174741111683072,
        -0.48082509644226495,
        -0.19963842293163395,
        0.07286321078565525,
        -0.4952418444241695,
        -0.1394487639582427,
        -0.12970603436394995,
        0.17749809891692764,
        0.08782990122690042,
        0.37392757964470025,
        -0.7751001174544175,
        -0.2787934304220211,
        0.09354102532948547,
        -0.23276637616234075,
        0.3013630747338453,
        0.21037195803694142,
        -0.3309521481442659,
        0.6251675802553198,
        -0.03131745801315582,
        0.020463652289418696,
        -0.05967620185313322,
        0.24943773075037243,
        -0.12044738677512686,
        0.3740430064329408,
        0.02352837313852035,
        0.35014202296620733,
        -0.27867501644221027,
        0.1042663845717148,
        -0.46764155211019126,
        0.6670746371404181,
        -0.5370878547828267,
        -0.05683513262139118,
        -0.04490877117330345,
        0.7273695571024572,
        0.017384291598307455,
        -0.022256658110137054
      ],
      [
        0.025482024856119168,
        -0.3006403983519931,
        -0.02865655544843825,
        -0.07500663355436023,
        -0.11273333680707338,
        -0.013870607087309214,
        -0.007309641551687706,
        -0.5411030667433878,
        -0.17745695359077782,
        0.41154345845406504,
        0.885506578587398,
        0.15465255899228988,
        0.049513986132682916,
        -0.7527278637775555,
        0.2929816089061838,
        0.2363922355071612,
        -0.8921433426465271,
        -0.24161635892864167,
        -0.05475841027390846,
        0.04722658381991315,
        0.2923479551785246,
        0.3724051140420545,
        0.6878236545364184,
        0.18181128459882917,
        -0.12358585717232654,
        -0.42931805469898293,
        -0.5328947468828761,
        0.3757636100077787,
        0.6565257448612427,
        -0.36203548981192035,
        0.6087906232100482,
        0.3435443594570379,
        -0.5077139367864764,
        -0.2048624776993757,
        -0.40345485505378886,
        -0.08740631106182979,
        0.48142696828662057,
        -0.8695208078909706,
        -0.6275621639780085,
        0.17802327046861066,
        0.17156206983962102,
        0.20779419451348288,
        -0.3655842874076527,
        0.3214444455650438,
        -0.1622742181069415,
        -0.9031138547700778,
        -0.2021055207040932,
        0.7697029537953195,
        -0.1485547306574945,
        -0.6348600955753559,
        0.22207256291281777,
        -0.035342173599344155,
        0.19162286331399678,
        0.553377205933575,
        0.1153730523027326,
        -0.03521090098941339,
        0.2938358331059251,
        0.1952968480995261,
        0.4317254508155284,
        -0.41501761348921334,
        0.26597566628387154,
        -0.888520658682873,
        -1,
        -0.41533788249911036
      ],
      [
        0.5504879933191009,
        -0.4863224718582044,
        -0.18960749834267981,
        0.026069006351692493,
        0.5952540585128923,
        -0.3810134187468153,
        0.07427080769243197,
        0.12020598318814874,
        0.12287596094525531,
        -0.10940513360736728,
        -0.38077002834673507,
        -0.079340944833441,
        -0.20863831650939144,
        0.608744622377853,
        -0.0704155778293095,
        0.24685297360533864,
        -0.2765487388502935,
        -0.27106687294727644,
        -0.3727519102440707,
        0.9871978163719177,
        0.6925614086983656,
        -0.07231678813735533,
        -0.09245032203538203,
        0.4403175512028501,
        0.009800516907446008,
        -0.2088246105087363,
        0.8200415312815147,
        0.0047119566501739995,
        -0.4842131587125393,
        0.12297528761601305,
        -0.07783620163658286,
        0.3478240609181844,
        0.6754560241586581,
        0.28538721578662585,
        -0.03631690056505022,
        0.8437074838176795,
        0.06646499772218924,
        0.24333728036718452,
        0.5646139614978753,
        -0.4550452861948067,
        -0.2809439117247497,
        0.30004624791993356,
        -0.5167814809667639,
        0.13884482837797946,
        -0.058649664788719455,
        -0.34191673035027587,
        -0.21490421320034422,
        0.8805902980195626,
        -0.5028462219276023,
        0.6082406534713765,
        -0.18032585341298832,
        0.2959740970041131,
        0.18587729064226677,
        0.10524793012145027,
        -0.22517512181682842,
        -0.42657274165586984,
        -0.9128268450306625,
        0.6613049514897467,
        -0.07613213388397476,
        0.25202804051499667,
        0.25037676726170016,
        0.4352666300548092,
        0.21770288385063896,
        -0.23712988596120607
      ],
      [
        -0.29458731815986033,
        -0.4445811412207645,
        0.3077419104105359,
        0.1602532025089395,
        -0.20174732520222177,
        0.16907823895893423,
        -0.4846764999939037,
        -0.2851286122424868,
        0.3238795861176827,
        0.22067324537081892,
        -0.0195649214705434,
        -0.930982518259753,
        0.15814979730980933,
        -0.0826915886743043,
        0.7688570518683255,
        0.001725979106610201,
        0.1908391454692346,
        0.06516362820365594,
        0.39368771039389644,
        -0.13021930226374612,
        0.21926452792176693,
        -0.33534406043148174,
        -0.12747052642517775,
        0.651913888179111,
        -0.02750977724441068,
        -0.43637714437147035,
        -0.2856598198915698,
        0.4657277329031338,
        0.5527117603360665,
        0.17149358276086907,
        -0.10739262672077704,
        -0.3000191064899013,
        -0.39169378241136316,
        0.14731273097550152,
        -0.041931221287853024,
        0.22022607824592705,
        0.529662392245329,
        0.06272990126628596,
        0.34190035631990184,
        -0.035996615360086595,
        -0.15249943215700815,
        0.8905253273626573,
        -0.5912893300308951,
        0.5326432185479976,
        -0.5231205004506247,
        0.1613794139168648,
        0.19055564024826174,
        0.9688137017837853,
        0.4796320112201681,
        0.5727567800579457,
        -0.1069885066333691,
        -0.43928085662090627,
        -0.2134343552279958,
        0.5161999440435396,
        -0.16050906234036552,
        -0.6588313421764679,
        -0.07474179600146774,
        -0.475290722095563,
        -0.06066667040658955,
        0.12615485684135375,
        0.40024220343934047,
        0.8200097514271384,
        -0.12454143066011933,
        0.3293548416954808
      ],
      [
        -0.005623734875835762,
        -0.6324265167181596,
        0.07312034009674427,
        -0.12048343310986066,
        -0.11576734263686726,
        0.1390538202166384,
        -0.1058011279200688,
        0.012768778776665773,
        -0.15514665659770652,
        0.7778525766788145,
        0.22898468854663445,
        -0.3837063279415602,
        0.3991421185225873,
        -0.032322421171291096,
        0.43051064499413066,
        -0.15664819722224563,
        0.5309065712385764,
        -0.7259649655433668,
        0.1824309613200744,
        0.27009452218460567,
        -1,
        0.5748023893222166,
        -0.18936421043987306,
        0.16079286802958967,
        0.09940459302136996,
        0.6251036038082572,
        0.6140606019385659,
        0.18452342032220476,
        -0.019364481224360026,
        0.0030982532552527855,
        0.8184390244110833,
        0.1515924975532375,
        0.2803564473208146,
        -0.09354715566334468,
        -0.7406079380479776,
        -0.30900811013833834,
        -0.005994952424153875,
        0.8820591232260572,
        -0.3455272195201417,
        -0.5004484964264889,
        -0.24267415436099868,
        0.4612469577900493,
        -0.11622954729318866,
        0.3211042286549601,
        0.062245698325812705,
        0.1930874855070123,
        0.058602505680632966,
        -0.15368449823662286,
        -0.5459984739395507,
        0.5840936563429739,
        -0.1485574005874244,
        -0.1031658783160465,
        0.2856879633689005,
        0.4715945593126058,
        -0.2357950385291113,
        0.46698001332403494,
        0.339529070557106,
        0.40410530681737367,
        0.5135499666989654,
        -0.38057363367897035,
        -0.21773850834681277,
        0.7654675190718395,
        -0.3137609103208671,
        0.8319079353018566
      ],
      [
        -0.01034512160694813,
        0.1714400468014406,
        0.35495691324522144,
        -0.33832594023946577,
        0.650758091608484,
        0.054012296590777824,
        -0.11682854968585127,
        0.06277318745404462,
        -0.028924896745965434,
        0.10621405559980598,
        0.056597871876092685,
        0.1997103831081055,
        -0.09460274283348885,
        -0.08417526964287782,
        0.22183895196348105,
        -0.030393291599129478,
        -0.7285493847689121,
        -0.2752616701200233,
        -0.17844178488321452,
        -0.21223511189188415,
        -0.37248582836591543,
        0.13575903903542436,
        -0.1402935292841062,
        -0.49690288468186766,
        -0.8756136431613534,
        -0.20644091423227412,
        0.5028792096446061,
        -0.45439370471166185,
        -0.4629688420273865,
        -0.6338353341552103,
        0.010648093174239622,
        0.04763793261386514,
        -0.5154482580949451,
        -0.1634279061425568,
        -0.055835969264619,
        -0.372542579683128,
        0.18962740741035172,
        0.3134555976919673,
        0.30784416828116207,
        -0.8406529792047128,
        0.9312349685627908,
        -0.37686069019669294,
        -0.4588796659098637,
        0.05938962732690726,
        -0.35814873000595976,
        -0.6854345147631402,
        -0.21278454121724028,
        -0.16479178315029186,
        0.14549827836835977,
        0.07888813633106206,
        -0.29554993758901754,
        0.9526650058835484,
        0.33211692835465767,
        -0.4940194263868569,
        -0.0027001090674968285,
        -0.24397247571257966,
        0.01448672302289226,
        0.7669635280127051,
        0.3120008689410771,
        0.08340785941101726,
        -0.04739191279150913,
        0.5100498385723296,
        -0.489530145147564,
        -0.3213216082249149
      ],
      [
        -0.38418595421048357,
        -0.09007592894583173,
        -0.014827037878787063,
        -0.10901404739023962,
        0.3777415917584378,
        0.6162267666163396,
        -0.3092186049738474,
        0.35916643826695965,
        -0.9233556985855103,
        -0.2844775985838081,
        0.0885281683962908,
        0.45628830084442695,
        0.20873586817125506,
        -0.11878427558134622,
        -0.2635654420599791,
        0.019578833118652404,
        -0.015153388616823823,
        0.3683092989806597,
        0.10991585051215999,
        -0.6634746381806623,
        0.3008751180109692,
        -0.28201943915494526,
        0.4649839726780903,
        -0.19884851186488278,
        -0.8247633929921147,
        -0.3238425326693169,
        -0.2495094158384765,
        0.2975018354674835,
        0.20941322053668113,
        0.2704104046498549,
        -0.10540242471000358,
        0.2769490596097324,
        -0.12422102896308383,
        -0.743163553340869,
        0.8004627423303035,
        -0.23112124942778736,
        0.42256875240157415,
        -0.041135097153774884,
        -1,
        -0.08869861139094194,
        0.402268138293894,
        -0.1258732990252112,
        0.138627635526152,
        -0.663812333931893,
        0.8086297924541458,
        -0.23199568010448465,
        -0.23852129493688135,
        0.8391590242067952,
        -0.7013197169959428,
        0.12935008804984327,
        -0.0058995637066182605,
        1,
        -0.34732590614456915,
        0.08707568400549343,
        -0.9074962427306936,
        0.007426422933249865,
        -0.4830353895822467,
        -0.014545439392810862,
        0.1952685678876163,
        -0.009335084981163783,
        0.2857630126223666,
        -0.786723997266507,
        -0.1912323802453649,
        -0.2669025155162306
      ],
      [
        -0.26365390291098645,
        0.7771434028901184,
        -0.178007776336913,
        0.5498897195345649,
        -0.07591273988527948,
        0.018407399161500405,
        -0.8969912528991699,
        -0.38678195236546103,
        0.2399532894004389,
        -0.09552022507025092,
        -0.521981329991471,
        0.3824263185073705,
        -0.30045760856752063,
        0.2660534322183823,
        -0.8608714740842991,
        0.2021666849976011,
        -0.8495941893679215,
        0.49329789717823636,
        0.1424932434573526,
        0.9032553143495565,
        0.20237152052640972,
        -0.754789831308357,
        -0.1835109078667203,
        -0.15554439784425494,
        0.35247433234665354,
        0.9202397269118715,
        0.1741358863348368,
        -0.10276901675112021,
        -0.06660705819729305,
        -0.16668889232366269,
        -0.06379490679070625,
        -0.16299520795430714,
        0.49751082477067743,
        0.08243043358484146,
        -0.2607620825280766,
        -0.03463934208946,
        0.6187809491268254,
        -0.8892799049815079,
        -0.5908208107175839,
        -0.15087562852418898,
        -0.3519896857707644,
        0.3813379700122884,
        -0.8858559131622314,
        -0.296054019443513,
        0.15903862904052027,
        0.02139442138650185,
        0.6395732009781393,
        0.7976433708654294,
        0.0566867972774372,
        0.8394885982837342,
        0.07779892846677454,
        -0.03345723958893701,
        0.06811855678341905,
        0.5052947092026522,
        -0.12808489054821898,
        0.2172556732323206,
        0.0801438099838874,
        0.2716495555545051,
        -0.9193173748561548,
        -0.5303709381457878,
        -0.46530713666487933,
        0.07630700411143376,
        -0.14896884049094788,
        0.36869057247094245
      ]
    ],
    "biases": [
      0.12813688532184322,
      -0.48498140434941367,
      0.17928670375847572,
      -0.29563999961851434,
      0.7734052583614044,
      0.6086043431443877,
      -0.6181346684954427,
      -0.20447625402254743,
      1,
      -0.09290266666412204,
      0.7980535907115651,
      0.19423251231077732,
      -0.8555341285487702,
      0.7636630578505684,
      -0.2057461054977777,
      0.1970187627226324,
      -0.18223975757148475,
      0.7050611452840246,
      -0.06457023600014249,
      -0.30180137869517537,
      -0.24175982545184993,
      0.31597423070865494,
      0.17680311065165924,
      -0.35572747605534333,
      -0.912758867969933,
      0.2730804139594367,
      0.04255806262440496,
      -0.07649078269925405,
      0.026959971635450313,
      -0.06684820962626879,
      -0.10403760077808719,
      0.02384966577056669,
      0.5088467635453028,
      0.4053317059244559,
      0.795604958057592,
      -0.15395199549018415,
      0.519627197842088,
      -0.5357139925149176,
      -0.3423843751177659,
      -0.24725382812491228,
      0.3966612198994011,
      0.698517550103591,
      -0.07133513927757976,
      0.35942061258472413,
      -0.6369457800409554,
      0.033141492027204386,
      0.10792430903408548,
      0.10848411397889861,
      0.26907657993529427,
      0.09913367871997963,
      0.6778620639359789,
      0.19975409874869487,
      0.44905834721245447,
      0.17556879405995474,
      -0.04056205590448815,
      0.10670411428667045,
      0.0428636096639898,
      -0.21904116345924313,
      -0.31590640976209705,
      0.6994521470731078,
      -0.23667268886852882,
      -0.3308269581982516,
      -0.5165412471635117,
      -0.32286592667158787
    ]
  },
  "layer_1": {
    "weights": [
      [
        -0.32221190095585367,
        0.49878125562641473,
        -0.14133841605913489,
        -0.35320390460494394,
        -0.0719176179929336,
        -0.01976520734591894,
        -0.299929895019713,
        0.48310732822124514,
        -0.2149145685465991,
        0.5858590119406779,
        -0.7045327909848927,
        0.03729961218326122,
        0.7290624888249136,
        0.5143353255662094,
        -0.13059791268910775,
        -0.055773565160303344
      ],
      [
        -0.23279313754185127,
        0.7336929778599421,
        -0.330285323867261,
        -0.2938552143507689,
        -0.011895337515892217,
        -0.07221663103158467,
        0.3122430295609355,
        -0.3125697606210993,
        0.00390117679466266,
        0.2800743707371155,
        0.040337416282331964,
        -0.6839081350933529,
        -0.1460395340062212,
        0.8946354846832001,
        0.039401147803051935,
        -0.4036881950506528
      ],
      [
        -0.2948679197200643,
        0.17278175833493345,
        -0.027004920634392714,
        0.4675936988540095,
        0.8375487873730901,
        0.11796511452328658,
        0.6823618818050888,
        0.49944597848325106,
        -0.6281142070758671,
        0.16304301993093648,
        0.007423391440713278,
        -0.33904293497320614,
        -0.3957513189653204,
        0.11310306424131122,
        0.09955751613571184,
        -0.6317515764988479
      ],
      [
        -0.006522197660517727,
        0.5144675109371885,
        -0.588624155316385,
        0.40134419686355605,
        -0.06734148974310786,
        -0.27650153272582234,
        0.08057984867011318,
        -0.046423036257944035,
        0.19675566254904905,
        0.9653446553929296,
        0.12185649321781068,
        -0.04671051244081874,
        -0.34399438342790145,
        0.678515252502535,
        0.18963347449774512,
        0.8938004700966952
      ],
      [
        0.06904688134841962,
        -0.06289229355654749,
        0.11330920273255246,
        0.25471130874906456,
        -0.5146053658399534,
        0.30319653408611696,
        0.002175547226171302,
        0.22366791310859066,
        -0.1284876500972652,
        0.21246628516577007,
        -0.04381202839321371,
        0.35755723708885817,
        -0.2650555832884652,
        0.37311440832956827,
        0.2402185207016567,
        -0.5716759071012082
      ],
      [
        0.3624245446283369,
        1,
        0.07413922201044536,
        0.39363172840108385,
        0.7058863245465159,
        0.11860293618269727,
        0.6677525029693533,
        -0.03747544377733505,
        -0.6360510647501427,
        -0.4756955063424773,
        -0.18379697819839666,
        0.06679932347424716,
        -0.6093990864992164,
        -0.5754847385969161,
        0.01593521949479126,
        -0.27130349665144765
      ],
      [
        -0.09639707359060183,
        0.28502169699488533,
        -0.09660134084185482,
        -0.2238718032002088,
        -0.013447678552482353,
        0.6071266155543463,
        -0.42422039948568635,
        0.04885695027332166,
        0.31986028862290267,
        0.01897064461331651,
        -0.2567275828879301,
        0.3174783073665309,
        0.13222767493266663,
        0.13370414689075935,
        0.38910360701040564,
        0.2680291434726739
      ],
      [
        0.891622420780096,
        0.3741125167164481,
        0.13698773094987843,
        0.04662088068437996,
        -0.28594137275753384,
        0.12727643987014117,
        0.8372344637066441,
        0.22514479323618808,
        0.49251281223007415,
        -0.5405756618709139,
        -0.0971819890417036,
        0.3067347904839021,
        0.08890967729570111,
        0.520419915629874,
        -0.4935022144548384,
        0.17471383811327817
      ],
      [
        0.921932765680009,
        -0.19396816821544907,
        0.42679874037348786,
        -0.5251611931215588,
        -0.1054672847150607,
        -0.030450014037812397,
        0.5974421391779065,
        0.5835768210097879,
        0.8005187668690674,
        0.503086734598339,
        -0.8817100237744341,
        0.15388864211666303,
        0.21250765435411825,
        -0.5954429292715322,
        -0.41848289461702926,
        -0.4196485305373876
      ],
      [
        0.43309573267765233,
        -0.32222614813684863,
        -0.22941985308018453,
        0.30558680766915597,
        -0.5738070887788136,
        -0.05875163975473703,
        0.47749020318464414,
        0.2262064281052195,
        -0.10865041359474664,
        -0.05415479564668181,
        0.4062473184997845,
        -0.20795512345384534,
        -0.664345572511326,
        -0.25632574387036844,
        0.3173373665208245,
        -0.03904116874059222
      ],
      [
        0.10235845233975446,
        -0.4123989590269831,
        0.5681613669804026,
        -0.5812398014304448,
        -0.28206252073025756,
        -0.11393253338211078,
        0.6792266729558681,
        -0.3290851179802301,
        0.04523352230732893,
        0.70206773413663,
        -0.5893672868849358,
        -0.37143952975742417,
        0.16688098897145395,
        -0.5493370055843119,
        0.3565623035466493,
        -0.39272259901817863
      ],
      [
        -0.40106101338335615,
        0.1840309655774901,
        -0.07576374930662297,
        0.7127683766902023,
        -0.8967860352153163,
        -0.00805118068129297,
        -0.49902459366767676,
        -0.3735773901933568,
        -0.2371538256031462,
        -0.10680861271102325,
        0.5290567615920923,
        -0.903918470454326,
        -0.7934530814683186,
        -0.7514454193787327,
        0.44480254863065677,
        -1
      ],
      [
        -0.08132605398387133,
        -0.24170754710040465,
        -0.35638288543662944,
        -0.305698752120528,
        0.19872705720262188,
        0.07926384389065416,
        -0.5272679550735758,
        0.20970732950981386,
        -0.6160096920325874,
        0.41187680013441713,
        0.6841017867440551,
        0.6063760701886587,
        0.6665025738130799,
        -0.3240550254268777,
        -0.8205577667653514,
        -0.0036691035230970873
      ],
      [
        0.6266348349912458,
        -0.4387339422156387,
        0.4176835189368464,
        0.49498759588377933,
        -0.5231059842965181,
        0.045062530171158306,
        -0.24943312471436266,
        -0.07217600796141944,
        -0.20096582236699945,
        -0.2643559598402217,
        -0.8372477769122301,
        -0.23982909947450837,
        0.06982849284636848,
        -0.28347024979569624,
        -0.7745497542312042,
        0.5153320622931848
      ],
      [
        0.17160621378322657,
        0.1797982068763325,
        -0.34166874416485027,
        -0.5973277500354935,
        -0.6271315879684608,
        0.7434577404480079,
        0.17602311773591314,
        0.41506353506905946,
        0.24829327552541258,
        -0.32926419783429794,
        -0.2638636742045311,
        -0.2964637235726314,
        0.24685743883665076,
        0.05676485819845104,
        0.03971502556359753,
        -0.8394686385575864
      ],
      [
        0.08334279890671019,
        -0.29143338505662075,
        0.33162676611401115,
        0.4636635033266896,
        0.773418968473251,
        0.4367786651402241,
        0.36983085013812145,
        0.5290478385601708,
        0.17652255994207505,
        0.44188086863950926,
        -0.034506740203312625,
        -0.4792586467425825,
        0.5064826060342559,
        0.032376016908622594,
        -0.6288138272166406,
        -0.03739506128238162
      ],
      [
        0.18496609345057358,
        0.38714922365341303,
        -0.30421719516781864,
        -0.7087125699239154,
        -0.11034905873722156,
        0.606685184572917,
        0.19771687935490634,
        -0.06129840580231189,
        0.03731145746914865,
        -0.03299953488278641,
        -0.38981234097731293,
        -0.12734980146761504,
        -0.08193690970309568,
        -0.09786116472872201,
        0.3244325944047353,
        -0.03131379216454426
      ],
      [
        0.5877609025791702,
        -0.17964699713644933,
        -0.39178653854899376,
        -0.0791148386888017,
        -0.16412591358573292,
        0.1590430576986403,
        0.6462955251959402,
        0.6965715814709065,
        -0.9470226069529915,
        -0.28287209938362884,
        0.08797134779043361,
        -0.10969321890564444,
        -0.19865232729289672,
        -0.8510530464955757,
        -0.6929950397464133,
        0.18643024551967474
      ],
      [
        0.6455377777404334,
        -0.6242730288195798,
        0.3087210365274222,
        0.09635319935604104,
        0.08300225714105622,
        0.19789742610376793,
        0.4465836880465202,
        -0.5225859288329654,
        0.2617680524710685,
        0.9676875895459335,
        -0.2103629345741248,
        0.33714797732314766,
        0.11368599906158133,
        -0.3774827974368604,
        -0.13992392286090613,
        -0.030188020644201223
      ],
      [
        -0.5375761456464734,
        -0.09598995006605568,
        -0.042919152583199394,
        0.6692324845680371,
        0.1444798296244751,
        -0.28898060979962453,
        -0.33091913339727097,
        -0.041276638110459556,
        -0.16769814207824596,
        0.13613741445919747,
        -0.014695795283258284,
        0.10269369889706946,
        0.17700207231376053,
        0.47417833718735153,
        0.2971214442229152,
        -0.4116022792800073
      ],
      [
        -0.6403066200950487,
        0.015647694233031847,
        0.14367869222365623,
        0.18196191185333638,
        -0.8528654707745663,
        0.1617913140018389,
        -0.05221241381214074,
        -0.07155887817066607,
        -0.220890040806541,
        -0.8062738597659208,
        -0.5489702448144909,
        -0.18896621420149862,
        -0.4196249150967273,
        0.056120898339425115,
        0.21939091325045426,
        0.8419533553074217
      ],
      [
        -0.47771961598467105,
        0.1594477214508423,
        -0.11034374251687301,
        0.10037277335984794,
        0.08089195957323575,
        -0.8078350170836059,
        -0.5533260490764177,
        0.6678770552554353,
        0.25272955647761175,
        -0.8476905543096138,
        0.05368996732421706,
        -0.1642076065616119,
        -0.5371576070811445,
        0.05800411315551532,
        -0.5087528664191803,
        -0.5916518828988313
      ],
      [
        0.7815907098897306,
        -0.05924839301143343,
        0.6556089030572856,
        0.0532549315313618,
        0.4584055104540338,
        0.296295718225869,
        -0.6229923566392755,
        -0.4827633457796663,
        -0.6322156905658741,
        0.2958083024577829,
        0.18562833809846235,
        0.6347287520624872,
        -0.01349310096387292,
        -0.3794368990852218,
        -0.7362291318333442,
        0.6721374525178413
      ],
      [
        -0.07050913592233173,
        -0.35246701718350676,
        0.7605838094877675,
        -0.9157502926247539,
        0.09775790716901817,
        -0.023144923612402734,
        0.6700826178461203,
        0.08324283031064182,
        0.1323402136229426,
        -0.7695870357224496,
        0.707585246572071,
        -0.6503356820077293,
        -0.6382340818814459,
        0.070060482246622,
        -0.3615548968916034,
        0.0036072070162384523
      ],
      [
        0.005724949964047394,
        0.022904747731509183,
        0.2601367410727366,
        -0.18342854404594194,
        -0.005545524007484613,
        -0.79262807856088,
        -0.24734020287049233,
        0.1652907126760109,
        0.03716425429740405,
        -0.4523814704865538,
        -0.8357908243708357,
        0.019739163430485488,
        0.1114439378138197,
        -0.8496422191294788,
        0.0824053381102328,
        -0.019070851855000872
      ],
      [
        -0.3098853222685378,
        0.5246291521903294,
        0.3777429748319238,
        -0.6788205865575453,
        -0.3366241502638627,
        0.1584007687756096,
        -0.4412952706195121,
        0.9410368806217039,
        0.2612280690612652,
        -0.38831027987234357,
        0.07796547669951455,
        -0.557493755240454,
        -0.006473609018707289,
        0.09664862334883076,
        0.1483536128641841,
        -0.36800772052014064
      ],
      [
        -0.16887038805623256,
        -0.17794456509047407,
        0.1491525327324825,
        -0.0076084100328827325,
        0.007048691869746346,
        0.0957424381219962,
        0.4486365991523151,
        0.20655077850897433,
        -0.32725464621597306,
        0.4506962083927404,
        0.13560116098517871,
        -0.286840364707246,
        0.9864146113395691,
        -0.4040943695185542,
        -0.4791307184255703,
        -0.29628957623460606
      ],
      [
        -0.11762336726781379,
        -0.1154912074130339,
        0.0620201823035754,
        0.6002392484522046,
        0.31797080764761904,
        -0.3824818890664279,
        0.912133078332212,
        -0.47397567993370504,
        -0.3103441026148115,
        0.3839291318749325,
        -0.3862114001824322,
        0.22429913678663754,
        0.2176172015933504,
        -0.12989980926042022,
        -0.5100009967832771,
        -0.05659973250295666
      ],
      [
        0.3453537310592361,
        0.380597060286159,
        0.2344957372017223,
        0.627885034478498,
        -0.03113338032900526,
        -0.5310912388064691,
        0.05854634361041308,
        -0.2626610148918309,
        0.46003637004316783,
        0.30492532942225115,
        0.3650009963162709,
        0.1078296168712804,
        0.9665343330723156,
        0.1951150559481037,
        0.10313741874174627,
        -0.5817440280616033
      ],
      [
        0.08206250936299478,
        -0.2465397469277832,
        -0.8432577692347717,
        -0.06699661877370787,
        0.8219488478007356,
        -0.47531585720656166,
        -0.15748861422542285,
        0.07853165130109227,
        0.201042201493481,
        0.911286357195029,
        0.24814929912101616,
        -0.20352611668369133,
        0.4007624901064365,
        0.09175655173306667,
        -0.10782541398838741,
        0.03823440043975469
      ],
      [
        0.6808770996597137,
        0.15168350260289953,
        0.5246438006641122,
        -0.5991337254358774,
        -0.14365880192683753,
        -0.5644383018239332,
        0.5841124013293121,
        0.04639876451566036,
        0.05891650322124925,
        -0.45033096690069696,
        -0.6728416889502123,
        0.6029540783956324,
        -0.5903652010407096,
        0.19337354326276665,
        0.2791286809492224,
        -0.9198049096518597
      ],
      [
        0.5924749863889155,
        -0.2891036932351605,
        0.09142181068414816,
        0.9279625415802002,
        -0.38540652513825335,
        -0.8185119746813657,
        -0.2379814458891226,
        -0.3267599623358264,
        0.005967208178534271,
        0.16848395327827312,
        0.3030783842742589,
        -0.4309844659823603,
        -0.5858025615504096,
        0.8764528660250193,
        0.8380558532108341,
        -0.20920195202124184
      ],
      [
        0.211834398679209,
        0.7163309005875028,
        -0.24054748216347566,
        -0.3688049609461897,
        -0.3739314736432248,
        0.20252076542610029,
        -0.43227346800492417,
        -1,
        -0.0704488999072846,
        0.08228148076361406,
        -0.4526675368222751,
        0.784923169884877,
        0.0031806155721764116,
        -0.8756367687539328,
        0.15012563318520172,
        -0.47337948499685284
      ],
      [
        0.33732697773216225,
        0.17673390078935525,
        -1,
        0.5000397362455887,
        -0.7850911544941173,
        0.4134227139489212,
        -0.7174230822303527,
        -0.1594735726394756,
        -0.2898255856098291,
        -0.8763492638599425,
        0.11297882734150319,
        0.2882847808203543,
        0.5351968081785576,
        0.7760673880946976,
        0.14360719606740605,
        0.09694120190607837
      ],
      [
        -0.381730898342884,
        0.2934078343620335,
        0.23862555042402753,
        0.3428209746999885,
        -0.17789285313673217,
        -0.5553672220036915,
        -0.12779254199581633,
        0.09704582849188384,
        -0.42591178361703125,
        -0.2692387834501936,
        -0.046541592466004,
        -0.5248945093820272,
        0.7669807212668616,
        0.2529845869015676,
        0.1372180842785776,
        0.16402829397868737
      ],
      [
        0.11550609286406538,
        0.20266612296339204,
        0.0849180428790533,
        -0.43494219529893074,
        -0.01054510965525345,
        0.25995302043378504,
        -0.24105750488285352,
        -0.470239135945747,
        0.17123234152952294,
        -0.5216604264261455,
        -0.17243478357199324,
        -0.43548366937237243,
        -0.5863853332213484,
        -0.6030310807594085,
        0.24803000749017098,
        -0.05312284764576915
      ],
      [
        -0.05166325128894789,
        0.1750881090047868,
        0.2958312900531765,
        0.8177568103326123,
        -0.12020738362528814,
        -0.12549707296264354,
        -0.25441593313798966,
        0.3793804383615494,
        0.0031860103669045636,
        0.8275067347423573,
        0.12009592786731939,
        0.3998472341223846,
        -0.04953867915259103,
        0.028430751129013044,
        0.4926669154646522,
        0.22016422077344616
      ],
      [
        0.3269114339505484,
        -0.06227754359302449,
        -0.05568004020470228,
        0.2211930939884969,
        0.775051444094781,
        -0.02707857011073803,
        -0.19665591092343707,
        -0.03268222724300827,
        -0.004195942666461437,
        0.9821398916914844,
        -0.23864267986203425,
        0.8143763960494237,
        0.4198054828364623,
        -0.46911397892787016,
        -0.39166539862464267,
        -0.22236421213731714
      ],
      [
        -0.472334241967707,
        0.5148778251538895,
        -0.011270424723478622,
        -0.12435761965617391,
        -0.2803272432262631,
        0.055277978351494735,
        0.7037169798933252,
        -0.2063910493416123,
        -0.37348254186655694,
        -0.12374952452462203,
        -0.467062079950896,
        1,
        0.13216147175481757,
        -0.13210810619602578,
        -0.39014192963849564,
        -0.1466218521898963
      ],
      [
        -1,
        -0.7644838567104769,
        0.1580286557919894,
        -0.2690189538856628,
        -0.038504121373305444,
        -0.13284497203075432,
        -0.13524633296467814,
        0.6231240702925133,
        -0.3735581231258774,
        -0.08179046911294495,
        0.2758926361632418,
        -0.1596780462160242,
        0.16254220577628245,
        -0.12733552397382264,
        0.27218253771333617,
        0.04287925903326922
      ],
      [
        0.663105322706403,
        0.5270094450641015,
        0.05482433448395431,
        0.039975468787573104,
        1,
        -0.4741714434310732,
        -0.10255738799723245,
        0.2988516420335044,
        0.07950281211179956,
        -0.8149023745987699,
        -0.3455253028682893,
        -0.12570363041089724,
        0.2268748174204104,
        -0.8462839820621804,
        -0.21978901325688605,
        -0.6636531667091969
      ],
      [
        0.5422631868841614,
        -0.6375809817570888,
        -0.09138962408981943,
        -0.024686056519726888,
        -0.24152692210088314,
        -0.1743530675492477,
        -0.00881659478283843,
        0.2973639099910376,
        -0.5574627973331674,
        -0.17189428721265088,
        0.3842401999728369,
        -0.28043590370783344,
        0.7537941575581784,
        -1,
        -0.025595132009810378,
        -0.0277380094118919
      ],
      [
        0.27914387168685123,
        -0.34446831237585157,
        0.11345062423727527,
        0.5276233357416626,
        -0.24304893404531033,
        0.9202233250473058,
        1,
        -0.2011226138449777,
        -0.12897002685752387,
        -0.05365904523494662,
        -0.23601500148531393,
        -0.24736522466273403,
        -0.09751758578827026,
        0.3597381714972108,
        0.15113394812207234,
        -0.7467277523166742
      ],
      [
        0.5090372414340257,
        0.08497859986666177,
        0.2656724202832566,
        -0.09329351522928857,
        0.01637307767945028,
        -1,
        0.0687848729727336,
        -0.049710501827557124,
        -0.241161177472095,
        0.0926543022641504,
        0.2149999802178639,
        -0.18236267013167431,
        0.11950023950797381,
        0.07595380061380182,
        -0.242908771647328,
        0.28489640223128965
      ],
      [
        0.05651283329626117,
        -0.15851313842538853,
        -0.5579913555963331,
        -0.10047201625496953,
        0.4623062197305796,
        -0.40500472435863244,
        0.9842681288719177,
        -0.2805584914805709,
        0.13237213894463215,
        0.6478232066100934,
        0.1986247915808163,
        -0.15819466410790084,
        0.2555706399274968,
        0.01180309357244601,
        -0.17155432665104126,
        -0.08530924912282808
      ],
      [
        0.2512884542219681,
        -0.34922479678253965,
        -0.8444469356122726,
        0.24093802932145517,
        -0.3963063595352204,
        0.9333452944389585,
        0.11000037999110361,
        -0.3108149733023684,
        0.9983635544776917,
        -0.19461292935550908,
        -0.07953706438318725,
        0.9146528244018555,
        -0.301219106474022,
        -0.6611355861603415,
        0.3798128663938857,
        -0.2898171631277152
      ],
      [
        -0.595185796547515,
        -0.25636401744571474,
        0.5118528757501634,
        0.051403993700333786,
        0.06340120840195412,
        0.2848263281308891,
        -0.18304525402724917,
        0.09258761286408067,
        0.17155590679458044,
        -0.5873501628695592,
        0.2537291350327373,
        0.36461543958629344,
        0.26047580810916754,
        0.6884875415216575,
        0.6571414361313133,
        -0.5645303829456566
      ],
      [
        0.7726540097803609,
        0.679592645305077,
        -0.735809369595796,
        -0.4722972692289765,
        -0.21662684294771933,
        0.8629414173572679,
        -0.675582407502194,
        -0.7195500814725737,
        0.2107678845078557,
        -0.024169741719600284,
        -0.3904632975126217,
        0.06666465902348702,
        -0.08825502398131825,
        -0.7698039143153014,
        -0.8900567623562089,
        -0.22626524622851707
      ],
      [
        -0.040298029767969444,
        -0.8275083597329621,
        -0.3211016228205017,
        0.5616607102627325,
        -0.0057911509470666665,
        0.4318218995564224,
        -0.6523471810048029,
        0.22475866383537726,
        -0.9264137148857117,
        0.3043389074522275,
        0.07982889486053678,
        1,
        -0.5568810172835932,
        -0.12324898589743731,
        0.2239773535660395,
        -0.5220196519369453
      ],
      [
        0.11011509361950782,
        -0.05531413929886407,
        -0.6799773154803663,
        0.7795660560916433,
        0.22078932390643838,
        -0.45032471406046454,
        -0.09096925492898715,
        -0.687890710953379,
        -0.42118133982656564,
        0.9426711661276282,
        0.025365030649112028,
        -0.1948142651730538,
        -0.17082322125580068,
        -0.8652634489316462,
        0.4065623031892024,
        -1
      ],
      [
        -0.2886833776430167,
        0.37692709405789276,
        -0.05564953812044161,
        -0.08614942734150782,
        -0.031098662118870014,
        0.2169046558713643,
        0.43484301528639635,
        -0.5775517963215443,
        0.8420141584664931,
        -0.2942417327288564,
        -0.20800266810120532,
        0.32806936817643173,
        0.013625183386842843,
        -0.060831693004199466,
        -0.9116328837075875,
        -0.23023808158045445
      ],
      [
        0.09714120049200155,
        0.7756138466112873,
        0.4897234167886062,
        -0.1552501275937459,
        1,
        -0.038033412651747124,
        0.03372673454537344,
        0.33411793601202167,
        0.3991616644397149,
        -0.3344205173259803,
        -0.8815359084757958,
        -0.3965165866838383,
        -0.3610520884740476,
        -0.04240578402476506,
        -0.9495214712769945,
        0.056545011773050914
      ],
      [
        -0.28498522130475035,
        -0.29720659747444156,
        -0.43352714366488043,
        -0.2060763512550448,
        0.17859297359379353,
        -0.9557549710826267,
        -0.3021841061718308,
        0.9583730697631836,
        0.23819521014408523,
        0.789990429798913,
        -0.22909887906632673,
        0.9004603156738124,
        -0.5078225863363683,
        -0.49500179179968723,
        -0.04575717315347395,
        -0.25609890364562177
      ],
      [
        -0.127103205052079,
        0.03580837290047763,
        -0.01720107957749968,
        -0.3964710677960044,
        0.1499763700184918,
        -1,
        0.11276535220513892,
        0.03534197035987399,
        0.025095485863003225,
        0.5546946245051931,
        0.5206076494413987,
        0.8580462047516803,
        -0.2714575125479323,
        0.9190222688463986,
        -1,
        0.21686993579480604
      ],
      [
        -0.19874321938041536,
        -1,
        -0.48909645088258746,
        0.44436183464923334,
        0.03175120575084033,
        -0.0047949956779036376,
        0.21243254987560423,
        -0.1440269111022199,
        0.04409064695065083,
        -0.03927255536168122,
        0.8011019751976817,
        0.08719167752809467,
        0.004311767092657186,
        -0.07017178538976217,
        -0.22779193591181085,
        1
      ],
      [
        -0.11085718320905655,
        -0.28126255287244684,
        0.1565980071297799,
        -0.7088455216538956,
        0.35036774807768867,
        0.5501958145821036,
        0.29567442108639375,
        0.7256819393861601,
        -0.3741695552069475,
        0.8044225471694804,
        0.6432272420539177,
        0.7176062002581758,
        -0.04929542031240756,
        0.7451252324595511,
        0.4781927442671028,
        -0.06853343972977127
      ],
      [
        0.026001275188982383,
        0.476040154731217,
        0.02028552717463881,
        -0.23659656303345636,
        -0.426103396469161,
        0.8863330985994603,
        -0.670149533907521,
        0.16442172688541362,
        -0.2738285583323877,
        0.8914368675375882,
        0.01837574338760268,
        0.16307845381187508,
        0.3501218167844446,
        0.21609560449923249,
        -0.9902655067362081,
        -0.13558754216390528
      ],
      [
        -0.1228639612093875,
        -0.014610235309656374,
        0.29799915948219846,
        0.2104758918388569,
        -0.6805016737982693,
        0.3047792089353716,
        -0.14978375973284466,
        -0.7828055778506476,
        -0.1291875792986868,
        -0.019029647237056097,
        -0.1311788334172649,
        -0.07652229724429037,
        0.070196523327642,
        0.17826787770146868,
        0.1823991931652047,
        -0.7740293463458368
      ],
      [
        0.04161698309386888,
        0.06217132594933076,
        -0.44884150149062385,
        -0.3061378242907303,
        -0.06466728386871409,
        0.6698146486724239,
        0.31391033669079893,
        0.2555127582309727,
        -0.28308924714565803,
        -0.05772309536054182,
        0.1695977514205446,
        -0.2131923414815358,
        -0.26381995990389023,
        -0.15683536920701538,
        -0.45813879511760797,
        0.0565600357672343
      ],
      [
        -0.5693202464444281,
        0.12022317832880962,
        0.26277239728985957,
        0.5035369586746794,
        -0.22585154190083753,
        -0.3106618134409566,
        -0.20850961166681795,
        -0.8250885112319729,
        0.3789268544501771,
        0.6324369226942032,
        -0.09030617622981672,
        -0.3303912811802203,
        -0.3926041920917588,
        0.1681996399851658,
        -0.879781972683458,
        -0.24484753673909218
      ],
      [
        -0.09448187196568433,
        -0.3085971605809814,
        0.3898730428125393,
        -0.0065374828191458794,
        0.09147655953939192,
        -0.11442421705645302,
        -0.3178293059627178,
        -0.9637485979172179,
        1,
        -0.08983918987603315,
        -0.432554830964677,
        0.5599037382814818,
        -0.07398221664695387,
        0.04218285131179573,
        0.4611800122642703,
        -0.18397245261386336
      ],
      [
        0.00921816473927928,
        0.2228761410491559,
        0.675403935305358,
        0.41214914985783635,
        0.4496169762069213,
        -0.2496485553639457,
        -0.62586622792086,
        -0.25763421487513344,
        -0.5258276315921803,
        -0.13543345397798823,
        0.13486892974620737,
        0.016932168737924153,
        0.39789730032501813,
        -0.0969412996418053,
        -0.9456180930137634,
        -0.36242097676795754
      ],
      [
        -0.2958018339717502,
        -0.4258405298618444,
        -0.019276770560540744,
        0.13304008213836863,
        -0.503430161727163,
        0.6971393775292826,
        0.17094745382867943,
        0.07840181455391906,
        -0.40205452369931804,
        -0.24400643271602085,
        -0.7304765734430205,
        -0.6708466581667375,
        -0.04528601076977227,
        -0.18833253073258463,
        -0.4566091416909191,
        0.05216739778547972
      ],
      [
        0.4189851993157272,
        -0.4930214766295126,
        -0.2620824426477523,
        -0.09339116227244453,
        0.7027254389292172,
        -0.6226754435687079,
        -0.06378269882316544,
        0.5753303656002512,
        -0.2676789624559362,
        -0.5541963144159897,
        -0.4785869263679382,
        -0.21071288213946537,
        -0.001090292376267993,
        -0.14860935641200707,
        0.060579629561285216,
        0.28088654519985196
      ]
    ],
    "biases": [
      -0.01233401963834636,
      -0.41503830026983113,
      0.2576173212532991,
      -0.5798657307235129,
      0.5699412895712926,
      -0.7679944853734636,
      0.08521602061866732,
      0.21183786871434637,
      -0.5795806070570931,
      0.143337892322499,
      -0.39264575455404566,
      -0.5683031644854405,
      0.1498545379169156,
      0.8348111150914997,
      0.07145850041927733,
      -0.5400696082253785
    ]
  },
  "layer_2": {
    "weights": [
      [
        -0.9364212511357036,
        0.5597543275858617,
        -0.10390760594882362,
        0.24066635123107452,
        -0.053004930210433815,
        -0.24910707781974115,
        -0.8948116024874627,
        0.010601312108297222
      ],
      [
        -0.5548648766121503,
        -0.7827094099475933,
        0.6205163747506368,
        -0.0664787035453362,
        0.050326789006574425,
        0.1136624087890871,
        0.17559623151701859,
        0.17958281234867587
      ],
      [
        -0.2722104486119132,
        0.9017921332562302,
        -0.3209006157722115,
        0.2294995343813652,
        0.14681045169241896,
        -0.4106800197712011,
        -0.19939088364343613,
        -0.15810888860652628
      ],
      [
        0.14406130401683978,
        -0.3753027922694454,
        0.2063667802626979,
        -0.4412648153283532,
        -0.19496361143886162,
        -0.10370646452812052,
        -0.2796899544209586,
        -0.21041184551700182
      ],
      [
        -0.1992731333207582,
        0.2667809945791014,
        0.7728509311998025,
        -0.6928398728052468,
        0.2941062527337964,
        -0.7351440306544806,
        0.9054879848292441,
        -0.09370301144771101
      ],
      [
        0.02446711440997353,
        0.060403571490635605,
        0.0369392849631071,
        -0.09449631718445002,
        0.24081252503329595,
        0.2555154046925408,
        0.44042683768752927,
        -0.2139704441792475
      ],
      [
        -0.08735158852201674,
        0.31812329046489546,
        0.22590334550043703,
        -0.10471878867534068,
        0.003676575150039751,
        0.44545927279273884,
        -0.4241538753714564,
        0.04665746228333305
      ],
      [
        0.6374103718261739,
        0.5068102848721883,
        0.44209164354429403,
        0.2115093866582559,
        0.5241351556989324,
        -0.2085320268740456,
        0.03788767848118116,
        0.7298545989556093
      ],
      [
        -0.011193104336062134,
        -0.5998287406010848,
        -0.6921285651617312,
        0.28049982484994057,
        -0.393991676788931,
        -0.4107562805267667,
        0.4285644139324841,
        -0.04736888129010084
      ],
      [
        0.5991368612329059,
        -0.2282546967938328,
        -0.10165884217535692,
        0.8979692459106445,
        0.13947979469392865,
        -0.750432444113712,
        0.39177698333021677,
        0.30902625396765215
      ],
      [
        -0.25220128640061557,
        -0.23628373860033958,
        0.3417096000598229,
        0.07503832906553366,
        0.053809277994413575,
        0.3839939349683405,
        -0.1339045912959079,
        -0.9832984209060669
      ],
      [
        0.7482288935641658,
        -0.058506575867666104,
        -0.23264630481759083,
        0.18609552370009913,
        0.35101952324162433,
        0.49754296654380903,
        -0.11494155473073539,
        -0.1394039446033499
      ],
      [
        -0.6456770542693159,
        -0.6166800388445671,
        -0.013622299374629663,
        -0.6046412723968275,
        -0.11484104466924473,
        -0.16742778297035676,
        0.6287167917855155,
        0.7308712422704401
      ],
      [
        0.7804198217962146,
        0.23036350947008544,
        -0.1593535943364247,
        0.16336802850693635,
        -0.2555666238195961,
        -0.347454261354728,
        0.6522394692660444,
        0.8319157464415503
      ],
      [
        -0.15619307899832185,
        -0.8537032381976849,
        0.00045372174261744185,
        0.04194565656387982,
        0.08908748601906682,
        -0.655799166914267,
        0.3519843860935234,
        -0.22266344630700705
      ],
      [
        -0.6940206675375746,
        -0.23475805676732367,
        -0.020672622267024415,
        0.2962266122658495,
        0.555351404627643,
        -0.0786321541823764,
        -0.07640580465365392,
        -0.2577610203964208
      ]
    ],
    "biases": [
      0.5029428940142742,
      -0.4985541322822616,
      -0.8665364892856862,
      -0.08806176337400916,
      0.025886625200535734,
      -0.2268737897240008,
      0.20366534768379763,
      0.10354989722486901
    ]
  },
  "layer_3": {
    "weights": [
      [
        0.23514976463959436,
        -1,
        0.5341212139257091,
        0.07510517150058753,
        -0.16587985541538838
      ],
      [
        0.5376086828840031,
        0.13579886460757565,
        0.3540512709035327,
        0.6941700123073768,
        0.4427041889983539
      ],
      [
        0.04492515418772975,
        -0.448329831795913,
        0.04910487993398839,
        0.19613914378545458,
        -0.26416616364962686
      ],
      [
        -0.9368418935322325,
        -0.6762062036798584,
        -0.23303041609225258,
        0.07385504015974824,
        0.6423221371995382
      ],
      [
        0.14736626345404197,
        -0.1112674017943867,
        0.4630367329952348,
        0.1509892040354511,
        -0.12895413889616394
      ],
      [
        -0.26370844478546035,
        -0.8074981096237832,
        0.24544166546472299,
        0.1334943103649195,
        -0.8169736809194712
      ],
      [
        -0.18995020547159963,
        1,
        -0.8731000504699529,
        0.23846761126986174,
        -0.5934655134837563
      ],
      [
        0.9013427541875477,
        0.34210070862932873,
        -0.20769804368828487,
        -0.329276860563506,
        0.3301071391717184
      ]
    ],
    "biases": [
      -0.7958292231220309,
      0.054116613664581543,
      -0.08974051731325468,
      0.07491995732290724,
      0.14786789792579624
    ]
  }
}