{
  "layer_0": {
    "weights": [
      [
        0.39412262632328404,
        -0.8792814950208387,
        -0.5749837922707312,
        0.3545737970778817,
        -0.7723140351611676,
        0.534674866773722,
        0.2683847439949004,
        -0.6655198004911238,
        -0.9666990041732788,
        0.7569256653491431,
        -0.9209479722186935,
        -0.49718798763570454,
        -0.16984961831247328,
        -0.4187703791458434,
        0.5074160832844945,
        0.35976285796508894,
        -0.465880018417385,
        -0.02041198530260797,
        0.9401973351948929,
        -0.08512795472146627,
        0.5365623222658473,
        0.4607660242001684,
        -0.966029703617096,
        0.15215976278375798,
        0.365197358671607,
        -0.01780096530302177,
        -0.7283264475344337,
        0.8119299889120601,
        -0.21532571928830904,
        -0.03671326826432857,
        0.5108621481558467,
        -0.9332233100974251,
        -0.6825362561026147,
        -0.033439162658932646,
        -0.04988802143857633,
        -0.030454426716716037,
        -0.46799795554088214,
        -0.6370319252223943,
        0.2138194516031733,
        0.4458578185793554,
        0.1839454859084939,
        -0.43979915118410046,
        0.05186464280662968,
        -0.8902598037422764,
        -0.5731299340449766,
        0.037233298638052525,
        -0.007262048377658619,
        0.46976576318279656,
        -0.2573608409334586,
        -0.3828212167161033,
        -0.33433764658115883,
        -0.13760114109806088,
        0.08198394302653575,
        -0.07405533734280646,
        0.34078031695353816,
        -0.020347299202962105,
        -0.6661834540966038,
        -0.2518346937132122,
        0.41657379007781875,
        -0.4710069109308016,
        0.0835234717009551,
        0.7082758812802055,
        -0.1521655401542163,
        0.6847119617105296
      ],
      [
        -0.014667983819345276,
        -0.2883866001070099,
        -0.14275713810276497,
        0.5331363487095501,
        -0.3650527164827412,
        0.4861006997015575,
        0.8195447493741027,
        -0.09800957510742188,
        0.32346331139324974,
        0.019014890365444584,
        -0.01197794781869571,
        0.05209384515940974,
        0.45329858881883306,
        0.22395195273987523,
        0.5817362963377304,
        0.003965774208311172,
        0.05205526963850595,
        -0.2666528368546805,
        -0.2909978451387763,
        0.4172020955984485,
        0.5618015548498475,
        -0.564012922325668,
        -0.5248322625189026,
        0.19751136895905633,
        -0.04502814439139025,
        -0.2862221266479793,
        0.4153883257151414,
        0.3452416419895444,
        -0.11181250341665686,
        -0.12872338554896212,
        0.058690908721935685,
        -0.30465275423597404,
        -0.3437782319264544,
        -0.07777138559894453,
        0.1904377356465189,
        -0.17657366583362405,
        0.010528548408970882,
        0.42494332216686376,
        0.37929467948106715,
        -0.5325335271662041,
        0.24510996574400873,
        0.02118677019192382,
        0.03497674528440989,
        -0.3339524800781892,
        -0.13574839208235284,
        -0.7106650950357404,
        -0.7489848403523008,
        -0.3257821250111806,
        -0.42189339739900916,
        -0.5096658906812859,
        -0.14738116064426934,
        -0.3602630718667008,
        -0.5191206651185876,
        0.47155243114973994,
        -0.3365307819470668,
        0.10911969455832364,
        0.7222970952033481,
        0.36038703778864334,
        -0.022205679807892134,
        0.7355280788426545,
        -0.32842001318072117,
        0.18835670945456207,
        0.4827283525126053,
        -0.1543291622898227
      ],
      [
        0.5832261261340387,
        -0.17152764484805563,
        -0.04047733817419729,
        -0.10235574459872734,
        0.9598393704159062,
        0.3138631113171515,
        0.5736637529739309,
        -0.9500158861536918,
        -0.6255072273960219,
        -0.22072067586615032,
        0.33152211370317747,
        -0.1664968556893808,
        -0.26263970589617425,
        -0.43052904704881556,
        -0.14595669752969476,
        0.6431742704485066,
        -0.1458009775871854,
        0.4400542311764152,
        0.02226038243666917,
        0.15196683077461196,
        -0.053073133279147394,
        -0.22011668267793802,
        -0.10567049957894689,
        0.35719009761945464,
        -0.23791132322010658,
        -0.02384064761549079,
        0.9072450415867386,
        0.36133295070533034,
        -0.051845540261084455,
        -0.057598616973249715,
        -0.052328078396642774,
        0.005361428180502362,
        -0.43551361227923563,
        -0.16349754209692183,
        -0.2453156282915314,
        0.03770288302169824,
        0.9102823179460415,
        0.9372836245816888,
        0.06965735799297605,
        0.20143181132500895,
        -0.29202972882274136,
        0.29710181654011825,
        0.054837633021722954,
        -0.16750964036486396,
        -0.17318803699325094,
        0.33647210767909874,
        -0.22579879265731784,
        0.294833897344545,
        1,
        -0.6544924826023619,
        0.3944126456709371,
        -0.36349477942263264,
        -0.08870169746976393,
        0.04988624921496613,
        -0.0964668366874341,
        0.6710306748443648,
        -1,
        -0.2852571526382221,
        -0.13544736931209583,
        -0.3884964508770803,
        -0.31345505636652704,
        -0.7496554303446784,
        0.03851933585618474,
        -0.3685093510786338
      ],
      [
        0.6111730253099797,
        0.17653622001796127,
        0.25964314657376214,
        0.8949191655459616,
        0.4701098698954455,
        -0.12250176269120969,
        -0.11086156698731861,
        0.10672104189360285,
        0.1920391969559423,
        0.037414140824549795,
        -0.4305192777389318,
        0.1161303796305571,
        -0.7266941653281639,
        -0.5206083586995631,
        0.22314656189995755,
        -0.1744508066061711,
        -0.7115398450539243,
        -0.025215306158550957,
        0.5156034074355043,
        0.3903434035963886,
        -0.6660956689358121,
        0.6982853175521069,
        -0.13328476797386707,
        0.04018485190835893,
        -0.17364444548152752,
        -0.5308971205940702,
        0.0030155838911022923,
        0.22222524010615824,
        0.3925385731723916,
        -0.3649007077169133,
        -0.33408466977633144,
        0.05396896001152845,
        -0.7597891773945737,
        -0.09624935488209209,
        -0.09091733955908005,
        0.17135221639244372,
        0.21707268024028967,
        0.1747463814096974,
        -0.3143783163728646,
        -0.3593250624220681,
        0.4700417928573953,
        -0.4391298979478349,
        0.20030081366444216,
        0.2652600816275649,
        -0.2436020636974157,
        0.6004413931181055,
        -0.027850681381999545,
        0.02415446209687402,
        -0.0681800053044657,
        0.32642887996945913,
        -0.1854323862434122,
        0.5183897971693998,
        0.014939812158047995,
        0.38272376128740637,
        -0.3090051000388921,
        0.0951581047924667,
        -0.6228227059221922,
        0.6156630084295781,
        -0.9526071666535463,
        -0.08269154544297468,
        -0.0541855369090469,
        0.7117477195202665,
        0.028095400122509807,
        -0.011367058838821177
      ],
      [
        0.019167898386388816,
        -0.49778134887599734,
        -0.018268552202549304,
        -0.09461766752885328,
        -0.1342116813332586,
        -0.012118787631273345,
        -0.013501341308770218,
        -0.28753540500923946,
        -0.8198464825364258,
        0.6662305253410562,
        0.4375796100651076,
        0.21611854987910056,
        0.045797066752527815,
        -0.8546066266983985,
        0.2790290450471445,
        0.17934945407694708,
        -0.8755560386037898,
        -0.2728092735150298,
        -0.052345878442999004,
        0.18140566765223626,
        0.5677973164995247,
        0.42284396347342573,
        0.5320166620615815,
        0.07051808735720408,
        -0.1636578605445012,
        -0.3073874448768862,
        -0.76016706682872,
        0.3903283456756078,
        0.3104060671264368,
        -0.43807963187262466,
        0.4440216445070499,
        0.10823028303352351,
        -0.47175428689899496,
        -0.21246347435756527,
        -0.1276935685575632,
        -0.055255747344561505,
        0.2771423462732406,
        -0.2931559392542805,
        -0.362975152965114,
        0.11472425507527431,
        0.1507968166973933,
        0.1473675515936734,
        -0.2262470853899738,
        0.7499964389582331,
        -0.07786455010671157,
        -0.45594620857151624,
        -0.7073004774928747,
        0.24151511379650886,
        -0.14311038562430728,
        -0.31033760564031904,
        0.16320358574558513,
        -0.04518602702789983,
        0.09915332878819351,
        0.5838727752781707,
        0.06719573439765773,
        -0.014669854592452673,
        0.34405414623077435,
        0.4401659309708839,
        0.8884389400482178,
        -0.25280332896266333,
        0.4772346873173864,
        -0.6981178112769614,
        -0.5972124955978998,
        -0.7022364644641744
      ],
      [
        0.6801745028024365,
        -0.9056733793709952,
        -0.29063760806896494,
        0.04148182625060759,
        0.792479010708883,
        -0.16536370003563355,
        0.09661988079951159,
        0.23964122897319304,
        0.03837930658460297,
        -0.08924262505119626,
        -0.7774706535275836,
        -0.037565241737642203,
        -0.24925877634028984,
        0.38410011986283715,
        -0.0791252671464032,
        0.2812651794313754,
        -0.42805253274018396,
        -0.08868555752661834,
        -0.576026712471357,
        0.660653842169041,
        0.22730100984155588,
        -0.20466563975065588,
        -0.05578814336265937,
        0.21234194804397205,
        0.0125165202223159,
        -0.10696738699016162,
        0.7281795529488346,
        0.002342584689626437,
        -0.4127235290047411,
        0.17840576307246533,
        -0.12269489372613548,
        0.22899690277583729,
        0.7204845022517321,
        0.4828050747172403,
        -0.08735670720798616,
        0.3723538978159804,
        0.12275478799816922,
        0.1913326148357515,
        0.5778775823658017,
        -0.19061607396841887,
        -0.18291766062200415,
        0.551966490355242,
        -0.6471845924595222,
        0.11824605032985858,
        -0.1621459328273096,
        -0.31799142164096883,
        -0.1542611632741644,
        0.8966307419255164,
        -0.36922804902660805,
        0.5427970266593851,
        -0.1830934396757024,
        0.37643898326075,
        0.2451595139820093,
        0.15918645592714362,
        -0.3225392494662836,
        -0.5309396998246049,
        -0.5025200403183242,
        0.3212154751912794,
        -0.1460039404925543,
        0.3397365975883615,
        0.3710612190514395,
        0.40680031171673237,
        0.21324519253819074,
        -0.26054475922204684
      ],
      [
        -0.13413562946260288,
        -0.3788316382332304,
        0.34117475712343054,
        0.15402125204666478,
        -0.08417134004389751,
        0.1961316570282637,
        -0.3401698397465351,
        -0.5151869778353595,
        0.2550802054740499,
        0.15274734108206245,
        -0.025334520231525222,
        -0.3905360817009821,
        0.18558605259282393,
        -0.027484812497562818,
        0.6376319219736976,
        0.001613235307360916,
        0.085900309106602,
        0.10668342565120811,
        0.9021269083023071,
        -0.15036679427400731,
        0.980094303076541,
        -0.678564404304731,
        -0.12581108713667383,
        0.3290176045449784,
        -0.02578033128290764,
        -0.7373945171468703,
        -0.2249404601431789,
        0.3814043786949512,
        0.5288456460811383,
        0.5849136490827231,
        -0.047063638391976,
        -0.25086016622527285,
        -0.5584577886917188,
        0.156050661438091,
        -0.05905108134179571,
        0.31685921645980275,
        0.2275362973514878,
        0.0420103205800933,
        0.21211682576380791,
        -0.08382824163528264,
        -0.13279087320678645,
        0.76128996749472,
        -0.5334331539709843,
        0.98244708776474,
        -0.3438127710446102,
        0.09994762775899291,
        0.42824349795119676,
        0.8338794054113515,
        0.8345475909632087,
        0.2951325187478337,
        -0.0919543301015238,
        -0.43600518630649204,
        -0.1244628694702636,
        0.8502088366701278,
        -0.19974174395027053,
        -0.2549301119333962,
        -0.1754689656309265,
        -0.3819531860727311,
        -0.34229376674098166,
        0.4880401546553825,
        0.2684386646183251,
        0.974914798271906,
        -0.6830002389876271,
        0.35159289531923543
      ],
      [
        -0.009422831861916165,
        -0.6186623947199333,
        0.060630130283986616,
        -0.45056567313214146,
        -0.1819550818957509,
        0.5264826437778676,
        -0.12223940042822735,
        0.016601839415407986,
        -0.1272569891186711,
        0.7798898689468956,
        0.26013769306739504,
        -0.48054198398076414,
        0.4398408501681018,
        -0.042870443889425965,
        0.37509418159081637,
        -0.18457820555672033,
        0.5758221506600621,
        -0.7357749731190947,
        0.33595969873528464,
        0.10123055457262704,
        -0.5309285414357066,
        0.5438323217219273,
        -0.1872903405452766,
        0.1793118836085224,
        0.10512761216477463,
        0.7943046722972975,
        0.4359467023405879,
        0.3371954248239881,
        -0.022338424333763422,
        0.008044006952464926,
        0.6180557138164966,
        0.0800383561217824,
        0.20478614456182476,
        -0.150989790496737,
        -0.4625823694521736,
        -0.6055964167705351,
        -0.004784239160843575,
        0.8457202060010449,
        -0.24261546051804486,
        -0.4498243750026471,
        -0.133232421649434,
        0.4151227502587296,
        -0.1364502630945552,
        0.1468409000160177,
        0.16283923468638928,
        0.23809300234819258,
        0.05423128779143556,
        -0.36808716219730453,
        -0.49608930339798424,
        0.4672731725729187,
        -0.19997005577155855,
        -0.09770580291149195,
        0.3125374297414649,
        0.3040608745743939,
        -0.8700985225920667,
        0.6424191208889201,
        0.5850100918718609,
        0.3571647860895587,
        0.22559970127712692,
        -0.3166786472146671,
        -0.16689484480506797,
        0.5018315819182672,
        -0.35496667184234976,
        0.6096663785965222
      ],
      [
        -0.017830068351853218,
        0.6377845373212423,
        0.41278722596446493,
        -0.15657059795422473,
        0.3743776464883572,
        0.06541835777647087,
        -0.10567090795380053,
        0.062846051942957,
        -0.042324092947326725,
        0.25550049292258176,
        0.1599904615109969,
        0.2786214759488952,
        -0.28469969700274356,
        -0.08362615096179796,
        0.9125744141162256,
        -0.01973702901595135,
        -0.6428055955657233,
        -0.37587592161441535,
        -0.14528007607003063,
        -0.07503007130845124,
        -0.2851106046214533,
        0.22978892537310844,
        -0.14569406951825292,
        -0.7665557146332318,
        -0.7909403466771561,
        -0.31483474665285094,
        0.9269342458681102,
        -0.4505314236522161,
        -0.8457274076608821,
        -0.5159719548392567,
        0.029098638076351158,
        0.048552315915703234,
        -0.5607484541516704,
        -0.21742475455330557,
        -0.07734600980719473,
        -0.1643378201321961,
        0.1321772724125173,
        0.7075924357592146,
        0.2812288550067237,
        -0.44177393031421613,
        0.5422662540180193,
        -0.47191385042082246,
        -0.29359338492417153,
        0.027719491108671036,
        -0.7372834520469994,
        -0.6035206582121293,
        -0.536527772048429,
        -0.13877035858258646,
        0.1788859074521898,
        0.11084185867972182,
        -0.1510871968582699,
        0.496072087973213,
        0.20126122044549744,
        -0.34187524422019083,
        -0.0015844576075843776,
        -0.4954669544611575,
        0.035811852225771636,
        0.7186506974485882,
        0.46901529489949323,
        0.22518622763000043,
        -0.16234474923789874,
        0.44157273189691987,
        -0.34807139756936556,
        -0.4468608813178179
      ],
      [
        -0.8329747044960097,
        -0.14227208558199417,
        -0.010115514546025854,
        -0.11890442547561568,
        0.16829962458191017,
        0.934459996059612,
        -0.6544722469477982,
        0.6626436447291841,
        -0.5061579935847758,
        -0.3601038043846281,
        0.0613808752266841,
        0.9278673156569941,
        0.10472489522838845,
        -0.059413981705002075,
        -0.44692771437716383,
        0.03705118855205045,
        -0.01621325490629318,
        0.27824741333810377,
        0.10698923634157857,
        -0.371058900095109,
        0.40480061995155414,
        -0.14612036299926692,
        0.2492935636717936,
        -0.0671746780747591,
        -0.9444140195846558,
        -0.14881866064186075,
        -0.09516822993241074,
        0.41612361756544247,
        0.49096286032484715,
        0.25581395641434534,
        -0.26623071166764056,
        0.18214731921343538,
        -0.1663891686017876,
        -0.3183760588014758,
        0.5020705096526761,
        -0.12378451578987106,
        0.666855346024793,
        -0.04397463874295748,
        -1,
        -0.07491664449998438,
        0.21543867675249112,
        -0.052469878202879676,
        0.12066213344972561,
        -1,
        0.9915256674667248,
        -0.15286096208547617,
        -0.14404883832130103,
        0.7269365296102734,
        -0.4183043259718803,
        0.2227578102780436,
        -0.0036971422650849683,
        0.8817571176581149,
        -0.4226007610745458,
        0.2730205917315005,
        -0.9291946008270138,
        0.004696172377960639,
        -0.49415504448706804,
        -0.01781574854264466,
        0.07587803739777454,
        -0.032569725170142665,
        0.36593467104676686,
        -1,
        -0.09991335789241015,
        -0.13156633209484114
      ],
      [
        -0.20840014688820985,
        0.35493828142659706,
        -0.17585273088737866,
        0.5547643319355382,
        -0.05332192462828219,
        0.05105750738355871,
        -0.4504676832966141,
        -0.138158377187251,
        0.5427338542457028,
        -0.037920839197252774,
        -0.764747557693732,
        0.35803597727516795,
        -0.8589377956747716,
        0.3872353165241285,
        -0.6253749274003519,
        0.10138429287342819,
        -0.6183644457761741,
        0.24968974988523496,
        0.1001704197323736,
        0.7220080306526202,
        0.17063528321900187,
        -0.848736501792113,
        -0.11438004638617134,
        -0.13446959747912476,
        0.29137641725347674,
        0.28847447296179707,
        0.171361949029905,
        -0.07865164831948827,
        -0.0655042305481583,
        -0.473910563565861,
        -0.03806987254813769,
        -0.7159848982174319,
        0.3984392418141856,
        0.07547156419939673,
        -0.4328382206929183,
        -0.09933837438909206,
        0.6769452516758048,
        -0.6749590729433593,
        -0.6842420558727531,
        -0.12982363911190417,
        -0.5756271919920776,
        0.4328089099671796,
        -0.6999017756070233,
        -0.3373279763588141,
        0.10260219759680386,
        0.04775051872958252,
        0.6974894701688652,
        0.7699005455742706,
        0.0608359860308749,
        0.8884757592794684,
        0.14110195446045187,
        -0.02494580582737488,
        0.04059915321843422,
        0.4831477718249344,
        -0.2572451976697398,
        0.1088642902654956,
        0.12703938611137428,
        0.3623915080175534,
        -1,
        -0.5740899538622438,
        -0.4290664649969177,
        0.056069818390776134,
        -0.05007198548793898,
        0.39330416892836395
      ]
    ],
    "biases": [
      0.18626499025131113,
      -0.39094165689699434,
      0.4809717639506767,
      -0.27820659610661974,
      0.9169238957101404,
      0.7116900295885336,
      -0.45726398648929406,
      -0.24866521295447394,
      1,
      -0.06773366650562,
      0.379867083522751,
      0.23451032558489174,
      -0.557669004293626,
      0.5564115248102234,
      -0.30325362526744776,
      0.41749521219708075,
      -0.14734500969446265,
      0.6511954063834194,
      -0.05304803415193613,
      -0.18717549577848175,
      -0.578719616045201,
      0.2455613473882939,
      0.3466099511247157,
      -0.2921844564797026,
      -0.9379170536994934,
      0.5127044223505658,
      0.06120040408050227,
      -0.21814311225639502,
      0.0418492711166631,
      -0.08229929366927571,
      -0.08231897455423409,
      0.030139946905571386,
      0.8403818222843324,
      0.31329505795326007,
      0.40438266147843754,
      -0.20877664436288104,
      0.5203114001258361,
      -0.5393077497006643,
      -0.21928680875462986,
      -0.2078816593397528,
      0.5044014681748847,
      0.7174619496986029,
      -0.05044389453587058,
      0.1487584968086284,
      -0.5846320746943302,
      0.02333860424567075,
      0.06474169369384966,
      0.056732465908487274,
      0.2082323072684151,
      0.1133922873997847,
      1,
      0.4617377519889046,
      0.4364935697002478,
      0.14746513594344873,
      -0.031690399180132875,
      0.09276382219302984,
      0.04712925028311983,
      -0.116625706024372,
      -0.19918527133240416,
      0.9239712117194099,
      -0.22834551752929175,
      -0.07257638307182938,
      -0.5002839946332138,
      -0.563748571565323
    ]
  },
  "layer_1": {
    "weights": [
      [
        -0.2868700721409743,
        0.3994291603514373,
        -0.12543310753322523,
        -0.27017283585804536,
        -0.07733796556622789,
        -0.018538154479966516,
        -0.3623817545680002,
        0.25227436281568516,
        -0.16900803176771934,
        0.7059385837657064,
        -0.4241509068084541,
        0.03555136310465374,
        0.5398709937527496,
        0.5936285298917172,
        -0.1995251195375903,
        -0.04689895055962387
      ],
      [
        -0.46962957177744635,
        0.5371143323281485,
        -0.4776819286972091,
        -0.263176811803493,
        -0.015973293608059345,
        -0.09413045056714003,
        0.5094892461394721,
        -0.3269999778069481,
        0.007662901421878409,
        0.15267083651083385,
        0.058764245759682955,
        -0.44379539650346866,
        -0.13353172854369616,
        0.8793078417409106,
        0.014592420832646199,
        -0.5327238904379369
      ],
      [
        -0.1908336653243139,
        0.17503046039981626,
        -0.04442757379317502,
        0.974810779094696,
        0.5831873339330745,
        0.1350095371141699,
        0.5790622827866522,
        0.5641257742207826,
        -0.39744290389449366,
        0.25577392112604425,
        0.008155156128288977,
        -0.3456676192465159,
        -1,
        0.2018453408712079,
        0.049032269579920164,
        -0.8396457917303337
      ],
      [
        -0.010769599973697409,
        0.4188714664562753,
        -0.7834520076042695,
        1,
        -0.07022360641361118,
        -0.24574894358623842,
        0.046943678790681315,
        -0.049848386397219106,
        0.16893871314001202,
        0.907496652950638,
        0.15017603779718167,
        -0.08247007980106211,
        -0.9799659848213196,
        0.8330264174678201,
        0.2321604116204177,
        0.659711435126452
      ],
      [
        0.06913602637243534,
        -0.05227318986011058,
        0.1767160746284213,
        0.5594854019842561,
        -0.8263053459928991,
        0.3184618857101745,
        0.0014376125262995521,
        0.10629620767457505,
        -0.10534611034715989,
        0.311499126002098,
        -0.03864565002605764,
        0.1656304143337253,
        -0.23289881950065625,
        0.3680786339563703,
        0.16998624109175187,
        -0.4634629079483976
      ],
      [
        0.5823491906047551,
        0.8333147021158308,
        0.03338113651033601,
        0.5063984661367653,
        0.6198543326825188,
        0.16887846549671795,
        0.9632593799869227,
        -0.04389029491604663,
        -1,
        -0.09554190322177591,
        -0.17809395193466765,
        0.09750380307936547,
        -0.4419164306328723,
        -0.4303331701496027,
        0.008725685160181147,
        -0.2582883444731409
      ],
      [
        -0.17459737031135722,
        0.1949894359842732,
        -0.3901308716364078,
        -0.09859439164113988,
        -0.007814322495008415,
        0.431897442813962,
        -0.34409207032400124,
        0.029552631122066107,
        0.4461864035718307,
        0.01887061172453296,
        -0.09620051931272348,
        0.18834969823079908,
        0.2739291756495911,
        0.25644478893216144,
        0.5673282795675475,
        0.24615370724192454
      ],
      [
        0.5976812137669358,
        0.13332864451416948,
        0.3019334280441526,
        0.14750115944481662,
        -0.44086139523684453,
        0.053128739768635226,
        0.4967496238646663,
        0.38471693678128077,
        0.6851415519304024,
        -0.6798413373170297,
        -0.2490106890686636,
        0.18934977840907222,
        0.10214530453174918,
        0.5780582425638326,
        -0.2992834499502743,
        0.1792413293780882
      ],
      [
        0.5314530561781435,
        -0.16719185749100396,
        0.9638498400027017,
        -0.4877576079226488,
        -0.17582032800477176,
        -0.019100082955957786,
        0.9840220409369415,
        0.30350431812397743,
        0.47585278636658473,
        0.6173607365910122,
        -0.7859958493472956,
        0.182437162044191,
        0.06567088036060967,
        -0.40984821303684416,
        -0.3503751383586986,
        -0.263866397143445
      ],
      [
        0.6782871344784586,
        -0.7032702466897232,
        -0.27003751514828894,
        0.23821106355781205,
        -0.7255559247049269,
        -0.059252421799791524,
        0.2560073783879913,
        0.3517670992662448,
        -0.1494060126713128,
        -0.024960157624735576,
        0.38665007332326834,
        -0.3346838021420927,
        -0.3378319335315345,
        -0.8998564172411436,
        0.42427315853828296,
        -0.03759492585755815
      ],
      [
        0.11850431780261753,
        -0.364050268580906,
        0.2913494000668787,
        -0.5038389876578999,
        -0.18802880063929003,
        -0.08651223155518627,
        0.2686542581769817,
        -0.6434007600632056,
        0.07863949547552052,
        0.8047212811431343,
        -0.4770869770352803,
        -0.8866104825808203,
        0.15894661465225368,
        -0.1710309018713146,
        0.4379526908148559,
        -0.17075710271644762
      ],
      [
        -0.5683328368137122,
        0.2724799916484313,
        -0.05971616477612556,
        0.6765160124933155,
        -0.3142654112684548,
        -0.01738397985066029,
        -0.39675647933074387,
        -0.16712500564055421,
        -0.7058496269664344,
        -0.2927342805910417,
        0.6777096494837573,
        -1,
        -0.39406729137700314,
        -0.5228617264944128,
        0.2904483982718699,
        -0.5455941332793383
      ],
      [
        -0.15218514794083582,
        -0.19755810038213886,
        -0.1455828896983471,
        -0.3239159654957178,
        0.09722988655328399,
        0.07386205881083763,
        -0.2076125904430751,
        0.18728961600278177,
        -0.4932984773618969,
        0.46952707758374995,
        0.17406157011595041,
        0.9387312861263588,
        0.7522583830454259,
        -0.6258259917550264,
        -0.6284698193052363,
        -0.017387811528028416
      ],
      [
        0.44425780507661417,
        -0.14100833945118305,
        0.5777449233061717,
        0.22103428944886586,
        -0.6178834938209556,
        0.09028243297754275,
        -0.2887533664527486,
        -0.04731694898175669,
        -0.27313835616199883,
        -0.35049993359326104,
        -0.43156847951384164,
        -0.48011573849529554,
        0.12313360336595316,
        -0.30561354019707887,
        -0.7730196530354303,
        0.3891772117707553
      ],
      [
        0.15549135038367481,
        0.19459279329007714,
        -0.24660250629711994,
        -0.4655343945640248,
        -0.9000876271921499,
        0.29506850128122175,
        0.4468257105095087,
        0.4753743092968862,
        0.25174011208111724,
        -0.8211741670022435,
        -0.4105509921206152,
        -0.35175553679032046,
        0.22036399471305437,
        0.045722819738321006,
        0.06150238882253818,
        -0.8959619018136458
      ],
      [
        0.0628264360459977,
        -0.36880535895646277,
        0.47397107842254704,
        0.4281844649063495,
        0.3315114101235597,
        0.5754175791079732,
        0.5253033457284585,
        0.8299842165230397,
        0.31749527235743863,
        0.181458296122545,
        -0.011164899088666741,
        -0.6373980781428565,
        0.48994382674462034,
        0.011017534870274542,
        -0.8990287302663068,
        -0.12607633180408193
      ],
      [
        0.23363817006601367,
        0.7883748151779281,
        -0.3052266011081589,
        -0.6071176042535975,
        -0.1844224778919048,
        0.104408733334528,
        0.1433941706923946,
        -0.1251639087331031,
        0.05539724547871193,
        -0.039102440397271336,
        -0.4151427269649032,
        -0.0501418154452322,
        -0.05040126079222687,
        -0.07796863242437986,
        0.23590128176146835,
        -0.07891679914297858
      ],
      [
        0.613610458507374,
        -0.06172977069075823,
        -0.32353389614028283,
        -0.0843283903534433,
        -0.19984690165944366,
        0.21965284668920093,
        0.5994712539613138,
        0.34422780002656855,
        -0.6027373071923962,
        -0.26555822690879466,
        0.19018872259304603,
        -0.10949822337777625,
        -0.15352464881322375,
        -0.6148033891683701,
        -0.6870228637778808,
        0.18620024746811792
      ],
      [
        0.34062168938982695,
        -0.862194207959412,
        0.24849465643489355,
        0.11566611684179891,
        0.03300527875841953,
        0.21173743602324546,
        0.37656275268649636,
        -0.3698971091528258,
        0.23729614952241423,
        0.4761940828167697,
        -0.22546480245670777,
        0.19494868936762605,
        0.17838769261725151,
        -0.448767844341468,
        -0.21667924981257775,
        -0.07503496807097954
      ],
      [
        -0.19373167545746114,
        -0.06880691407139854,
        -0.04655920491829584,
        0.3058254007944943,
        0.18608672615185545,
        -0.2567892506809917,
        -0.2707207586287005,
        -0.05434125413738066,
        -0.3573825044805894,
        0.35601132753448883,
        -0.00904694538925625,
        0.09991418358079966,
        0.1737780375249204,
        0.46275264402180305,
        0.21772555865798518,
        -0.38425413383291407
      ],
      [
        -0.7132499076283354,
        0.013231705875212517,
        0.37225009991933367,
        0.15541177572426149,
        -0.5147264370641376,
        0.19215532214438738,
        -0.0089509086757327,
        -0.11374126469355901,
        -0.22130272313614713,
        -0.587536196810484,
        -0.3696423608907907,
        -0.23032834095728247,
        -0.8473861973092298,
        0.02626511968986326,
        0.32161886107672755,
        0.5586580445189637
      ],
      [
        -0.4744257603826952,
        0.21088061957895785,
        -0.058343630760605954,
        0.057586023302776734,
        0.09778624764723078,
        -0.5516861484488494,
        -0.48400363675116687,
        0.5046081384417012,
        0.31106004979101143,
        -0.2547406417957176,
        0.027774484750677224,
        -0.033692852968919024,
        -0.21514766109043812,
        0.1695441935913304,
        -0.3241550607123254,
        -0.37836953121458067
      ],
      [
        0.9128715448408524,
        -0.0378766603754061,
        0.6669663807212017,
        0.09126662753151826,
        0.5293608361847836,
        0.3415498248373139,
        -0.4172993603673618,
        -0.5682311575000906,
        -0.5493210437086632,
        0.2878319652189174,
        0.14245449256256104,
        0.40003232721774623,
        -0.006502585089750509,
        -0.3739816831901044,
        -0.4950474529053988,
        0.7291248034847192
      ],
      [
        -0.021080817283495368,
        -0.5644187245759629,
        0.7459869082404098,
        -0.48505447968171156,
        0.027398917633439573,
        -0.02000479741035703,
        0.35154438003310096,
        0.0878171509384436,
        0.12605724985411068,
        -0.4832379980009398,
        0.40675837869528303,
        -0.3080179219424062,
        -0.6604932926535686,
        0.20686842130958066,
        -0.7598124122074763,
        0.0058305429058268425
      ],
      [
        0.004374130855273408,
        0.011129188505562783,
        0.4661185454692695,
        -0.3689436342653622,
        -0.012160225657214462,
        -1,
        -0.5732034227781467,
        0.15412366465927474,
        0.029819257603325496,
        -0.4584963885151116,
        -1,
        0.04998241794872057,
        0.1438798095172984,
        -0.8432444493193998,
        0.17135392367419275,
        -0.0064895880609893795
      ],
      [
        -0.35946978831470694,
        0.22291028724950257,
        0.3317243461421402,
        -0.4832754719643303,
        -0.6686739519979727,
        0.14085664819352686,
        -0.8709442527333746,
        0.5396459714594259,
        0.5382624458781836,
        -0.48795628147436065,
        0.09512430129592306,
        -0.35591832524694506,
        -0.003352956633875615,
        0.10412655596614716,
        0.26921943522613223,
        -0.3648602052874015
      ],
      [
        -0.15239893277604077,
        -0.19177552037512455,
        0.08612245802497565,
        -0.002293232897136254,
        0.01633449286328868,
        0.4311951036806953,
        0.38221173262105534,
        0.15699616462739338,
        -0.5150422014251606,
        0.7388686473680562,
        0.09583158156726292,
        -0.29010431109220064,
        0.7171306237113199,
        -0.42821272436290336,
        -0.3167873156617611,
        -0.650361592953492
      ],
      [
        -0.11254343032146398,
        -0.11758137842302555,
        0.252317370220992,
        0.33676513256626367,
        0.1876772486325412,
        -0.140053370527071,
        0.5858878731281558,
        -0.6538260406423813,
        -0.18820489710357374,
        0.402658774623885,
        -0.4478788073539373,
        0.36023188038811654,
        0.2927989975809041,
        -0.07000908071317231,
        -0.900771994289406,
        -0.050333824813154945
      ],
      [
        0.3218234075960939,
        0.2992781306397209,
        0.39421880748358457,
        0.48669110439460855,
        -0.029870243200038234,
        -0.45472774195648535,
        0.05771000330699144,
        -0.206709080682024,
        0.9084096547351346,
        0.19251561152376012,
        0.7381635207459809,
        0.1315102721645134,
        0.5258661140919317,
        0.2328434657964121,
        0.5332007741860426,
        -0.8019446850203142
      ],
      [
        0.08083410496005626,
        -0.12420290708936757,
        -0.7449720819130797,
        -0.16862333816210343,
        0.8497819574331444,
        -0.7274637296326734,
        -0.14141633962823794,
        0.04386777862406051,
        0.20389341981263318,
        0.8206217648824468,
        0.20965739713585538,
        -0.10079525052202294,
        0.5983442671073993,
        0.19754021254828494,
        -0.08086425486091324,
        0.08477736852222818
      ],
      [
        1,
        0.1538538290419413,
        0.5870279022178444,
        -0.8023501504336265,
        -0.246457492730574,
        -1,
        0.4350102207656291,
        0.03847929466404317,
        0.040172359094752724,
        -0.4974345525107499,
        -0.5051882719133288,
        0.3397031903107472,
        -1,
        0.1975802630900802,
        0.232994423935485,
        -0.9986006021499634
      ],
      [
        0.5056644037609344,
        -0.29337666758093184,
        0.10456226419378872,
        0.7722426146882766,
        -0.4150039933813668,
        -0.41219089502828177,
        -0.21001504329701554,
        -0.2667924566046662,
        0.0067896445580106,
        0.10267296223783402,
        0.3975158346576329,
        -0.2287139226291604,
        -0.6228210592049396,
        0.8618805533855313,
        1,
        -0.1737708571923929
      ],
      [
        0.15335282904222178,
        0.7967685625523692,
        -0.2899784338664397,
        -0.28693713830313944,
        -0.35443070060539106,
        0.09140925600392395,
        -0.6012900462965873,
        -0.3196806547665809,
        -0.18338527272716393,
        0.07662987987088841,
        -0.3522437533180448,
        0.9555237814500738,
        0.0019929546887561926,
        -0.803809683066031,
        0.16427806726618693,
        -0.5358331442803914
      ],
      [
        0.34835530890448074,
        0.07304600256397893,
        -0.6843514494876803,
        0.5118798571296391,
        -0.4497826521903201,
        0.43080947772132794,
        -0.4436866012689242,
        -0.6442267852911512,
        -0.33126617636321837,
        -0.9531579613685608,
        0.06830538343162738,
        0.24296132000795728,
        0.3556552620776213,
        0.7332478674597822,
        0.08584355061474218,
        0.11892834345639765
      ],
      [
        -0.2229451267520717,
        0.17742234246859195,
        0.22019229841176546,
        0.5955520136129273,
        -0.24692350836660595,
        -1,
        -0.07496611500471832,
        0.06497781464591385,
        -0.7462368905029556,
        -0.23526010998550928,
        -0.018676833542150113,
        -0.8798371895490007,
        0.5232315739099617,
        0.2757141927259994,
        0.2539533581169193,
        0.1712818705577921
      ],
      [
        0.22381080838351466,
        0.24965628463565204,
        0.0487424955978499,
        -0.18070091805369545,
        -0.011993550586311566,
        0.13934498291514727,
        -0.18713460214290095,
        -0.5545156436733333,
        0.15685257154374724,
        -0.609050831764545,
        -0.11431258960130211,
        -0.11678069856363354,
        -0.8896902203559875,
        -0.41507340199869425,
        0.3612923271680772,
        -0.04267165184579452
      ],
      [
        -0.11549080075504857,
        0.332197658150645,
        0.5338075537098546,
        0.394393950372139,
        -0.12271053113694419,
        -0.0814883745370498,
        -0.6020163291392308,
        0.22992411153961323,
        0.0032194501496022195,
        0.7170580632105549,
        0.14902994363744024,
        0.5643202732641136,
        -0.16746061631070241,
        0.015986506533633153,
        0.3100392349441037,
        0.2511377175952574
      ],
      [
        0.6190617818929594,
        -0.09889821080528541,
        -0.15960153320459788,
        0.20444526787128728,
        0.5645441095875644,
        -0.11211304180845583,
        -0.3235787669850593,
        -0.033255389201009324,
        -0.007971662532926829,
        0.7066330613916614,
        -0.35161231277393973,
        0.3125414395050411,
        0.7156555952817166,
        -0.455271817911222,
        -0.35541561854211007,
        -0.23832089874064413
      ],
      [
        -0.2147232187835429,
        0.32386732262387513,
        -0.0211676940406323,
        -0.12573108471206382,
        -0.34971335763004435,
        0.15484771554176277,
        0.7936923802089338,
        -0.1752894448732712,
        -0.39076402249657005,
        -0.08756971064200682,
        -0.28274651922110206,
        0.8537653792915388,
        0.05375433248481695,
        -0.12547655066207614,
        -0.564612478930687,
        -0.1134238288282612
      ],
      [
        -0.8857738967742161,
        -0.6421689145682958,
        0.1751784633244055,
        -0.139752318179578,
        -0.0381544761278868,
        -0.23452014295147744,
        -0.30554389908742235,
        0.6187594463126413,
        -0.5556137744756148,
        -0.062355771186778715,
        0.452885525938262,
        -0.11965007480989139,
        0.15289012744960906,
        -0.2387337099922806,
        0.3301431935964254,
        0.07481447854127177
      ],
      [
        0.5786550054910862,
        0.8637849429725573,
        0.25470921316272255,
        0.14064197694578862,
        0.5431700257309193,
        -0.6429981254643559,
        -0.08811390712239027,
        0.3238960373000347,
        0.21402422713298025,
        -1,
        -0.32252984762902265,
        -0.0625515358470943,
        0.6503964541820151,
        -0.5312965149158684,
        -0.42657731950316263,
        -0.8890929250541588
      ],
      [
        0.4770297003739909,
        -0.5354569308266075,
        -0.1550687185738605,
        -0.012469717663688798,
        -0.5162941260212905,
        -0.2148661027608089,
        -0.015825852627834428,
        0.6224171823492347,
        -0.8225385146064114,
        -0.2590804475095012,
        0.9719415217653727,
        -0.7444921100671047,
        0.9243571162223816,
        -0.3318259357901758,
        -0.02878518652369468,
        -0.03382967660484828
      ],
      [
        0.23586375386091038,
        -0.25279136767106214,
        0.20001342016456572,
        0.6566091709376416,
        -0.4762035538754673,
        0.9517607855062635,
        0.4686894482220289,
        -0.13845780946601022,
        -0.13781931654965168,
        -0.17990576484382445,
        -0.1913141982603229,
        -0.24326390325235436,
        -0.1387766588395559,
        0.16958748532646375,
        0.4429985760524854,
        -0.3289728324345942
      ],
      [
        0.4616535842552653,
        0.04200121601362503,
        0.5816621584133973,
        -0.049751443081542404,
        0.01273763720875659,
        -0.6502484715537709,
        0.07988001244850088,
        -0.13437567549183843,
        -0.5347296395458823,
        0.06699814899816223,
        0.23035582493529458,
        -0.12823786682095428,
        0.06614402569435275,
        0.12380653649869013,
        -0.40845217172170695,
        0.16132097272346646
      ],
      [
        0.05890409673992746,
        -0.10246630451376183,
        -0.7869381706845795,
        -0.08764233901677468,
        0.46922884932357284,
        -0.604209375785871,
        0.2955641009083434,
        -0.20782462279223393,
        0.15510474573174435,
        0.4952424465790423,
        0.08043913165426853,
        -0.15781054434266764,
        0.35669896851126043,
        0.02854233816498538,
        -0.29328603541052095,
        -0.3816088641650815
      ],
      [
        0.21182941396095828,
        -0.42930919903519876,
        -0.9078150391578674,
        0.26979547674164084,
        -0.4513145223386146,
        0.36584331331880626,
        0.09926355488873341,
        -0.24655282986836013,
        0.7740423896336793,
        -0.15707637953103334,
        -0.05611999370867366,
        0.5533680165778879,
        -0.13979008493079156,
        -0.9545041010415842,
        0.3960478993274839,
        -0.06777636686940522
      ],
      [
        -0.780123910767513,
        -0.503784741335767,
        0.6980959149811862,
        0.04680993925686559,
        0.09834153955192076,
        0.23268464120712576,
        -0.46354701080755545,
        0.1760600040085307,
        0.21397448836441113,
        -0.7250071243994795,
        0.6323045708050712,
        0.158721148422465,
        0.47505729379664696,
        0.9965590557800231,
        0.6713796473940811,
        -0.7071928725250937
      ],
      [
        0.4201223904040809,
        0.9294232726097107,
        -1,
        -0.8681679661789302,
        -0.19970853500927246,
        0.8769762397370451,
        -0.41273269827101994,
        -0.5031969425149984,
        0.12145868251084099,
        -0.02227034408043167,
        -0.6825974426373507,
        0.09262340599267194,
        -0.05852660633170274,
        -0.4434365238078296,
        -0.5917690374274908,
        -0.1222191346014108
      ],
      [
        -0.026146043950511396,
        -0.7920912731497326,
        -0.3967043860273981,
        0.5324752924807004,
        -0.010759052327674098,
        0.43955033595936355,
        -0.6286408026691209,
        0.10617928990426002,
        -0.8727091852954899,
        0.459975940580411,
        0.17186685725905992,
        0.8647600614334018,
        -0.416656988457734,
        -0.14003197469687712,
        0.09269486459018166,
        -0.2497907518099612
      ],
      [
        0.051958233637249225,
        -0.09667611235063188,
        -0.1519399315821925,
        0.924878320312267,
        0.13526886449886993,
        -0.1498790919660682,
        -0.23371217857782173,
        -0.5926498598422567,
        -0.7387524976350824,
        1,
        0.031129107437901194,
        -0.27656455506458205,
        -0.06821291849650808,
        -0.5276839488389071,
        0.2041639466564068,
        -0.9200420379638672
      ],
      [
        -0.37830539460151463,
        0.5474599232616909,
        -0.07516419230847397,
        -0.0607671438617184,
        -0.01834532264761659,
        0.24750038918907669,
        0.29068192797302134,
        -0.7232694236299873,
        0.578220883710355,
        -0.1402818706382615,
        -0.18687900087849288,
        0.19190482160006134,
        0.020236611359042908,
        -0.13178062590919956,
        -0.6681084360174094,
        -0.11233829352073937
      ],
      [
        0.03685630054951544,
        0.21812662671600663,
        0.3208586404473436,
        -0.22831158130879942,
        0.44666508125133136,
        -0.042053652297938456,
        0.018300988085790046,
        0.476481471482631,
        0.41942420615199455,
        -0.21640833911043025,
        -0.7200243593965263,
        -0.36846793263603883,
        -0.5933678169639977,
        -0.06855868004595107,
        -0.9241749155478507,
        0.08449405822820015
      ],
      [
        -0.17185830905559246,
        -0.19979424889725522,
        -0.6135808365564247,
        -0.4099933688255318,
        0.2278046946717977,
        -0.2888444478534889,
        -0.3423381843763865,
        0.9770319774899505,
        0.1382752323530144,
        0.4432918024268942,
        -0.29266845580935075,
        0.4831036515897851,
        -0.8274010300699213,
        -0.2336697293650082,
        -0.04308163684598605,
        -0.29743274031906
      ],
      [
        -0.1551536863372734,
        0.06665928204700285,
        -0.01750906930549582,
        -0.8219249332870251,
        0.5142087498303449,
        -0.889862449859693,
        0.3017630484815983,
        0.02928056346976191,
        0.014871428820900829,
        0.2613827474266008,
        0.2312485706634664,
        0.9008414553247528,
        -0.18089134767865128,
        0.7561920308053659,
        -0.5825381531913342,
        0.28427662692703587
      ],
      [
        -0.1421583607929536,
        -0.6944398012519047,
        -0.679170107379265,
        0.7839444700650012,
        0.054595250969050706,
        -0.006967081266895426,
        0.45553445960057176,
        -0.10324294008354813,
        0.040437126158193074,
        -0.04207621670055287,
        0.4714521314754398,
        0.09740403605362843,
        0.004448728277538868,
        -0.3432304216341818,
        -0.18040251237550628,
        0.8813542051725052
      ],
      [
        -0.047174884809100225,
        -0.2659254077088746,
        0.10622856530239139,
        -0.7643488275213594,
        0.7980743419203581,
        0.9466658512707865,
        0.13694573690141665,
        0.3405089736990827,
        -0.3199122392815644,
        0.3011259406814217,
        0.38430179841356393,
        0.3780867857217553,
        -0.04981257055695072,
        0.5747681856989894,
        0.46842432341664625,
        -0.027284658525991698
      ],
      [
        0.03889272442470716,
        0.5438977862493146,
        0.044864637424883495,
        -0.40949953163628944,
        -0.8569597329707016,
        0.649178005822233,
        -0.9209213712929023,
        0.13305021999104844,
        -0.25069181129643026,
        0.635731046568822,
        0.03100152399169197,
        0.22039381752181633,
        0.24121298254035703,
        0.2309776747274551,
        -0.6531404736992449,
        -0.18284484855525363
      ],
      [
        -0.37004315808667376,
        -0.012973234976492493,
        0.5847042228731965,
        0.1369414004265757,
        -0.4249740246314788,
        0.3678170754789922,
        -0.27917302763323326,
        -0.5315193614414082,
        -0.23161778828779733,
        -0.010351649016613541,
        -0.047946496649405514,
        -0.0605869962087317,
        0.0809146235039212,
        0.18893541954803775,
        0.2263037196958472,
        -0.7395110541625991
      ],
      [
        0.09873507893621587,
        0.15270892952434015,
        -0.393713872412487,
        -0.5110441351865036,
        -0.03877160090322257,
        0.498072670105831,
        0.3545157622959122,
        0.3908574666959811,
        -0.15706071807457272,
        -0.07704367663899364,
        0.2546793891021534,
        -0.32780861936776046,
        -0.3090400184103067,
        -0.1603331030635945,
        -0.34762083422800916,
        0.065895083890807
      ],
      [
        -0.49696367256589496,
        0.058329637411254215,
        0.5215861807582746,
        0.31269867239122306,
        -0.3236917623670614,
        -0.20063805188280498,
        -0.4115270973264609,
        -0.7054968906772269,
        0.27153637281225845,
        0.3354157098027225,
        -0.11569630706016891,
        -0.1576933721799639,
        -0.5716283410551413,
        0.12804259479526867,
        -0.6739498562257297,
        -0.6674841667325363
      ],
      [
        -0.07272087047095416,
        -0.20888217267242065,
        0.3361613344303234,
        -0.005117152333803909,
        0.16785975913952197,
        -0.06723430675004873,
        -0.3467023832106277,
        -0.6778223886926742,
        0.4950318732137294,
        -0.03438596819578469,
        -0.1803399782127314,
        0.3828186791910369,
        -0.16365649285812336,
        0.037911397686246094,
        0.8266538311968615,
        -0.32456432290254783
      ],
      [
        0.017210097258090282,
        0.750750530920305,
        0.32703021829501044,
        0.2418964914808329,
        0.5834140713688907,
        -0.335764358298253,
        -0.19218919757335656,
        -0.30045957582353056,
        -0.6859061434376693,
        -0.49023196162163163,
        0.2255228278709414,
        0.0685774006228932,
        0.16774576780117806,
        -0.1143116620735503,
        -0.5118229566281884,
        -0.8217270254951389
      ],
      [
        -0.43092140232852727,
        -0.5685172961627329,
        -0.025668925940140357,
        0.10279673526514453,
        -1,
        0.5205720489193342,
        0.26736331353418874,
        0.0910827432178655,
        -0.7341529701259121,
        -0.2642099025376334,
        -0.9090504082838057,
        -0.6278293927208417,
        -0.06302654804399233,
        -0.20302880329281706,
        -0.15777191207855484,
        0.044392878765169806
      ],
      [
        0.6075387716863628,
        -0.5387258689883833,
        -0.8441386569392935,
        -0.10644339940872567,
        0.9395115971565247,
        -0.5372070989880363,
        -0.11786973093783519,
        0.6994584065891053,
        -0.3148065150774332,
        -0.15078797481647263,
        -0.8005281229492764,
        -0.37483471868214424,
        -0.0012647016869216207,
        -0.22754883791876035,
        0.061367479163364796,
        0.15453768294075507
      ]
    ],
    "biases": [
      -0.02390172125638436,
      -0.5316271690261885,
      0.21602863094241634,
      -0.5500880263936433,
      0.5041661499405234,
      -0.5026292890360723,
      0.12466963964726573,
      0.17940400679323856,
      -0.8138432570997337,
      0.14740749109775836,
      -0.24399785102876417,
      -0.8874724393334128,
      0.4061432831141088,
      0.5874513682031666,
      0.18012913085926346,
      -0.7373818285515605
    ]
  },
  "layer_2": {
    "weights": [
      [
        -0.5343647058273531,
        0.4730137673128078,
        -0.1661153094023985,
        0.30745053915004733,
        -0.04017389495546032,
        -0.26411203252781557,
        -0.8497088867941647,
        0.02237579835308113
      ],
      [
        -0.6682427281004542,
        -0.9353829337496521,
        0.9387980001661476,
        -0.12982984544919426,
        0.044020207998469764,
        0.22531840535671868,
        0.42698184828101615,
        0.19392469457023626
      ],
      [
        -0.36475294506238465,
        0.29536157711444416,
        -0.4978161204884752,
        0.138083108366719,
        0.14463016593351838,
        -0.6029282845517714,
        -0.42903155079914224,
        -0.10822138408899055
      ],
      [
        0.4857012637192006,
        -0.46194770374257005,
        0.617759927732382,
        -0.2846360635341912,
        -0.20185580091165908,
        -0.12204120618817092,
        -0.24187372383814176,
        -0.3086452963727072
      ],
      [
        -0.21172755520834885,
        0.4755748188601067,
        0.7532391566638841,
        -0.42873557557081887,
        0.2573559189587233,
        -0.3624568934085338,
        0.6481495903405672,
        -0.05683173529466996
      ],
      [
        0.025123623442563935,
        0.042930137597598374,
        0.0240719104637056,
        -0.1827185323820186,
        0.29126491114559655,
        0.381389753679593,
        0.19409379662661314,
        -0.45132469665250685
      ],
      [
        -0.07412871391595782,
        0.23227992556612825,
        0.23655537787117906,
        -0.13780246191168005,
        0.006029790495806136,
        0.5132096468360996,
        -0.3388540834119641,
        0.045932601817165665
      ],
      [
        0.44296379343527803,
        0.38175807919607013,
        0.8568671760452353,
        0.26158132043969007,
        0.3568600829542525,
        -0.1685803513808696,
        0.03518530721475244,
        0.7162000136288685
      ],
      [
        -0.008799091396156618,
        -0.7826286898092989,
        -0.4392181894313016,
        0.42827279524768447,
        -0.5479735615048906,
        -0.31376927759444145,
        0.33102778722381704,
        -0.013906754474991515
      ],
      [
        0.3507785730900493,
        -0.23250970373773772,
        -0.09608746852101878,
        0.7542258665041733,
        0.14255222893901892,
        -0.8165143393247895,
        0.4054954701454076,
        0.29499582624481746
      ],
      [
        -0.4388235292168707,
        -0.22697388939683097,
        0.5987295532302777,
        0.044701762193159564,
        0.03555473637503062,
        0.7156856442810366,
        -0.1508188694227862,
        -0.6487064026040258
      ],
      [
        0.896849197407068,
        -0.06746336178009105,
        -0.4338164403450047,
        0.2855759779360189,
        0.526528013322412,
        0.8357905155585796,
        -0.09464008633475396,
        -0.06585174043895975
      ],
      [
        -0.5954942183599599,
        -0.4518077898611104,
        -0.010731271808747932,
        -0.2890120895931663,
        -0.10218718811321541,
        -0.12191208073168514,
        0.7979203264509214,
        0.8891882557125265
      ],
      [
        1,
        0.30958088125989763,
        -0.29974321825015066,
        0.1262947576674421,
        -0.7589544347094496,
        -0.473958561908403,
        0.17460809511828326,
        0.9235043622122987
      ],
      [
        -0.31298527100592893,
        -0.5580506215192857,
        0.00038262452646086164,
        0.05643119741685827,
        0.12072115892145288,
        -0.40278735830868634,
        0.5178653508869795,
        -0.1473618031889869
      ],
      [
        -0.25185781235899135,
        -0.175426842528355,
        -0.014554202139256166,
        0.20575803764608538,
        0.45345116679690917,
        -0.0850821309087976,
        -0.11349197107178365,
        -0.3568753737581832
      ]
    ],
    "biases": [
      0.6149678263703768,
      -0.7438978486990746,
      -0.48097263009554125,
      -0.03032557257855964,
      0.04304276786961474,
      -0.36429540826938556,
      0.08272405685459092,
      0.16173888779926432
    ]
  },
  "layer_3": {
    "weights": [
      [
        0.5697847101153715,
        -0.5646717434909746,
        0.6561453404170969,
        0.07230145417281512,
        -0.1371085028073922
      ],
      [
        0.18528145794486336,
        0.08798787315988565,
        0.34294107309029803,
        0.877551784342905,
        0.7822788783910001
      ],
      [
        0.03457741262045754,
        -0.25365133413259827,
        0.07781990860769912,
        0.22633114019081046,
        -0.24796785338489774
      ],
      [
        -0.4987221376763459,
        -0.44156716275531216,
        -0.45865671827079374,
        0.11788674753795643,
        0.6964562948877956
      ],
      [
        0.22587836466196887,
        -0.08494449158525386,
        0.915237168842857,
        0.21660569920425546,
        -0.07315661568197292
      ],
      [
        -0.3656827025582173,
        -0.5395021644567115,
        0.0638495826130134,
        0.12099669597108759,
        -0.9500863701214406
      ],
      [
        -0.35075596061818437,
        0.44159583408585434,
        -0.8978098589037362,
        0.2304484881818641,
        -0.9334483360544965
      ],
      [
        0.7317242365950558,
        0.27973402574262474,
        -0.11461619717166655,
        -0.3127422251866124,
        0.30373511314289564
      ]
    ],
    "biases": [
      -0.6077104097651727,
      0.0922178660262888,
      -0.11521372030551424,
      0.11230710790273225,
      0.074599792121368
    ]
  }
}