{
  "layer_0": {
    "weights": [
      [
        -0.916900034298378,
        -0.465160187070083,
        -0.3950013550982203,
        -0.4080903380134209,
        -0.906016379617886,
        0.03794641716467151,
        0.6858522875686874,
        0.0667751938180301,
        0.9016020416545132,
        -0.6607369225787847,
        0.853846462681213,
        -0.35706145060660277,
        -0.9226245241564055,
        -0.8576617983523853,
        0.03463903677413227,
        -0.606086297135702,
        -0.6731850982202643,
        0.4722444372166499,
        -0.9340331511858206,
        0.4814208739672281,
        -0.8863958365793441,
        0.3714302562431755,
        0.21240233105637985,
        -0.33957355268314604,
        0.47725578373352895,
        0.9133827641868908,
        0.48586577353803273,
        0.10785768535582463,
        0.20003535664078465,
        0.9542989782833076,
        -0.8201110194689099,
        0.25257733192480214,
        0.17150175467509787,
        -0.131731873045571,
        0.734261697803477,
        0.728847488972207,
        -0.024991151823906765,
        0.4265657827375291,
        0.2547643586812667,
        -0.7571616374367807,
        0.1931364279251251,
        0.6914873110396298,
        -0.1757226152643836,
        0.7655277789611585,
        -0.8269968778796255,
        -0.054987695551832694,
        0.26974069073005147,
        0.6794240587115727,
        0.6292718152848955,
        -0.3284196270000139,
        -0.7052634552321602,
        0.3442657832716214,
        -0.1852247323640135,
        -0.9526128725330589,
        -0.16903935415956228,
        -0.7496184138934325,
        0.9276600915075532,
        0.7446936860538986,
        -0.4752042119098763,
        0.9745969045458995,
        -0.5948320385522494,
        0.02900911750494295,
        -0.6470600011299523,
        0.03713970482600781
      ],
      [
        -0.8562125255136546,
        0.6229879543545109,
        0.1643088978494751,
        0.3370813934532635,
        0.3381463943478049,
        0.2754294783468825,
        -0.34253852893472647,
        0.22267122490780533,
        0.2718347199009783,
        -0.9513104604517679,
        0.1625415171848794,
        -0.5130590817261447,
        -0.8095358292046881,
        0.9928791164897204,
        -0.7013522009373538,
        -0.3185110426791955,
        -0.8173258142126503,
        0.1253316678158276,
        0.1381448079090115,
        0.44060251598798894,
        0.6815960318037046,
        -0.9962018459297315,
        0.16841717454584537,
        0.4092961175437826,
        0.385028602659635,
        -0.9115934146358164,
        -0.4340578550794558,
        -0.09708008897253761,
        -0.08838152615276407,
        0.5108433832418795,
        0.71255334866496,
        -0.9828354638462056,
        0.4346004469315907,
        -0.7478804141321536,
        0.006734961186457777,
        0.84896571955393,
        -0.8130964457837144,
        0.8049333989576002,
        0.33936957328771866,
        -0.4839417954804841,
        -0.523602122048993,
        -0.5453665141747885,
        0.47122878333482543,
        -0.14904731354124823,
        0.5667481297175001,
        0.33857647471286656,
        0.03304292238440887,
        -0.7158311205865153,
        0.7046505389705908,
        0.9868167830321886,
        0.7293710193102538,
        -0.5224500367274201,
        0.5336459034889849,
        0.9919923658075418,
        -0.8900851107812646,
        -0.3393037401823993,
        -0.7613460307569719,
        0.7302014105152128,
        0.21000912995687493,
        -0.891893705307065,
        -0.840421020249172,
        -0.15721485413443093,
        -0.7817648702429989,
        0.6336514582398252
      ],
      [
        -0.17408288574842268,
        -0.5633111088806884,
        0.4017631947061928,
        -0.6792736595198396,
        0.5230905657928495,
        -0.33276833635947956,
        -0.8013418829967422,
        0.934900631265736,
        0.839669759634524,
        0.4861715731177143,
        -0.926536489817305,
        0.6237631246037654,
        -0.7647681227665939,
        -0.580243653976678,
        0.3396314165358285,
        0.1428243486605134,
        -0.20215075418678508,
        0.8388955517351706,
        0.13079051012931942,
        0.029075475412978502,
        -0.6284206841106632,
        -0.02061754443779651,
        0.44547960569493283,
        0.9570123579595058,
        0.49258792677894503,
        -0.49306843838191083,
        0.27765676961265684,
        -0.28815894009952236,
        -0.27321474724995976,
        -0.9695047316210335,
        -0.6610349629493397,
        -0.43670822597528125,
        0.14762398457752246,
        0.6033121378174049,
        -0.825917870631941,
        0.879399325859114,
        -0.7288672938872203,
        -0.11668132717034219,
        0.7452800970206512,
        -0.3616735469977359,
        -0.49809725758187384,
        0.36287303237488766,
        -0.2618847960811448,
        -0.33205204336158345,
        0.44683980770755016,
        0.683716748412847,
        -0.49312531287791117,
        0.7803176251328061,
        0.80160641607035,
        0.2541257994214643,
        0.8876276344451366,
        0.3897380789998619,
        -0.6738445752789997,
        -0.9890428276134124,
        0.7141757087388145,
        -0.993892231281476,
        -0.48167547433808466,
        -0.48624147459232114,
        -0.5413514597721172,
        0.6856294566716119,
        0.8034901917000503,
        0.1536260663177904,
        -0.6410569159981994,
        0.4071309780363137
      ],
      [
        0.5437525287512601,
        -0.9621381650438023,
        -0.2204744235867302,
        0.36598667271291374,
        -0.07021994989161207,
        0.06628530420656786,
        -0.4219261500576952,
        -0.7113601065453092,
        -0.0839046926930358,
        -0.7734790173938659,
        0.6535454483367369,
        0.8988752338045973,
        0.20603066481816312,
        0.3048664369582066,
        -0.5940131078597373,
        0.3354557126085105,
        0.8020444994426654,
        0.7012984253222363,
        0.7571083786583328,
        0.6525490099433782,
        0.027232702321226432,
        -0.4923188527936606,
        0.3372770014957269,
        -0.019454771442309227,
        -0.2984072756962939,
        -0.7678184583048859,
        -0.3680980688051445,
        -0.9029950915526916,
        -0.5637425789545443,
        0.10604438692838225,
        0.5837388639396313,
        0.6014570557029943,
        0.744657644384463,
        -0.1397316993599742,
        -0.819435796441589,
        0.12941959008703274,
        -0.2865757126636357,
        0.7758919156100468,
        -0.3477217586371324,
        -0.05063490202862653,
        -0.8742868961689587,
        -0.025422314803549728,
        -0.785326488242508,
        -0.7381303330771432,
        0.6438391944266035,
        0.8474171907651606,
        0.4733813372759532,
        -0.5717753973180602,
        0.7364856088484455,
        0.07567174978842117,
        0.3343005323264323,
        -0.6463074829688042,
        0.6810672775222915,
        0.07640022124911461,
        -0.9624379150748814,
        0.6493105246161894,
        -0.9651674994889263,
        -0.656412193585995,
        0.8118820690771034,
        -0.7222676272313795,
        -0.6711488169134643,
        0.5870747657208706,
        0.23522412658922232,
        0.43469260327543524
      ],
      [
        -0.8154278949889684,
        0.8530418529028954,
        0.37118405177686076,
        -0.18688351068386733,
        0.9295699054096418,
        0.9544616068229195,
        0.06390846156679086,
        0.9613231013955508,
        0.5259257507593076,
        0.0733674858232769,
        -0.963347296230924,
        -0.2551613227776983,
        0.8840854540494658,
        0.7458637014708156,
        0.1407790800550084,
        0.9434672805896569,
        0.3882129265470249,
        -0.15231952163123652,
        0.1734288113171758,
        -0.6649846405612443,
        -0.27719141491645005,
        0.41992425983842296,
        -0.19694889540505667,
        -0.04883017578800275,
        0.20588763639899454,
        -0.563097870557199,
        -0.15047894802582973,
        -0.31180364936654237,
        0.24752999945419196,
        0.4133477225732165,
        0.45863009493814477,
        -0.495127256501007,
        0.5482618078137744,
        -0.06084600929984485,
        0.17409370627264487,
        -0.09140628678123663,
        0.1872751348453896,
        -0.17925246932729433,
        -0.6497174693879837,
        0.6526340901106797,
        0.5712694422694862,
        -0.7047290187570829,
        0.3391055098189961,
        -0.6401256229987464,
        -0.5626866733766782,
        -0.9559364877467529,
        0.8865549421870642,
        0.6867941552247641,
        0.7023353745240439,
        0.8133516114316339,
        -0.985592898005214,
        -0.15163770436291069,
        0.45916568442028427,
        0.9685457147701686,
        -0.46613258278983927,
        0.16660417005450912,
        0.41992358828533605,
        0.8173957643630898,
        -0.3802309877004517,
        -0.736182085945791,
        -0.22852036777547102,
        0.9355657564765119,
        0.7593737577788853,
        0.265819023463596
      ],
      [
        0.39788150952038914,
        0.2962283790116942,
        -0.6162719996076835,
        0.35586306363249,
        0.7726144283808554,
        -0.24996477843146092,
        0.5734876399725137,
        0.4542356257860345,
        -0.8182320533543137,
        -0.9949975468209151,
        0.8602667478538717,
        0.3438607099885893,
        0.42204470772260083,
        -0.3660925267894988,
        0.23719489871285226,
        0.44819761036136696,
        0.30701346468158297,
        0.6329384216946636,
        -0.4327094437956134,
        -0.19261302085928178,
        -0.7564954063489302,
        -0.13225220811486382,
        0.2398125284865369,
        -0.30835548977910987,
        -0.14952108304501177,
        -0.9396857173239541,
        -0.2810398907770686,
        -0.3201180211410859,
        -0.20358088127553442,
        0.05752999377491097,
        -0.3096590805066479,
        -0.3791083941944353,
        -0.71761402668415,
        0.17728610494575703,
        0.7097472311473092,
        -0.01874680541476348,
        0.04967686669590288,
        -0.4408731967812436,
        -0.46818778455836574,
        0.2736707280788464,
        0.3987518484294046,
        -0.5478558939645084,
        0.5344678641844862,
        0.6963182032317512,
        -0.772945108351403,
        -0.9027015706431594,
        -0.19181501238411358,
        -0.4730253803683251,
        0.16752781693474073,
        0.8467941702741479,
        0.37973187942934405,
        0.7474797657847183,
        0.49715376731221417,
        0.9206455932850433,
        0.3994101734363942,
        0.01253544371747517,
        0.5910174397498871,
        0.44255098927211245,
        0.8792066930107669,
        -0.5873542492573542,
        0.8785729127214441,
        -0.857057368067667,
        -0.83822798088131,
        -0.8611805736103764
      ],
      [
        -0.3869515055944597,
        0.30960157285385015,
        -0.8988893466427847,
        0.7064543576710351,
        -0.627091082450872,
        -0.5661385312968148,
        -0.3171493826640286,
        0.21448565481322346,
        0.5216781732296016,
        -0.7549744491154562,
        0.5602617247219954,
        -0.7863763355397384,
        0.72415440277449,
        0.6052198728795832,
        0.4724029455438439,
        0.7543047752559893,
        0.5748164320321052,
        -0.809317248995183,
        0.7716833253328401,
        0.3542957541758607,
        0.03296751514066587,
        0.13777184737454795,
        0.6096084886402917,
        0.8188920493781193,
        -0.5083051776248375,
        -0.0389082823926481,
        -0.9161670653825582,
        -0.6712797765946326,
        -0.6995584802859269,
        0.42267748064319743,
        -0.48698628698545265,
        0.8258849872370722,
        0.2364819713052817,
        0.6553847258083396,
        0.7365941734530248,
        -0.4100977230179683,
        0.8096061389987979,
        -0.8531620576123373,
        0.5112203429702418,
        0.7641486817622367,
        -0.8731803200071437,
        -0.7939953646206059,
        -0.04831362437507858,
        0.10342658377265579,
        0.219078652907722,
        -0.9217042901290893,
        -0.34907740157846145,
        -0.9584079124687608,
        -0.5720151078375164,
        -0.6718611764282065,
        0.6629311835042637,
        -0.7738817429756597,
        0.16178062036236374,
        -0.8908308519812682,
        0.29310111370077996,
        -0.32724759924399405,
        0.1747939802333902,
        0.03827342079076912,
        -0.004974447955146788,
        0.6803721132763416,
        -0.2930797797410083,
        -0.9084572271724916,
        0.23526211638478278,
        0.41069824780441566
      ],
      [
        0.11660956383587551,
        -0.4646375152841249,
        0.4206724877215364,
        0.003934678324757801,
        0.4565023027799715,
        -0.57280516677499,
        -0.8446237206295024,
        0.5032171840855306,
        0.18450052740017076,
        -0.13362471047556745,
        0.29805046702855176,
        0.44545628139797167,
        -0.5662636699012287,
        0.2657052059824665,
        0.3912869877586902,
        0.8134068905164038,
        0.6886015581344218,
        -0.9777596454349999,
        0.5447110785252902,
        0.8527694703670998,
        0.9676354670357408,
        0.8847512469091099,
        0.4507380543637871,
        -0.13724951993450119,
        0.8861739100991466,
        -0.21499628424333928,
        -0.9418819687953224,
        0.07152085814704812,
        0.5298681777143301,
        0.7897628592836989,
        0.059066141816881634,
        0.8878780559452355,
        -0.5177515059622002,
        0.27574655068158993,
        0.7161488577057067,
        -0.5330253359255599,
        0.31057484923490697,
        -0.440216014361424,
        -0.8018444955724644,
        0.5023331378003313,
        0.17226606784235843,
        -0.2342890599424059,
        0.6410248550992059,
        -0.9929271905183472,
        -0.05634992230403446,
        -0.9983933382708912,
        -0.44146968160270017,
        -0.03542897916843901,
        -0.890451983472371,
        0.5461282643750838,
        -0.5956050583046388,
        -0.06527994507435286,
        -0.07856675559918691,
        -0.24944180300047214,
        0.15710030158810095,
        -0.5732077464287555,
        0.5629672731175388,
        -0.9233826571879937,
        -0.3524999197774987,
        0.5858324816090605,
        -0.6930344783190296,
        0.45054404224113265,
        0.3694403392828538,
        -0.1708062762505982
      ],
      [
        -0.2005171311288212,
        -0.33394241685209525,
        -0.08398358084975754,
        -0.00958415177644456,
        -0.9068749730476771,
        0.00872365353151805,
        -0.3006629125609328,
        -0.7897720242808839,
        0.7119687109554165,
        -0.14412828575883552,
        0.44827997799175656,
        0.4751171798864786,
        0.3201173053332975,
        0.04212940385477748,
        -0.46873749584793467,
        0.7293257013954271,
        0.2644055179696583,
        -0.2189817985366862,
        -0.12002336448690087,
        -0.26998658494109185,
        0.04998762787075317,
        -0.40798000483392594,
        -0.3822391394779152,
        -0.7121522748610185,
        -0.3091761520531642,
        -0.7100424528958982,
        -0.2956868206802119,
        -0.547791743655426,
        -0.6805989033859043,
        0.16828197448346982,
        -0.6154339380382532,
        0.6486041391425188,
        0.7829511848509689,
        0.49949368148105266,
        0.9948798611882166,
        -0.8883339020198397,
        -0.6570276910635506,
        0.5030046481804913,
        -0.8989610115673696,
        -0.7342175450025934,
        -0.8819440712119389,
        0.40828610685368716,
        0.2099567675405316,
        0.6027988942830771,
        0.03802029413453001,
        -0.25001883730130836,
        0.39645574827451613,
        0.536979858437006,
        0.853305224878854,
        0.6979461172431942,
        -0.8494760231926557,
        -0.3811106761524514,
        -0.91614617278802,
        0.2117721197822231,
        0.47973664119336923,
        0.45231952552698473,
        0.20803988311411015,
        -0.7358014779747493,
        0.38932829684499337,
        0.5303316529805291,
        -0.47565209215452464,
        0.9568847604241124,
        0.7113106693135223,
        0.9833754871202756
      ],
      [
        -0.8805602357599402,
        0.6940265596065862,
        -0.8278525736803244,
        0.21394111473934618,
        -0.5617177775440152,
        -0.617769551680514,
        -0.8295705342514201,
        -0.20130761885766857,
        -0.8352889871677334,
        -0.5076487998767707,
        0.7120928392944663,
        0.9416388238833788,
        0.7592898341717043,
        0.7842846416436526,
        -0.6500685055031261,
        -0.6002053736331561,
        0.3148601431150637,
        -0.006914573192856821,
        0.5857332630376375,
        -0.9895723707630026,
        0.17504423121072987,
        -0.45491575778639093,
        0.07707482636018281,
        -0.05507067675874766,
        0.6812407840697894,
        0.9695003133240503,
        -0.7175893490835055,
        0.013848732785026074,
        -0.6438427343483284,
        0.1332405917741577,
        0.5515650707028112,
        0.40636204547754073,
        -0.3454133735032412,
        -0.01748997382942319,
        0.21213843419094358,
        -0.12960945097558785,
        0.4271650230867132,
        -0.5065899641449094,
        -0.007942855871420518,
        0.34638314248349444,
        -0.22605420088172767,
        0.1263399844606885,
        -0.8881937132585034,
        0.21255275867234236,
        0.47278950105329365,
        -0.8262115510173353,
        -0.7416911151012762,
        -0.5333259084071473,
        -0.47636295006408735,
        0.9929208269629726,
        0.5483865215483676,
        -0.9762446801415781,
        -0.21156952836960152,
        0.6947787041118891,
        0.9143781627420631,
        0.29548771065425905,
        -0.8960188355773948,
        0.11405345954654278,
        0.6806772497122779,
        -0.6623678177926144,
        0.13767903679063664,
        -0.6535361865804634,
        0.14797682134750167,
        0.7265244970966269
      ],
      [
        -0.3118063291356783,
        -0.5205162406493467,
        -0.8341683762639778,
        -0.9445516276204173,
        0.635051796852067,
        0.42119842875935976,
        -0.8820613463229772,
        -0.8660603351537117,
        0.8001958504697699,
        -0.7798011051589431,
        -0.14743383461251347,
        0.4929967969110358,
        -0.9580243353384787,
        0.06432626411392905,
        0.911123183109845,
        0.5566163405888904,
        -0.9636243405479128,
        -0.3119376888362464,
        0.43788192719112007,
        0.6080028017976002,
        -0.956226780385661,
        0.048804170499048505,
        -0.9547287729129452,
        -0.4838520779322286,
        -0.2096213440261705,
        0.3629272300350135,
        0.21376281950146714,
        0.5904382909805808,
        -0.17019192980639897,
        -0.106874441905769,
        0.3166492866765829,
        0.5379989339260098,
        0.023804582348407877,
        0.7639016755006418,
        0.4037822600449237,
        -0.5768598549133479,
        -0.8228164037199417,
        -0.6732592678212279,
        0.6924353548906161,
        -0.5370064916346953,
        -0.8708786716100714,
        -0.9563697100098663,
        -0.5773261210368648,
        0.9457523205809524,
        0.24918820702109268,
        0.5355175815911446,
        -0.2994500957605575,
        0.9290442188717905,
        -0.3722311250035968,
        0.7782721294933415,
        0.8494450211817293,
        0.5104488088763814,
        -0.8779992012465081,
        -0.27743913012575483,
        0.8154276755775516,
        0.9496864328556409,
        0.1521109129663869,
        -0.8731493511981632,
        0.505694842752995,
        -0.9208626089793785,
        0.6783816154690723,
        0.0226347542076637,
        0.4144576972581464,
        0.9099442815791876
      ]
    ],
    "biases": [
      0.04206546959198465,
      0.9882882676758427,
      0.4005412518381162,
      -0.0935713427557674,
      0.8287279205325351,
      -0.8590312482808911,
      -0.24427601726888604,
      0.23805653297537432,
      -0.5016973465921999,
      0.8379449243900525,
      -0.6757658941335745,
      0.9939564988823602,
      0.2568702043262425,
      -0.18712810116796796,
      0.2127364922983923,
      -0.7238761266349574,
      0.5109691517061075,
      -0.7523846236354372,
      -0.42531332236697716,
      0.09092168763222186,
      0.6174293770587485,
      0.7735709901865107,
      -0.6088243556122228,
      0.6756630600596061,
      -0.11393670744975659,
      -0.8690723712138417,
      0.40745414235570165,
      -0.9319310359012767,
      -0.36497156770693295,
      0.006082536578263964,
      0.8549260004914416,
      -0.5940316253766151,
      0.7862270357849754,
      -0.12691894622315725,
      0.1378603471848976,
      -0.7528617323923197,
      -0.7666572027996801,
      0.022348664118067685,
      0.7907562743950987,
      0.6768974807187136,
      0.6927514431255111,
      0.799439988152054,
      -0.8028500789561701,
      -0.8957440194323476,
      -0.5228687530484519,
      -0.04059594149807344,
      -0.8547227994805346,
      -0.6499813895027837,
      0.7164246152136695,
      -0.1589968733459779,
      -0.6174929297762022,
      0.8157967122775764,
      0.38816063372326526,
      0.6733925228321029,
      0.3042056347777289,
      0.9293114019035724,
      -0.09389157900305278,
      0.08652154666388978,
      0.8887296352507355,
      -0.7134293074276465,
      -0.924817175523136,
      0.7344826391825057,
      0.14085730672824903,
      -0.008340748013781152
    ]
  },
  "layer_1": {
    "weights": [
      [
        0.6592113060591578,
        -0.6849408083125952,
        0.55127746237226,
        -0.8199915480326803,
        0.2551876957846957,
        -0.36485237784894053,
        0.7903013396523855,
        -0.07821763133100856,
        0.7635850472673318,
        0.062093451029125335,
        0.019543778567668868,
        -0.7727983786652004,
        0.11537093461365622,
        -0.8613259639089652,
        0.05989192890810324,
        0.28560142032357616
      ],
      [
        -0.3438127382549043,
        0.17772311524309958,
        0.7459243724223898,
        0.2542818936810767,
        0.27656760880812725,
        -0.305378034480585,
        0.0843315128614115,
        0.48169968741299396,
        0.7973293283758689,
        -0.882064570170036,
        0.1605117182011373,
        -0.3139978198411062,
        -0.6686439524737566,
        0.1475095413569556,
        -0.19344586745622383,
        0.4775711755712102
      ],
      [
        0.14807546722700748,
        -0.9125848224719599,
        0.030516228568108428,
        -0.07341515033815504,
        -0.9702770503535916,
        -0.29105642583235025,
        0.039747303435308634,
        0.6264022683527732,
        0.9028594596156341,
        0.33598430794932854,
        0.43263023122353195,
        0.4026683620874052,
        -0.13754789133303635,
        0.32058778185733616,
        -0.6030713194379032,
        0.7370189013790562
      ],
      [
        0.5022453629998762,
        0.056831077014616094,
        -0.41955301281128254,
        -0.04002021757755214,
        0.22974362092381684,
        0.45483520550690315,
        -0.7842696006296113,
        -0.4116577336048055,
        -0.9887976436404649,
        0.5556131807304783,
        -0.19527045220986605,
        0.34553556844445943,
        0.6359046146941272,
        -0.915009376183558,
        0.578267039736529,
        -0.4296222112933885
      ],
      [
        0.8860689336701055,
        0.7476792490838089,
        0.45449960485407837,
        -0.993145746753515,
        -0.26824571824282195,
        -0.6593133491867074,
        0.342883547187236,
        0.030262179769076303,
        0.5783261560678743,
        0.8123050289093134,
        -0.6146556318094181,
        -0.36905163394395,
        -0.8390407444439814,
        0.13696160422009318,
        -0.9840801620870996,
        0.07315399903995723
      ],
      [
        0.7017006474336114,
        -0.6671049883339324,
        -0.20444160210143436,
        -0.7450446304452012,
        0.00888398157560677,
        -0.5194867181031222,
        0.9609827605360617,
        0.13030035155986175,
        0.8759517328278863,
        -0.7537150614184731,
        -0.3741491284697478,
        -0.7079595159782435,
        0.2557508725941411,
        0.2837219898135528,
        -0.40568999673150374,
        -0.8819369889263486
      ],
      [
        0.3892152158353268,
        0.11564153241935626,
        -0.715274535574675,
        0.1798425997473283,
        0.8318865322194509,
        0.05449870569612969,
        0.7282370642604095,
        -0.3925618709029335,
        -0.11720030602990539,
        0.1447417533016382,
        -0.7227827662565565,
        0.3372697603625716,
        0.9758514400768699,
        0.8729798985506134,
        -0.7226097535283804,
        0.42176063902353533
      ],
      [
        -0.968551010398232,
        -0.9435415400601712,
        -0.03038037317526876,
        -0.6387073299584114,
        0.5301304374641851,
        0.08593062663233697,
        0.8516634097492553,
        -0.48721768423436895,
        -0.5249603378177661,
        -0.34716958988040014,
        -0.6039005100042938,
        -0.829572324558669,
        -0.4848307146892339,
        0.9115727500536774,
        0.3703016223054363,
        0.9749073645817012
      ],
      [
        0.8339301264712244,
        -0.9745632161159012,
        -0.23918579498633497,
        -0.46604396618724175,
        0.0268464467257572,
        -0.49413589730286955,
        0.9132543064179286,
        0.7958472679463919,
        -0.005941629800970016,
        0.6937135567596535,
        0.6636044457423593,
        0.13592986362909065,
        -0.19616311124511787,
        0.8075238973494727,
        -0.8292427022444162,
        -0.39599156848410844
      ],
      [
        -0.5894148052111892,
        0.3749086948040221,
        -0.7158773560351859,
        -0.9896048567848619,
        -0.3300595497487717,
        -0.5760964726783309,
        -0.6932857613022956,
        0.26698811077179774,
        0.9884480881904874,
        0.5528839184813825,
        -0.4585735851259609,
        -0.8880154011304262,
        0.31849413252317693,
        0.8663721047990847,
        -0.1873731956373732,
        -0.8364592130096629
      ],
      [
        -0.6873253059664499,
        0.13520525231405212,
        0.6193577561396733,
        0.24567836299469725,
        -0.6793835134837329,
        0.9409892367627557,
        0.9273277528160571,
        -0.3000056058225691,
        0.9215638921540941,
        0.016169075071958305,
        0.9698407492576331,
        0.6850198031479087,
        0.4615186936908875,
        -0.7693955561275152,
        -0.3662828395480193,
        -0.27147380121530795
      ],
      [
        -0.685280604895337,
        -0.7826002172986055,
        -0.7598612978503216,
        0.00948700228998689,
        -0.3195761890572941,
        -0.4949795394426819,
        -0.8947639450247917,
        -0.5301274252114199,
        -0.08550393451881177,
        0.7178109673398791,
        -0.220211583077637,
        -0.8607493535896118,
        -0.2069308693936598,
        0.9211636112607937,
        -0.48596112346912146,
        -0.7798384664615616
      ],
      [
        -0.3770163329621672,
        0.2733427884458104,
        -0.9253628347543985,
        0.28188554445559455,
        -0.8772179271163896,
        0.23782656028403504,
        0.7643545234467648,
        0.9881860271649017,
        -0.24663698888669572,
        0.8475435681396952,
        -0.5074440190015832,
        0.9317304662625172,
        0.4140690174153787,
        0.26376414587838126,
        0.37558125965956424,
        -0.12044636060662262
      ],
      [
        0.8966434830689529,
        -0.9981189162666331,
        -0.8995537091516357,
        0.9932942013305541,
        -0.4001513333841442,
        0.9912359232790517,
        -0.0831507658497086,
        -0.14336586437620213,
        0.9690141660243128,
        -0.5522203063006583,
        0.366452270089201,
        -0.8099457255443869,
        -0.4035252123763946,
        -0.4739406463842766,
        0.09882580383417006,
        -0.22807494045860044
      ],
      [
        -0.1739950757912514,
        0.02386982771862023,
        0.0591788902668986,
        0.616989653117437,
        0.32461452306762895,
        -0.32867108512034515,
        0.6603818716361776,
        0.38239631529254803,
        -0.2975055801017057,
        0.12218281190535696,
        -0.9556892524450504,
        0.3210778096027074,
        -0.3755697027921805,
        0.5239233091541406,
        -0.4184339212184054,
        0.021474373800737245
      ],
      [
        -0.6538984278748872,
        -0.9236798668667645,
        -0.21315388908366772,
        -0.10238264039873912,
        -0.09515218836837724,
        0.6735217414123476,
        0.9621901027311537,
        -0.3264780003716832,
        -0.7908541025785227,
        0.8465940633046596,
        -0.3557754014100869,
        -0.6585938424904909,
        -0.4130086776711108,
        0.9817194876901298,
        0.6051459975599331,
        0.8470557496819788
      ],
      [
        0.7110465718755854,
        -0.11354144453316195,
        0.6823240200780665,
        -0.7790750442304692,
        0.9300207471337072,
        -0.7650977144388349,
        -0.22384980765918394,
        0.8382741807627672,
        0.7131263318442276,
        -0.6464748083363558,
        0.665800782805716,
        0.8468821086720386,
        0.32899368004954743,
        -0.16117109006658903,
        -0.4886775382628863,
        -0.10074353007561365
      ],
      [
        -0.7268555112406394,
        0.6688000932290648,
        0.26221254912811665,
        0.24001607377798906,
        -0.6085584611566495,
        -0.7224337293214611,
        0.3194903503755968,
        -0.7818780684915894,
        -0.5250696375941544,
        -0.840413889453475,
        0.4522076825856889,
        0.8407958066154109,
        -0.8522558259406383,
        -0.6818120321260526,
        -0.4362553916517793,
        0.7775744244273013
      ],
      [
        -0.08308399258336596,
        -0.9460842444880415,
        -0.9469440426875568,
        -0.9679019732095413,
        0.24265842732705223,
        0.07275728940975146,
        -0.12914061073404115,
        -0.995367214769167,
        -0.07398614853230212,
        0.646609469507484,
        0.12239939901588337,
        0.5879499861445114,
        -0.6462501465181218,
        0.4860130392345794,
        0.43764831656539305,
        0.7681051149012073
      ],
      [
        0.34284904159164964,
        -0.377158804896653,
        0.16773307486815492,
        0.827761835969967,
        0.09807865655518189,
        0.7779883453640313,
        0.5259314839533062,
        0.7917117714478286,
        0.4044272771888049,
        0.8369232733644241,
        -0.36127924251383847,
        0.3494052991737342,
        -0.13532844468469252,
        0.36262130418322025,
        -0.37017183083269534,
        -0.20273761166970394
      ],
      [
        0.2253008230558453,
        -0.9678457515314405,
        -0.744963632997687,
        0.7766679332168267,
        -0.8757532991909229,
        0.031073837742625843,
        -0.7963085858564738,
        -0.37843009274098516,
        -0.6062258129136402,
        0.10487018017106409,
        0.6190454001625669,
        -0.3374797196828674,
        -0.0630337961936498,
        0.5572982273205804,
        -0.8081937882343193,
        -0.24780278213809992
      ],
      [
        -0.45528402318906047,
        0.1953501044153736,
        -0.2381379571709088,
        0.9233788794398621,
        -0.6613490501479236,
        0.0986180534906711,
        -0.4632352119689276,
        -0.24300337342915657,
        0.279736444095688,
        -0.24882851045240528,
        -0.9524487303404428,
        -0.558878910834014,
        0.9621500755384187,
        -0.41156585475672824,
        0.348454492966648,
        0.9181875077326629
      ],
      [
        -0.6682332896510506,
        0.7386735451501127,
        0.6090809487536746,
        0.17777514409393014,
        0.5412190696678505,
        -0.09461092664942972,
        -0.43721976841602683,
        -0.9616612256432289,
        -0.8513303979457663,
        -0.5823177303436589,
        -0.9740321017427895,
        0.18377821247936788,
        0.003940212433307888,
        -0.2802363969977022,
        0.7432445989418397,
        -0.5623795025207896
      ],
      [
        -0.3928399898492192,
        -0.9853770581988672,
        0.3699663049259607,
        0.9060779502700917,
        0.3605306584336214,
        0.14126996408445813,
        0.5865535175232564,
        -0.8001111725078389,
        -0.8744725287799324,
        0.16535356359933662,
        -0.635169509559151,
        -0.3300155474625093,
        0.5785764709331249,
        0.7478507031653145,
        -0.7418355005936432,
        -0.3209296444920502
      ],
      [
        -0.1479004847549632,
        0.5880069381979478,
        0.32851738576178513,
        -0.6293393147430464,
        0.8659971524653323,
        0.8067512085159911,
        0.47190793001409137,
        0.5315229185885644,
        0.6290739734327682,
        -0.8681362084310791,
        -0.05790441773620203,
        0.4239775088682418,
        -0.8067859027808069,
        0.036836504579121465,
        -0.32672859634171614,
        -0.36063030220720393
      ],
      [
        0.5956633825103963,
        0.0805563373942011,
        0.7530769145131726,
        -0.30543008769062263,
        0.5163384978074161,
        0.008914815899915496,
        0.7254177837713447,
        0.5356587271363007,
        0.19155849462547003,
        0.26895135776107715,
        -0.05983405015527765,
        0.9771308289331466,
        -0.3088668417631275,
        -0.018065706188576502,
        -0.5588780573138381,
        -0.330671605650368
      ],
      [
        -0.8284286524718372,
        -0.7790169379969127,
        0.6171123101303593,
        -0.6431974423852291,
        -0.7106835070198512,
        0.09303405315027757,
        0.23990519789103892,
        -0.2734019246139583,
        -0.7113230284208489,
        -0.34160534556622757,
        -0.7087181625565662,
        0.5923758164109865,
        -0.642296766619167,
        0.9421429868412663,
        0.4924493201632607,
        -0.3749557480923038
      ],
      [
        -0.015245208850947822,
        0.23632163570144082,
        -0.6584060379626753,
        0.15090278052159833,
        -0.9275643043612873,
        -0.7418048012640432,
        0.44516885131221384,
        -0.7424076266217841,
        -0.5864065047404119,
        -0.9347847074432152,
        0.4127821687819446,
        -0.6935079594411822,
        -0.5207012219864537,
        0.6648014156120206,
        -0.8051239702000761,
        0.03160393665787242
      ],
      [
        -0.2298533908636775,
        0.41111330110810607,
        0.5398958010041675,
        0.9540606383121752,
        -0.1689519592891704,
        0.1499607339823874,
        -0.8292605046410908,
        -0.875763493469496,
        0.7420899713251126,
        0.01606003290179947,
        -0.2933434911685029,
        -0.1943885782870518,
        0.8229964853213756,
        -0.31638364489998905,
        0.39510987691906774,
        0.11831962653730099
      ],
      [
        0.09419578179515664,
        0.40566904299871287,
        0.16519386331861408,
        0.9642957212615613,
        0.09883847263259238,
        -0.9745952365554413,
        0.1213006902071403,
        0.5801383352161775,
        -0.37485058439491836,
        0.602412146173197,
        0.3153139000697225,
        0.5830571988690385,
        -0.5760022599930177,
        0.9884306470368269,
        -0.24153859523674037,
        -0.49243791645869006
      ],
      [
        0.04744330744222758,
        0.47413846074961263,
        0.41964491972906703,
        0.5700794841770396,
        -0.8975503212725915,
        0.3880196529713835,
        0.23215431759930638,
        -0.04457496881507539,
        -0.8839250439366706,
        0.8945609543637809,
        -0.11697820757045685,
        0.8182894758651134,
        -0.819006894395339,
        -0.6760911650678749,
        -0.8628721332021863,
        -0.3134407718294081
      ],
      [
        -0.6104684479271234,
        -0.054979467265280135,
        0.6180130094685918,
        -0.9815328756400779,
        0.2755122315836851,
        -0.08278008700436801,
        0.8840833071650613,
        0.5226331045329313,
        0.7703019662347341,
        -0.48938903931971023,
        -0.8996154163818628,
        -0.486226619206684,
        0.9115361487043816,
        0.5293608511673586,
        0.31724735638391666,
        0.5245392123498944
      ],
      [
        0.17909897868354263,
        0.5692172669635789,
        -0.4652649168923175,
        -0.18529392657511012,
        0.3065093262735512,
        0.9573566456892677,
        -0.27076877945020406,
        0.685695392604805,
        -0.9944924713139232,
        -0.9399742020063029,
        -0.2801705421855787,
        -0.2914439679600067,
        -0.47100864036463763,
        0.0512558611192826,
        -0.5456944842255438,
        -0.13782053379482084
      ],
      [
        0.8170770153556588,
        0.7046379627746244,
        0.1096571985223147,
        0.18335478063192356,
        -0.42939845005446187,
        -0.9110950408569998,
        0.032369947400223475,
        0.6558182481119128,
        -0.8637802029242623,
        -0.6193078373186554,
        0.21220923339613162,
        -0.19834758215175352,
        0.49498793945279207,
        -0.8060735973588851,
        0.6046538302616042,
        0.6148334075964854
      ],
      [
        -0.4819565941830908,
        -0.8226704148145634,
        -0.05920401601107783,
        -0.5508491133408868,
        -0.18918770582146816,
        -0.624536808596456,
        0.3904286896424831,
        0.5590502525494965,
        0.549588311474835,
        0.003092686299432712,
        -0.9226496020404462,
        -0.7076878397361599,
        0.3195708720044079,
        -0.8410562568172164,
        -0.033253617922251344,
        -0.6071588908126433
      ],
      [
        0.9586767809841081,
        -0.15560302105955492,
        -0.49848687564250116,
        -0.7418716128840561,
        -0.12971948891832952,
        -0.6754832886978459,
        -0.9359403600324905,
        0.8620545276262233,
        -0.6532560019031199,
        -0.6814618525822862,
        -0.49689623596089305,
        -0.9779082747020766,
        0.6936728250250384,
        -0.7305816262787683,
        -0.49474904364034455,
        0.8076642257241418
      ],
      [
        -0.6661331614486301,
        0.8571999555342684,
        0.1373960115501487,
        0.008546310160266746,
        -0.6489430053628429,
        -0.8219195026018191,
        -0.28294365001167754,
        0.22591769142110318,
        -0.1286402942318874,
        -0.6784392253421616,
        0.8174386370869775,
        -0.5967576677003443,
        0.152730072406577,
        0.2562029979082645,
        -0.758631655928315,
        -0.5104360394372511
      ],
      [
        0.8287886591467732,
        0.3606384251178443,
        0.9025226694581059,
        0.0056184018780369716,
        -0.14002459549677715,
        -0.7773642994760237,
        0.17131028650382185,
        -0.24698405977862214,
        0.9040884654883146,
        -0.4345547062624413,
        -0.10624528749921702,
        0.2653408237410215,
        0.8345894691170286,
        -0.3910200556845469,
        0.551829426256246,
        -0.24377375876780483
      ],
      [
        -0.6494022996859001,
        -0.8405657316953654,
        0.049782072552176704,
        0.5215401290408945,
        -0.5736862902605575,
        -0.028161334216609823,
        0.43549521569902505,
        0.01688563419182687,
        -0.9253843266412938,
        -0.34070651905127414,
        0.37453441550372046,
        0.6863654808400192,
        -0.6006093509000225,
        -0.2933191961461692,
        -0.94926686094207,
        -0.31750724193562574
      ],
      [
        0.4672167684180759,
        -0.5415507893225617,
        0.2576711895393764,
        0.9064488385842702,
        0.2702309147471025,
        -0.2648996523722127,
        0.7406167471525862,
        0.07085902774962771,
        0.49578141821575294,
        0.5774318742917812,
        0.6014506594265581,
        -0.22013757983711413,
        -0.32552299600389345,
        -0.10983796900811038,
        0.25000055849951774,
        -0.03827111585724774
      ],
      [
        -0.7787526488725884,
        0.0953608820899039,
        0.5581962214791123,
        -0.6036667185426239,
        0.23370818060624776,
        0.4936804648867097,
        -0.1282220063914581,
        -0.9752649363009793,
        0.7572790886806078,
        0.878546501137172,
        -0.9139706190021835,
        -0.4471139836644993,
        0.7858039679457611,
        -0.564478244489528,
        -0.9500337256884324,
        -0.45008689742938235
      ],
      [
        -0.11633263057629084,
        0.4107295267694946,
        -0.5695249732097833,
        0.7986386434095363,
        0.861678594865664,
        0.15835588448990356,
        -0.27751045166274224,
        -0.8609475114166232,
        -0.2945485237009855,
        0.2901428215274291,
        -0.13837729645929642,
        -0.8091737006597646,
        0.7669220738471378,
        0.41723806119344564,
        -0.3252345220854522,
        -0.3379129061852093
      ],
      [
        0.2845261049563239,
        -0.5907602727552099,
        -0.5089441171168072,
        -0.176830353910429,
        -0.279889250518897,
        0.8387091026761706,
        -0.09242255596912896,
        0.9521506703496967,
        -0.8896322828186878,
        -0.21037126292657526,
        -0.13624150520822131,
        0.327739643826807,
        -0.007940453422077498,
        0.6990213797854823,
        -0.6644197959421017,
        -0.8858272401207887
      ],
      [
        0.7183304199607718,
        -0.00165820068526501,
        0.3296266419779823,
        -0.8480750113913422,
        0.8176125771064457,
        0.5712432338112614,
        0.22377568139539705,
        -0.6054768867548355,
        0.4938958354170584,
        0.07564128769867029,
        -0.7247112223216505,
        -0.8505470950052503,
        0.18785035109755666,
        0.31543024546192955,
        0.672500734740124,
        0.25627798149505665
      ],
      [
        0.584746123722272,
        -0.06734979607535552,
        -0.5426569644011803,
        -0.7049183920430715,
        0.7505971203538016,
        -0.029366246618581116,
        0.8221645118025123,
        -0.7277842647498605,
        0.38196532528450433,
        0.09832648235547015,
        0.027321510665947457,
        -0.27711500397750566,
        0.8161081907156578,
        -0.6310163400958251,
        0.4211698600230367,
        0.5338960020621009
      ],
      [
        0.9490616302256647,
        -0.3841491197513349,
        -0.1727756197838386,
        -0.8810511253415114,
        -0.8158340963637369,
        0.39424258894249187,
        0.05839693241164445,
        0.6254320981002379,
        -0.3633790856007424,
        -0.5183585630971559,
        -0.555682965532605,
        -0.09266890090897029,
        -0.6821952115712913,
        -0.5852382808444858,
        0.2122317093758872,
        0.28820160293888786
      ],
      [
        -0.6438591228163988,
        0.170219006402635,
        -0.598171438417548,
        -0.13104108226503075,
        0.44287288267262204,
        -0.328626891513647,
        0.5811648801750957,
        0.4384889760632471,
        -0.0493385877515371,
        0.9942059429561128,
        0.1116695714721696,
        -0.9428582916195671,
        0.6862936954561754,
        5.965933683871327E-05,
        -0.7009465214979427,
        0.5927598093550075
      ],
      [
        0.6722393594699354,
        0.7007184547015708,
        0.9104677751997741,
        0.48031092995768154,
        -0.8548217855941778,
        -0.8585825296722709,
        0.3318614808593592,
        -0.05850417284083842,
        -0.2346783449365455,
        0.4370420682945766,
        -0.22635086958710504,
        -0.16851647727210084,
        -0.9952299951513452,
        -0.7260163827821806,
        0.1313881328696298,
        -0.20012256457887467
      ],
      [
        -0.7763359515473074,
        -0.9011491831314336,
        0.38403321665824364,
        0.10110870292929386,
        -0.6842714890013117,
        -0.10088659595807625,
        -0.5754519684035124,
        0.3886405248042324,
        0.3892412590470318,
        0.3600257839169314,
        0.7939858505206598,
        0.27533839713640673,
        -0.057557466875080676,
        0.764255341452273,
        -0.8661886729819812,
        0.5831028425491955
      ],
      [
        -0.1514657208259269,
        0.17756050023133008,
        -0.16211762337685576,
        -0.8718725571871129,
        0.3554909414699092,
        -0.621704378238269,
        0.5225016681154078,
        -0.9345012979488136,
        -0.8477237233368489,
        0.635484298565427,
        0.44548979557547996,
        -0.26398862165750825,
        0.5437912671781844,
        -0.9125178111745447,
        -0.0687808349524548,
        0.11248272194733833
      ],
      [
        0.49828433910420555,
        -0.04834211770460217,
        0.6465636747412955,
        0.31494167659494066,
        -0.7644667121057314,
        -0.5020550317132038,
        0.0842550216731397,
        0.09878879508854066,
        -0.9721259054146565,
        -0.2933195004779434,
        -0.692685440216652,
        0.7526454929474127,
        -0.7986743585900333,
        -0.9518488685598265,
        -0.4062393537167468,
        0.045378409081318294
      ],
      [
        -0.6875782241812809,
        0.8842851212965195,
        0.6136897787208184,
        -0.8527459815808103,
        0.6030042626268346,
        -0.5214604521904795,
        0.029210313760021256,
        0.6082058475223449,
        0.4002674658946259,
        -0.06063261398658182,
        0.8872729018278029,
        -0.9771026867116879,
        0.7760896753283562,
        0.49095870289851806,
        0.1336094862237982,
        -0.019608090257639876
      ],
      [
        -0.20221878957127037,
        0.6124499978153992,
        -0.0488423624587182,
        -0.7825728069979441,
        0.2911304549631033,
        0.7079579730276879,
        0.09156913836531233,
        -0.8436158082679652,
        -0.9590450343840962,
        -0.0019726165409033047,
        0.23646396695347716,
        -0.5598122039593285,
        -0.2877927928021058,
        -0.5190764781156809,
        0.08402662127899307,
        0.7519152552132315
      ],
      [
        0.9227751786294902,
        -0.534126393714853,
        0.06083514850835936,
        0.8683466853341937,
        0.22144643519881768,
        0.8166789146186466,
        0.9218804572136838,
        0.8808290305846158,
        0.004965113711733249,
        -0.9823533263439581,
        -0.6791155817997372,
        0.814814358608474,
        0.928451625312773,
        0.35965723810036176,
        0.5771762918628016,
        0.9495330574870917
      ],
      [
        0.34660927642296535,
        -0.19650440801624391,
        -0.3199584285464523,
        0.8881018936287643,
        0.4867962592119359,
        -0.18710892521658407,
        -0.43696889723717125,
        -0.46677024519064236,
        -0.6244708730919901,
        -0.8738247228675471,
        -0.3384235571153793,
        0.3722360038771291,
        0.22725571021548974,
        0.417569461129915,
        0.9051317081460064,
        0.7740236260888196
      ],
      [
        -0.8693550140111126,
        -0.11512690538435488,
        -0.030207951289618507,
        0.675565094483251,
        -0.41854328664347884,
        -0.12191207292092776,
        0.037685257918345316,
        0.9103448728887211,
        0.6039377615376054,
        0.8611726275220393,
        0.4326665736934059,
        0.9640586627999663,
        -0.2846996926492462,
        0.4243518502575603,
        0.22003222293837443,
        -0.7209459540261156
      ],
      [
        0.010086478927052278,
        0.5751334864885598,
        -0.8799201984241911,
        -0.2752578576927516,
        0.4244776075949135,
        0.6882861130241018,
        -0.6782964045399251,
        0.23712085372102565,
        0.5501343356165396,
        0.5035695443474948,
        0.8542332904970462,
        -0.46293727721068145,
        0.6966157516216294,
        -0.5239917584760161,
        0.08544128411471785,
        0.8544949604109358
      ],
      [
        0.606953230759709,
        -0.6328822151173754,
        0.3667995477837642,
        0.013132041284829477,
        0.15289759874463082,
        0.5956934542362211,
        0.900167262461955,
        0.8575678336000163,
        -0.8888187654351567,
        0.42680905929939583,
        -0.6082765341019831,
        0.7235970120468269,
        0.1420046742545884,
        -0.4527980748651388,
        0.3746205349125502,
        0.11331330833337927
      ],
      [
        0.32209943522258233,
        0.9552063693642618,
        -0.6644901727516317,
        0.19963101000352323,
        -0.7562275426606129,
        -0.09161597004981159,
        0.6768265220687402,
        -0.22011871073167555,
        0.09926705732772612,
        0.2993583365124606,
        0.4387585961177918,
        -0.9574334554839783,
        -0.08181594382194701,
        -0.43129976228126465,
        -0.7809694449042905,
        0.3403987370145103
      ],
      [
        -0.15487755359928013,
        0.10969687347181734,
        -0.3457787632012266,
        0.4723949928189177,
        0.08566822742069924,
        -0.48560954669599954,
        -0.04681429177945051,
        -0.5863367242924173,
        -0.8744535547213692,
        0.06928591959473684,
        -0.5287159654407108,
        -0.6508952271394215,
        0.22384604653588625,
        0.4901921318886342,
        -0.1681760836108741,
        0.8875139970006958
      ],
      [
        0.4283016532729238,
        0.9979542585139307,
        -0.4928978423029906,
        0.5816122954651515,
        -0.1299992482440675,
        0.33143563474242077,
        0.15109411717324517,
        0.10509085979013699,
        -0.512796938128524,
        -0.03810698232870058,
        0.07173176611635035,
        -0.7513966680722775,
        0.8944236933476264,
        0.8332355477207123,
        0.6184185910091624,
        -0.5260451302419817
      ],
      [
        0.9654686127887866,
        -0.8448045359339749,
        0.6950823877522339,
        0.704638668251675,
        -0.516915949765872,
        0.6023539532093769,
        -0.5398774711690861,
        0.2529861839667511,
        0.6682928175526339,
        -0.22150606907795156,
        0.7735369578677698,
        0.17445356761946207,
        0.7229782102025295,
        -0.8646447553291188,
        -0.7742470198753879,
        -0.6014893203645262
      ],
      [
        0.7729388270476774,
        0.9767338545937059,
        -0.8404312271391923,
        -0.7770651821202914,
        0.9088228358155301,
        0.8938471859582571,
        0.45700651665144587,
        -0.555429352256128,
        -0.41628903202947987,
        0.5685734522744754,
        -0.24683791426862012,
        0.39686894996424416,
        -0.5452871706076987,
        -0.6538006220844563,
        0.16145235307418915,
        -0.8015450483046518
      ],
      [
        0.2859858689823631,
        0.8093173387368446,
        -0.9551146318402182,
        -0.6792929633609566,
        -0.980639276398509,
        -0.8912882973561016,
        -0.5616928194907709,
        -0.2910937114298857,
        0.6858147721151426,
        0.818077112925216,
        0.1814607224889957,
        0.13669382941439978,
        -0.3864045525453066,
        0.41793198977202994,
        -0.2823482834040443,
        -0.7279624064907184
      ]
    ],
    "biases": [
      0.9286266991186727,
      -0.5163890770692496,
      0.8166541166909957,
      0.018051034879982053,
      0.09983286807267655,
      0.5428923431402122,
      0.5493936463937827,
      0.8254296935425081,
      0.4629709429893165,
      -0.3531980760221325,
      0.28783752016515707,
      0.8432910315318549,
      0.47776132296463647,
      -0.25230379471313813,
      -0.9327652761380263,
      -0.28443910995324106
    ]
  },
  "layer_2": {
    "weights": [
      [
        0.05790706872673823,
        0.18015226577891053,
        0.4389804240393764,
        -0.7627565339568623,
        -0.8968090175548828,
        0.1244475978687698,
        -0.3526721328059428,
        0.8663601961029699
      ],
      [
        -0.0569667590234606,
        -0.1076205366134817,
        0.6883907001306953,
        0.8359335338036133,
        -0.269752412274719,
        -0.2966675866298827,
        0.9371521354159429,
        -0.825023658056276
      ],
      [
        0.701150367410678,
        -0.7442318575516671,
        -0.9475266630973838,
        -0.34516106493932086,
        -0.9090081517479063,
        -0.9575061536517169,
        -0.18863795174945386,
        0.40072773788573013
      ],
      [
        0.4723731797374586,
        -0.6855276361261309,
        -0.6205842548712328,
        -0.09607274710305269,
        -0.37145438597429803,
        -0.6091364215284867,
        -0.6477559598081581,
        -0.40987335322785956
      ],
      [
        -0.8360206705876811,
        0.2154337783047724,
        0.8818257654757675,
        0.5273396722626122,
        -0.5996486055657124,
        -0.16306874487887502,
        -0.2328943454085899,
        -0.7601345133245556
      ],
      [
        0.14076576448123057,
        0.8770808229366063,
        -0.5673276348870062,
        0.957763456673973,
        -0.4224715227602971,
        -0.1404444091965087,
        -0.0620318710487231,
        -0.15093431783969669
      ],
      [
        -0.5942849438872924,
        -0.9193616357465877,
        0.7704908288540246,
        0.34771119331943434,
        0.2407780820873502,
        -0.8360761423104057,
        -0.6378084197104175,
        -0.06733879056349412
      ],
      [
        -0.1723198528320491,
        0.6749667468423766,
        0.5222029827146786,
        0.0015726109474190064,
        -0.21017414436596416,
        0.5485866592815085,
        0.2127347588368107,
        0.9609532018565541
      ],
      [
        -0.16506902328403084,
        0.5271137000929003,
        0.7410308392661418,
        0.17063174011539717,
        -0.8079047175651173,
        0.06750449704354744,
        0.25421880320345314,
        0.9611665362330528
      ],
      [
        0.0395281288908953,
        -0.8313796570950933,
        -0.421971785463243,
        0.11797372366923731,
        0.14504029045097,
        -0.7637587426365899,
        0.3865772060620203,
        0.0106488092238326
      ],
      [
        -0.19268869601212524,
        0.13028758447024935,
        -0.644307322865997,
        0.23085244640751057,
        0.03653076339772188,
        0.15461862776606483,
        0.15371407585260566,
        0.4312735985584699
      ],
      [
        0.3525074890969506,
        -0.37184903945157854,
        -0.45538984419598316,
        -0.7560686358730624,
        0.14625985275161324,
        0.9416671845968947,
        -0.6646926297010447,
        0.5140906202614657
      ],
      [
        -0.5305766811380921,
        0.7763943877848736,
        -0.84659969471753,
        -0.097976337650175,
        0.9451286792091094,
        0.3322878909047471,
        0.9197552128768516,
        0.9399452231159566
      ],
      [
        -0.47185513583353944,
        -0.508628963955795,
        -0.5296076581104068,
        -0.10876365688713951,
        0.6897721525727207,
        0.2836341322560392,
        0.5432086058453958,
        -0.9186364762739576
      ],
      [
        -0.8018353756980834,
        0.32307394289394487,
        0.47282170693402237,
        -0.3911792097661999,
        -0.889122692437933,
        0.7387656072215893,
        -0.06685138109317279,
        -0.6664597602573061
      ],
      [
        -0.4115476573432415,
        0.1311046547131398,
        -0.7686787743415626,
        -0.4302720856121407,
        -0.8767233286166638,
        -0.8870656436653566,
        0.7220211858257843,
        0.015586439522304874
      ]
    ],
    "biases": [
      -0.48192020135982583,
      0.08921836213390266,
      0.13715057159256694,
      -0.230765326767995,
      -0.8069930325270473,
      0.016531206365125728,
      0.3997559593052695,
      0.5108192477138396
    ]
  },
  "layer_3": {
    "weights": [
      [
        -0.11859387804342991,
        0.19563648415851032,
        0.8360757910284378,
        0.7216740156119466,
        -0.4077378441383339
      ],
      [
        0.0604199667811216,
        -0.3938336102467461,
        -0.6613451061425577,
        0.5151426686474918,
        0.9916643373144542
      ],
      [
        -0.05276544626229285,
        0.3695665646895867,
        -0.16799045912391053,
        0.5532393551035164,
        0.9679412975780965
      ],
      [
        -0.17873467140787325,
        -0.9182282835526674,
        -0.11725222431401461,
        0.873447736882027,
        -0.03645189393686654
      ],
      [
        0.029163110624924382,
        -0.5779356108644484,
        -0.6762078074363018,
        0.9844595895737644,
        0.8253935288989522
      ],
      [
        0.4025194763692972,
        0.3681719710608702,
        0.9807146566962142,
        -0.7862419588174634,
        -0.993811744529776
      ],
      [
        0.9847643127932133,
        0.07639252084494008,
        0.8912528404542694,
        -0.5035376751269496,
        -0.010776595255206134
      ],
      [
        0.05263944790662123,
        -0.9426240049673453,
        0.03781244201107059,
        -0.3006968402537704,
        -0.8221864680666142
      ]
    ],
    "biases": [
      -0.03593216277083533,
      -0.9816299533912711,
      -0.448963237426262,
      -0.24562539906138237,
      0.14783476702954057
    ]
  }
}