{
  "layer_0": {
    "weights": [
      [
        0.5358415753437287,
        -0.4840651133922944,
        -0.8398818815887269,
        0.20026909550739136,
        -0.729940858281028,
        0.2646426050089682,
        0.30437606744478607,
        -0.7844346249329216,
        -0.471531566776457,
        0.8068419806563463,
        -0.764108707227518,
        -0.30661531865253083,
        -0.10655140471112975,
        -0.392197114645575,
        0.3862418286307704,
        0.8014197238322585,
        -0.3397462683425503,
        -0.025228112656812962,
        0.7888858983253547,
        -0.1369117470141068,
        0.30590223734309185,
        0.40805691342527534,
        -0.4989324798891357,
        0.07274240329418202,
        0.21323973115666223,
        -0.011469271930932678,
        -0.6243905569233426,
        0.8341448707632831,
        -0.24652044299449422,
        -0.04817268231698369,
        0.4426945298879998,
        -0.6977374328730787,
        -0.8065793116758517,
        -0.047921936403546056,
        -0.049975478631018984,
        -0.02402399321203602,
        -0.22943937116458338,
        -0.3858654503564244,
        0.2824237944924437,
        0.6358274725206713,
        0.2214428721018824,
        -0.5556622393354788,
        0.05843409172915104,
        -0.6547605233325282,
        -0.44033118588890185,
        0.04380412447322986,
        -0.006504067468853704,
        0.8817090098744496,
        -0.15840884362793586,
        -0.43871028164704334,
        -0.18206594971638285,
        -0.17432253992464705,
        0.03840042298077846,
        -0.1509128580598272,
        0.2037809903765073,
        -0.044892692414458465,
        -0.8111163330709444,
        -0.623340398237311,
        0.8650848382974496,
        -0.32713389647457136,
        0.08021169670416846,
        0.8538027878592698,
        -0.11208231406024023,
        0.5376372784475211
      ],
      [
        -0.01394729522088647,
        -0.157215644094354,
        -0.3059394372775224,
        0.6340670733833776,
        -0.22409133970692058,
        0.6528801676746593,
        0.7296541734638508,
        -0.30892150732699747,
        0.6761386489256894,
        0.028132055960380972,
        -0.013683983278334972,
        0.15016005164118373,
        0.5323372831769109,
        0.3426984596064602,
        0.780918026989047,
        0.00607245231604497,
        0.1133592315763925,
        -0.3565431081182407,
        -0.13300587792304538,
        0.40037500999548803,
        0.620142244627785,
        -0.36894055832377937,
        -0.34129859670461427,
        0.439080095834279,
        -0.09471399434785832,
        -0.2409226154057421,
        0.13296983087149977,
        0.4710356286929204,
        -0.3195707409754296,
        -0.17595879836155762,
        0.04481724856231203,
        -0.16815578506240092,
        -0.5690639605733108,
        -0.12968918490985198,
        0.34992122814794907,
        -0.7388440899876688,
        0.01005076136374656,
        0.17860358381883742,
        0.20484234463710216,
        -0.9635538051293816,
        0.0996719876378528,
        0.03735844633059255,
        0.19912168859831464,
        -0.22950530157809138,
        -0.1048020275776137,
        -0.5241425612383406,
        -0.9785275674930851,
        -0.8524219161876644,
        -0.36101388087189784,
        -0.5139698785574066,
        -0.14783160778186197,
        -0.39461454326822154,
        -0.7342704830727419,
        0.7129262772538763,
        -0.4187510963862294,
        0.051592640522532075,
        0.6985099568668743,
        0.4455887428129492,
        -0.022754871465291236,
        0.6846642452971214,
        -0.38999087787273473,
        0.31128938475431484,
        0.3054208115846768,
        -0.15442843476280224
      ],
      [
        0.17090479371237657,
        -0.1339117936910122,
        -0.022863637117431123,
        -0.15985237726515708,
        0.46623484753067906,
        0.3233566967490847,
        0.7288432260846585,
        -0.9972935578932445,
        -0.8307407613622655,
        -0.2194185810975343,
        0.24973175588224666,
        -0.08404357643560194,
        -0.2672990777611467,
        -0.29992634340302776,
        -0.14046634148976492,
        0.905457535388563,
        -0.13335347626985924,
        0.7720426305927512,
        0.018923515341820366,
        0.13332913218944042,
        -0.1269237403467726,
        -0.28539554864694283,
        -0.05230367847947401,
        0.4482324985167826,
        -0.20611617103301932,
        -0.012728864482625087,
        0.7833894013325999,
        0.3697755871123293,
        -0.10563925526629586,
        -0.06030395241699867,
        -0.02775748569963667,
        0.014854532899314493,
        -0.46377099091805724,
        -0.17523867540915541,
        -0.3311972913312248,
        0.06806286608541114,
        0.731822206038775,
        0.4416544661025884,
        0.1319617816967654,
        0.22848563178022263,
        -0.6213011374907982,
        0.45532145848391997,
        0.053518307938543445,
        -0.2583204936455927,
        -0.19058118874461163,
        0.8544195158109135,
        -0.14923401291322969,
        0.3867450498520683,
        0.6181304893195746,
        -0.5004099172081812,
        0.3366096906271681,
        -0.3210196953965621,
        -0.040605813178956986,
        0.11159586136109241,
        -0.0726232756857922,
        0.3305510932972788,
        -0.6934702956718278,
        -0.2010902120561334,
        -0.3408784992297698,
        -0.2605549400004875,
        -0.23514716200174862,
        -0.7965660423468305,
        0.07617152293753623,
        -0.29767527578707376
      ],
      [
        0.8881915516163196,
        0.32626394919856183,
        0.28122983939423113,
        0.627363461780265,
        0.7202789211839233,
        -0.1581646555397299,
        -0.06015215620226069,
        0.11645493692527076,
        0.4585394997209461,
        0.02208856403851883,
        -0.44052372051887123,
        0.05954239946009954,
        -0.6371328647680907,
        -0.7055613449359518,
        0.6143497569082069,
        -0.3409216736552991,
        -0.3907910396798615,
        -0.018370950964055267,
        0.5812226725651889,
        0.4147049921644117,
        -0.7978536851084109,
        0.3896255322595024,
        -0.07963499237229107,
        0.051946408485905496,
        -0.2920745265649141,
        -0.2309272918717056,
        0.0008351760779956537,
        0.8877097710219582,
        0.11100186904216161,
        -0.3898553301170874,
        -0.3197491874964079,
        0.05707142556245399,
        -0.5866271237951812,
        -0.10452577880910023,
        -0.10574664639326414,
        0.18334754711259818,
        0.14149375517912596,
        0.22067349833821082,
        -0.3503554540016472,
        -0.6963747060053852,
        0.17257879147986363,
        -0.2400928346244503,
        0.2661647558117195,
        0.3069734824883757,
        -0.2615791299209833,
        0.7325366682258984,
        -0.05335347165139146,
        0.016740195681122973,
        -0.06678474986379114,
        0.6590142231020603,
        -0.2067198806106697,
        0.3616003862751123,
        0.027594250808782434,
        0.1222847230128557,
        -0.22975029216952053,
        0.13659689130799046,
        -0.7066244342692002,
        0.6000591145502053,
        -0.857992201566577,
        -0.026054866125954278,
        -0.06173595683984527,
        0.9470402733783831,
        0.011174262417822807,
        -0.014300036016974408
      ],
      [
        0.04739956927019342,
        -0.2504917634753164,
        -0.022331038218706946,
        -0.17106082491322147,
        -0.12435805021143002,
        -0.012054141487077992,
        -0.006793392249568036,
        -0.12973187744635667,
        -0.5689335618174148,
        0.6461871955364817,
        0.7170514681462693,
        0.21124975495099038,
        0.06764650469786017,
        -0.574989485208106,
        0.4375199388797846,
        0.15193148040897725,
        -0.9527955254525733,
        -0.3003166006789252,
        -0.05363038797767539,
        0.10698289974449979,
        0.5957000510275622,
        0.33951378369862906,
        0.5867303067767505,
        0.16211062707210586,
        -0.23177882225336363,
        -0.18132157749603695,
        -0.6298070272751668,
        0.526567464970256,
        0.8120892081672281,
        -0.32063520971289167,
        0.39874567415380524,
        0.11958459135307754,
        -0.47657990322981675,
        -0.45916778732910035,
        -0.17057513019798104,
        -0.07812261946893949,
        0.572070675296296,
        -0.9043256389297556,
        -0.49597974120012184,
        0.269155883087266,
        0.2634624299278729,
        0.16748690655648105,
        -0.07941326157466048,
        0.5066243040028859,
        -0.134713549353844,
        -0.7926058960896474,
        -0.18388745186563343,
        0.45079990008935283,
        -0.25679443285653175,
        -0.43249652045709414,
        0.3879602982638009,
        -0.023242380995604474,
        0.17050397216345442,
        0.7643964316533667,
        0.1026671276169491,
        -0.02928586417506216,
        0.38557775257453725,
        0.3211211732516773,
        0.4410427334815147,
        -0.3512608234198807,
        0.7092857662863878,
        -0.5353650013954091,
        -0.5084029145444678,
        -0.4404882747280949
      ],
      [
        0.8269002622843161,
        -0.6956648637045705,
        -0.25576776773808807,
        0.04289365878923991,
        0.38752724542445227,
        -0.393460438185441,
        0.11270493804318692,
        0.1734620491836584,
        0.06572364867607777,
        -0.09227733300545975,
        -0.3375474518392514,
        -0.0617673487475514,
        -0.38517413544393,
        0.32623123509852914,
        -0.056852858362917036,
        0.20406320605383396,
        -0.34221908069055407,
        -0.27300240249411817,
        -0.4897566327288828,
        0.7232635747757684,
        0.27941035862171976,
        -0.21265686953469945,
        -0.06601935516125705,
        0.4234909957135637,
        0.017683913112536524,
        -0.11770143485624647,
        0.5232179578282593,
        0.0025587796523018867,
        -0.4680969839169244,
        0.1062056156715102,
        -0.06677005198552353,
        0.31688420179660354,
        0.7992416574123318,
        0.8315381820537343,
        -0.07880978124509139,
        0.8516766650332301,
        0.3616539904223849,
        0.22385410816425755,
        0.1605738911974552,
        -0.20177851509009076,
        -0.03854379038611003,
        0.4118607948244392,
        -0.9098955672717198,
        0.14265382080127995,
        -0.06337567530675402,
        -0.32323798342952426,
        -0.1545227252315469,
        0.7560072328561507,
        -0.53074202162054,
        0.5885008910574734,
        -0.18582243232103185,
        0.3443232692252221,
        0.1297952076342884,
        0.08546095744739657,
        -0.26188364683504967,
        -0.32483882574079886,
        -0.7533155768680503,
        0.4504830119689493,
        -0.09002287064980942,
        0.6175675783392409,
        0.24358689826691396,
        0.3822416695671819,
        0.2026957747226118,
        -0.17208116149918481
      ],
      [
        -0.10105040355719021,
        -0.6703509312047998,
        0.3017786319849563,
        0.1455438721097253,
        -0.1446318940010485,
        0.12696088412036624,
        -0.5086597185248077,
        -0.46588977348960725,
        0.702275135939288,
        0.34050142656874555,
        -0.01507900704849585,
        -0.366929677655845,
        0.13608861312762663,
        -0.09916986144878008,
        0.5870948050794164,
        0.001210351483142807,
        0.18446317325085493,
        0.11931124133721263,
        0.7213808929583687,
        -0.2090651053894395,
        0.46295173286117525,
        -0.5799477539889799,
        -0.33387233254904186,
        0.1036664319201539,
        -0.03324293675331285,
        -0.37632108765540057,
        -0.34099196530755443,
        0.37667218447108025,
        0.3735702532416756,
        0.2788907989258508,
        -0.06712710221280298,
        -0.3307713983243478,
        -0.9692689109334236,
        0.1100660592728727,
        -0.04097667809247155,
        0.2756577124258176,
        0.31365218120693383,
        0.037215890710631465,
        0.26144050522243817,
        -0.10620054743605221,
        -0.23612601778243594,
        0.8403846582772052,
        -0.6730598271467654,
        0.7690564179294144,
        -0.5995819515911993,
        0.09905222126505206,
        0.44375743587710537,
        0.957150504683909,
        0.7370860087486373,
        0.6497679332558958,
        -0.07316625726312181,
        -0.783259557457819,
        -0.18659067762832354,
        0.3715362122103454,
        -0.29592786027419027,
        -0.23788179938158657,
        -0.20806237892623042,
        -0.5564880265305175,
        -0.3329887971677777,
        0.1406105947892211,
        0.11485239741236446,
        0.6167042454636507,
        -0.2517918269718927,
        0.7575029397622782
      ],
      [
        -0.005565383770780249,
        -0.6694501507042632,
        0.19399525322252717,
        -0.09099487960702841,
        -0.0954425941015763,
        0.22228897984512846,
        -0.12589156845071273,
        0.015635464614358652,
        -0.13439791946546883,
        0.9476067893767203,
        0.41680468423341127,
        -0.5062007413037293,
        0.3943773708849715,
        -0.05322477863724186,
        0.4930921609692515,
        -0.1305980689847183,
        0.9671505147436946,
        -0.36759101591036447,
        0.6389519008067671,
        0.36145287676938614,
        -0.3590251637127924,
        0.6364648382947014,
        -0.10736004147987781,
        0.25069272939624637,
        0.08855541495037217,
        0.5619509964203938,
        0.6983849757413685,
        0.15067864207956855,
        -0.0209905533663934,
        0.011719077210627546,
        0.37884970526680717,
        0.228652040277481,
        0.26842668297548633,
        -0.166768587693374,
        -0.4185085011770352,
        -0.966341890721578,
        -0.006375034214464915,
        0.48475015464928495,
        -0.22749698609004143,
        -0.19848517479071962,
        -0.31860592437553686,
        0.2642140629297117,
        -0.15633152435969114,
        0.42693826328217194,
        0.0833894321639296,
        0.674854736063927,
        0.09811394246213984,
        -0.176710449004075,
        -0.8172810925922277,
        0.368913574807073,
        -0.3038812825137656,
        -0.10343041743775444,
        0.3914164915881085,
        0.1980144979680424,
        -0.46165261027917887,
        0.8644486184893697,
        0.7892553786050097,
        0.2857223785997319,
        0.44854834255670084,
        -0.4777886599609966,
        -0.39641525380403864,
        0.35430344165920535,
        -0.279954785857026,
        0.6867840877549282
      ],
      [
        -0.014929153821103677,
        0.49017064120624226,
        0.8381625392177298,
        -0.27058824165830553,
        0.5559245793349622,
        0.06916097644843298,
        -0.11168790147550688,
        0.0746260821726994,
        -0.06005094956127165,
        0.3982523180923838,
        0.08266845007964661,
        0.3333537630811195,
        -0.283694047342201,
        -0.09589985163600107,
        0.524774432414999,
        -0.02817979980722671,
        -0.35581170960932507,
        -0.25497892977114045,
        -0.10004826632508401,
        -0.1679831771067754,
        -0.4163885056669182,
        0.1458131604379539,
        -0.28214637134262877,
        -0.49534281002808705,
        -0.7051249019254686,
        -0.39580280733734935,
        0.6354315877235518,
        -0.6054727255589899,
        -0.7795180565843268,
        -0.5807270183123093,
        0.020434116560882957,
        0.059101942982196745,
        -0.34523066395209634,
        -0.17891094181019482,
        -0.01693822185004819,
        -0.42997988663171705,
        0.4225919494351121,
        0.5872301686505793,
        0.2078513382344121,
        -0.2353578091888066,
        0.5217209630894091,
        -0.4032694492815165,
        -0.1391394731448398,
        0.08707207934780398,
        -0.9921234688808125,
        -0.7683747193053153,
        -0.30049421750489724,
        -0.07677762187581941,
        0.12176087622160912,
        0.06893314291537794,
        -0.3446254514791616,
        0.9519953961333502,
        0.21959062313126315,
        -0.8897067425274319,
        -0.0038576707803284964,
        -0.5345008583202517,
        0.02394628446185968,
        0.3664207164871406,
        0.4185367105214594,
        0.2724158970540152,
        -0.09751416082505115,
        0.33388401675032636,
        -0.98915829755028,
        -0.3057982935050909
      ],
      [
        -0.6305719650338018,
        -0.15029610916650657,
        -0.019759585910542624,
        -0.10177742385571326,
        0.07335957297768972,
        0.6278695262766102,
        -0.7733691375515176,
        0.8586686629115609,
        -0.518464353929158,
        -0.3528993010950977,
        0.10338192460030168,
        0.7445983349589606,
        0.08007094300580586,
        -0.19617213540265466,
        -0.22906175630722095,
        0.05433458399494646,
        -0.009128723380794011,
        0.375051069191392,
        0.12352473956728295,
        -0.9991199970245361,
        0.7255214642587221,
        -0.3668950084847942,
        0.6455256285407069,
        -0.20876720384034803,
        -0.9174688311573255,
        -0.22561955524571697,
        -0.250451304065561,
        0.71984162067194,
        0.2721139597963535,
        0.44285795829952573,
        -0.12795807068163217,
        0.18001521957673086,
        -0.19346576085177203,
        -0.39471057097274115,
        0.8425251154612853,
        -0.35043973755657776,
        0.6200741755675163,
        -0.03083276910678254,
        -0.6403735439531374,
        -0.19028720896593276,
        0.24173557107587473,
        -0.15664086665896026,
        0.25116788584991734,
        -0.7502670249355816,
        0.40407711738845553,
        -0.12627980318995322,
        -0.14735836998271895,
        0.5377454602699328,
        -0.2891603188013393,
        0.1691667794309453,
        -0.008850649422294745,
        0.9998639288576427,
        -0.5774370099108779,
        0.1514256024663471,
        -0.8863580155433961,
        0.006438262222281078,
        -0.9834301888450732,
        -0.01636094844758466,
        0.2586854799489599,
        -0.010529273805224738,
        0.2265950787363695,
        -0.3897959767295996,
        -0.1019110213290093,
        -0.19409559069175397
      ],
      [
        -0.49370905819163086,
        0.4709384874579415,
        -0.17425608261830658,
        0.9798607849781085,
        -0.055056527704564054,
        0.03550562824429029,
        -0.8609511326089548,
        -0.20055595972898033,
        0.34326826909051356,
        -0.13962108221450797,
        -0.44392182675761815,
        0.8560877062753078,
        -0.1819948925530004,
        0.2072686214443988,
        -0.3680944009549845,
        0.17375745665716388,
        -0.3744755104372405,
        0.45331777971010634,
        0.11156215436978519,
        0.7763934532416364,
        0.20451589035374496,
        -0.26993623763338637,
        -0.15888885361078536,
        -0.2549323494340802,
        0.3253001099679475,
        0.9808254388977974,
        0.06432868760617004,
        -0.041459486096475644,
        -0.09066560645733845,
        -0.40221928948010793,
        -0.059019233347785964,
        -0.6088154605782939,
        0.3467273785644464,
        0.03908092380668537,
        -0.23994601629074683,
        -0.0330542993136834,
        0.23578303771400946,
        -0.5795411598957719,
        -0.6634438848716026,
        -0.06396336063089975,
        -0.8987203687982077,
        0.32409449547872154,
        -0.4297112168283194,
        -0.5460196510565719,
        0.15941387081713848,
        0.04259157459325482,
        0.947365579619744,
        0.5471022309286241,
        0.13076769876463956,
        0.9117348544600129,
        0.20026202409703242,
        -0.01722401556552189,
        0.05437825209899562,
        0.6501486760554132,
        -0.3010933555927058,
        0.13539123991169044,
        0.1474724985949918,
        0.3305215094798359,
        -0.6227800407283339,
        -0.5112700017473558,
        -0.7798736444482475,
        0.04668808090670074,
        -0.12445151058309548,
        0.1909214394870875
      ]
    ],
    "biases": [
      0.07852116498098456,
      -0.2528466616344478,
      0.1341254984782373,
      -0.5953728799328255,
      0.8652610863592901,
      0.2926508903987834,
      -0.4557796855061997,
      -0.18202200989638695,
      0.4087424466106256,
      -0.09855573269778585,
      0.7583100549281842,
      0.32181227980054133,
      -0.8124205156878563,
      0.341802781728453,
      -0.12217942781566386,
      0.23465425243935847,
      -0.08402206606046522,
      0.7819061781139164,
      -0.09232675003805384,
      -0.30807643292199693,
      -0.57065443453411,
      0.42009984430515973,
      0.27850368911428863,
      -0.3158102797624854,
      -0.3004024780514757,
      0.5200435621040791,
      0.02396167343438874,
      -0.15688305240963532,
      0.03888993083922121,
      -0.06779658197484444,
      -0.09082142591116245,
      0.029238632871964897,
      0.6653384250492846,
      0.1701177324302915,
      0.31379746332631214,
      -0.15633727036065745,
      0.6691562889856213,
      -0.4615243595695487,
      -0.21750708948329528,
      -0.33219378312675724,
      0.7828922052378016,
      0.8600573635239651,
      -0.04498559513534036,
      0.3623876428002861,
      -0.5773558868444238,
      0.018553586323367052,
      0.15246077373268926,
      0.07524165397602421,
      0.3720309488684681,
      0.08528701141961981,
      0.7778228311602118,
      0.25196979142327297,
      0.6030724841572614,
      0.2713698158545583,
      -0.07434285269072038,
      0.09010586344346297,
      0.04012239098327085,
      -0.23012183461877037,
      -0.19651572388503397,
      0.5973073489064856,
      -0.21930209384644775,
      -0.3155475597724363,
      -0.23449917473299597,
      -0.40485558335945143
    ]
  },
  "layer_1": {
    "weights": [
      [
        -0.334975080190611,
        0.4488499350784647,
        -0.15307993858937122,
        -0.23067361038926032,
        -0.15033143459073078,
        -0.025304819342157787,
        -0.508856127722389,
        0.736552226647507,
        -0.21032027289836844,
        0.3619341899791901,
        -0.7967998401502521,
        0.030418695547168435,
        0.872547390960388,
        0.6790149409463161,
        -0.16424696644068373,
        -0.02882940625920416
      ],
      [
        -0.2941432941823969,
        0.45507686286669186,
        -0.6615258082509323,
        -0.3020033984577709,
        -0.041679223804792394,
        -0.05988601355059397,
        0.29172349737774983,
        -0.32071729465741766,
        0.0089369704230124,
        0.2495857382866592,
        0.11556468338543295,
        -0.31617233729597,
        -0.15433729087234524,
        0.8262257267305297,
        0.09036677490566068,
        -0.74228340948488
      ],
      [
        -0.25064073781529056,
        0.472255464590502,
        -0.04367595591808868,
        0.350383153129193,
        0.5607489256983633,
        0.1349790888780311,
        0.5317753397689232,
        0.830476607060762,
        -0.25715217786013733,
        0.17424890597030168,
        0.01942262086528572,
        -0.2281291623361638,
        -0.919315399314944,
        0.2882058105803258,
        0.11873360626858619,
        -0.9521871772430527
      ],
      [
        -0.018781077015042388,
        0.3303715108679591,
        -0.569915593765871,
        0.5140305255406149,
        -0.06390463509117837,
        -0.2858530959071026,
        0.05973501422222226,
        -0.10032270280065114,
        0.34360381771311593,
        0.8036699660208789,
        0.08978150658407642,
        -0.06932798930002403,
        -0.9586579437541836,
        0.7144215758691463,
        0.2425951610073277,
        0.8132484273648195
      ],
      [
        0.16731991413854283,
        -0.07914904287511769,
        0.09160487460164009,
        0.19581911648708716,
        -0.9461613865097939,
        0.17724471487512874,
        0.001531629076275085,
        0.30136305244717077,
        -0.28198672308866596,
        0.3007749433161892,
        -0.056689373104455446,
        0.30541790585978096,
        -0.31629600099137767,
        0.37098308055331014,
        0.3256453424401091,
        -0.6565203114630257
      ],
      [
        0.4690090878397693,
        0.7662829568068068,
        0.06054557768674652,
        0.5862997310055447,
        0.5344998724831836,
        0.20137595315988985,
        0.8209276726914396,
        -0.050679860607489864,
        -0.857684873372644,
        -0.29360992161699395,
        -0.3074726434854109,
        0.09536145343103523,
        -0.5828568403388605,
        -0.9753824667241955,
        0.00850906802885276,
        -0.15749541092795752
      ],
      [
        -0.16149397334504112,
        0.3492861005615567,
        -0.1655427127213008,
        -0.12471310917150724,
        -0.009161690773587383,
        0.4269665448593721,
        -0.3353212637030922,
        0.10353361294512722,
        0.19899674428908937,
        0.019360794065186215,
        -0.1186201131732512,
        0.297634663273436,
        0.39259460380982725,
        0.11654847922628556,
        0.34410710033886116,
        0.2913944061656305
      ],
      [
        0.5203102566471346,
        0.2597689864034011,
        0.1393995331760981,
        0.1118417061418924,
        -0.15186973914845495,
        0.09287939104553647,
        0.5448389002799123,
        0.4703669669914058,
        0.7296179442830499,
        -0.4983131075525213,
        -0.2595136182997443,
        0.2646563430842843,
        0.10044025184550659,
        0.4274714895100765,
        -0.17186499981479575,
        0.3853121088693927
      ],
      [
        0.6370013553253591,
        -0.2565335690859971,
        0.9902604999653465,
        -0.9650090580670726,
        -0.2072669214582566,
        -0.022141366628787434,
        0.575478983515742,
        0.4990862871756334,
        0.7759518881916145,
        0.7140165749247757,
        -0.7273663971347901,
        0.12633204594134378,
        0.06698394456932702,
        -0.4719170247096737,
        -0.33330987546811297,
        -0.3380447345144691
      ],
      [
        0.8995701122806397,
        -0.1317632053093037,
        -0.23378016263827323,
        0.6649511557605929,
        -0.6020246985794477,
        -0.027400022169602318,
        0.44324135859635483,
        0.26173204162572766,
        -0.28999260315708186,
        -0.02539541401425942,
        0.20219983786795917,
        -0.24432510844320868,
        -0.6731007848410279,
        -0.7737310602409749,
        0.35199412163064575,
        -0.04975288166372345
      ],
      [
        0.14867701346511442,
        -0.8506349894242843,
        0.2293124143810389,
        -0.46987353035079743,
        -0.4678247698952569,
        -0.3582006533600844,
        0.27904000215203384,
        -0.6075225525685735,
        0.09979038332309738,
        0.6817468581941274,
        -0.7942332905425079,
        -0.6147870526137489,
        0.1455734531836921,
        -0.34470550607078754,
        0.6981993625741929,
        -0.23006369732302664
      ],
      [
        -0.5281699802464986,
        0.5835709771786408,
        -0.17062522173096334,
        0.6666112136223517,
        -0.8043396843458243,
        -0.01881483238262519,
        -0.29526658409282663,
        -0.3308224584230806,
        -0.5330283433588666,
        -0.3102812034078908,
        0.5101429653184967,
        -0.4182868090703934,
        -0.2975273117875453,
        -0.5407025416407709,
        0.9050731643640283,
        -0.77462709641719
      ],
      [
        -0.1979560587345962,
        -0.22603724749892914,
        -0.22887206426502596,
        -0.2342489433014664,
        0.0948202141464196,
        0.0872041373448711,
        -0.4360356463598924,
        0.3214042750356609,
        -0.6907255975727684,
        0.4922414456947442,
        0.3997857569152827,
        0.5437885171282659,
        0.7524791882067554,
        -0.25410714410231666,
        -0.688372019022117,
        -0.00669471959968768
      ],
      [
        0.695649668730224,
        -0.24252060192042077,
        0.7747573440336769,
        0.18154149513623846,
        -0.34829014039570005,
        0.10330393594494516,
        -0.26701285673241826,
        -0.08143196150237834,
        -0.3879685452385022,
        -0.2617341044250045,
        -0.45675795623027715,
        -0.26706340495127023,
        0.05040786569953669,
        -0.40533165733540877,
        -0.32089863752824876,
        0.979955752368163
      ],
      [
        0.14463664193522874,
        0.21550446887980146,
        -0.20026220080055368,
        -0.7678595492732402,
        -0.613172427338817,
        0.6405329454808782,
        0.23911662336099682,
        0.28959185903010304,
        0.26503213319978197,
        -0.9939203344332537,
        -0.44159671910729703,
        -0.2893475481261768,
        0.19420136961944048,
        0.053670474073977896,
        0.03920774423050545,
        -0.37636275864549756
      ],
      [
        0.08900211063354801,
        -0.432645412549927,
        0.2398507049841016,
        0.9422783020141182,
        0.6514741284239342,
        0.729967141015682,
        0.21836788441879457,
        0.3495347916024341,
        0.5762471851262048,
        0.3617722467022446,
        -0.022361541360802872,
        -0.5644903787859028,
        0.39412325087182837,
        0.024151559899344657,
        -0.5183648905027205,
        -0.11858953033533862
      ],
      [
        0.48641360167172865,
        0.7510972769270851,
        -0.32688761937236355,
        -0.5298347126068734,
        -0.2763258912767502,
        0.20939663462295563,
        0.2686012139221137,
        -0.09721832008652538,
        0.04375208705165182,
        -0.07366857861317133,
        -0.3371883961992481,
        -0.057593162306093314,
        -0.07681601675671437,
        -0.07627285593278212,
        0.27422950613972785,
        -0.027811944131328474
      ],
      [
        0.33514819546852875,
        -0.11152366036772646,
        -0.6661346305707687,
        -0.1294776863104981,
        -0.27273594966119,
        0.17779877466458083,
        0.6078870280831035,
        0.8679465764901781,
        -0.7931150247859635,
        -0.21639970529928573,
        0.4752207049162643,
        -0.0974733591359767,
        -0.26493466375148295,
        -0.6538685956618846,
        -0.4511876655634799,
        0.3528388835440061
      ],
      [
        0.440534216481654,
        -0.5625664889982759,
        0.260053729131761,
        0.05767759360073191,
        0.0541729412477215,
        0.41436626056892506,
        0.26067538071569585,
        -0.29395810868835265,
        0.3637909922797408,
        0.3232357033429116,
        -0.3303441650735937,
        0.4872446244644369,
        0.11793668916676942,
        -0.524160036894004,
        -0.2470675894878541,
        -0.09443383829882185
      ],
      [
        -0.3482554979822668,
        -0.0664746481075248,
        -0.14177754899314354,
        0.3893216301301586,
        0.06343513224529522,
        -0.2016779355982638,
        -0.14464710789758062,
        -0.0412915342658878,
        -0.38963642003702725,
        0.12521077784077567,
        -0.019477099760953735,
        0.07830208361114513,
        0.395449777482413,
        0.4637057404733007,
        0.13212533071478885,
        -0.686696177322503
      ],
      [
        -0.9939814842651281,
        0.015881628798915883,
        0.28778434102974704,
        0.22919450110903458,
        -0.6502596292308462,
        0.06542462784755684,
        -0.03136139537801206,
        -0.04535762536646398,
        -0.16834900797106056,
        -0.5710260661192952,
        -0.33622156400812897,
        -0.20051699687890015,
        -0.6239334721260646,
        0.02790690001646437,
        0.36262092902684284,
        0.7577569489797271
      ],
      [
        -0.31041431769380606,
        0.3211570691468978,
        -0.12233089305514433,
        0.058869615423996595,
        0.17159395484584253,
        -0.979945370397485,
        -0.4690500301605907,
        0.4999389939798911,
        0.6623692211941996,
        -0.6046127160388356,
        0.052004358539169855,
        -0.06366558618859482,
        -0.543772238178568,
        0.06899016770606266,
        -0.417427711983152,
        -0.26123628302441343
      ],
      [
        0.9511396039416539,
        -0.16628363040779714,
        0.8002746531461673,
        0.06340535784982558,
        0.6416858623642888,
        0.7170103311486857,
        -0.2807023516268758,
        -0.63055222861419,
        -0.9614047928200252,
        0.16055138728093526,
        0.33817252232901235,
        0.958291779797394,
        -0.02754002697832834,
        -0.19905641147545958,
        -0.511729797597503,
        0.49242001845690003
      ],
      [
        -0.08743297812266139,
        -0.40060449916229984,
        0.4435774856779448,
        -0.5359198748183517,
        0.09830016736212496,
        -0.020734859741112492,
        0.5041896711085972,
        0.18763901082922316,
        0.08330643330837166,
        -0.5390847219570082,
        0.238742917516302,
        -0.42909730833363946,
        -0.683206841149388,
        0.2502778051270266,
        -0.7934227615623919,
        0.005857907447068837
      ],
      [
        0.005989824187780034,
        0.014204784327714107,
        0.46710863449480267,
        -0.13872451605143862,
        -0.0238614024117317,
        -0.5882500214441743,
        -0.46495565074604583,
        0.11261395486329263,
        0.04762301197477805,
        -0.35060465730964596,
        -0.4795666382227597,
        0.017300775444151397,
        0.17202660027469296,
        -0.7560014261787275,
        0.15286436930534736,
        -0.013397810090085427
      ],
      [
        -0.6454686603874771,
        0.3698725883001078,
        0.48229526262292455,
        -0.7315379462211514,
        -0.92129668488009,
        0.2683302588889536,
        -0.5041207980976995,
        0.42119506195235296,
        0.4944561906757266,
        -0.5039022064477148,
        0.06015383588885182,
        -0.4299241248012847,
        -0.00721458397835455,
        0.1493817804538579,
        0.23044677343995199,
        -0.19763424363808701
      ],
      [
        -0.2754258812681213,
        -0.36585901163508955,
        0.28387871061839265,
        -0.004465326803752813,
        0.012635654380489832,
        0.42097639057175484,
        0.7955028118728151,
        0.27312289015036595,
        -0.3301237842827216,
        0.9081773076609427,
        0.10153714076975474,
        -0.23886024253360516,
        0.7179949845065007,
        -0.17007103745817978,
        -0.4339109415564978,
        -0.41070564790296554
      ],
      [
        -0.14215502764682036,
        -0.06864746869173916,
        0.2134490655469552,
        0.4108808589336102,
        0.19547729372486808,
        -0.155971615758503,
        0.6748282233242581,
        -0.2594623595552398,
        -0.19843565343419883,
        0.989456753032707,
        -0.3477458463838116,
        0.20362538171598393,
        0.19124531383805388,
        -0.10525467992138948,
        -0.38910187646978345,
        -0.059174021536317546
      ],
      [
        0.5631897915475459,
        0.7986866241476455,
        0.20234914652272323,
        0.6584470381723476,
        -0.07897003147398303,
        -0.6647718264017427,
        0.0998615514927746,
        -0.25190912885974837,
        0.6200458896772121,
        0.35076989436899436,
        0.616633098650362,
        0.06609958497330862,
        0.9740870716284948,
        0.1354667268782157,
        0.1767901526592151,
        -0.6324317908038792
      ],
      [
        0.07176522378721681,
        -0.33213469136092183,
        -0.3939178586519509,
        -0.06668803420279319,
        0.48251395999322666,
        -0.4709309267128429,
        -0.28637859457425946,
        0.06198815982416218,
        0.5904233628632874,
        0.9483276907981755,
        0.24373084732267877,
        -0.11888571885634665,
        0.35168879832434197,
        0.17026486674414437,
        -0.02915237322447969,
        0.03251587504192424
      ],
      [
        0.6504976760700325,
        0.14353185305367047,
        0.5280189328407663,
        -0.41455286495962074,
        -0.21831179509438225,
        -0.929881182277671,
        0.17430094069902358,
        0.041429781292238954,
        0.14049566878043374,
        -0.5550022326756296,
        -0.27823847523670003,
        0.5889996574667824,
        -0.9898634610564164,
        0.32003963958313114,
        0.10375449521856295,
        -0.8249228599305236
      ],
      [
        0.7565155967931768,
        -0.371295352763826,
        0.11471494299929197,
        0.5583755361644274,
        -0.4807111484844921,
        -0.7085693385106845,
        -0.19853769934996193,
        -0.21617419759956452,
        0.004923261503918647,
        0.20491011321579414,
        0.7773180644482899,
        -0.322100437102465,
        -0.6097396388235408,
        0.6234110203883088,
        0.968708003841935,
        -0.29044840666893285
      ],
      [
        0.1838225545310018,
        0.5129502288750073,
        -0.26430007237011055,
        -0.610207519086532,
        -0.5850625928624688,
        0.4165443507300805,
        -0.8522326828203666,
        -0.5113928258554369,
        -0.11225715814934518,
        0.05129983998073267,
        -0.8149948951484485,
        0.914516405247314,
        0.0031369277338984957,
        -0.6583114960922793,
        0.09800575278707875,
        -0.6910948100026865
      ],
      [
        0.41848649523603504,
        0.07969158043532364,
        -0.86879190811231,
        0.47967686841560647,
        -0.39636109062182157,
        0.3214729130771956,
        -0.5569707001168408,
        -0.20950838770212304,
        -0.6394464419354347,
        -0.7908946902933595,
        0.09419549694149587,
        0.6825394462134461,
        0.755317692658664,
        0.5795188828746113,
        0.2288028955183091,
        0.13530911050676525
      ],
      [
        -0.9488480078096447,
        0.3417495027607109,
        0.1688711549338353,
        0.16768506831331323,
        -0.2922062550079819,
        -0.8730198571187245,
        -0.18774915468215767,
        0.10060530879266552,
        -0.4501610562229741,
        -0.22669894371748084,
        -0.09545025842283826,
        -0.9620181848997396,
        0.6146928095375829,
        0.14922666789284078,
        0.3526441687915918,
        0.40851192882142845
      ],
      [
        0.3370343415013973,
        0.3895577519430341,
        0.11105110736580481,
        -0.529266171445176,
        -0.01485812474104327,
        0.1599473489112292,
        -0.24106598752130737,
        -0.28729572900578304,
        0.23346602621958729,
        -0.7200205579382162,
        -0.21447000436300004,
        -0.31220941158042387,
        -0.3795902088837778,
        -0.6288765602526394,
        0.33550466993664047,
        -0.03257564721256903
      ],
      [
        -0.1646448761275076,
        0.2888912746548079,
        0.3444815264176608,
        0.6660416956576687,
        -0.15553613406287364,
        -0.15701946287860838,
        -0.4421250586701322,
        0.5432698177064642,
        0.005647930820705661,
        0.5862520283847801,
        0.17775291316532418,
        0.3595732849347938,
        -0.16841279867951614,
        0.030822102300830097,
        0.3493455883943167,
        0.15354146913725467
      ],
      [
        0.39521859964722184,
        -0.09908151625262716,
        -0.07176343917522493,
        0.28903334834889494,
        0.9260462529063797,
        -0.07768345098347774,
        -0.30552839947390587,
        -0.09135251948267249,
        -0.010133227820998562,
        0.602904544582329,
        -0.2769122287805897,
        0.31513559502696,
        0.3872930436330818,
        -0.6501041142996777,
        -0.3270748743977364,
        -0.22464876542853848
      ],
      [
        -0.19796053377175232,
        0.5043210030700911,
        -0.01113743370538877,
        -0.21882804621135787,
        -0.5092531520880248,
        0.06196538114741685,
        0.8699221318905032,
        -0.18387569308822227,
        -0.551265072948828,
        -0.07924752590377539,
        -0.43135012437323483,
        0.4592514681220356,
        0.046578126950189334,
        -0.18540909185698518,
        -0.5429857208821584,
        -0.21999470323347495
      ],
      [
        -0.733422155316068,
        -0.6840935608956774,
        0.4172298197543591,
        -0.494562586805419,
        -0.025612383737806773,
        -0.2520258866430957,
        -0.14005751848297715,
        0.4879424435268637,
        -0.5251267308110162,
        -0.12079158865477654,
        0.6375074593923835,
        -0.08162381627841539,
        0.15451287505624942,
        -0.2866208660145095,
        0.3913021615891647,
        0.06377457343643526
      ],
      [
        0.5749020575398366,
        0.7610170443186745,
        0.0702780690540885,
        0.041677126342511785,
        0.35181537355656695,
        -0.7974458243955149,
        -0.11693645403955437,
        0.3940339155621571,
        0.21391028351081648,
        -0.9864816565377371,
        -0.17702256599909472,
        -0.050300720194699146,
        0.7106085461794152,
        -0.46049454294348907,
        -0.6548737794680108,
        -0.7214581239841126
      ],
      [
        0.2860804145193837,
        -0.40962133113149796,
        -0.10286429102549292,
        -0.014633075113293465,
        -0.7086918622778295,
        -0.27259220515930627,
        -0.017209257011651494,
        0.37331431539826204,
        -0.8943293333767106,
        -0.3620261631528601,
        0.719644820344087,
        -0.2774214810676119,
        0.4936183468760097,
        -0.4420492535418874,
        -0.046348534946911726,
        -0.04163611809784266
      ],
      [
        0.2757981563691988,
        -0.21857605580046138,
        0.09713490989643214,
        0.7187657593711516,
        -0.253708554476696,
        0.835477786298355,
        0.851351767983469,
        -0.5428209922943014,
        -0.2414243411283813,
        -0.11761811823464571,
        -0.47186362803677684,
        -0.3875726640841469,
        -0.0658400979948231,
        0.19863434719794398,
        0.21180970055522821,
        -0.5616848914160718
      ],
      [
        0.3433572303989846,
        0.08818956228444673,
        0.6427088792014832,
        -0.057347150055815005,
        0.015948877835441848,
        -0.7606314969718402,
        0.08487521142593087,
        -0.048038064027895705,
        -0.22148422640035628,
        0.06729041130074107,
        0.2289438192505068,
        -0.1054620245791834,
        0.1284817608504068,
        0.10477124708019979,
        -0.20215418583293007,
        0.16148401636218157
      ],
      [
        0.036637449221566386,
        -0.18048427699209313,
        -0.5623538437153843,
        -0.08575856947044083,
        0.6029909680824884,
        -0.41977143098680914,
        0.9119293156708429,
        -0.1953838654765872,
        0.2108551949784828,
        0.34079936446343434,
        0.06358744199416845,
        -0.2703046606689697,
        0.4618331401005488,
        0.015348812840877146,
        -0.18959472321939025,
        -0.22428727174845156
      ],
      [
        0.33666587020581035,
        -0.5014689988723136,
        -0.8953835174922464,
        0.11588392195155843,
        -0.27672112938651766,
        0.46713467294451944,
        0.08646795683890754,
        -0.2550222439224962,
        0.7833503188201835,
        -0.12991758667999356,
        -0.12617561271246563,
        0.8891919489993064,
        -0.16841431335661047,
        -0.7655959011403631,
        0.6562292922891054,
        -0.2221903860213473
      ],
      [
        -0.342026911397502,
        -0.4886268813259809,
        0.8404301585246343,
        0.047849984701518286,
        0.055211837741309534,
        0.3190075947022599,
        -0.2203159710712549,
        0.15090617990610602,
        0.3766617735621855,
        -0.3157742560080283,
        0.3419366697671405,
        0.13650575450613392,
        0.4602144949300534,
        0.7339416445250515,
        0.38730087528476087,
        -0.33586721355521804
      ],
      [
        0.5089789456805602,
        0.45958022982496166,
        -0.7460527238128887,
        -0.573539312072163,
        -0.1560716651764704,
        0.44997462618404527,
        -0.612400771421015,
        -0.9564778164594281,
        0.3726376297375838,
        -0.015121587234310905,
        -0.19124037042350933,
        0.05729979216437467,
        -0.07017395048345418,
        -0.3923965558115182,
        -0.5272726361693691,
        -0.20901869660466088
      ],
      [
        -0.08321631544274333,
        -0.764630102380171,
        -0.5311315079641574,
        0.8548801968397292,
        -0.002032391980597197,
        0.7179531907616202,
        -0.9642587773565855,
        0.12904316382671466,
        -0.7699776415455493,
        0.2895547376533777,
        0.13721463468231365,
        0.9645580068359537,
        -0.3512208294448447,
        -0.2979197413286776,
        0.28331200570882004,
        -0.2363090342064474
      ],
      [
        0.053529155489950665,
        -0.05927759974356347,
        -0.35030014565518497,
        0.9585314344151108,
        0.15666945185636622,
        -0.8321607047391193,
        -0.1629961269251835,
        -0.9934335058326536,
        -0.27503831613819957,
        0.9776965216126315,
        0.017273522911716563,
        -0.2870520263429163,
        -0.10346223840801652,
        -0.38894734090528865,
        0.16263513224358633,
        -0.44470853751196615
      ],
      [
        -0.4306989247272269,
        0.5532056146457908,
        -0.0716600898353699,
        -0.08345600122856572,
        -0.021174378268657496,
        0.2222968668885308,
        0.297813630551447,
        -0.49310765339002394,
        0.48601162159666417,
        -0.20513996559444042,
        -0.09540013297186303,
        0.19697577062175226,
        0.019757624969647985,
        -0.09414821053133726,
        -0.5234244916244375,
        -0.12481721921355574
      ],
      [
        0.1262101638172988,
        0.49991099457103977,
        0.243710458274903,
        -0.29756369854170234,
        0.3869403627082215,
        -0.057220496842663685,
        0.030560947448937014,
        0.34168848660390705,
        0.6411554849022146,
        -0.4822146974625494,
        -0.867041492663945,
        -0.8612832379537437,
        -0.21536289297703326,
        -0.09431490166086079,
        -0.6828398612658864,
        0.20477843488322836
      ],
      [
        -0.4088711355049506,
        -0.26212554510865654,
        -0.7993666321170195,
        -0.437078141852975,
        0.113613677281136,
        -0.4576130323712652,
        -0.2924301520381306,
        0.7100343642941158,
        0.12872812000359315,
        0.8433486414630958,
        -0.5439408491271489,
        0.8176964432858574,
        -0.7722946197474694,
        -0.42959293946120347,
        -0.03364764023048517,
        -0.5634276747408568
      ],
      [
        -0.11328218030066484,
        0.038329180366459985,
        -0.04469080681812212,
        -0.6451022928248257,
        0.1858227970410435,
        -0.7050752609288307,
        0.292933946147404,
        0.04304659742719287,
        0.037079669212601536,
        0.6356027085307807,
        0.17415070585388698,
        0.8024721410810775,
        -0.2055299826661951,
        0.7862028991596567,
        -0.9627965422742509,
        0.1784791046182862
      ],
      [
        -0.2414989282398534,
        -0.6477053625610207,
        -0.4643274482884399,
        0.41261401861020164,
        0.020110912869724003,
        -0.012916542988115084,
        0.11575440661563792,
        -0.2017533617995897,
        0.04920568102324857,
        -0.027572711495797275,
        0.7045339367344321,
        0.061977995526433786,
        0.008819198851941724,
        -0.14105921541484662,
        -0.19027443746873987,
        0.7775059124242759
      ],
      [
        -0.05658105389235153,
        -0.28046750857085734,
        0.13008368131922177,
        -0.15907980160487736,
        0.6556498447059562,
        0.9546869152388994,
        0.43902440087063294,
        0.2634884399145443,
        -0.6903297984916053,
        0.6695011737216119,
        0.7771513602978602,
        0.6973899465321479,
        -0.04076619550540165,
        0.5845135285707964,
        0.7783520816028433,
        -0.14237145776350446
      ],
      [
        0.02816133582933389,
        0.47818171938875254,
        0.025655109072395665,
        -0.3429984533811308,
        -0.5361601355280159,
        0.6032989942498418,
        -0.6621822844782752,
        0.14967194799015116,
        -0.204830509234281,
        0.8937913077112454,
        0.036259004122805895,
        0.30068597573164274,
        0.4826043916979084,
        0.19668182534794482,
        -0.2981936855353352,
        -0.26358221136627935
      ],
      [
        -0.12787977440231285,
        -0.021270475689403264,
        0.36683816680799447,
        0.18672426560614844,
        -0.26051648677003636,
        0.27019841536819267,
        -0.2566679806324391,
        -0.6836231514137937,
        -0.1716474652623757,
        -0.04223825934445906,
        -0.19672069573068457,
        -0.056103067057809985,
        0.08807848875262857,
        0.26863154283869817,
        0.4293981340896646,
        -0.8511316238827614
      ],
      [
        0.0700145335617233,
        0.0711486987929421,
        -0.4909368556038702,
        -0.5634874169413674,
        -0.0827557865103272,
        0.8020235676549178,
        0.7645738884249456,
        0.20302723607285386,
        -0.480107776581977,
        -0.10523835122274693,
        0.1723241339708785,
        -0.38558828320940386,
        -0.3975646988447601,
        -0.2256575039551676,
        -0.4265915947847231,
        0.04130668360272132
      ],
      [
        -0.9821011439652599,
        0.08051173397745758,
        0.5252936215129373,
        0.6426364860303057,
        -0.2369283014077767,
        -0.2526730115658395,
        -0.23019225237221655,
        -0.6608153700617233,
        0.33187041596286226,
        0.23983321126798673,
        -0.10550733031753678,
        -0.09150610315496027,
        -0.4396485403916519,
        0.18571656793494795,
        -0.6834483950365485,
        -0.35535144794716167
      ],
      [
        -0.05658681778058506,
        -0.37655772485983385,
        0.44365144644262033,
        -0.003827812100213475,
        0.29507742198533116,
        -0.11577377440075376,
        -0.44618647311293513,
        -0.48373733330455043,
        0.42380329809786077,
        -0.045400373673065875,
        -0.2723569273223384,
        0.3443059337259772,
        -0.05396181201588981,
        0.029452968328351467,
        0.44479598935122194,
        -0.1778190164357721
      ],
      [
        0.01700479453496832,
        0.2404814840858912,
        0.4016773439910951,
        0.6091895077330662,
        0.36402829408414733,
        -0.2907584641957429,
        -0.3455896037405572,
        -0.18258518868237913,
        -0.8399249207345576,
        -0.41789033353594085,
        0.13852795237386045,
        0.04204217662520947,
        0.7348982132094477,
        -0.213120827645821,
        -0.4545154398587124,
        -0.8435462375872387
      ],
      [
        -0.36361175380900673,
        -0.4110226597699922,
        -0.013698006910188828,
        0.16779153935556612,
        -0.3543119794840831,
        0.8561999131108169,
        0.20988962039501496,
        0.13334971196225567,
        -0.4448768255254417,
        -0.4939082479961506,
        -0.47756518167628575,
        -0.5609149913952308,
        -0.10239929317322331,
        -0.2181649054875287,
        -0.25986894324940907,
        0.06266381217031784
      ],
      [
        0.7289906757358283,
        -0.34411230913777224,
        -0.30991923735306265,
        -0.09831760026318535,
        0.9635031612952,
        -0.3962005566674416,
        -0.08917593702826339,
        0.8104509734723963,
        -0.35687047095791063,
        -0.3030032994745529,
        -0.7460911802500606,
        -0.3526431838337319,
        -0.0017941403166408612,
        -0.115182429290733,
        0.054719608645497096,
        0.16552559468569147
      ]
    ],
    "biases": [
      -0.010607754708721091,
      -0.8421368809979505,
      0.242826290247279,
      -0.6015877639582452,
      0.2679098151997959,
      -0.9523077373398814,
      0.10545010780939361,
      0.19016348372920436,
      -0.5783065522470767,
      0.13625975967902484,
      -0.35244906157885175,
      -0.6130518106138286,
      0.3758148172417106,
      0.37124039377229723,
      0.38692495358569073,
      -0.46841023169064566
    ]
  },
  "layer_2": {
    "weights": [
      [
        -0.6819484608734603,
        0.6188492402979074,
        -0.042564124237566676,
        0.07535128360655693,
        -0.048018514702645135,
        -0.57298084527127,
        -0.5449933793651619,
        0.014487627610843363
      ],
      [
        -0.8020838942691698,
        -0.6923377050748563,
        0.4636789945773611,
        -0.14416291404071388,
        0.041253796629058676,
        0.1489038201991403,
        0.3725776126083702,
        0.12460623837470619
      ],
      [
        -0.1997674285267542,
        0.9685614471544974,
        -0.36980676341339713,
        0.20591493945096276,
        0.1750959251132689,
        -0.7542947184329822,
        -0.18954248891286968,
        -0.4072181769517378
      ],
      [
        0.35450856032985384,
        -0.58590656181668,
        0.585615585813519,
        -0.3142036087516699,
        -0.15442491431717928,
        -0.2535291555285937,
        -0.6388560513722232,
        -0.3307011320377322
      ],
      [
        -0.1428733358136017,
        0.5732451350873566,
        0.4648344887339212,
        -0.43265052481079014,
        0.34426661782414186,
        -0.5912423939965062,
        0.7545062011496524,
        -0.1878727424841435
      ],
      [
        0.02498682630185421,
        0.02328228486401117,
        0.04901951002632557,
        -0.10732209871460124,
        0.6046052711442104,
        0.30357495015445435,
        0.4493084725897204,
        -0.19963006285276388
      ],
      [
        -0.07315715982959757,
        0.8434304875073054,
        0.3178851610819843,
        -0.0594459107542475,
        0.004551313247277897,
        0.4965307061856272,
        -0.3366903147977048,
        0.058601902726342886
      ],
      [
        0.40310010544468844,
        0.34764582512339753,
        0.6254688064696947,
        0.17448525190773304,
        0.4684199690068362,
        -0.422270386619524,
        0.043673020261399395,
        0.6442301429381221
      ],
      [
        -0.01613444519231082,
        -0.568372272639116,
        -0.8041238455495024,
        0.35681184835226243,
        -0.4667346998103375,
        -0.5026973315256635,
        0.5013144410750746,
        -0.017020251673361197
      ],
      [
        0.3266782815598304,
        -0.13378851078852466,
        -0.2595441270987675,
        0.7198665527608208,
        0.06207136900462879,
        -0.6874921555582566,
        0.36663448085114825,
        0.12372238553494397
      ],
      [
        -0.5653268502758123,
        -0.1903452040103348,
        0.3101323107260993,
        0.04217787546909831,
        0.052692919724097446,
        0.5199903517667049,
        -0.10427770649113084,
        -0.7648957748196702
      ],
      [
        0.9052613983469024,
        -0.05327472000079094,
        -0.4385997419630963,
        0.17696028825379043,
        0.38349578451849925,
        0.35697963740244715,
        -0.09107274878780071,
        -0.06965840129843678
      ],
      [
        -0.565814218943859,
        -0.8036559657828339,
        -0.009517983169269393,
        -0.13793275139408265,
        -0.13262209367307387,
        -0.235049532680978,
        0.4532523950668085,
        0.45578758627493243
      ],
      [
        0.3120521284873543,
        0.2177352373798376,
        -0.2501553043158011,
        0.1346619439281113,
        -0.38227014047755753,
        -0.2185114551529875,
        0.5608896254936857,
        0.9427558990387704
      ],
      [
        -0.4311793999918782,
        -0.7857845752600635,
        0.0004915101109064606,
        0.06265406501081204,
        0.1012076960751765,
        -0.656017656343591,
        0.34582633010936914,
        -0.3256605153938487
      ],
      [
        -0.5290615980373549,
        -0.32952290566039166,
        -0.02151941966219441,
        0.2929578706168138,
        0.6235646912614216,
        -0.07907992595648537,
        -0.0952118337643191,
        -0.21692027099040218
      ]
    ],
    "biases": [
      0.45102497400679825,
      -0.3259851959197183,
      -0.5632639824639646,
      -0.05187981368096888,
      0.04876547712977587,
      -0.6797420305564437,
      0.08729104501874083,
      0.08884951365377937
    ]
  },
  "layer_3": {
    "weights": [
      [
        0.3580272027946596,
        -0.31901841966155997,
        0.5341401896000887,
        0.034661332320723534,
        -0.11014189809221354
      ],
      [
        0.2644802110920331,
        0.0828965866236767,
        0.5593882434668821,
        0.7444408906899967,
        0.8560272657149567
      ],
      [
        0.05074292724873293,
        -0.6383526166661332,
        0.07932323690430941,
        0.22908542616921243,
        -0.6243518943629722
      ],
      [
        -0.2305707249458905,
        -0.4241697660618727,
        -0.31411672323628864,
        0.10806001045362536,
        0.9407231163516514
      ],
      [
        0.21301927636955306,
        -0.05590400628049175,
        0.5602575989189946,
        0.19109859702987475,
        -0.18256271318650477
      ],
      [
        -0.285562665657679,
        -0.9776256652179315,
        0.07741921717506794,
        0.1330363433724617,
        -0.4130496998315578
      ],
      [
        -0.2644766352151637,
        0.7458972930694704,
        -0.9246717916227737,
        0.2559977547008376,
        -0.7811018251098406
      ],
      [
        0.7932225832588992,
        0.2645009080608326,
        -0.1458300625367539,
        -0.21105674589301318,
        0.3356126605257513
      ]
    ],
    "biases": [
      -0.6717858204714695,
      0.0512257391510963,
      -0.14031997388321554,
      0.10795666616630581,
      0.12074249750045918
    ]
  }
}