{
  "layer_0": {
    "weights": [
      [
        -0.8879857376641902,
        -0.6428009134639849,
        0.08829195530223605,
        -0.6980952233887527,
        -0.8763012784313472,
        0.2407215231020023,
        0.6120872517815678,
        0.28085407581934774,
        0.6897524050733295,
        -0.6486212194650736,
        0.3453729927334862,
        -0.29841506645013965,
        0.1622199438674938,
        0.4859755043949678,
        -0.7621826146739938,
        -0.8396433423523332,
        0.40506886463708935,
        -0.6867745089646083,
        -0.9097770496042916,
        -0.5429290978596409,
        -0.7664026413075082,
        0.8973322627380239,
        0.5093279372562215,
        0.5328460374172845,
        -0.9165509815285593,
        0.37543866643359153,
        0.045807929967690134,
        0.7192617918651775,
        0.7805422022839371,
        -0.8579162903730853,
        -0.21160183386858006,
        0.723611245397205,
        -0.9489298246861667,
        -0.35045308659749586,
        -0.33212775482079143,
        -0.7596286646399342,
        -0.15604622414815902,
        0.18172311136928565,
        0.16162868695192997,
        0.5913793732907594,
        -0.024016478785827418,
        0.5112182986131198,
        0.39296936090838797,
        -0.7283182209800162,
        -0.6563464454031221,
        0.8313797789064803,
        0.6728612414235242,
        -0.06333893573534849,
        0.8097641828971401,
        0.6759806639106573,
        0.710021425449699,
        -0.3762127934853293,
        0.12417728831192451,
        0.018950149786674315,
        0.001000954565358248,
        -0.9583498566855554,
        -0.19270665587074515,
        0.6967271227375122,
        0.7608190369913477,
        -0.899026149457471,
        0.5984996459159596,
        0.7320702371549849,
        0.7019243341220969,
        0.6490182380251541
      ],
      [
        -0.2515767179010094,
        0.7968929612426238,
        -0.7146106162350865,
        0.048836522019204506,
        -0.748265424409113,
        -0.48553670822958167,
        0.3584223814905156,
        0.15355667465974493,
        -0.23259089032461078,
        0.6093978515250228,
        -0.34180129686674793,
        -0.5578051431425703,
        0.2663525285904486,
        0.35863539704997266,
        0.4474413152600642,
        0.05532708788048014,
        0.9356113326123403,
        0.5093472871651188,
        0.9804172697243592,
        0.46491447704169475,
        0.7792938252825878,
        0.6854771612751406,
        0.13240925512335822,
        -0.06591431656749798,
        -0.8409342348738365,
        0.5219733238357648,
        0.7336661069025887,
        -0.8063606014806195,
        0.758632309483967,
        -0.5337592436576852,
        -0.054584561096409405,
        -0.44230155525333825,
        -0.2086599374504417,
        0.4850768786911688,
        -0.3890861412554748,
        0.6138535831888278,
        -0.7316114056223818,
        0.5330449018890058,
        0.5196491261302343,
        0.5055406905348072,
        -0.19951233049025904,
        -0.38258674161791123,
        0.8998981801722016,
        -0.17139254237030307,
        -0.5198790261734124,
        0.10122179641434284,
        -0.896814310304344,
        -0.39479785595246447,
        0.36565779325426656,
        -0.5356295374544112,
        -0.4129959626816889,
        -0.8694710112463659,
        -0.025542337997414028,
        -0.2973408352707384,
        1,
        0.6720080415872272,
        -0.8054895320310012,
        0.41174694098569975,
        0.4007842610540341,
        -0.5614144715562558,
        0.10878105373955715,
        -0.3133534674772466,
        -0.8724620786101424,
        0.2713653542591141
      ],
      [
        0.2145451441485621,
        0.836978204267459,
        0.6745757043914372,
        0.4190345805987541,
        0.295995984457001,
        -0.48391099249981345,
        -0.6280636843723261,
        0.1985052747049259,
        0.3837169523472272,
        0.7556727203615106,
        -0.4212028547279796,
        0.12379251218161712,
        -0.27006335924186636,
        -0.5582102798482397,
        -0.045465037732974334,
        0.20108656942906508,
        0.981695052555905,
        0.4991530613975147,
        -0.26280125580588887,
        -0.45398279427482974,
        0.16332008001497125,
        -0.2647832546212374,
        0.6962970547916842,
        -0.4130069779453149,
        -0.8175202893910799,
        0.9414215893185112,
        0.15411347868788586,
        -0.7567892574063825,
        -0.10636653770173381,
        -0.1596424649144779,
        0.3973810155883678,
        0.4632447377319614,
        -0.820730869083255,
        -0.159128804878543,
        0.8689389635893074,
        -0.9329951924064936,
        0.3574815214267624,
        0.9481452838604416,
        -0.34687407127845626,
        0.5906916057681639,
        -0.9775209490095979,
        -0.3048768843945909,
        0.48696363725471487,
        -0.3842221422368369,
        -0.09357520960524247,
        -0.2702345693913035,
        0.714711779186678,
        0.02508245922192861,
        0.6694646128470229,
        -0.8505073741102936,
        -0.8347449741066197,
        0.837131400240146,
        0.5457421791027708,
        1,
        0.1630833420530508,
        -0.2622522811250627,
        0.47262356125774513,
        0.43222402311312963,
        0.8814988819927552,
        0.6224798753908536,
        0.15202760085773276,
        0.4363213844102527,
        0.24606267061188936,
        0.5352254812518318
      ],
      [
        0.3489627758987917,
        -0.5945091368014833,
        0.9267368369741575,
        -0.44746724753382655,
        0.1795996262774426,
        0.7232962851949793,
        0.14389791662374452,
        0.31421662652962545,
        -0.9449957520264394,
        -0.05639835424701686,
        -0.2462178818480031,
        -0.9046277256694171,
        0.6421723938276547,
        0.6743413892036447,
        -0.2234890021796537,
        -0.6806672003581736,
        0.3624678525747736,
        -0.8362816508910935,
        -0.6784320836392429,
        0.061292613806072,
        0.27238865054029654,
        -0.35560222938647684,
        0.3065495545226539,
        0.7394005660177262,
        0.7727729476439742,
        0.4715772297833985,
        -0.6747617230192671,
        -0.3913126915083305,
        0.5651871500911991,
        -0.08760383713187629,
        -0.47587079544425,
        -0.15337625334804292,
        0.7894600784092922,
        0.0026714499190152474,
        0.8556840289737245,
        0.943059401111145,
        -0.4019373141613414,
        0.471830775027307,
        -0.3100219328470555,
        0.09404116603399654,
        0.3588032944323167,
        0.2812265696160459,
        -0.004463885671099794,
        -0.7737018742437024,
        -0.4527259148806924,
        -0.4351489040664494,
        -0.8958568315500776,
        -0.09643592215929171,
        -0.6299831708433051,
        0.35917015486002457,
        -0.8232068583328769,
        -0.9327366438479647,
        -0.20054203437616533,
        -0.18308288644709067,
        0.5846734193327373,
        0.5385482048784717,
        -0.1818000746751525,
        0.08194699289044044,
        -0.6261526403926944,
        -0.30673666956836304,
        -0.2841260481858004,
        -0.34591623834112945,
        -0.04533784568541595,
        -0.8454906529222546
      ],
      [
        -0.46754743989064673,
        0.32125066721296164,
        -0.25901896229282856,
        0.5784630395083021,
        0.33751460062169064,
        -0.14224178135983684,
        0.8066470067960387,
        -0.5785965745444411,
        0.8431544630071142,
        -0.01618308647464289,
        -0.867390613511791,
        0.431671736517403,
        0.3240076240865736,
        -0.781812279863319,
        0.5173835154624842,
        0.00708123604795207,
        -0.15665747461780843,
        0.6944718815653256,
        -0.26814678079960386,
        0.6192950062833291,
        -0.04483658749719009,
        0.8765284753153878,
        0.6596634045172384,
        0.7401885191538293,
        -0.9935839151354742,
        -0.707521639446135,
        -0.17834234294940893,
        0.3119633136514466,
        0.2661426153940861,
        -0.3846543073669403,
        -0.019171759810377317,
        0.7101785859869556,
        0.7242879358276914,
        -0.42492737549887993,
        -0.6541554255392671,
        0.2740072374546941,
        0.8129408238927017,
        -0.17678277820859725,
        -0.6777231197910414,
        0.4923725367852634,
        0.18361885973106407,
        0.33690971976089434,
        0.26552180797884645,
        0.921888185763575,
        0.9005386120011585,
        0.14140599609825952,
        1,
        0.5651563223483347,
        0.2818255493582278,
        -0.14295816882546736,
        0.07564260772892384,
        0.607370934155519,
        0.2023637911783729,
        -0.7807745756799824,
        0.8153757370026353,
        -0.5533970894429506,
        -0.30589780157314833,
        0.7875923543095132,
        -0.22383739031744748,
        -0.42169459235324297,
        -0.9573112758816116,
        -0.3593431994998236,
        -0.1861356725917089,
        -0.6491122887885628
      ],
      [
        0.712114636013672,
        -0.8144719475345029,
        -0.33345097337586904,
        0.22647386944312647,
        0.1473449553401055,
        0.4113489266803464,
        0.15194399650559237,
        -0.12528836130678575,
        -0.9447327402411094,
        -0.3524612417364135,
        -1,
        0.8289278869723256,
        -0.4017468251320232,
        -0.18848550000257863,
        -0.6421528546160497,
        -0.4314460616825603,
        -0.6150795877911601,
        -0.6387767134219047,
        0.5237786158172356,
        0.7916921545303481,
        0.593552813806801,
        0.7362997132957374,
        -0.09006689971675158,
        -0.6713477580967062,
        -1,
        0.05694697107252128,
        0.3344380799496713,
        -0.174267967195492,
        -0.34180996741962427,
        -0.7567634761178069,
        0.6150432993056038,
        -0.49185872937758524,
        -0.8364512005932645,
        0.4412338433234198,
        0.002840368817329026,
        0.6739090368891822,
        -0.8430018250592379,
        -0.6121298483374662,
        0.8119729454648319,
        -0.9864312470036651,
        0.6147744794364329,
        -0.48039727318527914,
        0.3474808720848746,
        -0.3533416718055229,
        -0.6181609078867256,
        0.6049910675068928,
        0.31725888707137784,
        0.33478302702191315,
        0.37656308483375905,
        0.568199819704031,
        -0.9555275562750765,
        0.40691110320688034,
        0.14211134808844988,
        -0.4742209841707699,
        0.059034693376963265,
        0.30969974757323776,
        -0.24852960840241606,
        -0.9487025199235537,
        -0.5530990110474165,
        -0.46922988280316663,
        -0.9229204062186567,
        0.37997207713606224,
        -0.8737372040915568,
        0.7702802027152443
      ],
      [
        0.18883985368364198,
        0.6990794069424376,
        -0.20440744025488086,
        0.43797445792433215,
        -0.4173014194359378,
        -0.43698206640900605,
        0.7412440967999746,
        0.47374833319865334,
        -0.8690508325007132,
        0.598155105928926,
        0.09238008962017336,
        0.9890509451663301,
        -0.7905427737076417,
        0.09743793653902631,
        -0.019977114665092013,
        -0.286761464707861,
        -0.23054096713176717,
        0.018252238700520403,
        0.9412508576957271,
        -0.5076738228119612,
        -0.3677059944592353,
        0.7660569755188144,
        0.20864193931429692,
        0.33636537770473035,
        -0.2866106635647924,
        0.6672985852476376,
        0.034902501171230636,
        -0.10190538993317345,
        0.7581892464902235,
        0.5220222027228328,
        0.6205288426770665,
        -0.8451747063644414,
        0.6278125268219646,
        -0.3017770215582696,
        -0.20526124238628166,
        0.9755075835335844,
        0.13353387250121312,
        -0.14319384508937866,
        -0.8593107480330779,
        -0.4546295039839948,
        -0.21314719468259072,
        0.41412958655302334,
        0.24247227012375863,
        -0.7506344470796398,
        -0.10391415171299999,
        -0.695675233972549,
        -1,
        0.6417581319140212,
        0.4485664590546015,
        0.9703693166357875,
        0.0380004279379287,
        0.7872003472090188,
        0.44787193499911704,
        0.1241017956602473,
        0.003969709211267531,
        0.6674051967782634,
        -0.06712502660229566,
        -0.461847786074987,
        -0.6103902852676222,
        -0.1759632015953009,
        -0.9696641352818977,
        0.15922063132116732,
        0.6360108162641658,
        0.6980260288897812
      ],
      [
        -0.7422311077467075,
        -0.3330033646175335,
        0.010337334847120088,
        -0.6955410125083563,
        -0.40370044248829035,
        -0.37258878966077025,
        -0.14087945116207462,
        0.3001313636547689,
        -0.47055054381387723,
        -0.7514901028293186,
        0.49154360155116195,
        -0.20460719236213232,
        -0.29942582352472674,
        0.5335018640766681,
        0.2869440190455889,
        0.7026295913143962,
        -0.271020287142431,
        0.8169749224784287,
        -0.432894235179667,
        0.41306517579855845,
        -0.2819779223801246,
        -0.8101449500730614,
        0.5156364219542549,
        -0.6406193757992206,
        0.06628420467208089,
        -0.7506884178644376,
        -0.2921645289335692,
        -0.7701838403691994,
        -0.9845209717750549,
        -0.09177940364545649,
        -0.8140060093619018,
        -0.8279362732320664,
        0.22490660260498385,
        -0.22264923058320957,
        -0.2430450015764886,
        -0.3847266870281309,
        0.1840473311572887,
        0.05198291054621547,
        -0.017652773879640336,
        0.348705625943375,
        -0.44295505250564216,
        -0.6368821075438673,
        0.4418591363955926,
        0.8119861313681778,
        -0.8621718993629136,
        0.7847992164195299,
        -0.9419288133798024,
        -0.3929665469285651,
        0.46174234932600666,
        0.48428423554194905,
        -1,
        0.1764347627277009,
        -0.786949532274247,
        -0.7245813502495153,
        -0.0480449625046077,
        0.8790674629521529,
        0.8873268277166679,
        0.31517165944019265,
        -0.07505036833762309,
        -0.7405203120747768,
        0.972671912967822,
        -0.5395225578648914,
        0.343509022214982,
        0.3914586745466497
      ],
      [
        -0.6920924712161577,
        -0.5788367853609809,
        0.21612447398091558,
        0.044304225466842095,
        0.15717214566740229,
        -0.30621624084630117,
        0.00884046197347392,
        0.4068765803091244,
        -0.2268708342768295,
        -0.738808074317423,
        -0.3762073081664875,
        0.23362196430282717,
        0.7706535839586779,
        -0.12314575377982727,
        -0.8345139524915758,
        -0.798771017175909,
        0.8184678844676839,
        -0.15690415956342846,
        -0.7142201730712114,
        -0.7676652280918526,
        0.7043474313770876,
        0.2869240039028856,
        -0.35009478406773104,
        0.27435660404390316,
        -0.4402542884375463,
        -0.01673966884418379,
        -0.06278878819119367,
        -0.4036410133995667,
        -0.28533938999806696,
        0.6131588275266935,
        0.26050120947846317,
        0.8629331788666335,
        0.5162255996309919,
        -0.9337845715429659,
        0.8533088858703793,
        -0.7566154108924324,
        -0.4502715227878113,
        0.6885951375779802,
        -1,
        -0.406215832236429,
        0.986250655143352,
        0.6302997193315727,
        0.3609643853610005,
        0.8381285117644055,
        -0.16043917349731404,
        0.18446942499542168,
        0.760223508889603,
        0.6114369267381812,
        -0.5544215076189245,
        0.08243194436262928,
        -0.8223699156380033,
        0.29629017726345797,
        0.7722728184477506,
        0.31092474143507176,
        0.7691234118856469,
        0.08319448539860043,
        -0.629555681081579,
        0.6748377966828013,
        0.0704174260513419,
        -0.33093825541612687,
        0.29752655261119465,
        -0.8560648963799672,
        0.3306177808507407,
        -0.0202776240237298
      ],
      [
        -0.8216518307543493,
        -0.5481503916836132,
        0.9669548273086548,
        0.2979024130997855,
        0.055631682945670315,
        0.7723785868807123,
        -0.8733239565295203,
        0.9476430177750317,
        0.11662500304931736,
        -0.6739592670117327,
        -0.47438231276343634,
        0.682545247950278,
        -0.4118602398726798,
        -0.16491387623075157,
        -0.34767704482846573,
        -0.6373488196186793,
        -0.3443911613672178,
        0.5204343690769383,
        0.038365815913168726,
        -0.1775332623657319,
        0.2013509130676902,
        -0.19496638117762635,
        0.9295506891160855,
        -0.05851019567136087,
        -0.6577143388421175,
        0.0689344404408325,
        -0.4079219665659024,
        -0.3093959362482356,
        -0.7497129953856833,
        -0.41029315968287233,
        0.8139595122368891,
        -0.40437098549095013,
        0.63544548190813,
        0.10470657331474897,
        0.2104684403093334,
        0.09914646568837135,
        -0.5857186915613253,
        0.1942608708732038,
        0.481910860425809,
        -0.5878385022884203,
        -0.3876553948948046,
        -0.35500924504675485,
        -0.9570354213273838,
        -0.3259181193245903,
        -0.5408020865757805,
        -0.05437066536464771,
        -0.2139050338484484,
        -0.2739959028082197,
        0.7070432075256498,
        0.14106484435231814,
        -0.16958838460381737,
        -0.3251244465539003,
        0.293123826217935,
        -0.13248971718338443,
        0.5547029357968206,
        0.9535019993782043,
        0.1387934275363332,
        0.1493621563159302,
        0.7230120938504113,
        -0.9210492807263158,
        0.27145264126604896,
        0.7507103607522314,
        0.7674080088889018,
        -0.3621010850691648
      ],
      [
        0.1478947728896404,
        -0.29547144721434976,
        0.4534781087013402,
        0.40131289154445354,
        0.13322776392843796,
        -0.27471987170552054,
        -0.5069176001071154,
        -0.0185429789586204,
        -0.3230214316194949,
        0.9111681475269073,
        0.749855541300869,
        0.06775422258880902,
        0.8656121999387212,
        0.7595755753957116,
        -0.419678130729783,
        0.9207805532643952,
        0.14002666595567556,
        0.8346721378545622,
        -0.7716625369473544,
        0.33213428674935447,
        -0.5491645151044161,
        -0.01316438609999712,
        0.7410681236901807,
        0.918718778387477,
        -0.04551361027342898,
        0.11406989715803113,
        -0.205908430033039,
        0.19317122029990574,
        0.8440396289024833,
        0.04183678507897225,
        -0.294056639825526,
        0.42837951550349285,
        0.29560394991271394,
        0.11854634757875301,
        -0.7226660787394612,
        0.45518664208823206,
        -0.5334395547784453,
        0.19348536160609167,
        0.579272803282372,
        -1,
        0.7470758197819903,
        0.11171166800803912,
        0.08052544687017532,
        0.3239103316647026,
        -0.32067371440235637,
        0.44340665999662987,
        -0.7188868461571433,
        -0.015458752069502875,
        -0.19718438645243264,
        -0.8604210516345593,
        -0.21081401100161964,
        0.3702315482000846,
        -0.1859676375592562,
        -0.8789160400770075,
        -0.1381925066182099,
        0.2584948400146162,
        -0.878738813543709,
        0.7990255634345027,
        0.4097816888297134,
        0.15233284717009327,
        -0.7711081558093783,
        -0.26374223906201616,
        -0.14931504112616653,
        -0.39839790887671434
      ]
    ],
    "biases": [
      -0.7619948571849425,
      -0.32280819002730826,
      0.778130777099925,
      -0.9780531631335833,
      -0.9487528194406741,
      -0.9541866316643975,
      0.501810699087232,
      -0.2993178610015932,
      0.7674460457794974,
      -0.6518975655701975,
      0.8897645055167906,
      0.7122815046576458,
      -0.83619133846227,
      -0.29719859008112876,
      -0.1291980790796544,
      0.44425627660258943,
      0.15748049842566167,
      -0.045001943271652085,
      0.7909301199578698,
      0.5279512153091851,
      -0.8969754795707621,
      0.2291605662446216,
      0.005039452931024517,
      0.6803430335795416,
      0.31888948760202324,
      -0.37361765639371974,
      0.04296527986267185,
      0.36601586779318596,
      0.0838511492209119,
      0.049986789234650206,
      -0.7813005210503259,
      -0.29790246981093704,
      0.8771774581862001,
      -0.12007100682254475,
      -0.1114280551092153,
      0.8870861812622821,
      -0.5249016084101783,
      -0.28474519087442385,
      -0.006016080178514449,
      -0.3635744758955637,
      0.42614882743036353,
      0.6511796593366544,
      0.6506236842278766,
      -0.5168694803598349,
      -0.07863157759694982,
      0.39035182972191174,
      -0.4548740073922398,
      0.5460656473396943,
      0.8800509285250583,
      -0.2927031608678545,
      0.11882763477258512,
      0.3170421224140456,
      0.6566301695615719,
      -0.6925569852418777,
      0.8601133169438373,
      0.04957627499932649,
      0.5369653395755991,
      0.35062965254478146,
      -0.7121448491098284,
      0.04531355083747971,
      -0.573707017072551,
      0.18508807875521222,
      -0.49250625323802033,
      -0.046659035086339395
    ]
  },
  "layer_1": {
    "weights": [
      [
        0.7922724788651686,
        -0.27486808295928483,
        -0.20312489463184974,
        -0.5445933355107803,
        0.22099548360633575,
        -0.4744468390026549,
        -0.8422337689515417,
        -0.7243867012599442,
        -0.29702487221630214,
        0.41599902630545105,
        0.8608453724069093,
        -0.23297073810490715,
        0.2702607115461904,
        -0.4341548640354399,
        0.03964637054919511,
        0.6377838767767654
      ],
      [
        1,
        -0.8805181709202832,
        -0.005069199584888104,
        0.11844325814546147,
        0.6100892756019728,
        -0.535830681354863,
        0.6602749486787862,
        0.22561432291088615,
        -0.20820018610682725,
        -0.853989879169937,
        -0.6889101695275056,
        -0.8537348205547697,
        -0.927372914549429,
        -0.04280131818685343,
        0.6832028789850184,
        -0.369906905953026
      ],
      [
        -0.7277699079947588,
        0.8829621848096698,
        0.3843385037805954,
        -0.03427670609063962,
        0.22914790873140836,
        -0.6646220324734056,
        0.06946841898546914,
        -0.961259989207301,
        0.01446742252604099,
        -0.5934636367633104,
        -0.44752515207047155,
        0.8183458028091549,
        0.02667363499926152,
        0.8325654408225683,
        0.4936964632775125,
        -0.7298983446937931
      ],
      [
        -0.10770944201643942,
        0.4496584487214266,
        -0.0608730474013221,
        0.7907206064762613,
        -0.8349895456864227,
        -0.10715650207383216,
        -0.8830921453533123,
        0.8566008831443711,
        0.3122185077358945,
        0.022793858564570977,
        -0.6453009281773776,
        -0.7822804980044235,
        0.4683347323542871,
        0.7003066048513922,
        0.3225737144312749,
        -0.6771986924708361
      ],
      [
        0.7939254554352165,
        0.5786698390786728,
        0.8076616951668644,
        -0.848318460650851,
        -0.007091013956442968,
        -0.24409653941369694,
        -0.7822581406401777,
        -0.8400788487231856,
        -0.9841784850532942,
        -0.29588472620299033,
        -0.49154121033139114,
        -0.6453746783200355,
        0.4371870884414902,
        0.07293451759744704,
        -0.06928044800489268,
        -0.6597893957333729
      ],
      [
        -0.9464948500025038,
        0.8251059554642306,
        0.3844466880966457,
        0.08847936050185513,
        0.45451076685595376,
        -0.07040399601805596,
        0.6839773054446138,
        0.005095619225098966,
        -0.12836203041524533,
        0.696461755443934,
        0.6274444708784774,
        -0.562040803733604,
        0.21518473458563595,
        -0.06124669866380853,
        -0.9631251096725464,
        -0.5192867735798374
      ],
      [
        -0.4896091522363128,
        -0.30249869176974614,
        -0.369765839573699,
        0.43077773973908884,
        -0.7245792949095466,
        -0.6128777532571047,
        0.24529848687667735,
        0.6453255050338158,
        -0.7952389582701053,
        0.8776777852272293,
        -0.6049985275514965,
        0.6140747048488597,
        0.7368031478337183,
        -0.889529940759681,
        0.5678515548913176,
        -0.6189290229795793
      ],
      [
        -0.598226843807964,
        0.5649820457758555,
        -0.9181998356187682,
        -0.6403383289789641,
        0.02637077347312734,
        0.02363308163731166,
        0.2156172245286279,
        -1,
        0.1163954183778237,
        -0.21187134176755626,
        0.3002535813939375,
        1,
        -0.5549565693159967,
        -0.7546672425551255,
        -0.6908376947673242,
        0.06785666711276109
      ],
      [
        0.07140507637462087,
        -0.09345052080172504,
        0.22906271298036396,
        -0.4383982325107129,
        -0.09486964487844401,
        -0.6954518870272722,
        0.19778986955380326,
        0.7275380558166568,
        -0.11512402236486359,
        0.7877272746087188,
        -0.984826529284036,
        -0.37329702373647733,
        -0.8846715274680993,
        -0.22835512461217047,
        -0.0009698135165519252,
        -0.6804174214297147
      ],
      [
        -0.24985248529160017,
        0.2971177911339725,
        -0.9632836123129971,
        -0.2613021211555889,
        -0.7255833597038216,
        -0.8345688041475778,
        0.6928839007078766,
        0.3628623767822668,
        -0.6836394427349842,
        -0.555351008310257,
        0.4174767077453562,
        -0.6767235515236495,
        -0.4841119155019595,
        0.5608152317069383,
        0.17617354503292382,
        -0.498204199594536
      ],
      [
        0.5769454387467787,
        -0.9700527787208557,
        -0.3239486973368667,
        -0.7899741287656199,
        -0.8001427482093276,
        0.8752796814922157,
        0.19701108642897877,
        1,
        0.9026879620627746,
        -0.21302340821056923,
        -0.6517208043155799,
        0.3747292440972486,
        0.6752276307573436,
        0.9192077562897546,
        0.6505562226576268,
        -0.8779641968934818
      ],
      [
        -0.4194895336199919,
        -0.610911226483221,
        0.5699097834802934,
        -0.334855227340804,
        -0.1829798632581245,
        0.6112842407931777,
        -0.483339312826777,
        -0.2630331372490236,
        0.8449064567841522,
        -0.6612186398609816,
        0.9300441781146427,
        -0.010166792236748323,
        0.5882248012672978,
        -0.522106524983687,
        0.7124701410156068,
        -0.016820026420468072
      ],
      [
        0.5719219544320305,
        -0.7733188310900481,
        0.28957283672719375,
        0.7159935338272262,
        -0.5338922555041496,
        -0.2907228783286514,
        -0.7482630397921597,
        -0.43501148556451186,
        -0.5653885233602458,
        0.27562049483240036,
        0.012841563895592038,
        -0.7411168937880923,
        0.1352359953539372,
        -0.35855659316123323,
        -0.027885670243846312,
        0.8652401737030183
      ],
      [
        -0.4922581752910956,
        -0.8412539175908599,
        0.6410850544111355,
        -0.3322765803419117,
        0.7279153257718031,
        -0.3099367064507875,
        -0.62950448765942,
        -0.9319589639232493,
        0.25701936039661355,
        0.18116189256060963,
        0.07951870591369013,
        -0.731558295389676,
        -0.3963064958800798,
        0.0443501618984337,
        -0.9359377481978095,
        -0.20497892621418656
      ],
      [
        -0.72693728107222,
        0.8614345099465593,
        0.7607841738441649,
        0.5656923441246505,
        0.8058073155055181,
        0.3006861559360757,
        0.013121676577253355,
        0.13841665343343865,
        -0.5407213572183803,
        0.07133621050616422,
        0.028453361926540993,
        -0.3887782282503741,
        0.6652099483011498,
        -0.5016115053850528,
        0.20398099375230566,
        0.8887998029362648
      ],
      [
        -0.7963914164210127,
        -0.3877809589267224,
        0.6627008921366637,
        0.4770511921082501,
        -0.7569344628760603,
        -0.9600108140263401,
        0.6160264299752725,
        -0.3867550044364849,
        0.7757483869935818,
        0.3001371575952133,
        -0.9410758796984167,
        -0.17749867425240326,
        0.1266677358098908,
        1,
        -0.9176699266310865,
        -0.7065089344154298
      ],
      [
        -0.7250345536234516,
        -0.5050226399228663,
        0.33611623634505844,
        0.47554953255097004,
        -0.8602322843562608,
        0.18448623130048072,
        0.1439796887859407,
        0.027046685424244526,
        0.13774579200293757,
        -0.5551501755789718,
        0.7518190618908592,
        -0.788281950131079,
        -0.24622584977053663,
        0.8012079234651756,
        -0.13995774048891557,
        0.7147726576451513
      ],
      [
        0.32167867294752045,
        -0.6317799048034171,
        -0.24046753162531273,
        -0.2894477662552954,
        -0.4504186182947804,
        0.9104279429518957,
        0.11567342917561962,
        -0.3314907394329789,
        -0.2737515288846296,
        -0.05072086734607927,
        0.7512456001853632,
        0.04023497036397106,
        -0.7827076568662877,
        -0.3146675081197648,
        0.05077700103115124,
        0.39737741361132184
      ],
      [
        -0.4095505002253126,
        -0.20157736654121322,
        -0.2275581155987233,
        -0.3119438032096751,
        -0.11134506603403313,
        0.7734596829787984,
        -0.5078428404261053,
        -0.7983670607909443,
        -0.9670434160415781,
        -0.5172498197608014,
        0.626047537667337,
        0.3823444599019546,
        0.6759782487330808,
        0.8221967908058601,
        0.23434679076082948,
        -0.4371671700824957
      ],
      [
        -0.1357991886268138,
        -0.43875279991542715,
        0.026240951125425314,
        -0.32811492777217327,
        -0.12583808730289708,
        1,
        -0.684677206171567,
        0.7046580077538497,
        -0.40464340096565843,
        0.8996010505411944,
        0.8681314390545469,
        -0.5963309298842655,
        0.7695795658816961,
        -0.785914482056796,
        0.016810317242918444,
        0.764888002398269
      ],
      [
        -0.8656392698094054,
        -0.5073921337162145,
        0.7742859873703462,
        0.6009279738746284,
        0.5925383494418118,
        -0.8406597126096178,
        -0.8926125352822137,
        -0.22524959820974275,
        -0.016723482430694044,
        0.18684863223561426,
        -0.9038762730127543,
        -0.7707749506182568,
        0.665653774094152,
        0.5911957014647209,
        0.9043537121045672,
        0.22854731344675402
      ],
      [
        0.7440799581780796,
        -0.5880225107829403,
        0.6180753977403607,
        0.3375565038760866,
        0.2943690386325614,
        0.7478873488505418,
        0.5265984731351738,
        -0.009531122354403194,
        -0.9162984858954405,
        -0.7218548153431003,
        -0.7418484484318714,
        0.29942674679953746,
        0.856778195341694,
        0.8754355196467438,
        -0.29286799911095124,
        0.2462813234053999
      ],
      [
        -0.4964611115256187,
        -0.2314240915220338,
        0.4222846710544099,
        -0.2525122544131374,
        -0.7873206562422208,
        -0.07460828719101542,
        0.8960431784507791,
        -0.736883459194376,
        -0.05295403952765595,
        0.2601238997312398,
        -0.7086276995861615,
        0.8592803686596717,
        -0.32576814429899104,
        -0.5404208362764586,
        0.14645592395252768,
        0.583680770894667
      ],
      [
        0.868932878946057,
        0.5838281057384294,
        -0.45425805651268103,
        -0.5937387157616801,
        -0.5383081079536933,
        -0.22864422762176573,
        -0.05495611208066362,
        0.07623142060283106,
        -0.9117198631029553,
        -0.5594230887315126,
        -0.7401716174443682,
        0.48334554733802226,
        -0.1927359851638563,
        -0.9020385854966267,
        -0.9565424005799956,
        -0.3189363946126656
      ],
      [
        -0.7864370469373065,
        -0.2184920865660365,
        0.9968161610492701,
        0.034848842550288084,
        0.7947028688970509,
        -0.19729519711405566,
        -0.9000891770745328,
        -0.3878263522548649,
        0.38169950863786,
        -0.46764795974755297,
        0.8697126522303787,
        0.6751010874942736,
        -0.73314828253905,
        -0.39736140167092265,
        0.37364286887696463,
        -0.5932098479131412
      ],
      [
        -0.31635885497278204,
        0.41654419077198424,
        -0.6697233155925414,
        0.8643429072596105,
        0.8036516368681729,
        0.5245982304642665,
        0.30587680055134586,
        0.005927763339419145,
        0.10271166903185353,
        0.1644929705175684,
        -0.13577094052146502,
        -0.29424431554309377,
        0.9132175232926146,
        0.1746339115085918,
        -0.40064700285300914,
        -0.36047134395555525
      ],
      [
        0.49857263770962745,
        0.5210835576409816,
        -0.5367634301431407,
        -0.16870124255030475,
        0.8148264296450237,
        -0.8187456637224595,
        -0.5719747364460949,
        -0.37719135809495435,
        0.4595991304818864,
        -1,
        0.010680140831608126,
        0.3889062348534537,
        0.6264228403363229,
        0.9207577111914009,
        -0.8556284107416061,
        0.3327119296937043
      ],
      [
        0.8601288783372053,
        0.8993799739823217,
        0.09850084098701327,
        0.2982252139836108,
        -0.29402052651320476,
        0.44678651917479123,
        0.6190940792330978,
        -0.5489704522486196,
        -0.20438393668562355,
        -0.05784830092421122,
        -0.28055169474716235,
        -0.7107186819989191,
        -0.3731714018763551,
        0.3511851164412459,
        0.40895044272959047,
        -0.8415616847534678
      ],
      [
        -0.6505486603592952,
        0.6665141706872145,
        0.17754634993314933,
        0.43567541163331563,
        -0.14128312282778777,
        -0.2945776623311403,
        0.42570894567717377,
        0.6243833570435532,
        -0.46893752190321786,
        -0.3545185587939863,
        0.49968444652036315,
        0.8991663138824123,
        0.038673583108928225,
        0.6331534657795105,
        -0.0959916695745305,
        -0.3368764856779495
      ],
      [
        0.8687829022393854,
        0.9069370894619189,
        0.6147335506744668,
        0.6129339254790294,
        0.9059764963552354,
        -0.6977321177308164,
        0.1447951535806687,
        0.22429337881329117,
        0.2967260182947478,
        -0.006778961196407606,
        0.114014429320933,
        0.7254331219723299,
        0.5998488672062647,
        0.7765562170783161,
        -0.23913228451797727,
        0.44236834459189983
      ],
      [
        0.4065843735816663,
        0.6484245024657579,
        0.28583497612616243,
        0.7775522783275542,
        -0.3919956631312843,
        -0.2813743357592066,
        0.1295529297391268,
        0.3678208421767627,
        -0.017847574083215266,
        -0.9781788359959835,
        -0.7650649135813137,
        -0.532321277462081,
        -0.9380760669044593,
        0.1779359043156549,
        0.8059800542486625,
        0.362795883372718
      ],
      [
        0.07973502396597702,
        -0.14612988603806998,
        0.47342586408167003,
        0.6945265465065055,
        0.8175612941044266,
        -0.003042041663635091,
        0.41239084080790767,
        1,
        -0.798528695543988,
        0.6728906286600588,
        0.048572188464201714,
        0.9298115194472723,
        0.10408286807589974,
        -0.13283103391863382,
        0.5491221106831929,
        0.3975514336741183
      ],
      [
        -0.3540456068521433,
        0.03351879220367427,
        -1,
        -0.32139838730489956,
        0.5848593791296759,
        -0.2061384124153578,
        0.5174851489470222,
        0.879654756333261,
        0.7090819105952697,
        0.044107650687358425,
        0.25076383314864215,
        -0.994462983577357,
        0.2184734549338814,
        -0.9399036104158282,
        0.6220198979001722,
        -0.3884460862262155
      ],
      [
        -0.7938815625258601,
        -0.1007805113184291,
        0.7949153948652958,
        -0.014234698985739485,
        -0.4521038158809942,
        -0.29625289773142877,
        -0.6783701168135926,
        -1,
        -0.27136732370120303,
        -0.5217319146032541,
        0.3703386284922079,
        0.7315391526848333,
        -0.2685132513712618,
        -1,
        -0.6468734591734926,
        -0.31106649672648784
      ],
      [
        -0.8506796472657465,
        -0.18355411480222958,
        0.4892803151942616,
        0.6114435575710689,
        -0.4904785197390134,
        0.23562110469199105,
        0.11714156036774219,
        0.30712638895422795,
        0.38723652035584927,
        0.6690227690342244,
        0.04326399984415031,
        0.3204331162896326,
        -0.9653619481696144,
        0.7677030070482279,
        0.42577092833060887,
        -0.4174613310805192
      ],
      [
        -0.8684946972421207,
        0.7096374808392422,
        0.566716640654462,
        0.6392153384686308,
        0.15069285112865938,
        -0.7921043899436848,
        -0.9013019490882218,
        -0.09350341899737372,
        -0.654548891023313,
        0.0843852523109912,
        -0.7898266129443509,
        0.14222472989683027,
        -0.9375969150029259,
        0.9773662686347961,
        -0.6005881950582788,
        -0.35152247644919643
      ],
      [
        -0.1509731239217732,
        0.19632064362398496,
        0.4166820435011652,
        0.5252958539380455,
        0.23887061723406958,
        -0.675317231880443,
        -0.23655394866463192,
        -0.15910556492515518,
        -0.5740357347278914,
        -0.8351139518914587,
        0.426165383259244,
        -0.7317724307393169,
        -0.26241391145077886,
        0.3857616133819895,
        -0.887013240702534,
        0.06520757293219274
      ],
      [
        -0.4122956419426114,
        0.6983413250388396,
        0.49621279881997077,
        -0.40623157116699676,
        0.8976449523096911,
        0.21888479570615388,
        -0.2953396760852611,
        0.5500493824333752,
        -0.8899881616392415,
        0.09637643518248544,
        0.03208782531557165,
        0.8631205617093917,
        -0.7744779201740155,
        -0.9043371871753038,
        -0.4602448096758786,
        0.9259180828878754
      ],
      [
        -0.18423906297220738,
        0.20361387353522148,
        0.7951645952481814,
        0.3957972072858979,
        -0.5273320132399124,
        0.2220420517428684,
        0.0880603870743004,
        0.8873097250238889,
        -0.337473517792233,
        0.9387427300814205,
        -0.6223939294173007,
        0.20725646408336973,
        -0.07258240046510356,
        0.2395480117130498,
        0.059059143133713805,
        0.555428890260251
      ],
      [
        -0.513161224614385,
        -0.9428493307686936,
        0.23257190798333632,
        0.654268147386834,
        -0.8619765566688219,
        -0.6191687727853322,
        -1,
        -0.9298063320492126,
        -0.29449640156070367,
        0.053891668578725134,
        0.7301196136070002,
        -0.6335919058299107,
        -0.23114792552810615,
        -0.749954314848689,
        0.8518417155884832,
        -0.2581661881294648
      ],
      [
        0.8348487221323592,
        -0.015240678744351834,
        0.9343171615115504,
        -0.8200737144765712,
        -0.3275607615169187,
        -0.08018507083956614,
        -0.7979650966704219,
        0.9033792511101775,
        -0.21340691057138308,
        -0.9127991061315355,
        0.7710739479484714,
        0.07905366917261056,
        0.7693196110998628,
        0.4337583997838457,
        0.0932943950897203,
        -0.9563446782069024
      ],
      [
        0.28933565628447006,
        0.5459326241756411,
        0.6096174353952387,
        -0.30224582124114574,
        -0.6032625143983077,
        -0.5178328000874944,
        -0.31110748596803317,
        -0.4946080628396933,
        -0.8682178122514546,
        0.7030665129431902,
        -0.9081153207597978,
        -0.837678696050162,
        0.8451922419242893,
        0.7317805488611818,
        0.1591417471132917,
        -0.48663708734371824
      ],
      [
        0.48968729361075286,
        -0.8491219229435345,
        0.2828724380303522,
        0.2037797780622836,
        0.27155332507423385,
        0.6869341094295626,
        -0.21412490291654063,
        0.7642201493570586,
        -0.0806612959530789,
        -0.7672846480646875,
        0.8852008780952475,
        0.20860488682853534,
        -0.5748362399457873,
        -0.7484246857788308,
        -0.13940725918868035,
        -0.2869491585433858
      ],
      [
        -0.9269335540127819,
        -0.43428618960907545,
        -0.4082523021350883,
        0.016887503986481586,
        -0.5416611348886361,
        -1,
        0.8053481604213985,
        -0.9864851236343384,
        0.7109354703094876,
        0.6972154241395823,
        -0.30954588976903485,
        -0.2503210252453113,
        -0.1334819175249871,
        -0.9687973984333453,
        0.7037843158502058,
        0.7317269049075776
      ],
      [
        -0.4399654002005985,
        0.28918400177764775,
        -0.1612538084511007,
        0.6659979747889722,
        0.642763498738346,
        -0.43480343589562953,
        0.8237207119527322,
        0.6180767402700423,
        0.7632405709706226,
        0.5765503703761179,
        0.6760409474636451,
        0.7593032734003126,
        -0.6152140157672831,
        0.6167793949630181,
        -0.3618034033283692,
        0.7187735975859126
      ],
      [
        -0.4349022013757823,
        -0.27510487849220555,
        0.6333317882424926,
        0.023884346478227403,
        0.4734116288575385,
        0.3518967997660689,
        0.16759338790652456,
        -0.1395033252030261,
        0.6064939225291872,
        0.47381412181180926,
        0.12281242518757236,
        -0.40859531918308833,
        -0.4330642813046722,
        0.7099810395947919,
        -0.18661457151463784,
        -0.9657349242444698
      ],
      [
        0.39977498035750214,
        0.1575727606535525,
        -0.6009086820882737,
        0.20425171263513184,
        -0.7866773744765024,
        0.9685111045837402,
        -0.3869482175952904,
        0.45196684811890503,
        -0.5039561558598704,
        0.11606352177556398,
        0.0682815581438638,
        -1,
        -0.9125212857852474,
        0.7907039039246757,
        0.765847941153612,
        -0.9197974916942913
      ],
      [
        -0.6994311136511764,
        -0.5243938496185232,
        0.6709730953573283,
        -0.573086326774445,
        -0.28505604609931473,
        -0.9029928829635449,
        0.35793863178221175,
        -0.8037703640633029,
        0.7077504996965457,
        0.27093636480163363,
        -0.8690989229067445,
        0.9321569077598811,
        0.9219446554069797,
        -0.423924423269854,
        0.4764420224493796,
        -0.16925921553576836
      ],
      [
        -0.6601785609993732,
        -0.12110736705001043,
        0.9801750183105469,
        -0.21116849894040593,
        0.793729356808177,
        -0.11711846025070335,
        0.333095266225915,
        0.7860712885136995,
        0.35111230922018866,
        -0.5775797324001951,
        -1,
        0.053197251790787485,
        0.5015822949844423,
        0.1808492407146714,
        -0.22647607894350658,
        0.2774715465548129
      ],
      [
        -0.7768283248868475,
        0.7769221540351345,
        -0.4557020324016026,
        0.1345643886289994,
        0.5047453811528754,
        0.7874528759813798,
        0.7393564245600189,
        -0.14863291581102725,
        1,
        -0.431075914943708,
        -0.5212639139733009,
        -0.7274980765606687,
        0.32714155375871834,
        -0.3184286296401837,
        -0.4172654859321892,
        -0.8103828915681108
      ],
      [
        -0.9311448141332511,
        0.0714689331356725,
        -0.43785401936327484,
        -0.6126985742755452,
        -0.6444068526523153,
        -0.851852980012674,
        0.7084603510811538,
        0.07006591638932864,
        0.20538906428211923,
        0.3725923127471847,
        -0.03871854041782432,
        0.8911906413668399,
        0.25983891191062336,
        -0.9473757867482131,
        -0.7572639534893907,
        0.3004466587187494
      ],
      [
        -0.509452795349442,
        -0.13947037793897857,
        0.140066852053368,
        -0.8404964193783898,
        -0.5077300611977207,
        -0.07079982421924079,
        -0.49387775833004877,
        0.6140021670704376,
        -0.9452165985563649,
        -0.3955140622728907,
        0.4135255474727846,
        0.015425739459536634,
        0.08147018900074568,
        1,
        0.3177295847892728,
        0.12794409884481173
      ],
      [
        0.08907583543376615,
        -0.1393378024158344,
        0.616814488616539,
        -0.3375555945107932,
        0.7642668557230599,
        0.2752851603858712,
        0.2315480142459193,
        -0.021851079969547597,
        -0.5586258291708821,
        0.18652157306757372,
        -0.13534689735132044,
        0.2583602802586053,
        -0.7254398050755645,
        -0.663854661512172,
        0.9348190145502309,
        -0.2413182024619847
      ],
      [
        -0.3655394872135384,
        0.6493923808695641,
        -0.7333977583474927,
        0.17804103291114845,
        0.48359826490143626,
        0.49573799287530207,
        0.9271820728398824,
        -0.5607821032986644,
        -0.8861386961304233,
        -0.5688576827121542,
        0.0014894512114440215,
        -0.1330816821590585,
        0.17010332377336287,
        0.10440586429795348,
        -0.3317532462104989,
        0.10069388698991574
      ],
      [
        0.1942045156942229,
        0.2524170564415362,
        0.5070574983146182,
        0.7029230392032545,
        0.32758926335042027,
        0.09271708995804266,
        0.33636803320913816,
        0.5686625567052488,
        -0.918441174598512,
        -0.2534332795578947,
        -0.26832722150327015,
        -0.08688516641084648,
        -0.6980501858357164,
        -0.34549882118056624,
        -0.3624546299679774,
        0.03687855208979708
      ],
      [
        0.6512806368888244,
        -0.20413387040106282,
        0.6954097522923233,
        0.12920269974685278,
        0.622929219988581,
        -0.9536393284797668,
        -0.7023333612586348,
        0.9281796160110511,
        0.24165689485058028,
        -0.32308340329303925,
        0.3733379345830646,
        0.41981435402852446,
        0.7427689495913384,
        -0.7433538909815212,
        0.1109936656398195,
        -0.9817715299567799
      ],
      [
        0.23470410774756578,
        -0.8701791433906065,
        0.6502830747048777,
        -0.25495873498895044,
        0.49398592115545903,
        0.769992268856791,
        -0.3051396767241234,
        -0.9339161553163642,
        -0.23899445624531235,
        -0.07309425647092416,
        -0.369653641936798,
        -0.5318322945727172,
        -0.7285472521388757,
        0.8356205770068377,
        -0.39544387334169445,
        -0.5826461908300415
      ],
      [
        0.6542729865857627,
        -0.009196097165494554,
        -0.16951609038831844,
        -0.8013440103455942,
        0.3128005303289778,
        -0.898205939683582,
        0.6023189902766215,
        -0.28377779052232804,
        0.23623603214293837,
        0.6731471058932237,
        0.2443046047806192,
        -0.16183870085948499,
        0.08300438245783086,
        -0.297937463778164,
        0.8689170458092678,
        -0.39047238163806786
      ],
      [
        -0.7728910132129493,
        1,
        -0.48006810287337,
        0.010648509963688203,
        0.17217201950186323,
        0.1962789817254582,
        0.01768238997797117,
        0.6258912308982874,
        -0.7095701281439006,
        0.7007517118452937,
        -0.2225212030123019,
        -0.8619769116828557,
        0.8149640581456566,
        0.8217494665738341,
        -0.5450834794743822,
        -0.7948671937952901
      ],
      [
        0.49798588052190507,
        -0.6225156530497795,
        -0.6219840187228416,
        -0.6167120846131521,
        0.8881768404456254,
        -0.18843958311743453,
        0.2547073555885841,
        -0.43543165280561763,
        -0.7771808261623077,
        -0.3980013710569199,
        -0.09117575124937176,
        0.014277880453547392,
        -0.3191931031150689,
        0.7249579926775013,
        0.8402451409225072,
        -0.7480146968276365
      ],
      [
        0.28642469965672185,
        -0.672967697833125,
        0.11230852610201127,
        1,
        -0.014074274784972756,
        -0.6404438553063081,
        -0.9422890512926916,
        -0.9588149584391824,
        0.69160558349307,
        -0.7104626601294698,
        1,
        0.8366421394666266,
        -0.03823645049060544,
        0.7185691315876972,
        -0.7491019001932492,
        -0.3794610772170579
      ],
      [
        0.04389605264757419,
        -0.9458944716281885,
        -0.8826831152103678,
        0.19105789364132425,
        0.3365834762897033,
        -0.6660062890074431,
        0.1256699898118754,
        -0.3382647465893725,
        0.7512596599912459,
        -0.2218652627619545,
        0.11492999223049231,
        0.4650125915891412,
        -0.32489237090040934,
        -0.8541749777413267,
        -0.08303508614775122,
        -0.4233930329617769
      ],
      [
        0.7641714416304998,
        -0.8512994702577353,
        0.2412108649610619,
        0.5329402799426554,
        0.4737997516295011,
        -0.6312304139100472,
        0.20092224692562805,
        -0.3845271037179383,
        -0.002438956175483125,
        0.011904886645429845,
        -0.22860707084085063,
        -0.6253629428342673,
        -0.7810162310563363,
        0.027973029059271515,
        0.29640867625700495,
        -0.48132465736451024
      ],
      [
        0.15179135752878856,
        0.881848658493593,
        0.5273094018455025,
        0.3765274702198345,
        -0.318847947193312,
        0.8322756250870538,
        0.3409309179121537,
        0.0931094738227813,
        -0.35257995888840005,
        0.6428006534035653,
        0.11774658463248074,
        -0.8591921289159142,
        -0.49924715254817925,
        -0.5201938913747435,
        -0.40714065564350327,
        -0.5811849735320885
      ]
    ],
    "biases": [
      -0.3652742194108579,
      -0.06238777920447231,
      -0.44563480208950507,
      -0.4678444749117818,
      -0.6119353387877199,
      0.6412082912029438,
      0.958624356039695,
      0.2269096156602234,
      -0.7286398867461438,
      -0.14050376063396944,
      0.8404757152001237,
      0.07353726878048206,
      0.6178650422136007,
      0.8643952906584902,
      -0.11344045618608999,
      -0.17986605589740814
    ]
  },
  "layer_2": {
    "weights": [
      [
        0.4732866870570667,
        0.06270886197371288,
        0.07701088114017102,
        0.7065454543893068,
        0.3239192587759608,
        0.5040313623968067,
        -0.8598455527308572,
        -0.9479574597512759
      ],
      [
        0.827104766693741,
        -0.8678392973417333,
        -0.505345244208791,
        0.23916019990408252,
        0.04349619298553404,
        0.2669257173090332,
        0.3188818404266276,
        -0.9832066916861795
      ],
      [
        0.2779181250726978,
        -0.8591494738724241,
        -0.8517621993497199,
        -0.27018703959861745,
        -0.04168681845965305,
        -0.32614226632959237,
        0.15180654379532538,
        -0.2374443924570744
      ],
      [
        -0.5597613711520903,
        -0.6332367351987753,
        0.09631876338332934,
        -0.5045002205126129,
        0.8992658283966531,
        -0.32809323641884625,
        0.46141166873595124,
        -0.5428436629723296
      ],
      [
        0.1791414954489162,
        -0.6736318156914705,
        0.3136180078129398,
        -0.1863977536320177,
        0.767149692802466,
        -0.158348691555487,
        -0.8858420431212645,
        -0.8218204932690091
      ],
      [
        -0.8990510072523735,
        -0.4161877881776184,
        -0.2608319172766864,
        -0.9847720597226894,
        -0.21692162741548168,
        -0.7530071777183867,
        0.923590726059504,
        -0.8169402317150416
      ],
      [
        -0.2185967303654096,
        0.7245232632907035,
        0.3845652963047727,
        0.26543288031280515,
        0.32258813736913344,
        0.12724606106931188,
        0.16205652146001148,
        -0.7375956110542629
      ],
      [
        -0.7871301363779848,
        0.1734501844729039,
        0.06295464107994747,
        -0.5122751466235895,
        0.1343006576563544,
        -0.5811082247146994,
        -0.5939326519015589,
        -0.6198528571528764
      ],
      [
        0.34022217137891336,
        0.5395294819937902,
        -0.3383435038442098,
        0.0670348853346846,
        0.5305781825199511,
        -0.2625937496525442,
        0.32167607809808363,
        -0.1860413401291286
      ],
      [
        0.4680384625968788,
        -0.3252480493619661,
        0.47035450930078637,
        -0.14038564781682009,
        0.4083031804943451,
        0.9625709056854248,
        -0.7287448439728963,
        -0.2552653217093511
      ],
      [
        0.4983458218818738,
        0.3836349587466887,
        -0.8389701128085144,
        -0.485195216256335,
        -0.7555726691422592,
        -0.8336860139156979,
        -0.4320571919891198,
        0.2376329384974691
      ],
      [
        -0.05769725851460393,
        0.9404017834487064,
        0.2557080946950091,
        -0.603831852585041,
        -0.7444583853995865,
        -0.9538001461594513,
        -0.6922772478699017,
        -0.4573064281503857
      ],
      [
        0.8429230615427565,
        0.17525655997894313,
        0.42702649109063523,
        0.27850135878424265,
        -0.9176438740327544,
        0.675721253197844,
        -0.9052714763762642,
        -0.4548049393563277
      ],
      [
        0.09713801810463861,
        -0.16091186497244314,
        -0.5222643215706618,
        -0.9681360825031422,
        0.1350340660395308,
        0.3800812979629194,
        -0.7717132894015665,
        0.9006307613692451
      ],
      [
        0.1663773320601154,
        -0.9821262030001668,
        -0.9885789752006531,
        0.3563953771128593,
        -0.9722555288315391,
        0.11846577585074397,
        -0.10201476163869128,
        0.9361998432765545
      ],
      [
        0.6130891606104851,
        -0.04193072116606481,
        0.30426865382120205,
        1,
        0.433484994700777,
        0.4013931852657587,
        0.8592423814880227,
        0.1987018468448749
      ]
    ],
    "biases": [
      0.8461547688425741,
      -0.6236849741694995,
      -0.8550371388763078,
      -0.03971976033574151,
      -0.6003062449252489,
      0.06183499652834141,
      0.09670450187811423,
      -0.3744083324103786
    ]
  },
  "layer_3": {
    "weights": [
      [
        0.043319605643158794,
        -0.6373078015800349,
        0.9332823940226331,
        0.7875087542059229,
        0.07526299755897163
      ],
      [
        -0.7749992001229433,
        0.9729943486467364,
        -0.5331246543766628,
        0.0028879824114979255,
        -0.6556024224226122
      ],
      [
        0.13828409742569625,
        0.09949440199776981,
        -0.20773483685472027,
        -0.02398659853288254,
        0.4168128289195334
      ],
      [
        0.5236247245220469,
        -0.5608350685709445,
        -0.5981576298248958,
        0.4513690524969041,
        0.07879826535507407
      ],
      [
        -0.5661803031724897,
        0.9131841765338782,
        -0.905228348909764,
        -0.04343631036382302,
        -0.7299578169044556
      ],
      [
        0.6100493162332875,
        -0.6998479110040222,
        0.3130931912731438,
        -0.8877591464165082,
        0.20324282081715525
      ],
      [
        -0.5919442617487269,
        -0.32038653908974585,
        0.7687355158329339,
        0.09790690440208853,
        -0.7812378078899029
      ],
      [
        -0.7735692407118475,
        -0.7773625944601336,
        0.8006566368785388,
        0.7647700962222144,
        -0.40136209206059603
      ]
    ],
    "biases": [
      -0.04857376036318835,
      -1,
      -0.9268345926438039,
      -0.6713028277793066,
      -0.7730317985062783
    ]
  }
}