{
  "layer_0": {
    "weights": [
      [
        0.3970834992565932,
        -0.757597105681334,
        -0.11549849152991498,
        -0.431941527813108,
        -0.8672298341183646,
        -0.48418204015536404,
        0.511614604118269,
        0.8393400143733208,
        -0.7801287165650633,
        -0.5073514600271267,
        0.17788293148609025,
        -0.5095322543713454,
        -0.6542659151561899,
        -0.17333521336740068,
        0.907854803416696,
        -0.5213731063851518,
        0.06414726481784049,
        -0.26401348277151004,
        -0.10169244245804629,
        0.9115913392742069,
        -0.37458669362852415,
        -0.8019303538419141,
        -0.9718831819510819,
        0.2490341010546648,
        0.6340858272604999,
        -0.48668378753640207,
        0.21031660157833965,
        -0.26629587463353743,
        -0.6253281933164282,
        0.6063770851735849,
        -0.25251978088123117,
        0.9008966130112047,
        -0.20826575779699993,
        -0.8733254310784465,
        -1,
        -0.4262805306802117,
        0.8278346784629141,
        0.44928772106488923,
        -0.03237156581246783,
        0.10303939875994898,
        -0.008116979258870536,
        0.2624746670519614,
        0.35738338914217443,
        -0.2332570446528826,
        0.1649889390645909,
        -0.5500111309172246,
        0.7515085261056986,
        -0.6453230695765637,
        0.38997247443292077,
        -0.16516247818065785,
        0.38199410904983455,
        0.16113814302917617,
        0.10787198746699984,
        -0.22197069727807536,
        -0.4497064745031548,
        0.25856282700194316,
        -0.7969815407841796,
        0.8366341936819688,
        0.5847799821897284,
        0.26085007039748115,
        0.9799036820337965,
        -0.9048184987946816,
        -0.4443457022416553,
        0.6661477154860836
      ],
      [
        -0.6291069385420462,
        0.4696332766926651,
        -0.6881384561034816,
        -0.8361897219345801,
        0.9505408921361982,
        0.8883467408861263,
        0.12522600386465468,
        0.6458143126951158,
        0.225164896069184,
        -0.12435121409468237,
        0.10244863269632204,
        0.1760161496258773,
        -0.8881575649473625,
        0.7036031039906523,
        0.10728184724818192,
        -0.22353927539529597,
        1,
        -0.2675751235354717,
        0.011251084780416084,
        0.4545079934564211,
        -0.2617441301189173,
        -0.7835854475611215,
        -0.0022622457722733195,
        -0.15239686609646189,
        -0.8050456495510216,
        -0.8289077460415081,
        0.7338758425282099,
        -0.20188640555101492,
        0.6934866412101959,
        0.7855146967388592,
        -0.5161659942314794,
        0.14071320683918984,
        -0.3598893737110543,
        -0.19966094577541016,
        0.7842453103353197,
        0.2627750935382235,
        0.5121800853313727,
        0.3908323037976764,
        0.7697681303394533,
        -0.28684166623888696,
        0.9357528619480432,
        0.6358692559973133,
        0.19876720580680976,
        -0.4749767685311674,
        0.5331872997709732,
        -0.7229082987160157,
        -0.6961075143419615,
        -0.45177194463040543,
        0.7691292507918381,
        0.5359621545301988,
        0.4851637894189289,
        0.2800934298239293,
        -0.36281246055548716,
        -0.4441541855377181,
        -0.8308987975267585,
        0.9636485998674794,
        -0.03679826782425713,
        0.9209516929546337,
        -0.7405127012526141,
        -0.08564516374055312,
        0.176914752714289,
        -0.6118128572943309,
        0.5123673699123212,
        -0.2731001888854637
      ],
      [
        1,
        -0.8871404822548121,
        -0.37060208576329995,
        0.17473710307997245,
        0.9478276233521281,
        -0.30333288649656476,
        0.7214569611619477,
        0.3987789024522176,
        -0.7765910867342852,
        0.9942710914555953,
        -0.05194149193435359,
        0.05416758044551981,
        -0.45839874685411564,
        -0.05462510568618233,
        0.024839935166307194,
        0.8223820852810841,
        -0.5165281352765129,
        0.888454785389654,
        0.8202178322052798,
        0.20946137323832162,
        -0.304910131368885,
        0.11485063442323305,
        0.41167700182577543,
        0.2005846990294125,
        -0.06782068459988479,
        -0.9461457137227149,
        -0.760620329191912,
        0.4516423182960407,
        0.7351585944406492,
        -0.13991195316807312,
        0.7134756291049826,
        0.17074192356212983,
        -0.5615628583499124,
        -0.21497181365034518,
        -0.05133962837450098,
        -0.2031631737549033,
        -0.7849638138487336,
        -0.8818619879154166,
        0.6665361190245679,
        -0.2336565163525654,
        -0.6879588230263914,
        -0.7457117111859376,
        -1,
        0.49154127335809494,
        -0.6646202570941802,
        -0.05379657597912469,
        -0.506879896783048,
        0.8680346707289558,
        0.7638499567760496,
        -0.9424457153640445,
        0.20765529039158362,
        -0.3370617072419754,
        0.8571120114679813,
        -0.4144107607493718,
        0.7525192117906948,
        -0.1279945134079359,
        0.4338712487519566,
        -0.9951734756815778,
        -0.9604936242103577,
        0.10555071917547033,
        0.23153406922670652,
        0.7071372439737051,
        0.7935758594627675,
        -0.42243347895034117
      ],
      [
        -0.3408980869267512,
        -0.01859374334575132,
        0.21775025897562686,
        0.686095451405854,
        0.567389540804701,
        0.4400503630708003,
        0.5122360391846259,
        -0.6358908215481107,
        1,
        0.05505318598477949,
        0.19229725257168429,
        0.5856047548846203,
        0.45039659604031185,
        -0.8138646943691468,
        -0.6859625700889828,
        0.21986294613147772,
        -0.17106125553189758,
        0.25269744548987155,
        -0.030653504537670503,
        0.6020867960270296,
        -0.8775788903104933,
        0.4380873400936006,
        0.44294975857701224,
        0.49437282570779617,
        0.04421489339140358,
        0.273784292179539,
        -0.5844905252224987,
        -0.30977959673938144,
        0.22996482695454798,
        0.8575796793785468,
        -0.7702071306662386,
        0.10081564332438195,
        0.27953835006043243,
        -0.33574750366980094,
        0.48603684799488917,
        0.009833609618396168,
        0.7908154013177575,
        -0.6359917840074781,
        -0.8419048121959226,
        0.7395497903599341,
        -0.17732783500350696,
        0.7982149867371887,
        -0.05396772048376261,
        -0.47184463197755805,
        -0.455622833633203,
        0.74001280173598,
        -0.8695274993705391,
        -0.9304097681147743,
        0.5387279204242751,
        0.36288202988562346,
        0.23549786939664977,
        -0.05597057803168168,
        -0.49099953106985983,
        0.3372185946400544,
        0.5438844482655302,
        0.45989448626140983,
        0.08850110753775449,
        0.17786604395531683,
        -0.49965550152775695,
        0.275573508281941,
        0.7931534915511029,
        -0.3763987374656275,
        0.7680760228478292,
        -0.744922821186103
      ],
      [
        -0.072010670560847,
        -0.6485830838308088,
        -0.0534063976950276,
        0.7853401347881598,
        0.9828345604990085,
        -0.865677626521528,
        0.4758053610834621,
        -0.9754124825731196,
        0.38950416975065405,
        0.8430720712940118,
        0.39891240827115815,
        0.9027990650317863,
        0.2127292241439259,
        0.35476980798902613,
        0.10656497493617798,
        -0.5914634582541644,
        -0.41340923105623245,
        0.8831775311883968,
        0.2856648269934675,
        0.5474914707951862,
        0.6835008693242087,
        0.43147394794086985,
        0.5368075414766547,
        0.23015619963241574,
        -0.8800510253787196,
        0.20532990656612463,
        0.4904215844231226,
        0.06958986872072946,
        0.908439179199177,
        0.250896500526325,
        -0.4508350682067805,
        -0.08893400071308068,
        0.035411521507842804,
        -0.15813047237489278,
        -0.8036561615670755,
        -0.44284478463556953,
        0.5716005148900177,
        0.39899777157053234,
        0.560219547808976,
        0.1083175543447484,
        -0.5669807747217829,
        -0.22126137766031265,
        -0.6251540138623015,
        -0.5948967430936212,
        -0.2290056084319112,
        0.838302866002227,
        -0.27129862943081856,
        0.24106268799493918,
        -0.48830137906814663,
        0.09864154696830049,
        -0.020037555427502685,
        -0.7199261352177226,
        0.3438043246319209,
        -0.5615709120641577,
        -0.3479595498737225,
        -0.14794554340017083,
        0.4873428832859773,
        0.9078419967813128,
        0.34187078721860137,
        -0.8427130152433762,
        0.32534335241668927,
        0.9300284441444149,
        -0.7235486637844566,
        0.3180508711490735
      ],
      [
        -0.5801359627858929,
        -0.4334051748655658,
        0.5582437076324093,
        -0.8528535982294327,
        0.26075894292445667,
        0.6921673438407324,
        0.7882321121568113,
        -0.1526307113247139,
        0.7181833673174558,
        0.14337906846670556,
        0.6815770774990143,
        0.9151440408927515,
        0.11671986618107875,
        0.24742635570910987,
        0.040137677465180786,
        0.9704120547890454,
        0.694223752190633,
        0.8535652020616713,
        0.3876329500919663,
        0.4481581090055406,
        1,
        -0.4875233552869591,
        -0.12424931898158069,
        0.21926006447641605,
        -0.14148764497082858,
        0.9168284069331959,
        0.5436125368033601,
        -0.011083238344346071,
        -0.027327236836092603,
        -0.40504624795088806,
        0.8401726460756247,
        -0.4660817236965197,
        0.13661188713265135,
        -0.9585509311859769,
        -0.2887313607199733,
        -0.7860870246796376,
        -0.5315115575186878,
        0.5185277307766422,
        0.9464315925846759,
        0.510771969521336,
        0.6952294630602721,
        -0.690650100491096,
        -0.24774810627561938,
        0.03222348668277763,
        -0.4928554439849977,
        0.9237314279017595,
        -0.8245775577137103,
        0.5156676102928729,
        -0.10229785060221716,
        0.4174195301810443,
        0.7227952449137001,
        -0.7827088916890772,
        0.30614960731995733,
        -0.15649455995662853,
        0.6102717968737563,
        0.9621612191978427,
        0.3242311513479329,
        0.07168125094891875,
        -0.9977877321460653,
        0.7597396004805639,
        -0.19151455523546723,
        -0.6884586784461415,
        -0.1148169313999853,
        -0.6486907477584604
      ],
      [
        0.7701541814301127,
        -0.3632153785867224,
        -0.9118794492344608,
        -0.3114926060178039,
        -0.09423625056706564,
        0.08335921489736929,
        -0.9885563032832058,
        -0.45827281616843296,
        0.07326693590150278,
        0.7410928212576697,
        0.17775027500826593,
        -0.17350094305639002,
        -0.7708208678975471,
        0.3611898717636727,
        -0.13033382938186314,
        0.7803738335183795,
        0.06013662941439692,
        0.5563365971021434,
        -0.09205544192343956,
        0.8660306008393068,
        -0.6637932937203507,
        -0.6435969980987893,
        -0.44152198293836004,
        -0.06821909859982123,
        0.34804605024484336,
        -0.17762110270461917,
        0.9515770315004124,
        -0.6128997130413394,
        -0.40288925850872465,
        0.12380052182571337,
        0.28056443547820725,
        0.5852291640590421,
        0.19529475990015857,
        -0.9180044593201029,
        0.7536821446998809,
        0.41804892477951744,
        -0.14565122359746666,
        0.053015196750024945,
        -0.8714380714996338,
        0.8703531787004215,
        -0.17235783365235469,
        0.6396299496465907,
        0.5333222738895751,
        -0.06430226710477484,
        -0.8768461848316059,
        0.17378913297581952,
        0.05947601465009301,
        -0.4394291400176924,
        -0.3392142451295873,
        0.22887280460821047,
        0.21586977174685174,
        -0.05706886820649525,
        -0.7813545601661305,
        0.18788033248665034,
        -0.026958129586372895,
        0.5857827747436202,
        0.5719570095357505,
        0.2873482050074613,
        -0.4585429641516513,
        -0.2154134467824328,
        0.9069085964921997,
        -0.5515202307277774,
        -0.4803117192498199,
        -0.9185286006071613
      ],
      [
        0.6724872082855097,
        1,
        -0.29077588903402496,
        -0.16702650252508805,
        -0.9684713058481244,
        0.41611414885012665,
        0.532993640371693,
        -0.5144427919147069,
        0.634635011607346,
        0.833408452711706,
        0.8667765857155976,
        0.443047760091393,
        0.5774531695340974,
        0.31224060710290763,
        -0.5497049347345437,
        0.18154525718352468,
        -0.482099059919012,
        1,
        -0.8671425607180201,
        -0.07369734104023809,
        -0.5258726520883374,
        0.0123571712708525,
        0.4860602949096052,
        0.5868245003135522,
        0.9680043837389363,
        -0.020089846819419943,
        -0.6806369742268862,
        0.1669878497884051,
        -0.6240087920337024,
        0.8589092017929004,
        0.3857793126496445,
        -0.1871145235778735,
        -0.9662560002100988,
        -0.16083542402891113,
        -0.9615058302879333,
        -0.10264467257017394,
        0.002957188135141949,
        0.3932625429760558,
        0.8787885998225017,
        0.3242647626064321,
        0.24579221164762055,
        -0.7390439034239235,
        -0.44054856702432194,
        -0.7897344080252706,
        0.9354779757518668,
        -0.26858417851545857,
        -0.32948967392121553,
        -0.6204664707324671,
        -0.658206414830355,
        0.53399175736099,
        -0.1136825086895932,
        0.014930359129240857,
        -0.71936251442744,
        -0.16483737951187263,
        -0.5703084252173587,
        -0.32991844751421884,
        0.7801927186660631,
        -0.21217968912488014,
        0.2640174789944528,
        -0.026261918263724184,
        0.8415480980210518,
        -0.3907968075938348,
        0.19320016430448017,
        0.8524191185480391
      ],
      [
        0.477832555995837,
        -0.6768561538985126,
        0.642578749866781,
        0.7811727890504113,
        0.47342655199146466,
        0.6085145849032961,
        0.59208226075447,
        -0.5811429809786703,
        0.3051561614569757,
        0.03384311548097703,
        0.9038071342071233,
        0.35129355663078604,
        -0.21623671651112666,
        0.2377642185898836,
        0.5695293311577059,
        -0.7516138304912454,
        -0.7443878640561845,
        1,
        -0.3862449094298177,
        -0.01616958535004046,
        0.14349357746087638,
        -0.07924918943594285,
        0.6952995214909236,
        0.9158875821993719,
        0.12993649690954323,
        0.49361505081864737,
        0.7700816649702439,
        0.6445576386969852,
        -0.945959415064827,
        0.33271486737421035,
        -0.3966037067513006,
        0.18398629257552382,
        -0.21684754641084023,
        0.18263121434707558,
        0.3582098639911699,
        1,
        -0.8286747793800364,
        -0.6699365263060512,
        -0.016781125354780498,
        0.0748275713881402,
        -0.8713188507404654,
        -0.9576064861628252,
        0.04039021311703978,
        0.47483581933002833,
        0.41051710861761126,
        0.07341153079889028,
        -0.3326051866748749,
        0.5986447991759549,
        -0.4818472046466992,
        0.343300912336761,
        -0.022866352601018856,
        0.28381546230182003,
        0.19192900157963108,
        -0.6668625624114938,
        0.07232926181139428,
        -0.8175493332684477,
        0.47400719865029173,
        0.9580908887097392,
        -0.5788452310573897,
        0.09095479593235313,
        0.9838587800836295,
        0.5161915546933395,
        -0.47697722902806294,
        -0.8998482690048227
      ],
      [
        0.7898969849427941,
        -0.9568642660327639,
        0.619694355582784,
        -0.8408844789324952,
        -0.97392790015288,
        0.8342169888454689,
        0.8995213297181502,
        0.7383659124381113,
        -0.6239236176194145,
        -0.39759093758856745,
        0.24479754800463255,
        -0.5310666316557833,
        0.020835733599313247,
        -0.932122522757002,
        -0.5889017249736404,
        0.543625196299084,
        0.8256808815876023,
        -0.7189324188212945,
        0.055060148415454334,
        1,
        -0.34730103180466604,
        -0.09306888131055652,
        0.20803081137259416,
        -0.873426839474898,
        -0.7472159700855077,
        0.4189265751769276,
        0.19425133478036682,
        -0.9070067770046941,
        -0.5821543267968493,
        -0.6424538283492475,
        0.9231382603197896,
        0.37794943019873917,
        -0.9836016893386841,
        -0.9144807753821561,
        -0.6143011270690258,
        -0.045525680698349065,
        -0.5302860031616728,
        -0.6663011706753589,
        0.6008077526350706,
        -0.43687726855207615,
        0.4534583895895195,
        -0.3320950876637539,
        -0.18943807366691004,
        0.6206387933903496,
        0.6495372144569169,
        0.818319240199011,
        0.40913509719081065,
        -0.774099550675362,
        0.03282326666115447,
        0.09116181041208171,
        0.7931526575751726,
        -0.9130266407181739,
        -0.06195540974595461,
        0.035912862068046586,
        0.8198983284520497,
        -0.9336665496462427,
        -0.43764673127949777,
        -0.4902604836686751,
        -0.3604790667459091,
        0.21355813220178504,
        0.33331869483323684,
        0.08342509705199333,
        -0.29844856490539556,
        0.6137215589386599
      ],
      [
        0.26882819197855257,
        0.6634750966919297,
        -0.7844416650404001,
        -0.6942113366661327,
        -0.4846664597704192,
        -0.008313582008616522,
        -0.15815380960259956,
        -0.11809422596542178,
        -0.08077059831527023,
        0.7677844609294355,
        -0.8785728077961042,
        -1,
        0.5794461899515867,
        0.2596393647707593,
        0.535779184673152,
        0.6869394612002325,
        -0.4536398114718725,
        0.9708655475790338,
        0.6351081517355642,
        -0.7979377731569197,
        0.49999004445389084,
        -0.5543726755640553,
        0.1221684212194224,
        -0.912506174518376,
        -0.05688265702968604,
        -0.5330204335318282,
        -0.6452204751116395,
        -0.4702224434095542,
        0.12153110679780216,
        0.860211575062156,
        0.5552876273057239,
        0.9674400687217712,
        0.5958708785092667,
        0.29443037357882873,
        -0.7002495764050388,
        0.31635792442589955,
        -0.5373996321401227,
        0.04062467825003935,
        0.3366845812637959,
        -0.5892533294645246,
        0.1592216798542836,
        0.5841139402677563,
        -0.17759992069892433,
        0.39792905408711315,
        0.32795732993202237,
        -0.06780020903400187,
        -0.5031825788070757,
        -0.705561743467329,
        0.19195785139929739,
        0.8326196902101708,
        0.5598934633505724,
        0.23636203748237886,
        0.3909185777544516,
        -0.6088881851606616,
        0.6536118105148037,
        0.6207659720376687,
        0.3785306420249859,
        -0.0008853574391763499,
        0.6724378763310289,
        -0.8046778394108064,
        0.6483646249270982,
        -0.6179656535788135,
        0.932544392628877,
        0.7039979983378041
      ]
    ],
    "biases": [
      -0.35474023228606555,
      -0.2760024096101566,
      0.6304982332894012,
      0.3834407801102558,
      0.9803065657615662,
      0.7891748933359861,
      0.21148961400559965,
      -0.8390020821772696,
      0.9234958274098997,
      0.1302572596535237,
      0.24318927300849041,
      0.991181318178036,
      0.3867202270515481,
      0.4606872631402238,
      -0.3136319653684719,
      0.07635024368439026,
      0.5901384484658317,
      0.15426221518856728,
      -0.12107180437768923,
      -0.5344536224055735,
      -0.6136479595255527,
      -0.647618717328142,
      -0.33605117840253007,
      -0.3530049959377359,
      -0.891020896257323,
      1,
      -0.2540650337974072,
      -0.5796525019423895,
      0.7264907206289843,
      0.8744510382376107,
      -0.6827817004191047,
      -0.9125037422849887,
      0.9025639095748021,
      -0.12589619755535847,
      -1,
      -0.8422060018414104,
      0.1807574131927801,
      0.301607152872857,
      -0.48931224125657163,
      -0.5682524928191303,
      0.44424910254146616,
      -0.583534908147024,
      0.6534688980230579,
      0.9447394354329347,
      -0.35763410424888475,
      0.3074730341241826,
      -0.6477814657711181,
      -0.8265644873946011,
      0.7208035359882047,
      -0.8756447160420411,
      -0.07589737606637421,
      -0.4612097311527014,
      0.3561159861802899,
      -0.4601690462870818,
      -0.136871547813059,
      0.11178242011060074,
      -0.5889233607915009,
      -0.1951005667251226,
      0.675825583170568,
      -0.08457349471534523,
      0.1518247047590156,
      -0.8549045023623832,
      -0.6386066309347773,
      0.36177795655630535
    ]
  },
  "layer_1": {
    "weights": [
      [
        0.3103134696890826,
        -0.9351358044757786,
        0.48516212003528714,
        0.1374278578278063,
        -0.6431240879412746,
        -0.25952450801126925,
        -0.18293131659791956,
        0.39844915771740236,
        0.20929055515591333,
        -0.041522653850889796,
        0.5392987561083932,
        -0.6477346315885615,
        -0.49011414577224627,
        0.18821984283931262,
        0.5502990784441429,
        0.12059455286892444
      ],
      [
        -0.03410283775338946,
        -0.28471428856817343,
        -0.04565254659181793,
        0.4334668342353799,
        1,
        -0.6288141067055713,
        0.08950914766363002,
        -0.33832218279568316,
        -0.7191298921043884,
        -0.9403620810925993,
        -0.3357968532680778,
        0.9788041049328077,
        0.5403258685201339,
        -0.22972591892727878,
        0.579002923996104,
        0.8345370874460579
      ],
      [
        0.09063940335146348,
        0.2945008287050836,
        0.84748059199418,
        -0.6461477739859411,
        0.7792078218002154,
        -0.9426727732732901,
        -0.46285701676227575,
        0.33740174306046183,
        -0.27808256626755434,
        0.838194761533567,
        -0.011582361669936389,
        0.49549005397753826,
        -0.9507043365792719,
        -0.4478814600591816,
        -0.2721961372456719,
        0.042573751008509554
      ],
      [
        0.10362197424618841,
        -0.6155612472662084,
        -0.5163853957990956,
        -0.6869888305892748,
        -0.8582369492375242,
        0.7348945920657352,
        -0.3222714233153112,
        -0.25900726824617853,
        -0.8781689311888071,
        0.3097113874336987,
        0.05416556551899912,
        -0.6270984918590967,
        0.2469437953649126,
        -0.3590940592983334,
        -0.8779546972626309,
        -0.3079045821179683
      ],
      [
        0.23099040254440956,
        -0.41055754393241933,
        -0.8369951424410875,
        -0.9233241321333984,
        0.7013512334254388,
        0.7184160913212022,
        0.6660573951727901,
        -0.7799524512686106,
        -0.4435715766602848,
        -0.13162992337707613,
        0.46439135809226995,
        0.8730121912838938,
        -0.7771617365153535,
        0.43177717918876296,
        0.0011639706844056613,
        -0.2817926885705944
      ],
      [
        -0.7210400115731624,
        0.21675648063304886,
        0.07009475052743759,
        -0.7675860602549374,
        -0.722464853545953,
        -0.4260536440323455,
        0.6854333581933972,
        -0.04471175371036514,
        -0.5195973259618225,
        -0.36449208289202106,
        0.6948993907536818,
        0.9078092643969994,
        0.5076326849765634,
        0.3866617089378463,
        -0.5598903749383859,
        1
      ],
      [
        -0.1847820139893379,
        -0.6929804013404074,
        -0.7431623304714498,
        0.9704707264900208,
        -0.15650829953185919,
        0.9014642865689648,
        -0.9395214463622376,
        -0.40026752022587253,
        0.6787174416512429,
        -0.5346519667157082,
        0.9360215432837815,
        -0.8087061323403925,
        0.3025406095119807,
        -0.3967811639382752,
        0.7636673799705114,
        0.05260163343170145
      ],
      [
        -0.3835518450854705,
        -0.46398966247174545,
        -0.8639686671597402,
        -0.5450565424596284,
        -0.5617439750352095,
        -0.8692821613701476,
        -0.9544197206487894,
        -0.657762901213667,
        -0.4425876511144556,
        0.6881660490129323,
        0.09690671052852114,
        -0.3115264317483098,
        0.4404620127790236,
        -0.5082928552108299,
        0.36233489097215826,
        0.6192544667636103
      ],
      [
        0.5746892108368823,
        0.12572303444757374,
        -0.4799632489930027,
        -0.9008221165227972,
        -0.7138545549537465,
        0.6625515361572868,
        1,
        0.28245502562473324,
        -0.6556506564415997,
        -0.14764755785308592,
        0.2485184757607198,
        -0.864164853756069,
        0.6209249316394488,
        0.3832397752434091,
        -0.07510810003139393,
        -0.7174349029242305
      ],
      [
        0.040363815343768275,
        0.36531788931033304,
        -0.4633139372254569,
        0.6662487799760899,
        -0.1198798756768751,
        -0.2814265730205209,
        0.48195109862416485,
        0.27953686063776,
        0.7586519859264321,
        -0.8976126412274639,
        0.22499842945726442,
        0.280473794045921,
        -0.715811060819097,
        -0.9811512753792379,
        0.7518897440616442,
        0.44627468693334243
      ],
      [
        0.19015416256866996,
        -1,
        -0.9651658535003662,
        0.691960190288472,
        0.8403082383461362,
        -0.6939859696399479,
        1,
        0.8104998961761817,
        0.22783862194056884,
        -0.009099038158218836,
        -0.05531707716422063,
        0.28639139214038745,
        -0.6654009516836592,
        -0.8214955898851667,
        -0.22881415259071441,
        0.5973475826157928
      ],
      [
        -0.19973312290588977,
        0.02834637933214062,
        -0.4604125445541679,
        0.7924259081658235,
        0.43891952419719554,
        0.4585887700677483,
        -0.04539399656516285,
        0.07823867074693992,
        0.7275523893787292,
        0.5519782822257842,
        0.9541565872053456,
        0.1796687264920318,
        0.330726919569434,
        0.2706855540565301,
        -0.5747586500759252,
        0.756342018721141
      ],
      [
        -0.789864023160322,
        -0.9990978656461637,
        0.2828692857221505,
        -0.47170678214737155,
        0.34008140457372193,
        -0.16068510231149158,
        -0.5152473968802735,
        0.47595924681864393,
        0.5542005861976499,
        0.9607550101753203,
        -0.7933809933853467,
        0.38984306550850023,
        -0.7821701147148009,
        -0.4662775725099099,
        0.34438831273525883,
        -0.78100920010359
      ],
      [
        -0.5936411484981112,
        -0.8490089794953982,
        -0.9838904319017558,
        0.3627788831590993,
        -1,
        -0.16138989886226107,
        -0.5547730755864476,
        0.3145449251703145,
        0.4067464300252347,
        0.4679923450281495,
        0.2685002325087194,
        0.603566977957663,
        0.8462255134549723,
        0.14330365700358574,
        0.2291140137382402,
        0.6218825627736323
      ],
      [
        -0.6274687431743514,
        0.9047594608633887,
        0.9184821937100572,
        -0.4896596359368164,
        0.6278182633585496,
        -0.20258258628187997,
        -0.43253928459084434,
        -0.6748275803355814,
        0.8896248744004231,
        -0.8087850419271908,
        0.2341634684319673,
        -0.29787207929064236,
        -0.7427748033498297,
        0.8302035431093557,
        -0.9423238551300506,
        -0.021416443501716956
      ],
      [
        -0.8177561894256381,
        0.5791661110503388,
        -0.47888012907452715,
        0.9041296196529385,
        0.6311809820952121,
        -0.5249974682395296,
        -0.27275087023061617,
        -0.8557548601919285,
        0.9505962970155054,
        -0.45213765737108663,
        0.5531138223566194,
        0.732221078279464,
        0.4713276339715778,
        0.6591332222662672,
        0.9719639791974828,
        -0.4655217213319678
      ],
      [
        -0.24780349595385787,
        -0.357837886874486,
        -1,
        0.6053597118080528,
        0.29247400291705217,
        -0.5267196316119986,
        -0.6096567509329527,
        -0.8709682072526631,
        0.8281966493697084,
        -0.6096227205105346,
        0.4594428556408353,
        -0.7379584096491493,
        -0.6177214369395148,
        0.38305287171556507,
        -0.016390547893869907,
        0.14878991760215654
      ],
      [
        0.9953008345445938,
        0.21679235437094763,
        0.21832415640972555,
        -0.1923428190859934,
        0.6340902347906257,
        0.9901129007339478,
        0.36372427223008785,
        0.8158969318521949,
        0.5236335025457919,
        1,
        0.0211710783628357,
        -0.9554944239911738,
        0.9173320871379212,
        -0.20675408054788283,
        0.2076023432636641,
        -0.05201216313926414
      ],
      [
        -0.7490067095212616,
        0.9260838595013581,
        0.2772013130281291,
        -0.8430215070651774,
        -0.41506401242794566,
        -0.6042792284529086,
        0.26611460638863593,
        -0.5464974542540594,
        0.286606539470013,
        0.7970878149955068,
        -0.17710621616317634,
        0.8677458832089049,
        0.5936764597795997,
        -0.8154813902687785,
        -0.852954734232753,
        0.7971364908805354
      ],
      [
        -0.3558100082546922,
        0.0775398187635091,
        0.8438967615806803,
        0.17870264859257937,
        -0.6297129902696106,
        0.6984322002653451,
        -1,
        -0.19795232902441046,
        0.12466206459745467,
        -0.26148558905901753,
        0.7140138023128714,
        0.8423959035142384,
        0.7459058426247959,
        0.46609687761683644,
        0.8704179002718198,
        -0.580605421047527
      ],
      [
        0.12739631811101182,
        -0.5155628483571775,
        -0.5303955918191564,
        -0.9639125845201896,
        1,
        -0.7329851219089066,
        -0.652039275269308,
        -0.0673702956837137,
        -0.9129115094196779,
        0.8087794956856439,
        0.4907318631667546,
        -0.19530683350305117,
        0.6736118668126857,
        0.06699008845543197,
        0.8714049518519807,
        0.7441668975286516
      ],
      [
        -0.29695058312957034,
        0.7576833093012688,
        -0.5250099351036387,
        0.14660562189484988,
        0.016955322284754534,
        0.160495034111484,
        0.9403333096718715,
        0.4251255388036405,
        0.4894669230746989,
        -0.6726541890908107,
        -0.6233438818050006,
        0.7063195239106088,
        0.26041454507320255,
        0.2601638383862353,
        -0.629573095723096,
        -0.1355689844154309
      ],
      [
        -0.30641529769797976,
        0.6081822227408137,
        -0.6642971790275336,
        0.3214956780129254,
        0.6225932747860923,
        -0.47314240599273666,
        0.6703004566164311,
        -0.45611296794931183,
        0.3521774101352787,
        -0.7877357609620671,
        0.060098024959681785,
        0.20353967146265997,
        -0.19536543683041044,
        -0.6078065693275196,
        0.35071475368543725,
        0.44526670783270333
      ],
      [
        0.6958797374979798,
        0.424714792763214,
        0.799217736536729,
        -0.5058251145138949,
        -0.8202785606757451,
        0.6386038852958207,
        0.6923608786017265,
        -0.9859090418256364,
        0.20596152686509997,
        0.47087663178064826,
        0.9546177691340887,
        -0.43090494478011726,
        -0.957779259725241,
        -0.007151215531617174,
        0.010396433777746721,
        -0.4522254138053847
      ],
      [
        0.8762892084413615,
        -0.6242343100069758,
        0.5112763467916174,
        0.24201568323509415,
        0.7900474652558223,
        0.221563287443209,
        -0.697455093893153,
        0.35148222154872877,
        0.5603770591617349,
        0.2225013251019669,
        0.42551243831589153,
        0.8254453276390749,
        0.2761956690240579,
        0.5927610500670407,
        -0.4818137493982032,
        -0.9929660558700562
      ],
      [
        -0.14776087638340915,
        0.08201066847582916,
        0.4224883996365357,
        -0.30769362654900256,
        0.03747529380507626,
        0.9142050444001681,
        0.5825517961967189,
        0.7014755673175129,
        -0.7448148324302574,
        -0.5807481842844275,
        -0.9534515803340227,
        -0.046290895111405,
        -0.10070309375148415,
        -0.2151875307179077,
        -0.10222759181280712,
        0.5167804469630879
      ],
      [
        -0.9037646687589778,
        0.8983511070170069,
        0.22248969511049405,
        -0.2991989497867275,
        0.5927890934062067,
        -0.5573960986785552,
        0.5896792736462644,
        0.27397619599839906,
        -0.09749474008109948,
        0.8984821192245205,
        -0.40158959490033147,
        0.43951273019816617,
        -0.43159596429428215,
        0.9393513386482104,
        0.2925051697945872,
        0.02614036300463662
      ],
      [
        0.23090568271908832,
        0.24744128300142626,
        -0.8999932272762101,
        -0.7183774094758623,
        -0.48249233850642137,
        0.0004015790542492684,
        -0.21090723103961148,
        -0.4907627337925673,
        0.21552075838037596,
        0.28087610563309146,
        -0.0320775805628631,
        -0.8060168096717266,
        -0.0020386685790411965,
        0.26303673556590823,
        -0.040850901128633266,
        0.15851783187362573
      ],
      [
        0.8203618568170586,
        -0.34487146025919324,
        0.884524766531557,
        -0.20974360054133412,
        -0.8111804892959449,
        -0.2033639906496828,
        -0.6086587027749971,
        0.1313011751340909,
        0.49548964580906907,
        -0.5624722699052018,
        -0.2349624392029936,
        -0.3796102689567395,
        0.7347243310695004,
        0.2684279605262089,
        -0.004694125155735545,
        0.6597145461222154
      ],
      [
        -0.44072784391600583,
        0.1943109612875846,
        -0.7458444460676146,
        0.4897348089794548,
        0.13190089384716114,
        0.4999500091753525,
        -1,
        0.984952646776404,
        -0.5234570755191253,
        0.29640915248253213,
        0.8904346844565345,
        0.2844284838153064,
        -0.8373210313930669,
        0.2641786414022374,
        0.49249860733971956,
        -0.35015480148381856
      ],
      [
        -0.14727843331439883,
        -0.4836578077586007,
        -0.33990323589256544,
        -0.7045237137276416,
        -0.47685693376360844,
        -0.3761905470917565,
        -0.5519103264858853,
        0.9124822693836317,
        -0.3222009427945858,
        0.9107111674033397,
        0.8366654543016044,
        0.6380380226989313,
        0.16630408158181428,
        -0.4241967249123981,
        0.7028459540138006,
        0.770510248510397
      ],
      [
        0.3566321281426502,
        0.518365757711311,
        -0.44864287037572126,
        -0.4991063023085666,
        0.25187156778116015,
        0.5005744913054424,
        0.19764770240004068,
        0.13947811083042355,
        -0.012394815585844411,
        0.9750875134598546,
        0.37836149612328807,
        0.014457968485010624,
        0.19829893639885032,
        -0.16576737471360828,
        -0.7565292189014384,
        -0.5429854165045397
      ],
      [
        0.2410396360423539,
        0.1467032915707537,
        -0.5597178300913893,
        -0.14583704575405787,
        0.23212137600957738,
        0.2682821462464332,
        -0.4358659091775938,
        -0.40016247383023457,
        0.9118328729004741,
        -0.49043782165587124,
        -0.42552299449324466,
        0.8170602281640544,
        -0.5100219583664765,
        0.8147515443331709,
        -0.5749356007237942,
        0.8672137879088289
      ],
      [
        0.44409246445459877,
        -0.9030071861079234,
        -0.4787921918197086,
        -0.8300109908468191,
        -0.4423648935762409,
        -0.5405341258513886,
        -0.9176307383808853,
        0.5388849710529717,
        0.3623612786974015,
        -0.5705560905648008,
        0.5355467471665704,
        0.28826865787329026,
        -0.43813820615539995,
        -0.38181064278919846,
        0.13314947679170255,
        0.09563118467827472
      ],
      [
        0.8453975507989049,
        -0.8424811044363066,
        -0.9810132540091713,
        0.3095738788658123,
        -0.348122212833077,
        -0.16267320332536275,
        -0.9509726648131483,
        -0.08497469003332929,
        -0.2852790165662466,
        0.36252957210143916,
        0.6813410318776262,
        0.3022097225002466,
        -0.5154282418720771,
        -0.49050911250466006,
        -0.1197268717653306,
        0.8514159845048221
      ],
      [
        0.8444256552578118,
        -0.6903997587506582,
        -0.5638387442836971,
        -0.6966478460502366,
        -0.28244667933370887,
        -0.8583110503343735,
        -0.7999522449606701,
        -0.5923521751229965,
        -0.9242698501314711,
        0.9848641463401986,
        -0.4473186443522428,
        -0.05537694409816776,
        0.008275898111762988,
        -0.2155100680668429,
        0.789044816017605,
        0.7852207941049631
      ],
      [
        -0.10120599672091152,
        0.11826904008786993,
        -0.2479688180060019,
        0.3881556405347553,
        -0.6373830277459859,
        0.3200480613883257,
        0.15449169619845318,
        -0.759798589812435,
        0.9007977324150143,
        -0.05613861296573963,
        0.8316090661441938,
        -0.1001722103669613,
        -0.6116198872718096,
        -0.2654880296426638,
        -0.6898874520712958,
        -0.871657076414297
      ],
      [
        -0.8355861286246451,
        0.29179629666893225,
        0.7905006821387758,
        0.7158414319848,
        -0.11288172150175711,
        -0.7504638835911253,
        -0.15057087381576892,
        -0.13787709466871145,
        0.540371136134975,
        -0.003114460763218956,
        -0.8693693615786509,
        0.6011693047285717,
        -0.9653629064559937,
        -0.7706464011489516,
        -0.6559257948445755,
        -0.30928462047771843
      ],
      [
        -0.21912378570157134,
        0.8759725223992242,
        0.7907722115131107,
        0.9616330139910362,
        -0.017017774351470838,
        0.7962376137907908,
        0.9278277133235048,
        0.6428046825204098,
        -0.11472124840605345,
        0.6229545303652316,
        -0.8808775839568679,
        0.7128457646570276,
        -0.12093322943085169,
        -0.8708367744299315,
        -0.9302554941068245,
        0.5217499071988434
      ],
      [
        0.5720058498217278,
        -0.5208290743728793,
        0.7031324975391366,
        -0.39676263793335037,
        -0.26518846682383157,
        0.46261640649774016,
        -0.25025994369438154,
        0.9893846846048372,
        -0.8280757852129721,
        -0.4837325357911938,
        -0.9133702267497319,
        0.19174814089318198,
        -0.33102975684330505,
        0.7488156618169796,
        0.0041406581292633814,
        0.3111299950778031
      ],
      [
        -0.4719862634751439,
        0.4129728653655994,
        -0.18141391826656175,
        -0.20812331266559814,
        0.42395935017119407,
        -0.5610525016497305,
        0.37955863088522324,
        0.1523701830157628,
        -0.7952839274427448,
        -0.37188745208962,
        -0.7262576966640205,
        0.2227409957458309,
        0.08766103715763841,
        0.7002902309335355,
        -0.660003473346111,
        0.25630372532519835
      ],
      [
        0.38099879590792773,
        -0.007275383004336518,
        0.48438910173172756,
        0.16654236361834515,
        -0.03937814299009933,
        0.44992526665386945,
        -0.18550389686026444,
        0.5898320505860061,
        -0.17784405285766997,
        -0.8730932655664361,
        -0.9962571207960735,
        -0.3951475292761794,
        -0.1730607144707171,
        -0.004097280335437872,
        0.25591970326157515,
        0.37034421814807655
      ],
      [
        0.313790228716296,
        0.6440566494504031,
        0.8797748637935441,
        0.7611583045785749,
        -0.8421310788712275,
        -0.8208423403926242,
        -0.6919177690173193,
        0.8177309052195453,
        -0.6186555815982878,
        -0.8852413447715165,
        0.36649031897497714,
        -0.4909400639867914,
        0.8221797167906605,
        0.5641360765008716,
        0.7749103489150911,
        0.7229633872429329
      ],
      [
        0.6177194926010365,
        -0.5649717896729278,
        0.7950030422627401,
        0.1996306928606718,
        0.028269321705272854,
        0.9193951592558322,
        -1,
        0.7675227363329555,
        -0.7613657068140831,
        -0.8578127980001821,
        0.17947721285879603,
        -0.6336692401124312,
        0.5155927562394544,
        0.44801942492997154,
        0.14104558459410318,
        -0.9335322377478685
      ],
      [
        0.580253228668288,
        0.6563494867347356,
        -0.3794104952502633,
        0.7266924620156343,
        -0.8769164556582364,
        -0.7414810483642603,
        -0.5362252008580747,
        0.18157341354162698,
        0.9533583521842957,
        0.40386276683052225,
        0.9724742201395677,
        -0.6686352544210937,
        0.8330523561355635,
        -0.024152821762397317,
        0.24633072237903647,
        0.5591423591156759
      ],
      [
        -0.5534982087119884,
        -0.33484713324874593,
        0.9673761129379272,
        -0.5670354046844894,
        0.7883401595296159,
        -0.6417990785292566,
        -0.6513726072793112,
        -0.059320755351723,
        -0.021070406626453767,
        -0.370438222475593,
        0.8981122001103319,
        -0.40696400532013544,
        0.650270087133206,
        -0.3651798291901023,
        0.8288625956297838,
        -0.6182885842485535
      ],
      [
        -1,
        -0.2726773246020362,
        0.7159609679154733,
        0.7703689817303768,
        0.13268008146944574,
        0.23269622926554573,
        -0.8168234643337673,
        -0.060598005743385704,
        -0.9085100942229178,
        -0.13602302280316012,
        -0.18332166054900345,
        0.09826794875523992,
        -0.08623678613118992,
        0.1430569042733256,
        -0.306997056479474,
        0.5232012989086856
      ],
      [
        -0.05727997408221438,
        -0.3339221225468064,
        0.5506251387471742,
        -0.7400698193579741,
        0.5362522759654074,
        -0.34774719106751656,
        -0.6428003847855556,
        -0.8707906240040474,
        0.5225367483431188,
        0.5242945368291358,
        -0.3473711869353683,
        0.01652299178331544,
        0.975917440491346,
        0.31112858355266904,
        -0.5905240004257137,
        -0.23969372168570408
      ],
      [
        0.8802876541393936,
        0.6924337845640258,
        0.04912411386013505,
        0.9413131353470217,
        -0.03634855210263915,
        -0.08193601800030675,
        -0.45267318584520155,
        0.6492296044060755,
        -0.8860478955301926,
        0.8920692604634656,
        0.531610095718694,
        -0.44495332308407454,
        0.11668205704942355,
        -0.09025024708694535,
        0.43935015856627774,
        -0.546462738515759
      ],
      [
        -0.47656788135850137,
        0.7060636765307697,
        -0.23559358063124297,
        0.6982108527766284,
        -0.57979780483149,
        -0.11953752428062413,
        -0.1707024696550589,
        0.03057252524243742,
        0.12405821830660084,
        0.4737478650703043,
        -0.85402859294042,
        0.9890564680099487,
        -0.03272449851754385,
        0.16770896476600866,
        -0.5067756078783293,
        0.2767506819371871
      ],
      [
        0.8627938761248668,
        0.09729451700057047,
        -0.8071944114006376,
        0.2963356558399992,
        0.7759336983882649,
        0.9870595432533152,
        0.17907963266252525,
        0.5306622394734484,
        0.6204697284540367,
        -0.391855721372971,
        0.2898264121238199,
        0.5164044984772748,
        0.4464912745348578,
        -0.47426955480223393,
        -0.9497553561876848,
        0.7624092798224559
      ],
      [
        0.12786912022506014,
        0.20687709847133495,
        0.9578522913742582,
        0.7840095665631354,
        0.8138376510752726,
        -0.7467529947216159,
        0.5150119439888994,
        0.553885992960092,
        -0.221553576046761,
        -0.36369036496010254,
        -0.7143810802639756,
        -0.14462895830481173,
        -0.03238307626825876,
        -0.8155687973752829,
        -0.424333651176357,
        0.0355792709014109
      ],
      [
        -0.4648526471833708,
        0.5572450360642041,
        -0.5280280705015281,
        -0.5983519278060226,
        0.14481014460408154,
        0.7986263015244108,
        0.11679127853528877,
        0.5969758076616486,
        0.7821307055759952,
        0.7673464064173043,
        -0.7376149785859679,
        0.6155894414484361,
        -0.960282564163208,
        0.6402528686982573,
        0.05721370177407673,
        0.03649997499842361
      ],
      [
        -0.676070132980129,
        0.23762427403252226,
        0.28637086416476887,
        -0.24481083248896474,
        -0.5423249064957115,
        0.14708956008893906,
        0.1625728397821049,
        -0.6323443494707615,
        0.41586513754439997,
        1,
        0.46531589167942555,
        -0.9941570076602991,
        0.583012066758946,
        -0.23236050696046628,
        0.031431719633595076,
        -0.210436359612083
      ],
      [
        -0.33723777601041877,
        0.07661960107267025,
        -0.657263699289618,
        -0.051169473396376924,
        0.08107126475125527,
        -0.8053781853091214,
        -0.0617157666601153,
        -0.5325675279581086,
        -0.7874113633769444,
        -0.378828042976376,
        -0.4501046593402899,
        0.5316972225039901,
        0.7433350375052133,
        -0.158132582227594,
        0.8740081168159318,
        0.29618682429228654
      ],
      [
        -0.8303754303289916,
        -0.16154310881161313,
        0.4080765521779006,
        0.9694195464872329,
        0.1878497021891157,
        -0.17534693156024883,
        0.8795872508966995,
        0.7231227611221251,
        -0.596138966981024,
        -0.2405059421137727,
        0.7987528474285018,
        0.4336280512690113,
        0.9356349439306617,
        0.15531180174066814,
        -0.9149651776320289,
        0.24518993612741719
      ],
      [
        0.859438863275998,
        -0.1077312187323504,
        0.7605098926836965,
        -0.5538639810061284,
        -0.031225897584381337,
        0.24201733996577401,
        -0.8176692431593136,
        0.954396078741202,
        0.09795188498793404,
        0.8085835995981101,
        0.6609536546869398,
        0.7669453849213931,
        -0.6986069300356188,
        -0.7363336945249447,
        -0.7854460201206447,
        0.28973599286786095
      ],
      [
        -0.31223255411190565,
        0.9033761397885565,
        -0.4162189927112022,
        -0.7933595176564112,
        -0.437487885564941,
        -0.5631738213425529,
        0.6800058625749316,
        0.6312429181133944,
        0.10581305195507888,
        0.38617036340990935,
        0.08350071591371995,
        -0.540436473242293,
        0.8608196501860408,
        0.4784872955828258,
        -0.5970882013922661,
        0.8928765315297205
      ],
      [
        0.5690276586760613,
        0.15808279322142346,
        0.6550596712936856,
        -0.41978227924232736,
        0.0962185958231371,
        0.23741691082250924,
        1,
        -0.8887823795257191,
        -0.0330669165695765,
        -0.3506708973543218,
        0.6233041233448507,
        -0.5786775647147816,
        -0.9325757275373355,
        -0.20268582260704068,
        0.707345551221995,
        -1
      ],
      [
        -0.007246136290457808,
        0.5443459893800756,
        -0.8968663179344726,
        0.9890840983635375,
        0.2978829939310281,
        -0.09950840659038575,
        0.9109022795105054,
        0.9998205587932909,
        -0.7980081847397759,
        0.8861303536976054,
        -0.30753228280076716,
        0.46451357315539027,
        0.5092909460725041,
        -0.9608795942780796,
        0.49597494844234286,
        -0.11216184710089525
      ],
      [
        -0.5229732132709332,
        0.8980211170230433,
        -0.7546581624838281,
        0.5363252694691747,
        -0.07552055508881124,
        -0.6113575056007761,
        0.3940111696973897,
        0.7330195520244559,
        -0.12956943323288023,
        -0.8631386270131745,
        -0.676987111146745,
        -0.4322011185756247,
        -0.6583015205279147,
        0.2746773824620818,
        0.39578462907248346,
        0.8043691494479797
      ],
      [
        -0.22834300277029881,
        -0.307489916556218,
        0.014529198634790626,
        0.18734298650956724,
        -0.40512004618634856,
        0.9029265541500703,
        -1,
        0.9248650013491664,
        0.7809621350665263,
        -0.6188663341695223,
        -0.07492304980438969,
        -0.2101673316079869,
        -0.08383291203217173,
        0.7592717337665874,
        0.4431250367914233,
        0.9621330499649048
      ],
      [
        0.39789187391007214,
        -0.28234460069303025,
        0.07291028123824035,
        -0.00944780454481658,
        -0.9746126594163678,
        -0.5863693958015556,
        0.9336773167664986,
        -0.23204344040904193,
        0.299437961864499,
        0.20845013565276008,
        0.7835633419508921,
        -1,
        -0.5032858973762241,
        0.6726552130909484,
        0.31895213304694875,
        -0.6846589486062705
      ],
      [
        -0.15968129621940516,
        -0.2845281978205439,
        0.5852596848782344,
        0.8636288470647792,
        0.05921410784747442,
        -0.16525152455884382,
        -0.9745895456680131,
        -0.6053210735098076,
        -0.5055767824356869,
        -0.49337517475632703,
        -0.6754988477743193,
        -0.41003954641612655,
        -0.23584054949864025,
        -0.2416452939823034,
        0.19320331038805905,
        -0.5488349403347115
      ]
    ],
    "biases": [
      0.929302285815871,
      0.14171305868177153,
      -0.873664217646902,
      -0.9314805507511797,
      0.036754387044917396,
      -0.5801239155613361,
      -0.845764774767795,
      0.2509632849567564,
      -0.3261699355493612,
      0.9069886469228526,
      -0.3212235301510634,
      -1,
      0.5792626886204582,
      0.1371819340802101,
      -0.2453844329255469,
      0.65269885305777
    ]
  },
  "layer_2": {
    "weights": [
      [
        -0.37784139880528733,
        -0.7726350246058528,
        0.16110589596067468,
        -0.6141040200500828,
        -0.38884580514651684,
        0.3656410363262309,
        0.3767535528422891,
        -0.3303538972194709
      ],
      [
        -0.3272336496992552,
        0.3418303603133807,
        0.6859016874729853,
        -0.15172583606852888,
        -0.591988558797126,
        0.5095786348587873,
        0.5123514700671792,
        0.6325761317463099
      ],
      [
        0.18377705188328486,
        0.7875485403025518,
        0.7466742966841217,
        -0.9610275417604195,
        0.15068204745244262,
        -0.905580018519076,
        0.5568972199645458,
        0.688384137373979
      ],
      [
        -0.5367789061483532,
        0.8886891978011806,
        -0.3010777495104508,
        -0.5151680892148356,
        -0.6688931658013827,
        0.7591353420547837,
        -0.08508986868245866,
        -0.393446849662374
      ],
      [
        0.07572428975884467,
        -0.6050544741671982,
        0.553656923083627,
        -0.7758448635917414,
        0.7496672445207916,
        0.08219900519753968,
        -0.2310516597449456,
        -0.03328968329402091
      ],
      [
        -0.7692693148556122,
        -0.2095960743484782,
        -0.5981261805544652,
        -0.19004824971228992,
        0.018155766793756738,
        -0.1853055366397808,
        -0.7891393486487156,
        -0.1493979644643717
      ],
      [
        0.39867761838236676,
        0.6642207764229027,
        0.1581016925203327,
        0.9391451703088205,
        -0.8619851494403382,
        -0.346887562711059,
        -0.5969060269741049,
        -0.3708432051687543
      ],
      [
        0.10427649468627881,
        -0.37519764199709754,
        -0.7735668727190697,
        0.6210479213774275,
        -0.024644185148829836,
        0.7371117351141305,
        0.11621250291007405,
        0.2734495152797212
      ],
      [
        0.6638098860870627,
        -0.21203586588709558,
        0.05380677970887894,
        -0.45741776182889754,
        -0.7602674037914601,
        -0.1478562930583261,
        -0.8647947411572666,
        0.7040364378715963
      ],
      [
        -0.7665584740485698,
        -0.46833108014949015,
        -0.30697723571607716,
        0.9910327381428252,
        0.516160815739444,
        -0.21146368701164026,
        -0.07794313313819705,
        0.4612090774405094
      ],
      [
        -0.5669339679906443,
        -0.06640645807721676,
        -0.29386337580403715,
        -0.021868413902422362,
        -0.33658291825815306,
        0.7549551035286804,
        0.9321749664785061,
        0.48336399362693083
      ],
      [
        0.4174547842257648,
        0.722880201034562,
        -0.06993624643643269,
        -0.30515685680242277,
        -0.9125798134981173,
        -0.9145386355239985,
        0.5029272992928492,
        0.21529748948547012
      ],
      [
        0.6962477905288281,
        0.958351214376829,
        0.47255282489313283,
        0.48388850855616267,
        -0.8934305373146434,
        -0.3978042424773305,
        0.5434198454271891,
        -0.5291193757786653
      ],
      [
        -0.7106434637511879,
        0.4540886252378176,
        0.049933450688658024,
        0.9055267774940592,
        -0.0862141835192609,
        -0.7499326588868531,
        0.29081300029466456,
        -0.25470547443363184
      ],
      [
        1,
        -0.5757472796373031,
        0.7248616668243515,
        0.1271666623681082,
        0.7318721384715237,
        0.3076444352407627,
        0.10992441591393785,
        -0.13591111252972737
      ],
      [
        0.6528597528005758,
        0.21935503764269054,
        0.6041152384939764,
        0.351221084206983,
        0.4191804605786525,
        -0.7775365048732182,
        0.2338610809322792,
        -0.5848096517321768
      ]
    ],
    "biases": [
      0.16135809112296298,
      -0.4643434359007102,
      -0.16192381683617021,
      0.592241901513912,
      0.10526035656375736,
      -0.5101972313340715,
      -0.21930174849776699,
      -0.9507517842990991
    ]
  },
  "layer_3": {
    "weights": [
      [
        0.4369335361341849,
        0.5305354391328032,
        0.3664371964971853,
        -0.3283991984580029,
        0.4331175549850885
      ],
      [
        0.00511999489908733,
        0.379291251580862,
        -0.5141496099193131,
        0.39484272431282985,
        -0.2826286818923148
      ],
      [
        -0.20283385981176894,
        -0.11714282369606534,
        0.0534504223945699,
        -0.014921502041864374,
        0.10179092354663474
      ],
      [
        0.856178926941264,
        0.1695981292729427,
        0.5567682030384847,
        0.2035594200547471,
        -0.00018383500598051784
      ],
      [
        -1,
        -0.24984491872455844,
        0.9252782525811178,
        -0.39446050912705183,
        0.20699894859111492
      ],
      [
        0.20455444587228258,
        -0.4070787542890001,
        0.21717098854742048,
        0.6497204810896707,
        0.6466633030644082
      ],
      [
        0.5144473434894643,
        0.4553705320276926,
        0.06082882481674443,
        -0.8630728015822693,
        -0.3400761161349076
      ],
      [
        0.38060092358161146,
        -0.9038963201793522,
        -0.4974663577817378,
        -0.39960404502768665,
        0.9041810497936014
      ]
    ],
    "biases": [
      -0.40454085775632165,
      0.8423498019050447,
      0.5052347435367689,
      0.7173957257620919,
      0.622813006430211
    ]
  }
}