{
  "layer_0": {
    "weights": [
      [
        -0.868319319597235,
        0.6206916967879157,
        0.6753155799056152,
        -0.6048765685750737,
        -0.7701374786241617,
        0.9027342223295148,
        -0.5511342217461337,
        0.5088277614919914,
        0.9662747139858152,
        -0.9968819990788266,
        0.44163114267763653,
        0.34503006958125876,
        -0.9942895317546626,
        -0.47335279037583894,
        0.9443949854466342,
        0.2891770486906783,
        -0.7337986230694244,
        0.46421952405832084,
        0.6142258746466727,
        0.11276264492269446,
        0.9638400842268902,
        0.15693503185957694,
        0.02096103498398257,
        0.8650262439281804,
        -0.9433076478145636,
        -0.6915065894873117,
        0.6967673540506496,
        -0.2843150054274781,
        0.8056687434643073,
        -0.3346460175304511,
        -0.6305353713519972,
        0.6324742747874897,
        0.013938341613662492,
        0.9261451911027699,
        0.20970859168970873,
        0.007442001310313672,
        -0.02253562813236226,
        -0.4827341217179332,
        -0.8721985895133714,
        0.7465632652427268,
        -0.636599468184782,
        -0.8797906032040489,
        0.013175537107403304,
        -0.5399320416715992,
        0.8109881850754854,
        -0.28953542657801307,
        0.08546154524124935,
        -0.6983254385817704,
        -0.4632141685192448,
        0.16966348981221446,
        -0.7203348949653958,
        -0.7697418062136799,
        0.5920831855726572,
        -0.9361073805354608,
        0.40075731973819195,
        0.7469324906167868,
        0.26684424607976565,
        -0.29815790915469326,
        -0.05916370201720463,
        0.473930442914451,
        -0.41179561770344,
        0.29249531753748126,
        0.8098462069975795,
        0.5880300254138818
      ],
      [
        -0.1716147213178319,
        0.1555444395087924,
        -0.6576586873536854,
        0.4622309464841933,
        -0.7231717404097878,
        -0.8835523463596664,
        -0.6516488331888988,
        0.004075390248579697,
        -0.7862428038827612,
        0.891551825900073,
        0.5375071300292432,
        -0.43879684774477434,
        -0.04197251181934632,
        -0.732474985730299,
        -0.6024271056477829,
        -0.5159697429062803,
        0.9734094705584995,
        0.5669653174758598,
        -0.6550083352688004,
        0.22088966610914573,
        -0.3118083889416339,
        0.7900435865857928,
        -0.18601942190722473,
        -0.8859307301856415,
        -0.49977344534581,
        -0.14336891414734196,
        -0.8744473279105438,
        0.29426722655705617,
        0.5990495711302257,
        -0.060460402377698834,
        -0.6509302236354804,
        0.32166071676085967,
        -0.10700220884273487,
        -0.29753825408641654,
        -0.7777553253205182,
        0.48881720156783837,
        -0.7316983119260492,
        -0.7394108393985516,
        0.252266086937612,
        -0.8999259054617881,
        0.45029123575871655,
        -0.08475963474133212,
        -0.8931609773632986,
        0.45036084940764515,
        0.914598687279744,
        -0.4584785333380863,
        -0.32182025724435254,
        -0.5652780707968564,
        0.3995086250452468,
        -0.268720171187644,
        -0.9830003580719457,
        -0.16230296131642832,
        0.9425143349993983,
        0.5969794918350443,
        -0.3250276895075537,
        -0.02775102285112365,
        0.566027935454141,
        0.8940713738458201,
        -0.8493093861267883,
        -0.8872915051410213,
        -0.7488721601718064,
        0.026696135393735623,
        0.8825474160093004,
        0.6355562083623663
      ],
      [
        0.3299203811405459,
        -0.10867054684901842,
        0.28979943790176754,
        -0.15187030250179182,
        0.6946953157568482,
        0.8302644163027632,
        -0.9695830880132126,
        -0.8255428348966277,
        -0.2085121151571085,
        0.5875177873515882,
        -0.6904408597377703,
        0.08110824852049284,
        0.8636539130334937,
        -0.15604671348123972,
        -0.5971880995282219,
        -0.18325354280871645,
        -0.260985639444612,
        -0.059542815381604004,
        0.5382576389068383,
        0.27340509751708025,
        0.5520438210999223,
        0.4092454199573591,
        -0.010972531134574663,
        -0.8997098902752071,
        -0.8686407593531043,
        0.08068483068766182,
        -0.3167682489105524,
        -0.07316934627141256,
        0.2455942288158435,
        0.07933655286665982,
        0.6070053491486843,
        0.9187166827609632,
        0.15264548226117472,
        -0.9073394510825162,
        -0.04107640034182219,
        0.9322018304641339,
        0.5704079964038975,
        0.5025336588041625,
        -0.8464552413715272,
        -0.1615134427527738,
        0.3537671638169112,
        0.7200486789701932,
        0.8894373002448868,
        -0.847737365956797,
        0.168737060509541,
        0.4796894646746885,
        0.28948981976807076,
        0.6334931194136666,
        -0.0861446455069258,
        -0.9303143517169081,
        -0.11358246669679019,
        -0.6153204657474006,
        -0.13306109742149935,
        -0.24749665257757514,
        0.4263628292253901,
        -0.3938377053677623,
        -0.1697195200933839,
        0.5962782813230032,
        0.9087032418309477,
        0.16484071891235308,
        0.057830660849396025,
        -0.38395403599787364,
        -0.7008447363100646,
        0.4091504217979101
      ],
      [
        0.031337590134522385,
        0.21372362453751043,
        -0.006948339560994856,
        0.4252756267953946,
        0.48186480122238184,
        -0.2642063425188353,
        -0.3996509352600479,
        0.6783775790306601,
        -0.6341277470831224,
        -0.2350012712324834,
        0.4382328332505836,
        0.6081047961024024,
        0.21403482700850215,
        -0.370327313543595,
        0.5377097281451294,
        -0.9925208018980796,
        -0.3796116201761527,
        -0.759789098332423,
        0.48360516298135714,
        0.3628582585606245,
        -0.20783185860447853,
        -0.8186685865778422,
        0.9138778246798118,
        0.4809970704706289,
        0.87723205078008,
        -0.4255758806447815,
        -0.6756532998997109,
        0.8920133039275588,
        0.44481450785337234,
        0.5260077551923907,
        0.06336900424959897,
        0.6729304405682792,
        0.09067035132501287,
        0.5479844100420924,
        0.03479978833237809,
        0.45765886539396267,
        -0.4328299566747904,
        0.4095105536998047,
        0.7068297938844881,
        -0.9907872040097545,
        0.4944054548632924,
        0.6904657302810222,
        -0.033949202276879774,
        -0.5716448689888077,
        -0.6276863457628006,
        -0.6132332910819083,
        0.9513897463502176,
        -0.675575529807133,
        0.35549622157689914,
        0.9715356463103826,
        0.569130729876099,
        0.9625691723977048,
        -0.700666009490591,
        -0.20765359361500735,
        -0.4041662609044923,
        0.014630792151701145,
        -0.5582992813037164,
        -0.643885817002069,
        -0.039745602877320166,
        -0.5411099695346064,
        0.6628577470315858,
        0.6052653356991488,
        -0.6042255454353354,
        -0.36275388154183796
      ],
      [
        -0.6783343934451329,
        0.4783175089447255,
        -1,
        -0.8295058832816566,
        0.5902960550729957,
        1,
        0.2810418946129343,
        0.5297705182085489,
        0.561370260899333,
        0.6531864642592811,
        0.44494200370367604,
        0.6376408903472489,
        -0.17137143747476963,
        0.14247892839149506,
        0.9411058072162519,
        -0.46438311583346614,
        -0.9598361448246686,
        -0.1970948047706402,
        0.08854526852306505,
        -0.5257155268303836,
        0.5465561095053221,
        0.2990892531361812,
        0.9685178689979962,
        -0.5931143607099317,
        -0.8616525849706139,
        -0.3011918033957382,
        0.100394629542843,
        -0.7806534482217703,
        0.5188677644052686,
        -0.7416182714327443,
        0.7771826576127658,
        -0.5180465954774497,
        0.6281794784469756,
        0.7219841505021408,
        -0.2719234444050558,
        0.2185795618860789,
        0.5368343055449745,
        0.9106026985483541,
        -0.025136722549081534,
        -0.8267405282661763,
        -0.8600906747170702,
        0.8757705122306036,
        0.4784035723149924,
        -0.9746022319117991,
        0.2178121279826021,
        -0.028362528749188473,
        -0.493142620712125,
        -0.09253498955598344,
        -0.2588681816994715,
        -0.7101074580756563,
        -0.176153307998116,
        0.003956099846470003,
        -0.604014304805975,
        0.8747624919663831,
        0.5159791334243314,
        0.8337936276721307,
        -0.8413755703917319,
        0.11195955626162289,
        -0.9083327793086038,
        -0.7233817422299267,
        0.07693926984711257,
        -0.4609251218189016,
        0.9432047791562418,
        0.898222077926883
      ],
      [
        0.14271769801822093,
        -0.6767748746979761,
        0.7386205634093251,
        -0.0566860302788433,
        -0.5757918681831353,
        -0.09695219098166286,
        0.8478892062585567,
        0.03832080502899082,
        -0.029407927540683977,
        -0.3000985132850472,
        0.12259197447191743,
        0.5088500402043867,
        -0.2331652245264095,
        0.4894175398602713,
        -0.7423259120221517,
        0.06902027842924181,
        0.464989264074694,
        -0.8842558180419979,
        0.7652669034641829,
        0.09891427971824553,
        0.5087191876098917,
        -0.11404035166392164,
        -0.5182880322315484,
        -0.8733391146926749,
        0.19310704754773256,
        0.1389495831825136,
        -0.9397921663481831,
        0.7499841289639142,
        0.6533363759418387,
        0.6516873661680693,
        -0.6401553108465042,
        -0.24092264099310828,
        0.24307702904164183,
        0.20970536483172608,
        0.6480261208836138,
        -0.3994205650613728,
        -0.945940774578929,
        0.4720081707308897,
        -0.8524873554025401,
        0.09330131644703124,
        -0.9738558324397892,
        -0.041684002017247854,
        -0.041659760574816636,
        0.8429508823143571,
        0.4173552662877893,
        -1,
        0.6364655931306182,
        -0.5962867153011222,
        -0.9111844716933345,
        0.10332111593074647,
        -0.6093643603248572,
        0.154028929265895,
        -0.07155795288818825,
        -0.6021005691009446,
        -0.25659351959455123,
        0.2571341497044193,
        -0.9929239913546116,
        0.6581345153044129,
        -0.3837095504552904,
        -0.9194402467278635,
        0.8417666751627226,
        -0.5288482496970316,
        -0.8709217104779144,
        0.46750689592993655
      ],
      [
        -0.8389474028743329,
        -0.36862354996191726,
        0.5253731025576058,
        -0.4181002982361581,
        0.7718337834968938,
        0.7687094754413775,
        -0.5879887931604454,
        0.676492122850759,
        -0.9368605450750698,
        0.48387249048418973,
        0.7378742814965845,
        0.8862668333286601,
        -0.7999596722171513,
        -0.5335805507769558,
        -0.1056003135344849,
        0.9620467039272799,
        0.35474446234945817,
        -0.9512183280871607,
        -0.2846202029638553,
        0.7409052976930901,
        -0.32700961968107817,
        -0.9315393662102947,
        -0.13381142755169703,
        0.29462203689972494,
        -0.6963037450585975,
        -0.7756199228883122,
        0.23523495665734223,
        -0.4507452873371359,
        0.10382613614449596,
        0.1325200622532171,
        -0.02686020506903566,
        -0.7956574936312741,
        0.3797429192970015,
        0.5627044870504296,
        0.7963407673892767,
        -0.3472098029312712,
        0.10112196459810498,
        -0.012277973376227528,
        -0.7084262981037157,
        -0.9516567109938024,
        0.6065269596963564,
        0.8572726526812843,
        0.4771618937972149,
        -0.0666327222949724,
        -0.074881584114798,
        0.03225968392987196,
        -0.7092037145137212,
        0.8665601343882553,
        0.7075748614485956,
        0.1388029287829063,
        -0.8041826749524398,
        1,
        -0.5961608501843808,
        0.9884386925434092,
        -0.6228527512744825,
        0.20239763072460457,
        -0.7375352053314705,
        -0.6130308363775832,
        -0.16858550780717638,
        0.10409729373932422,
        -0.3027932226196789,
        -0.6573176351774467,
        0.38558331653588895,
        0.28427201463991675
      ],
      [
        -0.3153819191987608,
        -0.6530166027732334,
        -0.536328877109035,
        0.8189363950228203,
        -0.8890721181982849,
        -0.03582078387772795,
        -0.970900960045488,
        -0.6057238161675316,
        -0.27494366165779527,
        0.6047115385006666,
        -0.5399530958200194,
        -0.6272579440713272,
        -0.35232474536143177,
        -0.11849317213125447,
        0.9197269199645542,
        -0.14721158746568813,
        -0.58189335337484,
        -0.25449770120988435,
        0.26641097272013975,
        -0.678903302933798,
        0.90914984510585,
        -0.7531954206416072,
        0.06144277170981797,
        0.3888031033542241,
        -0.9115812549350608,
        -0.5647099102562895,
        0.948548390709685,
        -0.45717261532073505,
        -0.25576030739844374,
        -0.6946947464374141,
        0.9240022301829912,
        0.43711916533362655,
        0.0750301969383736,
        -0.8412222975849482,
        0.9891367314024603,
        -0.8785532200250591,
        -0.8144771129219383,
        0.10739473887426436,
        -0.28934633276867466,
        -0.9602525753434031,
        -0.46276761476098593,
        -0.7173814165105398,
        0.3254265592422628,
        0.2574714094685532,
        -0.715053691379191,
        0.22281165162393463,
        -0.46293341599854254,
        -0.6876737374021513,
        -0.019163899435606226,
        -0.6141768238793103,
        0.6708356085081758,
        0.8352603222129275,
        0.532483891132656,
        -0.2773870879083444,
        -0.8802957223161321,
        0.16561001202065204,
        -0.6213256649595378,
        -0.6865475565659995,
        -0.031130419031193856,
        -0.6661255077970503,
        0.2851956249116726,
        -0.03922206760799905,
        0.4677775053252991,
        -0.4414493479985598
      ],
      [
        -0.21666586777572824,
        0.6042027410390574,
        0.21480894222826896,
        0.3206553068208883,
        -0.5529395619634278,
        0.7828285465162416,
        -0.6020263427840797,
        0.49631277584224825,
        0.6395477156641182,
        1,
        -0.23556670994344253,
        -0.15049839035460444,
        -0.6854978957667442,
        0.11518124646135829,
        -0.4159655281037389,
        -0.8047848788835329,
        0.28786884190937173,
        -0.8811675275586909,
        -0.020167178174183453,
        -0.8609003514905278,
        0.7806613702005202,
        -0.04047604508344359,
        0.3576317753935381,
        -0.9682269680035871,
        -0.04070373418078995,
        0.7088869663987716,
        0.0012339913135973617,
        0.8942090423007266,
        0.2746633691615918,
        -0.699102537357561,
        0.09877111208378228,
        -0.21121680080725325,
        0.38448962395221536,
        0.5867416391207425,
        -0.31757711735886324,
        -0.7962199156150473,
        0.48508972281527973,
        0.3351837291263825,
        -0.3891014609163817,
        -0.1347335267455785,
        0.6130911694182617,
        -0.4518082807569354,
        0.5071689714481903,
        0.3359526198657985,
        0.792605066887276,
        0.19282243868163537,
        0.42146482247297096,
        -0.32949230563983567,
        -0.6578014035585591,
        0.35507218254217376,
        -0.10012867997233109,
        -0.865959244110171,
        -0.48054503734952037,
        -0.27451401232375455,
        0.5171341225276858,
        -0.08288629520844058,
        0.6380887341480092,
        -0.35659057235386454,
        -0.8040602174842868,
        0.6207348882096785,
        0.790729732882099,
        0.6414982086134058,
        0.7113965235147932,
        -0.6383537170797061
      ],
      [
        0.02929866327131676,
        0.06082209139109011,
        0.13855021891835614,
        0.6319198420884109,
        0.11166528571612479,
        0.10670847752938024,
        -0.9313457692071723,
        0.8838330690068816,
        0.4685245462060807,
        -0.5204526669670684,
        0.5719566857452892,
        -0.27465858427644196,
        0.5388688485774575,
        -0.1778136623214966,
        0.1545619565921092,
        0.2637256266261832,
        0.49043354075485673,
        -0.8195903596721256,
        -0.18830577259816528,
        0.16399993386450612,
        0.3136426070732835,
        0.37173904660939094,
        0.9332257971613279,
        0.8512054567943377,
        0.24440638518878946,
        -0.5331385505708687,
        -0.4226452305297607,
        -0.3687574674512054,
        0.1617179613961308,
        -0.08323625156487664,
        -0.2479306336980409,
        -0.01886195644818324,
        -0.001310775165166664,
        0.19137071448072654,
        -0.7706596615120033,
        -0.5987757085823986,
        -0.2341435902073025,
        -0.4366358760997743,
        -0.23596765876429004,
        0.2076649075927601,
        0.3854122060815556,
        -0.9052091337307729,
        0.8177282974256933,
        -0.6343540912397625,
        0.44729926587468455,
        0.3495235789041346,
        0.48519657083012213,
        0.6765836681210661,
        -0.48676423425431503,
        -0.6194893134593128,
        0.16325411113602295,
        -0.06454693251081708,
        -0.06630855689754084,
        0.5850678615738255,
        -0.09765483718774502,
        -0.12836957353344333,
        0.30360036520304506,
        -0.4674796773287585,
        0.6802866810470601,
        -0.31457130724282995,
        -0.5880355810008241,
        -0.9869980836770194,
        -0.4730910506647735,
        -0.5976933031381264
      ],
      [
        0.9958072887349549,
        0.031083622238212295,
        0.09034592778594319,
        0.9306620005069837,
        -0.5646925211938255,
        -0.05202915144667674,
        -0.6375820359238162,
        0.9175590152979112,
        0.5037593702028402,
        0.28799007616121564,
        0.043566795969030854,
        0.27495989307462926,
        -0.2685617157617727,
        -0.18583202452179903,
        0.7121291390041211,
        -0.3721921732097847,
        0.7401307856240655,
        0.3399895096532183,
        0.3276119961525456,
        -0.4227140514758517,
        -0.2416200718177328,
        -0.9134564123276921,
        0.4793943945650678,
        0.007693962417262402,
        0.920261102295812,
        0.06531396687469794,
        0.4468687137345239,
        -0.08710982838787229,
        -0.4747553727236092,
        1,
        -0.40540481614066803,
        0.09070802875855419,
        1,
        -0.8044858142066292,
        -0.24408589294260036,
        0.9697039686947293,
        0.6673877308403734,
        -0.06119932788197891,
        -0.02836202597473281,
        -0.5078224362379202,
        0.48579636677550053,
        -0.9118559238312927,
        -0.077060094160646,
        0.25862977819890537,
        -0.38231994723738144,
        0.41285142697863625,
        0.42514694551268434,
        -0.7831280793230788,
        -0.6597433513592303,
        0.27306625601999984,
        0.5032557047770152,
        -0.308199129377101,
        -0.8928297846117296,
        0.760111944629077,
        0.30799224696953953,
        0.0060465256377921954,
        0.40552403619372657,
        0.6365428806289711,
        0.2459759119578406,
        0.7117890573181034,
        -0.9534129023993142,
        0.6505209104934399,
        -0.8148057952667093,
        -0.10410981448170538
      ]
    ],
    "biases": [
      -0.17322525122063093,
      -0.13143830551035524,
      0.10674004612466793,
      -0.6673544980304914,
      -0.23196214002140197,
      -0.46438208305400397,
      -0.8904686006203995,
      0.8745900240806713,
      0.3578032370414468,
      0.9380174635389117,
      -0.2658746504957534,
      -0.9189027308789749,
      0.41568363615605,
      0.6663944338466796,
      0.8285774970512138,
      0.08910413398056527,
      -0.3611374426099711,
      0.42808640932567615,
      0.952064593971693,
      -0.9731678291203015,
      -0.7835821360689983,
      0.5348420226844286,
      -0.7192540672461807,
      -0.7416394115919954,
      -0.7264186983576312,
      -0.5935571506685939,
      -0.4713287319999374,
      0.7694551475746317,
      -0.3908285017620482,
      0.453735145321552,
      0.660034680541963,
      -0.3911755777672791,
      -0.26459243762267387,
      0.05115223508989329,
      0.2525892562597018,
      0.23401393409664592,
      0.6108674754233184,
      -0.3653096166544405,
      -0.955511764221961,
      -0.8462879948301485,
      0.7518436150451513,
      -0.8195300436592448,
      -0.534814340136975,
      0.3919133196796589,
      0.6560762027479404,
      0.6057907284377794,
      0.7838258731871867,
      -0.27143658006408217,
      1,
      -0.3591179096082473,
      0.8755544222808448,
      0.9474183911172602,
      -0.8319512390724585,
      -0.9736661977099544,
      -0.8624598053127877,
      -0.2528761271584474,
      0.9289737665480234,
      -0.5737575017248536,
      -0.31027693578683907,
      -0.15838880607654288,
      -0.5711315164294266,
      -0.9279207972442952,
      0.2791626065264028,
      -0.08138600893588269
    ]
  },
  "layer_1": {
    "weights": [
      [
        -0.9260784140292422,
        0.6096261746469912,
        0.9603921602793415,
        -0.37443424835742223,
        -0.24095297627930873,
        -0.8631191191743826,
        0.5695668257070282,
        0.3453778449922112,
        -0.2305622409891289,
        0.6268179129070559,
        -0.08698159908369581,
        -0.8227000126155798,
        0.07668847974722207,
        0.9054549924335834,
        -0.5179657025351422,
        0.24164220212675927
      ],
      [
        -0.7640325439132999,
        0.026075516530740826,
        -0.7425369051410867,
        -0.6668133571466921,
        0.063905031700441,
        -0.8986353497442783,
        -0.09892919482285104,
        0.6518337869050513,
        0.39477091753306964,
        0.7718218488053675,
        0.004882504088582225,
        0.6441349088240873,
        -0.537467610388456,
        -0.9478048897917408,
        0.8830433369295355,
        -0.3285237379783304
      ],
      [
        -0.713411341840701,
        0.18529089515128003,
        -0.43569262455102276,
        -0.5603070627286881,
        -0.9045032406919257,
        -0.5028680014717944,
        0.9401148697419679,
        0.6429998232236758,
        0.05562799324477074,
        -0.1817002596932856,
        -0.5974545093509597,
        -0.16603098043802006,
        0.39261016752107136,
        0.773963792571415,
        -0.4316821118899497,
        -0.7189259306713659
      ],
      [
        0.9848537441865906,
        -0.003030330414810593,
        0.16367913432714537,
        -0.214557205246865,
        0.9377918809111089,
        0.7087628237164235,
        -0.26555996834838363,
        -0.5960214402338603,
        -0.7318606379572355,
        0.7325920472132597,
        -0.7468942296296162,
        -0.7685281561922453,
        0.8450397983527005,
        -0.8289645335203935,
        0.4334382350180854,
        -0.5644245389075598
      ],
      [
        -0.23468595205279374,
        0.09184821913619781,
        0.9181806017051581,
        0.05781164272889489,
        -0.5294779927811625,
        -0.5427639981659127,
        0.4510645658129158,
        0.9152320043601982,
        0.7157440148029524,
        0.7964439670916603,
        0.12340628949116351,
        0.5880885949341591,
        0.5519186128146969,
        -0.17565564405865083,
        -0.5957466183920197,
        0.7636528736738969
      ],
      [
        0.3079394659974036,
        0.37954890544846437,
        -0.13685070060639495,
        0.19712787543949437,
        -0.8381239058452323,
        0.7771593577575471,
        0.621388258335694,
        0.5499194547809103,
        -0.271922458629088,
        0.765801080716692,
        0.3849981898040277,
        -0.9287818205421137,
        0.894639591320935,
        -0.7372032490023807,
        -0.5912249636936467,
        0.964407374992305
      ],
      [
        0.11608479198637268,
        -0.5017526631008861,
        -0.22559828463340137,
        0.013669204418310129,
        0.3488108765395071,
        0.6902303710521074,
        -0.3501583123147462,
        0.48791869789180914,
        -0.24672264144202746,
        -0.7555644013495657,
        0.7041815652878581,
        -0.21296549866225298,
        0.46369295170517905,
        -0.4419511855376587,
        0.032708792813835964,
        0.5716254172764473
      ],
      [
        -0.1628905677000526,
        0.022741894794634954,
        -0.4326752050097126,
        -0.47440331812249137,
        0.041503097117146226,
        0.5709020233144497,
        -0.38998423443949143,
        0.310539386549453,
        -0.3603304809101018,
        -0.871324159200882,
        -0.19343468201499836,
        0.024564966224911458,
        -0.5925694116722798,
        0.739130175347694,
        -0.20713415104253505,
        -0.7489962085919147
      ],
      [
        0.6307757700537376,
        -0.679151017036785,
        0.13128134148734233,
        -0.8350127022925793,
        -0.06045699625614587,
        0.6195498450019681,
        -0.016140669100153226,
        0.3656184163169431,
        0.06019785316174495,
        0.7346502041114517,
        0.1353086341484421,
        -0.6702060516159564,
        -0.18354916425394735,
        0.4013986193763638,
        0.763836496176254,
        -0.41815715059639746
      ],
      [
        -0.9776211281727112,
        -0.8079937516997676,
        0.02608164971422881,
        -0.9770546424429684,
        -0.9184738277732563,
        0.026006496101999912,
        0.31193940520793206,
        -0.4403824626126128,
        -0.1051017823351031,
        -0.4977105049751803,
        -0.6833684334102923,
        0.38218742164553005,
        -0.09260404653134964,
        0.6612229041148826,
        0.9542277836985094,
        0.011494968434908838
      ],
      [
        -0.9687674507396888,
        0.20176796158899168,
        0.3267181320641455,
        -0.4461747363062262,
        -0.21382811153396566,
        -0.748554117847825,
        0.3615503927619282,
        0.8887818209944108,
        0.027925145754329698,
        -0.8346208340452087,
        0.47616630679661043,
        0.2842277138491572,
        -0.9334513667874982,
        0.464016276836514,
        0.6939832840080024,
        -0.08422648112777395
      ],
      [
        0.08998382835524664,
        -0.2887515124386192,
        -0.18584140681982464,
        0.8946743201918974,
        0.9409358608793502,
        0.8253256899848274,
        -0.315688732150975,
        -0.44865868132770004,
        0.29632429222653656,
        0.7114942421502526,
        0.9737908798578206,
        -0.5548403235189835,
        -0.7207115189703645,
        -0.8845298596265448,
        0.49225918688307635,
        -0.08469197153907242
      ],
      [
        0.928547130313257,
        -0.004365791205721755,
        0.10652460842877136,
        0.14742609553852823,
        -0.48692730194809314,
        -0.5917958252310651,
        -0.1902550466644851,
        0.9239380494997038,
        0.03569559838848429,
        -0.44403070082654056,
        0.36546727689732944,
        -0.4136409286559906,
        -0.3403337215755201,
        -0.043092379638689934,
        0.518357860566289,
        -0.6567953585687698
      ],
      [
        0.11876869910336005,
        -0.428560525563877,
        -0.48828630918181476,
        -0.5822821526258081,
        0.5334013862990223,
        -0.5476806205806766,
        0.040265524775052124,
        -0.5276904802171054,
        0.9647127397367339,
        0.19965398863531025,
        -0.7553718302613992,
        0.6234631635005309,
        -0.8691910538393808,
        -0.8821090403038031,
        0.3316915837350528,
        -0.9974399637731852
      ],
      [
        0.009304067693107277,
        -0.8886445644230149,
        0.5552569839221706,
        0.6713902313292551,
        0.591066813649801,
        -0.7017265245516119,
        0.781809132077823,
        0.6823314378307689,
        -0.5000180348539813,
        -0.2695315867384247,
        -0.5898072139639051,
        0.5037639122871242,
        -0.9009174522806234,
        0.8204288713428737,
        -0.2350881258640005,
        0.339844121116115
      ],
      [
        -0.018937702357241792,
        0.75822476581085,
        -0.06754408466799322,
        0.6927216771836007,
        -0.37852836973523474,
        -0.29020519733880223,
        0.09236742346556785,
        -0.1413136110045438,
        0.8744011240390829,
        0.37602484299815037,
        -0.29810204270442386,
        0.9757878223929175,
        -0.4828543817051681,
        -0.46252403915875223,
        -0.9343353980319455,
        -0.14375632605018168
      ],
      [
        0.147765468144902,
        -0.5207814846022079,
        -0.5241753179787172,
        0.6354708734490981,
        -0.292329434558908,
        -0.9680552213525884,
        0.5708899919695066,
        0.5117443514227275,
        0.4949484518194288,
        0.5126251618941974,
        -0.3021090555566768,
        -0.6090770110285,
        0.4032977826219384,
        0.6751287126416456,
        -0.9519895522307827,
        -0.7921191028586012
      ],
      [
        0.23517800956819465,
        -0.4172224702009615,
        0.5505698957810697,
        0.5047335204241598,
        0.11434069480378532,
        -0.38412302609110377,
        -0.11620055220899247,
        0.2770245644690258,
        0.09334164982993837,
        -0.8817021673045341,
        0.965663138951763,
        0.6095511225548467,
        -0.30529857211508765,
        0.06260533374761892,
        0.8022825018918092,
        -0.26185926029780204
      ],
      [
        -0.3645282764180597,
        0.8908711367961036,
        -0.5609713830630836,
        -0.3819409147298445,
        0.22743174456298143,
        -0.6891961673206015,
        0.9835715130202222,
        -0.6407673108996861,
        0.4921122137568754,
        0.6101074400947734,
        0.45496020237068974,
        0.21545029005112395,
        0.8406863239754298,
        -0.038784864691577436,
        -0.9199688535420288,
        -0.16658532387771616
      ],
      [
        0.12481224092318698,
        0.3887269802561598,
        -0.610046027499885,
        0.4612335745198054,
        -0.5359357404077321,
        0.39232892413695303,
        -0.632140036479192,
        -0.46488130509732406,
        0.6675578003739334,
        0.6965118700112276,
        0.782384342311911,
        0.057590989177007265,
        0.21677255908139312,
        0.1625365996731889,
        0.06905432459305595,
        0.9313808913158361
      ],
      [
        -0.9088637233703678,
        -0.6013611283767857,
        -0.5835797896590011,
        -0.0894441866071093,
        0.4666704572113739,
        0.9820451135861156,
        0.0039728275059068155,
        0.0030364378044239774,
        -0.0810626764439141,
        0.29526894323444597,
        -0.1546425310598182,
        -0.07545983979963365,
        -0.5449847014372657,
        0.07899396864671389,
        -0.7019336537374121,
        -0.007818918895030029
      ],
      [
        -0.6860348830489442,
        0.047762891934865735,
        -0.8025075998280993,
        0.8477814211671045,
        0.4308279203897111,
        -0.10963108553589025,
        0.5672276156759923,
        0.26363844354930616,
        0.5223642353312075,
        0.1830718691658711,
        -0.5763797099890844,
        0.47542732305675306,
        0.08358806912432173,
        -0.9300560445149239,
        -1,
        -0.6182609044998495
      ],
      [
        0.32867906236535527,
        0.6128724547967425,
        0.9677819994359386,
        0.2921326999613041,
        -0.4838078828492188,
        -0.018988283602202883,
        -0.011096136997990938,
        -0.7083532515637816,
        0.714746986760985,
        0.694778475891953,
        0.5870914867447891,
        -0.33133226236831054,
        0.5781300793887515,
        -0.19816528711928813,
        -1,
        -0.6173025683939892
      ],
      [
        0.8513745263804376,
        0.5858334256282365,
        0.7526403676418565,
        -0.6008121065718424,
        0.06522743460447565,
        0.02795475974696768,
        0.8093006951201891,
        0.8102792382910533,
        0.03039557288194976,
        0.4864227618930263,
        -0.7353585149944426,
        0.42056133589356753,
        -0.5161272812322241,
        0.9376655107705676,
        -0.8709292097262857,
        -0.9876446653749279
      ],
      [
        0.3382621983257809,
        0.5187601668553278,
        0.08489120710238712,
        -1,
        -0.6687208099835724,
        -0.4475400416211373,
        -0.44519034208084207,
        0.21509055264420576,
        0.1345265493492781,
        0.7043084240019379,
        0.44546300733229727,
        -0.9178689429003142,
        -0.45142737321122084,
        0.3242485872112982,
        0.628364555914875,
        -0.7250239929265103
      ],
      [
        0.3618451350966907,
        -0.2605990749692646,
        0.4609442093952283,
        0.5287617104100257,
        0.22038598957074126,
        0.09456320816131969,
        0.037884132351451744,
        -0.2658256591230223,
        0.08854020425482477,
        -0.3473862048125935,
        0.9423187273087852,
        0.6253083786023058,
        -1,
        -0.989973610721748,
        -0.6336599127957983,
        0.44416278600919606
      ],
      [
        0.1009208770279633,
        -1,
        0.6889706521237756,
        -0.6393762107084812,
        -0.5407899673738553,
        0.8594935421229848,
        0.5647284775967961,
        0.36127596705474707,
        -0.4018033312967761,
        -0.11533709155524373,
        -0.47834317953569616,
        0.37371335546741724,
        0.22831118654873878,
        -0.30467133469643287,
        0.0908465095453026,
        -0.38319370119565727
      ],
      [
        -0.7550440878374297,
        -0.9010744391664195,
        0.2747633482799228,
        0.6019462401384214,
        0.5377767099689041,
        0.4466430114682561,
        0.8736961420914112,
        0.6280301773595117,
        -0.9584696268176589,
        0.9145822092041337,
        -0.03276575600689198,
        0.08094256627141201,
        0.7750352115927953,
        -0.1960484132359438,
        0.647816830935952,
        -0.7091692725730206
      ],
      [
        0.8421288450183302,
        -0.4816821990311223,
        0.09127188500357467,
        -0.7038084431398326,
        -0.6250098219563561,
        -0.42641966327688646,
        0.8306155941293231,
        -0.18032837680340041,
        0.8712332183862297,
        0.6265693866458225,
        0.18260477702125913,
        0.853191791720923,
        -0.7211186896411133,
        -0.9392169900058774,
        0.8086889420093482,
        0.7500539959594482
      ],
      [
        0.5397709360025126,
        -0.7282206830818243,
        -0.45131241000700073,
        0.8699825834105014,
        0.8832732929737768,
        0.3502733926843901,
        0.8466168889755268,
        -0.9799632688817962,
        -0.13803630728450036,
        0.5563373189262797,
        0.08113188538910959,
        -0.20039751677225418,
        -0.2889154824445832,
        0.8955430258078426,
        0.6340864798519672,
        -0.6223348162892662
      ],
      [
        -0.5625814471595758,
        -1,
        0.8637266404599684,
        0.46954969130895324,
        -0.5873610449033433,
        0.8347520358567215,
        0.4550014676580466,
        -1,
        0.09676015059815374,
        1,
        0.8886554016348874,
        0.9348106264825989,
        -0.07277996147665494,
        -0.5242556840224538,
        0.028073382594348457,
        0.7376420518287626
      ],
      [
        -0.5739232435338498,
        -0.8975878914889548,
        -0.6941750551297667,
        -0.35725618957569644,
        -0.8347420879086487,
        -0.03174971697154661,
        0.1370649504901972,
        0.5107516491566413,
        0.2164314034558149,
        -0.5954144313758577,
        -0.2511870400568766,
        -0.746978124002091,
        -0.21312066984599815,
        -0.7627150581557993,
        -0.037721616179623045,
        -0.27305364354448264
      ],
      [
        0.3025635487028882,
        0.39538421197343027,
        0.7597041656102874,
        0.9924044719939138,
        -0.7409833977959297,
        -0.1268563987745516,
        0.20859717746074571,
        -0.2462323290199336,
        -0.06075593333638,
        -0.5918921825032657,
        0.9152659877683745,
        0.4645241666591263,
        0.9318955104960153,
        -0.8992329656954916,
        0.15808635159142043,
        -0.3132082905699054
      ],
      [
        -0.9989009774507569,
        0.7274872939960358,
        0.864419456244402,
        -0.5744899424567698,
        -0.8945817529554951,
        0.5090694678996279,
        0.667853497987665,
        0.8039334070306183,
        -0.1521844430755349,
        -0.675570139044562,
        0.21408384002143224,
        -0.5854129841289162,
        -0.013319605314866678,
        0.38771936035688603,
        0.35899827166670656,
        0.6401960608334342
      ],
      [
        -0.15363921211876713,
        -0.35275256365237845,
        -0.767346166680209,
        0.7235379364560391,
        -0.4255203662057437,
        0.9948268785648295,
        0.4471032228128661,
        -0.6539036186374402,
        1,
        -0.4634048192060517,
        0.12626220369372332,
        -0.20475836109062018,
        0.7995092948093121,
        0.4003871588355796,
        -0.2088493992079394,
        -0.6105944133510423
      ],
      [
        0.7541897506721876,
        -0.9139801396495916,
        0.02862173009627502,
        -0.6283932078518226,
        -0.9238568753709739,
        -0.25698940907323387,
        0.37792131817408486,
        -0.1709998748678318,
        0.6229442065423278,
        -0.6436331286616452,
        -0.9105095191494025,
        -0.04483812112190491,
        -0.47558219024057413,
        0.7205685762484647,
        -0.24514633646846654,
        0.5357262740403951
      ],
      [
        0.39614462035893905,
        -0.27982614546897894,
        0.7104083778622287,
        0.8198334441740983,
        0.011819955197760875,
        -0.2911426754430984,
        -0.22115675033694288,
        -0.4046347238341537,
        -0.5029594155184096,
        -0.8058887113485955,
        -0.5847952296807609,
        -0.0516581254066069,
        -0.9867905240301378,
        0.19519771966400934,
        -0.733473187821283,
        -0.6436560565243298
      ],
      [
        -0.7553047011235674,
        0.6685087128972426,
        0.6794416936953787,
        0.003917683284209644,
        -0.4442935382298438,
        -0.2624327805489605,
        0.16961430878746028,
        -0.05846157348687662,
        -0.6023785596645779,
        0.5511762533185949,
        0.9341781556194416,
        -0.5114505166625594,
        0.4435920787535816,
        -0.9915326688041051,
        -0.5149389219103451,
        0.40290385701073334
      ],
      [
        0.9805672555163939,
        0.7305792663326987,
        -0.8035206249247969,
        0.6949712484284046,
        0.0687838187190773,
        0.10248655337239747,
        0.7058192751487479,
        -0.6162993020162183,
        0.6341060528865425,
        0.47546220049703675,
        0.07263570121846147,
        -0.8803127464106301,
        -0.27816080997223597,
        0.1911888435339733,
        0.5186479969469503,
        0.6506103833355013
      ],
      [
        -0.6785563535133482,
        0.46540350262849656,
        -0.3881981179202608,
        0.673105702080767,
        0.33819832136448624,
        0.6204641609124334,
        -0.3317080505993577,
        -0.36522631774388364,
        -0.24175139077733027,
        -0.816553903436132,
        -0.8998323530194018,
        0.826871036822163,
        -0.7442768953730694,
        0.06112784326972782,
        0.47924153677681897,
        -0.8647823743381233
      ],
      [
        -0.27616864560072674,
        -0.45327375491052396,
        0.5533270249965553,
        0.6197922703976158,
        -0.7177724478280174,
        0.9267043307590124,
        0.3294923821574035,
        0.6731143449118275,
        -0.3049315995040796,
        0.3650127844662506,
        0.6193332967377535,
        0.10829293786199552,
        0.6450122729807158,
        -0.05917924854252406,
        -0.8909137348616377,
        0.23019942895249418
      ],
      [
        -0.36094234784319795,
        -0.5325395603731122,
        -0.907763446234543,
        0.3884023636521334,
        -0.009632378731310112,
        -0.15970718080190408,
        0.5015529499591731,
        0.9783037477936787,
        -0.5030009305151323,
        -0.21909026232401876,
        -0.157971731720249,
        0.6608132533461878,
        0.6732225578386027,
        -0.9743093665933298,
        -0.07761486454938646,
        0.9170541701814818
      ],
      [
        -0.5539751210318046,
        0.41743416199965006,
        -0.5510768527209228,
        -0.7416479469034186,
        -0.2881526848245912,
        -0.0895419619115498,
        -0.33836187040027665,
        0.4557484658817041,
        0.31864310015406905,
        0.4296700449526953,
        -0.018037581575386614,
        0.6564706669692114,
        -0.7641243243791905,
        0.08950457448153455,
        0.6449631665736082,
        0.4435566148831711
      ],
      [
        0.5317070117133911,
        -0.9769842226093158,
        0.4566117066101743,
        -0.15970009251428902,
        -0.8145233418709825,
        0.9208285802106045,
        -0.38647520633651583,
        0.8546461907078633,
        -0.43065855061720804,
        -0.3311995287040565,
        0.1058333798814653,
        0.9701430501262773,
        0.9287893365699189,
        -0.28658257793984815,
        -0.4856522979745477,
        -0.6156851610047656
      ],
      [
        -0.05533090837170546,
        0.18281285973265796,
        0.06364341192726451,
        -0.694859490751996,
        -0.6437084747559593,
        0.7315075988416382,
        0.6868173436488644,
        0.09796078219727053,
        0.46355546416285937,
        0.9499428622265946,
        -0.862105719416731,
        -0.4111252714247626,
        -0.29991125190848855,
        -0.5644601549194013,
        0.6284502181936079,
        -0.8396139144059399
      ],
      [
        -0.4313602375015568,
        0.06070697954992924,
        0.4666054115494175,
        0.3035285596167329,
        -0.7987659782273672,
        -0.6318684781298108,
        0.803593371384793,
        0.034275772304768984,
        -0.899522328990825,
        -0.8869362556254173,
        0.01673342318059127,
        0.05811627717725669,
        0.9165200928149173,
        0.44470373248204587,
        0.4981150651211597,
        0.3188167170567639
      ],
      [
        0.9033017744362404,
        0.87448866055514,
        0.4771669213682659,
        -0.30553821757686705,
        -0.10451695732517426,
        -0.7097449073829034,
        0.8074495098135288,
        -0.37325887534225616,
        0.87089217161685,
        0.626496988274598,
        0.07269221268400065,
        0.20657083545631055,
        0.3784463546096094,
        0.04156967526894255,
        -0.06739139666490325,
        -0.32376613649690295
      ],
      [
        0.6125547973917768,
        0.4606680643367754,
        -0.5581117037216856,
        -0.5500034061217562,
        0.7716531864162681,
        -0.46282221987104166,
        0.4934132527285453,
        0.4290566656027579,
        -0.040636476619737204,
        0.6501156055901244,
        -0.5190607764244455,
        0.010565956161395702,
        0.9920499730031065,
        0.35167549617334004,
        0.4608143915170842,
        0.7226587568652072
      ],
      [
        0.3528990772463222,
        0.014775925399015625,
        -0.809063458295803,
        -0.6521322045087039,
        -1,
        0.8444094635332732,
        -0.8389240896032099,
        -0.3492545645798949,
        0.03711015489694421,
        -0.8323321124723456,
        0.5270776391568084,
        0.14519437282565498,
        0.6426015861168776,
        -0.2860265523119341,
        -0.9819488810242691,
        0.6875146541999326
      ],
      [
        -0.2944159518539954,
        -0.021423913776165097,
        0.7768863865469245,
        -0.022405613652591045,
        -0.21973280325175046,
        0.004583620248302708,
        0.47628415359917886,
        0.03384466148573713,
        -0.7730856312878459,
        -0.49617019788845873,
        0.5336330493689841,
        0.9950461816175518,
        -0.040409613929442666,
        -0.8560384855268833,
        0.06712040015947453,
        -0.763223335388915
      ],
      [
        0.761371114108444,
        0.421926486577136,
        -0.9392542824086508,
        -0.1295034467069063,
        0.10926993427063632,
        0.8852546949978983,
        -0.9978429523171826,
        -0.7835131437151832,
        -0.14345146401660128,
        -0.5426697541286306,
        0.2750484546701131,
        -0.8655055363640978,
        0.20238198478591962,
        0.5003048261887844,
        0.028202866744540315,
        -0.3698174303109622
      ],
      [
        -0.9660630957154436,
        -0.9257916275087823,
        -0.5158830798064056,
        -0.5584583681846771,
        0.9170453504880591,
        -0.7121943963397231,
        -0.5650387205610167,
        0.9596048521575047,
        -0.49582501883028646,
        -0.33678602056585766,
        -0.4410694749840152,
        -0.7195029028609377,
        -0.443072433374339,
        0.3081808718318741,
        -0.277582425606431,
        0.2778139564259071
      ],
      [
        0.9147769255946663,
        0.01644232213815248,
        0.5734649957842975,
        0.8023375103913164,
        0.45757766235590164,
        -0.47002698562274325,
        -0.056020826761265595,
        -0.8951599249413034,
        0.7730853469295851,
        -0.6000990081323544,
        -0.4905528519886582,
        -0.878408748317261,
        0.13627882178073786,
        0.6517735584816584,
        0.32294452391248357,
        -0.8745322492492127
      ],
      [
        -0.5061900300027551,
        -0.9033112421523263,
        -0.7232341859480036,
        0.2007208943967315,
        0.15287871808795006,
        0.3098371560462539,
        -0.4896871346758038,
        -0.37705995512754326,
        0.6987649127582299,
        0.8205789296297534,
        0.32921101736697783,
        -0.020416688599237294,
        0.5484307529951614,
        -0.0745392019596302,
        0.38589899624997637,
        0.27583045565873293
      ],
      [
        -0.8565391088797165,
        0.5941360104205617,
        0.19998189675605785,
        -0.07750839974614987,
        0.3503789561460284,
        -0.8208547961125563,
        0.1221623401510964,
        0.7258495663176301,
        0.2827092669863211,
        0.8770875081600916,
        0.5359257926386627,
        -0.8263206313972207,
        0.30222554700552756,
        0.13934101085216635,
        0.684764500048143,
        -0.9434863435809092
      ],
      [
        -0.9149693292952875,
        -0.95979783707443,
        -0.6684391542544786,
        -0.5414530607594804,
        -0.19471078450151802,
        0.75377033991095,
        -0.18703013595012158,
        -0.3860690318228626,
        0.45027006091317967,
        -0.6273361550367421,
        -0.5108131221543596,
        0.14912092658761533,
        0.049033227242035286,
        -0.5082904915316145,
        -0.8045483610474051,
        -0.8765963370789326
      ],
      [
        -0.2300001972096982,
        0.3969963353582153,
        0.3172173509207181,
        0.27162517537445074,
        -0.3735560313752633,
        -0.9396638061570187,
        -0.641307464299939,
        -0.06029416110277348,
        0.773396404892547,
        -0.2366568133507885,
        -0.33778171694069625,
        -0.7244288895573675,
        -0.2782309205710193,
        0.8029511139377656,
        0.8421608137284541,
        0.68872040061395
      ],
      [
        0.14155471659628227,
        0.21202472283938575,
        -0.5314043842286533,
        -0.19857320200442874,
        -0.4012441904044271,
        -0.9477009071963122,
        0.861664858075393,
        0.24208086122867872,
        0.03932291309336152,
        -0.060509329236901624,
        -0.8849331558560786,
        0.9082518659622936,
        0.8468262443459188,
        0.08272812305109387,
        0.18546927088560825,
        -0.2644706909819206
      ],
      [
        0.72958232981588,
        -0.3494041792441134,
        -0.7436816820215059,
        -0.610637690695286,
        -0.619045212569375,
        0.45439028017196476,
        0.5198211855289825,
        -0.5703519790616931,
        -0.8175519691382979,
        0.2566126104597363,
        -0.8560967201045522,
        0.9205437526226129,
        0.09890213480848299,
        0.6830232259313619,
        0.11243964451419855,
        0.5941796957905844
      ],
      [
        0.03640020285145601,
        -0.6212219876598825,
        0.28562094126617504,
        -0.9612995939757656,
        0.959615210623225,
        0.7218653993970602,
        -0.32499007231962496,
        -0.08364436280055317,
        0.6520878056237235,
        0.22216294673486744,
        -0.4986375380902206,
        0.7739303277966649,
        -0.9231618068894726,
        -0.12656799060162757,
        -0.979572934193588,
        0.47793401853743256
      ],
      [
        0.2962238122145102,
        -0.8819518342286546,
        -0.6418775946703872,
        -0.9469005113698034,
        0.17966499180531414,
        -0.5531408847428927,
        0.5628943036382509,
        0.9058054723217579,
        -0.6760619879752995,
        0.7454780636486461,
        0.2798203325577575,
        -0.47757225208233434,
        0.43224927723770384,
        0.007529023710907279,
        0.5506328758511764,
        -0.10993861125155964
      ],
      [
        0.643065772648076,
        -0.9300926739310085,
        -0.34396810504341335,
        0.12447699691649877,
        -0.6436955145086374,
        -0.9434024215762868,
        0.5676756693257143,
        -0.87707587486937,
        0.8498196510961744,
        -0.6595027312493246,
        -0.32846267749984087,
        0.45945294780953577,
        -0.6995943010089855,
        0.24703666526442553,
        -0.34801615243028383,
        -0.6193008583106159
      ],
      [
        -0.5389409420703598,
        0.48135480221183186,
        -0.4487373232913168,
        -0.9033425819957052,
        -0.6259551101529192,
        -0.1570478763597666,
        0.12293253059601325,
        -0.567696819160937,
        0.7636395823774677,
        -0.6137477855900959,
        -0.08588054663002746,
        -0.5511237882157316,
        -0.017309747667894032,
        -0.2123674167023219,
        -0.708997087477105,
        0.8459933249355815
      ],
      [
        -0.6814908293664016,
        -0.5308452470173579,
        0.1301773026632553,
        -0.12687765642920007,
        0.27940351972256944,
        -0.9433910537840127,
        0.10087633444831526,
        -0.9009495099443052,
        -0.8493729944105529,
        0.701438642745158,
        -0.8997506066735672,
        0.6156740651346777,
        -0.6133798227648832,
        0.5808408508883921,
        0.28641305003266393,
        -0.8482363865804918
      ]
    ],
    "biases": [
      -0.9446543881882199,
      -0.535255456342886,
      -0.09337213447124848,
      -0.03425796005619987,
      -0.04214495583915725,
      -0.26034443447476735,
      -0.5553989246133836,
      0.031133567375546633,
      0.631714706487249,
      -0.18181710470112425,
      0.618142883706996,
      0.8764349828099173,
      -0.775759928285967,
      -0.8547698998705723,
      0.47071138653079486,
      0.37411165997002127
    ]
  },
  "layer_2": {
    "weights": [
      [
        -0.5231838995367096,
        0.30548328829016835,
        -0.40796913177904204,
        -0.6030412672812259,
        0.4571234385186998,
        -0.266706111320717,
        -1,
        -0.8526343618924056
      ],
      [
        0.5159691676345112,
        0.42089232830519163,
        -0.712314906280132,
        0.637613001911918,
        0.3124100956046191,
        0.9048634864464812,
        0.2538895374094048,
        -0.9504615726898424
      ],
      [
        0.4725604865179185,
        0.19065242810664898,
        -0.4289304581052021,
        0.21004022213996443,
        0.364638115633802,
        -0.8903585085155727,
        -0.6269025012094481,
        -0.624696013734638
      ],
      [
        0.25720396808383045,
        0.2949408431799978,
        -0.46673582170188027,
        -0.4677345746351336,
        0.6149305941544843,
        -0.5616559540248155,
        0.12499938980240266,
        -0.6900212024288723
      ],
      [
        0.04726215435979168,
        0.3263826736856307,
        0.35546334271441377,
        0.2315055997755369,
        0.9428893986509431,
        0.25323837353484435,
        -0.15491165276311497,
        -0.391306425594083
      ],
      [
        -0.29337892249239955,
        -0.5794743539230545,
        -0.305276006437567,
        1,
        0.06581277155972996,
        -0.004162980451998306,
        0.7597477859611108,
        -0.6487011109029033
      ],
      [
        0.7598048354200776,
        0.5986040664289158,
        -0.38568528543273894,
        0.06539069707763147,
        -0.5707511542560406,
        -0.023196453917316253,
        -0.7790090086560698,
        -0.8328792251844389
      ],
      [
        0.9251204998823037,
        -0.6027645018505214,
        -0.8355873798339853,
        -0.6411107700549662,
        -0.9432402421034454,
        0.5291347016242409,
        0.9574761170644668,
        0.7674597606524717
      ],
      [
        0.6590069621037495,
        0.03683560311282496,
        -0.3689345299433022,
        -0.08175204158452246,
        0.719611159061212,
        -0.9572820835779887,
        -0.99855483219424,
        0.36973064549783985
      ],
      [
        -0.7267525493266811,
        0.04428920858682141,
        0.8807131384543955,
        0.2549503073922793,
        0.17776448249375215,
        -0.9116275657732014,
        -0.9750200321796086,
        -0.4425368155451999
      ],
      [
        -0.36650146741374084,
        0.3780992633526353,
        -0.2712650585674046,
        0.821398529831762,
        0.72645243130527,
        -0.3623274977439353,
        0.45792076121417136,
        -0.6630495645884146
      ],
      [
        0.3598428675919898,
        0.9278453943144348,
        0.491426309369928,
        0.7599828881039747,
        0.28793276589431743,
        0.24668257898085416,
        0.10532545140448372,
        0.8302845945227137
      ],
      [
        -0.14006347035974667,
        0.4335054269182123,
        0.6730692257354294,
        -0.825379046561763,
        -0.67700257495159,
        -0.7318409841096749,
        0.8036743393403564,
        -0.5802387802300257
      ],
      [
        -0.8018780319718305,
        -0.1719626682362623,
        0.5320024045632583,
        0.30125374023752477,
        0.6206895638632494,
        0.82357888709053,
        0.9171171445679499,
        0.6269688996940956
      ],
      [
        0.39171169623504776,
        0.8314269022703918,
        0.4703149001065813,
        -0.30178441253855554,
        0.04425411267620975,
        0.6640821917962243,
        -0.1938620069240611,
        0.008980425696017426
      ],
      [
        -0.228358659481496,
        0.10801468607019908,
        0.9736801971714011,
        -0.45667290530027355,
        -0.9857479537539542,
        0.8055806597986694,
        -0.21171869922773662,
        0.7067064928653085
      ]
    ],
    "biases": [
      0.5702977199469486,
      0.9470227966569724,
      0.2179648032128863,
      0.2287786141975299,
      -0.1365544256556478,
      0.3790463699156991,
      -0.024582139638855183,
      -0.42494798053678445
    ]
  },
  "layer_3": {
    "weights": [
      [
        0.22952619053118753,
        0.15063445919580368,
        0.253068196314711,
        -0.10234147511372298,
        -0.32589640091031225
      ],
      [
        -0.4138741176810731,
        0.5663136464240626,
        -0.8263734842849483,
        -0.7821180730949064,
        -0.9024673746678205
      ],
      [
        0.3087176395576444,
        1,
        0.224298974674929,
        0.6196483391919436,
        0.39220844806343885
      ],
      [
        0.4344167860094821,
        0.7768476011780503,
        -0.7489285501358458,
        -0.40551292508719167,
        0.19086155175563857
      ],
      [
        0.5358293045681197,
        0.02716861641063713,
        -0.6410104917162978,
        -0.06749683455019749,
        -0.3566042700766143
      ],
      [
        -0.9755606927704019,
        -0.1629473345147801,
        -0.6029362141327445,
        -0.8319242575722632,
        0.6484563800741312
      ],
      [
        0.7103578169457678,
        0.6313866987006792,
        -0.6943913728551115,
        0.3453303845172697,
        -0.9621738384358279
      ],
      [
        0.5144340411600069,
        -0.403464192911641,
        0.7011296354576788,
        -1,
        -0.866358627052683
      ]
    ],
    "biases": [
      0.906769113364941,
      0.720407899028362,
      0.6920746091432544,
      -0.8680944696931651,
      -0.05648027306094784
    ]
  }
}