{
  "layer_0": {
    "weights": [
      [
        -0.7174084530993754,
        0.1585626415725241,
        -0.057080190530752084,
        -0.47265595731735077,
        0.02819985790500601,
        0.4066387778688483,
        0.09529093096460617,
        -0.5499831265613633,
        -0.5277883522628417,
        0.38778865472074675,
        0.8094762869658381,
        -0.884162410355499,
        -0.11909769769496581,
        0.2955501405802834,
        -0.4928645381169383,
        0.031216230903854614,
        -0.03965630276939325,
        -0.08012665254678808,
        -0.571480438502693,
        -0.6563859686519398,
        -0.13633261995653534,
        0.31585596307805597,
        -0.42855798705301895,
        -0.8469737840333396,
        -0.7718688400596683,
        -0.16727269612548246,
        -0.8789324260676643,
        0.7844992005914151,
        0.45420213658882114,
        0.48862892818468917,
        0.8781790309602722,
        0.5896436979056265,
        -0.8717083128555634,
        0.8179131398625112,
        0.19846970750919346,
        -0.08829462975565505,
        -0.5689859996418769,
        -0.12163968577407891,
        -0.20954307383547022,
        -0.5042976549914737,
        -0.41874193721059294,
        0.6671657128445592,
        -0.22510156282004523,
        0.900342612664333,
        0.4818869697334438,
        0.5846120354210718,
        -0.235052445721458,
        0.7980885108571143,
        0.26130121635844317,
        -0.4823321477690974,
        -0.33238433796843525,
        0.7641547484575271,
        -0.8163817888951883,
        0.5343717925116884,
        0.5441382666831531,
        -0.789923805187339,
        -0.5126055647920218,
        0.8884678097970495,
        0.25532840340279095,
        -0.02206215615924667,
        0.29354341425260744,
        -0.47334118557894334,
        0.5035608129310849,
        -0.508558390531759
      ],
      [
        -0.2762804877062963,
        0.5221907156020449,
        -0.44912567119791813,
        -0.07025968613465805,
        -0.6039118070910559,
        -0.3358994861694835,
        0.5012162365610433,
        -0.4773446125648828,
        0.7238344388105655,
        0.04760484191893344,
        0.8913215444841047,
        -0.8173890030465676,
        -0.3322400161649237,
        0.5911267474466306,
        0.022870262370609407,
        -0.7159428541220973,
        0.04030106859674554,
        -0.2025225265744668,
        0.5993276403226835,
        0.2786649681720481,
        -0.5971988917117435,
        0.9735231950416767,
        0.7380063513667403,
        -0.2955336054831299,
        0.42281532593486193,
        0.7539419560656375,
        0.21529118261079816,
        -0.7361527867694415,
        -0.06152193297409281,
        0.46412358720331315,
        0.2967314837254642,
        0.8167027589382205,
        -0.8776241201806385,
        -0.7934562472357496,
        0.07805544626637584,
        -0.7748968887833425,
        -0.5527070024305609,
        -0.4831862347226954,
        0.25706774321413217,
        -0.5787639479854614,
        -0.9981012623956413,
        0.7637800858296862,
        -0.6114753941587359,
        -0.9982440727034068,
        -0.7187489425784421,
        0.9531241230712941,
        0.9889918690865735,
        -0.7642688773596624,
        0.7141919131695735,
        -0.22493297482233232,
        -0.6570986007146586,
        0.2988876335105901,
        -0.6814778094541876,
        -0.802175030072753,
        0.1097078940034939,
        0.7351564524284973,
        -0.20190802298603105,
        -0.47620343381014774,
        0.9582714954664169,
        -0.8016810561170156,
        -0.6027624819346551,
        -0.19946489519342192,
        0.024735266392198474,
        0.11202882548752835
      ],
      [
        -0.6523875072279066,
        0.27307122055531385,
        0.5454179040274405,
        -0.7543693353800642,
        -0.43884691049717994,
        0.7000131072557287,
        0.8389143411147664,
        0.9142203142699972,
        -0.7664306804894123,
        -0.6435758204093083,
        -0.869993360647882,
        -0.15268120114833827,
        -0.011234713598685886,
        -0.3856903456315597,
        -0.5848279245469084,
        -0.6423401229765684,
        0.26965395421134075,
        -0.5398012328649116,
        0.23329596900895688,
        0.8717610197383696,
        -0.11016932458191153,
        0.037637950608322424,
        -0.09590467518187151,
        -0.0046002444448287605,
        -0.07639521204095123,
        0.31953874970280505,
        0.8436907576167574,
        -0.4568544503116514,
        0.26665240789031786,
        0.9276956470571986,
        -0.15187220450260952,
        -0.27340452622830336,
        -0.3017415070784726,
        0.21974776154739395,
        0.034867165354941054,
        -0.9881714599613753,
        -0.5795261406417027,
        0.056632451051854105,
        0.018543914047131516,
        -0.5689444114187929,
        0.039080102305810716,
        -0.7239005452621543,
        0.03068316791539627,
        0.837723029976863,
        0.1823746281298786,
        0.34708540210774963,
        0.13721630838030285,
        0.6080156065307982,
        0.3949703198388774,
        -0.7334623249485299,
        0.757817165359413,
        0.7033973570047165,
        -0.3019019627006079,
        -0.927558705806492,
        0.057090017398662374,
        0.47433732666794604,
        -0.10086540921663145,
        0.7029954882107556,
        -0.06051302459207952,
        -0.6406573711864791,
        -0.44288930223960365,
        -0.9943233957143853,
        0.5125783889442805,
        -0.7143188481612868
      ],
      [
        -0.15376184354080924,
        -0.12350385459957836,
        0.7635480069824712,
        0.1355105366603766,
        -0.8598428749668601,
        0.06683315489787667,
        0.1788258837698118,
        -0.27654489691850204,
        0.18277698701150924,
        0.18170098596019346,
        0.4364821047976517,
        -0.11337887295351301,
        0.45619936052696586,
        0.20130693114488762,
        0.3970983640789121,
        -0.6541028724800204,
        0.8747361682863133,
        0.45594689461464966,
        0.7593053027973737,
        0.8518337514468519,
        -0.5244039557608835,
        0.6495119724611436,
        -0.09428041202831805,
        -0.6849072702073506,
        -0.08910063722851103,
        -0.0664976215855233,
        0.7749679472815292,
        0.8443133133054963,
        -0.6183998401298241,
        0.20201447231812608,
        0.04856188643129844,
        0.7670635374074268,
        0.3374635182867918,
        0.5169018490594655,
        -0.5883249377211428,
        -0.6506258348973024,
        0.32779112913615527,
        -0.4038373269983728,
        -0.17135003751418054,
        0.11646721505703406,
        -0.4076838833987537,
        0.6897960676378001,
        -0.37315647857246925,
        0.12517027078890397,
        0.518241973809207,
        -0.7081292499177978,
        -0.7911682244391838,
        -0.3796613005303573,
        0.44834418007568044,
        -0.08102858664198953,
        0.7253638303786527,
        -0.8614646452217103,
        0.1680614385819421,
        -0.3823268525428489,
        -0.26671406352677596,
        0.9236397456958669,
        -0.28650839309996723,
        0.9130715557371591,
        0.8883263292608636,
        0.6939220638759256,
        0.3722105283465682,
        0.35653775711201496,
        -0.6802679682025887,
        -0.2696359649011886
      ],
      [
        -0.9829858867427832,
        -0.43268933823505806,
        0.6929143096516721,
        -0.39134833158208515,
        0.599435539823298,
        -0.12167604262510956,
        -0.6164599764342535,
        0.2512375160648299,
        -0.9926012619069933,
        0.8778899617906601,
        0.1392703614962847,
        0.8067915132243104,
        -0.8566938616885393,
        0.9346453103525907,
        -0.35688822305182955,
        0.5024079689015561,
        0.6661144404688071,
        -0.8154117503961225,
        0.3021066749002841,
        -0.6041539665605586,
        0.12636795721748006,
        -0.46108613864752335,
        0.7295025401303195,
        -0.5228692413530738,
        -0.7240043746616169,
        -0.2839608659171391,
        0.501362586824381,
        0.4641502885753881,
        -0.6809563429880805,
        0.111413202364258,
        0.22663658557953847,
        -0.5468253681509643,
        0.07032675832415691,
        0.7813787321839538,
        -0.47684947712112935,
        0.924726734471033,
        0.290449160750911,
        -0.8228742074520625,
        0.7113862466325884,
        0.7002795422141928,
        0.29255026354755054,
        0.37871600542783135,
        -0.4174789841428661,
        0.2552218808621207,
        0.6808955335008036,
        0.16133774912704513,
        0.5415061100916303,
        -0.10191420401326456,
        -0.17484557552764501,
        -0.5273462194928096,
        -0.13612842576211515,
        -0.9534053290747426,
        -0.6896564687979225,
        -0.8243171212814961,
        0.7096732920226965,
        -0.3072790403017498,
        -0.3243041239779241,
        -0.4466453837197073,
        0.8499408206229233,
        0.9835992483724083,
        0.1945666278265934,
        0.5442148291284934,
        -0.8127148108397477,
        0.6620631942564799
      ],
      [
        -0.04270644187697159,
        -0.8705836297836222,
        0.3839671835615175,
        0.6294377438579872,
        0.5206253052197767,
        -0.8169854881740346,
        0.52271941193782,
        0.9635539128681307,
        0.46540361536805785,
        -0.29943234718342193,
        0.060115991357640564,
        -0.9991952646522679,
        -0.31756203763594715,
        0.13613771336049885,
        0.4176333438018509,
        -0.7539146805714307,
        0.5435273019704443,
        0.8926820431417148,
        -0.47534010225669276,
        0.3551859869760441,
        0.45495059882665534,
        -0.46546891340519525,
        0.48998200927247404,
        -0.07470582740774834,
        0.8834008946016279,
        0.040620320200862814,
        -0.5531374788501535,
        -0.015845581712811363,
        0.5483747112047435,
        -0.8540450095089056,
        -0.9189150026344015,
        -0.14432715177183852,
        -0.2923530110273356,
        0.8952369262073163,
        0.9393975171041469,
        0.1515091819709431,
        -0.5155134031719077,
        0.3431352844703668,
        -0.28747812332960687,
        0.13484577767785044,
        -0.6752938261493859,
        0.9516984889362265,
        0.9929788252970928,
        -0.24734991981488386,
        0.08965008553608556,
        0.3826896600909788,
        0.09536416914525025,
        0.26478955463818554,
        0.5423477854975063,
        0.07487186394907996,
        -0.5349451647876031,
        0.1373376210370325,
        0.32455875478496665,
        0.550360564494673,
        0.22169412092493657,
        0.6734502100146535,
        0.2034199844409208,
        0.7097436650166895,
        0.8940269676833321,
        -0.6179219266789788,
        -0.027556679970008435,
        0.21274678134684022,
        -0.3087720818200006,
        -0.7113955606022573
      ],
      [
        0.7733073266316433,
        -0.9077639375397277,
        0.2699249508647148,
        0.6653889344949881,
        -0.1928536814096442,
        -0.41086995792397185,
        0.39519524505196846,
        0.08104647827896039,
        0.17636213595124306,
        0.360949463696574,
        -0.1929074894358478,
        -0.30949490204196084,
        0.31350228238524025,
        -0.7483796941679688,
        -0.4020880460154568,
        0.3745829456780274,
        0.380240838707421,
        0.8075777693929349,
        0.43765911727637086,
        -0.620280596203882,
        0.7027079909804592,
        -0.9640658886298072,
        0.7374910207678638,
        -0.8377390789276009,
        0.06313647710229486,
        0.4384916389414786,
        0.011680715150217402,
        0.6887556333429121,
        -0.42226591161549454,
        0.9430422090893511,
        -0.290815156056315,
        0.6386356843158976,
        -0.11142383115083332,
        0.17453637021406943,
        0.8793896972107744,
        0.6583772550475131,
        0.15150161909837334,
        -0.34615244720967553,
        0.12014728519573104,
        -0.304446756566753,
        -0.9104382885933975,
        0.37941201134774416,
        0.5806895819302065,
        0.10127173637760833,
        -0.5041069236119735,
        -0.31298240305233116,
        -0.029726367876866222,
        -0.5225788795473383,
        0.969412996515195,
        -0.8918167998493907,
        -0.564127103643782,
        -0.020676957365244775,
        -0.2181490274092306,
        0.5708058275243626,
        0.5704210175062343,
        -0.011070008784093588,
        0.9524443558438498,
        -0.009001785082139113,
        -0.7464930156364473,
        0.7511596754420276,
        0.9780448400917419,
        -0.48255709925633883,
        -0.6649478130745465,
        -0.32060007392636924
      ],
      [
        -0.6889672414387003,
        0.39334642816947873,
        0.05639898215801842,
        0.3525383838700056,
        -0.762865921368493,
        -0.1281817660081639,
        0.9205328390533927,
        0.6743260935953623,
        0.8497558432360017,
        -0.6177222604202592,
        -0.9798640305431205,
        -0.547065973260842,
        -0.7863531654020339,
        -0.04960107378613987,
        0.14365406576415563,
        -0.360264206685041,
        0.7788690911863743,
        -0.9238758667024278,
        0.5180209722404352,
        0.9449240411609174,
        -0.9558293292872626,
        -0.237564311442779,
        -0.12561718053701343,
        -0.5412701340165078,
        -0.537831213459967,
        0.5828563612263227,
        -0.38264207372304826,
        -0.9554436292978634,
        -0.883998515399993,
        0.14157252476815407,
        0.63512556950161,
        0.8622988538409553,
        -0.6758068599917522,
        0.3764121113084187,
        0.7325376612401813,
        0.3683396436392463,
        0.2734540551652025,
        -0.49990329795091215,
        -0.15712693539587397,
        -0.18093664508543528,
        0.11096527172273385,
        0.5501057861088581,
        -0.46308052358578955,
        0.5274475197760808,
        -0.05253370928154766,
        0.021852309738012554,
        -0.35703038351286964,
        0.5839248142027169,
        0.23450952271456416,
        -0.3803952109725899,
        0.012249923534227714,
        -0.30381012493987103,
        -0.4926260436525294,
        0.8376998057370248,
        0.021788230440390022,
        0.05021040448447023,
        0.30902127482962305,
        0.10363066985749514,
        0.5130149854721979,
        0.6810618164192557,
        -0.9146077105119119,
        -0.9656374698724286,
        -0.4363330681430859,
        -0.539056350612632
      ],
      [
        -0.057005629140330916,
        -0.6146522812329336,
        -0.056727834781944875,
        0.9173058473776663,
        0.6493617814768646,
        -0.4732174206937869,
        0.2306854125757194,
        0.05109400807428788,
        -0.0652684588783159,
        0.945280283252655,
        0.04118962854702235,
        0.5104229818788961,
        0.31707549672898905,
        -0.9693687024818605,
        0.9147214926004363,
        0.6533239875424877,
        0.741653350102002,
        0.48736884141840964,
        -0.8109373724779025,
        -0.5934032562804956,
        -0.3820106041564346,
        0.4753413704817997,
        0.28548592484518776,
        0.5892159829456378,
        -0.32426121711081435,
        0.15708003847985186,
        -0.46119522458390505,
        0.6161204548371895,
        0.9750051377193332,
        0.5005279656708619,
        0.6384350998804855,
        -0.17302727333490586,
        0.9481780609722847,
        0.16615448371331265,
        -0.2621735856100269,
        -0.5457046101746197,
        -0.3164289035383101,
        -0.8982172537925239,
        0.5458690589094644,
        -0.34589834972375,
        0.44617935340722115,
        0.810158583661442,
        0.7387677417982759,
        0.5226121249364457,
        0.6036012133207285,
        -0.7725052953413107,
        -0.5492305457434368,
        0.10954274949008269,
        -0.9545777381144587,
        -0.9378857747645335,
        0.5971098168006423,
        0.664214077076851,
        -0.3354641166247323,
        -0.9280621752554485,
        -0.3057897116033541,
        -0.28875773720695896,
        0.03813298673857002,
        -0.325060511716323,
        0.26645016046194403,
        -0.943825092829035,
        -0.5208174520927173,
        -0.21277670339324595,
        0.45388773078045186,
        -0.5436030029508105
      ],
      [
        -0.12341723508731905,
        -0.37360681070767243,
        -0.49720135894981854,
        0.2735990749818178,
        -0.48801738109657333,
        0.6936060348761264,
        -0.001537041930566474,
        0.9268732834822067,
        -0.9979764411293093,
        0.7892429754313872,
        0.4156197546263074,
        -0.408900095673713,
        -0.6373041326555682,
        0.10020696480150892,
        0.8925825755160404,
        -0.4052423651451338,
        -0.00017380394333077476,
        -0.6017662347865416,
        0.07833036971823071,
        0.8511058775568052,
        -0.9755218398889849,
        -0.7283785983006217,
        0.4591772128010694,
        0.60291991589818,
        0.39674755363680925,
        0.45403777371291354,
        0.09587719907831183,
        0.08150191828659503,
        0.19146117656489614,
        -0.8065136444635228,
        0.2145605213574011,
        0.09742485910122656,
        -0.5212219515459557,
        0.19062170366585818,
        -0.10034253948258076,
        0.575106073104461,
        0.7671943168290145,
        0.2741542006020381,
        0.5116698948240186,
        0.9320155860786532,
        0.22164407781825046,
        -0.7238746454435987,
        -0.44361330235450436,
        0.5495057432381618,
        -0.33845716144447624,
        0.8487254810385543,
        0.49809198322125803,
        0.9462671585179498,
        -0.7071185678421945,
        -0.2782520674350777,
        -0.9731427418587593,
        -0.20897469365993904,
        -0.9598314089115787,
        0.40329757840207137,
        0.7572969058750199,
        -0.2824600050400301,
        -0.9232108897603715,
        -0.2385306842020598,
        0.8233090116121762,
        0.921515939085189,
        -0.06347221224253952,
        0.2820559569964116,
        0.7830868301588014,
        0.8185599690928385
      ],
      [
        0.5171750486009352,
        0.6069603302823261,
        0.20999716332195062,
        0.18585272625169114,
        -0.8937423643297788,
        -0.33596371974331785,
        -0.0534015882768768,
        -0.3728819857787091,
        0.41807143881863307,
        -0.6468348632881467,
        0.9515420864866155,
        0.8171722071652123,
        0.036889501670030356,
        0.921002919877193,
        -0.5373016976421934,
        -0.9485310369544071,
        -0.6685882355551847,
        -0.6500745880342378,
        0.7648349045169813,
        0.8459296733125663,
        -0.2558853821761986,
        0.4648769601469456,
        0.32427290125361563,
        0.7617775533385296,
        -0.8089135434706256,
        -0.9678303747162436,
        -0.5895080196727889,
        0.6503359307693624,
        -0.9136783667643724,
        -0.9360171109158175,
        -0.5854489927468045,
        -0.3869672336220664,
        0.40607632821284123,
        -0.6603172310691923,
        -0.2817717490837064,
        -0.00722054279329809,
        0.014624418545697626,
        -0.8701816629264914,
        -0.27226321715625357,
        0.7410530262724784,
        -0.9648602525948748,
        -0.4233298391164606,
        0.3790812929477281,
        -0.9713024504044094,
        -0.7252920693415592,
        -0.5660926974745537,
        0.20212207710210284,
        -0.8393905813844926,
        -0.596319687199016,
        0.41275246831204737,
        -0.7278216977869292,
        0.8641926742000958,
        0.5673067527024787,
        -0.34349019893717325,
        0.33717065764969156,
        0.19411836231038015,
        -0.15975654045955978,
        -0.15798125625975756,
        0.47875637132037085,
        -0.6193538992096019,
        0.08328760633550569,
        -0.7077098454232063,
        0.6249067359896521,
        -0.3931115788884263
      ]
    ],
    "biases": [
      -0.4541325177088271,
      -0.8153968191687342,
      -0.11736134592657255,
      -0.591364266676903,
      -0.29463895852213073,
      0.12398083832619133,
      0.06854686101871876,
      -0.39275092945551027,
      0.6324171289572631,
      -0.06509650004713263,
      -0.5633038750448258,
      0.8973157709607464,
      0.9836536798992286,
      0.090955082936935,
      -0.05197904072005022,
      0.7366305833461255,
      0.9246176323916357,
      -0.3194582312657219,
      -0.020469288825150755,
      -0.6812420147949476,
      -0.48950073924009874,
      -0.7697072524869024,
      0.6985312593314448,
      0.12396147523651946,
      0.8159956375158874,
      -0.16650962959876003,
      0.6652632212620582,
      -0.3565505554125794,
      0.1966135727492513,
      -0.2700374521832858,
      0.3076972006380858,
      0.5092305160506676,
      -0.2907009072500617,
      -0.2341763484073709,
      0.019822943712332286,
      0.26397170224282207,
      0.24940777541308012,
      0.04063691472858899,
      -0.8581195308966272,
      -0.37894313973145044,
      0.9401458291335294,
      -0.8359879212060448,
      -0.5269495874641892,
      0.2594124139502769,
      0.22889611918305097,
      0.9062302910329791,
      -0.5109990254042112,
      0.7607790044453862,
      0.09808203839588647,
      -0.902234072675735,
      -0.5924272476962162,
      0.9766906459339055,
      0.7981321526241347,
      -0.1795446558944418,
      -0.755696460449494,
      0.5698833726701882,
      -0.9880098730424223,
      0.46398536592273687,
      -0.6935913508636113,
      0.6641634862388401,
      -0.864745787097448,
      0.7475844829021832,
      -0.7818242064765719,
      -0.038404863979751624
    ]
  },
  "layer_1": {
    "weights": [
      [
        0.06720632401531268,
        0.7319913118794277,
        0.9049644054182044,
        -0.23913523309303475,
        0.6050115039392823,
        0.035277643649632484,
        0.030295044228517476,
        -0.6970228739751112,
        0.9914526792377787,
        -0.25053125370467466,
        -0.33168425430101056,
        -0.8648446569268673,
        -0.6194913727780114,
        -0.3173135792608246,
        0.9086352748746103,
        -0.6885833535373227
      ],
      [
        -0.05970303152457057,
        -0.08715763643875052,
        0.4327070743379424,
        0.8904680347483067,
        -0.6737454516518848,
        -0.11302501208460347,
        -0.10800162426574911,
        -0.11053165647319241,
        0.5552432918919186,
        0.031083312820637365,
        -0.4640666864372154,
        0.560169420528899,
        0.6080050018543053,
        -0.5888995812065789,
        -0.36264220194723795,
        0.851814257383747
      ],
      [
        -0.04982358158891009,
        0.606056012786991,
        -0.13077062309756848,
        0.08436379879308875,
        -0.407059139209353,
        -0.9732837005511452,
        -0.45600532785403836,
        0.7263295457931431,
        0.06707322347871392,
        0.3947758740628866,
        0.9401012760908298,
        -0.7725391953061518,
        -0.4980560210424372,
        -0.7949188818325077,
        -0.09184689941255941,
        0.5198990650302018
      ],
      [
        0.48799469692752573,
        0.3964198719708525,
        -0.3455993106136672,
        -0.31813906884359655,
        0.47887784876951467,
        0.6242987807684284,
        0.9140200903903037,
        -0.8228408416707969,
        -0.744541320594269,
        -0.965378967518669,
        0.19685735988510777,
        0.8971254260455999,
        0.2919406815266643,
        -0.4985766628723025,
        -0.5272331791515186,
        0.8109615243592248
      ],
      [
        -0.711785616959858,
        -0.051245782780599436,
        -0.7845650376959912,
        0.9132710308090362,
        0.5377191748010326,
        0.13497267016471404,
        -0.6563400107852952,
        0.9020216015210056,
        0.3852661071963186,
        0.15417115983952834,
        0.7119788882088582,
        -0.671894841459024,
        -0.22840615732469405,
        0.02230767297227687,
        -0.24115216978371823,
        0.20772485991892364
      ],
      [
        0.19034508212732404,
        0.9298907658631295,
        0.8210529345093742,
        -0.7428181475620241,
        -0.9884292425045582,
        -0.3567624850460087,
        -0.06144981964824625,
        -0.9585540404098449,
        0.5013977619324113,
        0.8412167688981573,
        -0.8027729335866849,
        0.6179015083442543,
        0.6465146760026612,
        0.6483509670621277,
        -0.8599743097240073,
        -0.4484006706074335
      ],
      [
        -0.899943526943515,
        -0.477298091572135,
        0.6117373559697636,
        0.5785416011768436,
        0.9365726092708626,
        -0.3167467992054862,
        -0.22489693036476077,
        0.7550262442055977,
        0.43255347221837903,
        -0.5938582661222178,
        -0.3885408870561142,
        0.1181621356754885,
        0.8558802686732798,
        -0.3915260306625856,
        -0.11682422873552989,
        0.5238137777138836
      ],
      [
        -0.27749565626302464,
        -0.7187006769414568,
        -0.1785229386253253,
        0.07084882304787654,
        -0.3681414526644198,
        0.595883292880673,
        0.20145659043559272,
        0.7128052677190817,
        -0.3768316690820279,
        0.8793950400098061,
        0.03052206146948344,
        -0.27062152845935095,
        0.9714224710733856,
        0.09640877080484178,
        -0.7567177326039303,
        -0.8856077987090216
      ],
      [
        0.8869815904161373,
        -0.05101731346605565,
        0.1711264942632671,
        -0.2271273767822628,
        -0.23638841426855994,
        -0.9743582602745777,
        -0.9699492663619751,
        -0.39719221500080826,
        -0.5771009392873749,
        -0.05946442134153296,
        0.8248051832969585,
        -0.5569577939196162,
        -0.6973849562379113,
        0.906465969745049,
        0.6893504541167053,
        -0.8279894636525089
      ],
      [
        0.30045170143030164,
        0.8971715375293199,
        -0.9759953563523518,
        -0.8780029248813688,
        0.8575751183267537,
        -0.7266968611707505,
        -0.028750433573908163,
        0.04936880414904721,
        0.5290505099703982,
        -0.8628303584640007,
        0.7467204439384822,
        0.3227154538794319,
        0.8797846107048144,
        0.9621614087572792,
        0.01988088580294245,
        0.6539610377615555
      ],
      [
        0.9468113792297714,
        0.7429230508311211,
        -0.696327304335606,
        -0.8900490972092192,
        0.12584785122526276,
        0.06413396604931632,
        0.7847814375725011,
        0.505227341469028,
        -0.0649787635228598,
        0.9658638007779694,
        -0.6193940823444939,
        0.5892768477294974,
        -0.6713844184376907,
        0.7713883212539707,
        0.6627513852832743,
        -0.7645471659485223
      ],
      [
        0.606479084005318,
        0.765060920742211,
        0.7320385502031073,
        0.7515651705113386,
        -0.02531904636991289,
        -0.0328970179786674,
        -0.7120537020518094,
        0.1824383824264304,
        -0.5832181855338219,
        -0.24833863083904495,
        -0.5400332597944091,
        -0.6206923981472716,
        0.9356832497178891,
        -0.3998331965566224,
        0.09795720334717406,
        -0.4259295744857974
      ],
      [
        0.9283438124586703,
        0.02105259398750481,
        0.7077789381276873,
        -0.7595480623576989,
        -0.6115710578656421,
        0.5329130440698548,
        0.4735880906999068,
        0.7156947587072628,
        -0.5646267674998002,
        0.961887538034701,
        0.29229424180748675,
        0.9490640275660007,
        -0.34361805192357076,
        0.4298602071745983,
        -0.24020694947394983,
        -0.37526010341902505
      ],
      [
        0.263954283716209,
        -0.2233453570203432,
        -0.7121291982476599,
        0.7803540663567834,
        -0.1914790099725716,
        -0.39937717179829035,
        -0.33942345496632287,
        -0.1068877741276868,
        -0.3019346944093382,
        -0.7492995681004875,
        0.23487542395605288,
        0.7050493502026753,
        0.7332597468717079,
        -0.3982999962549747,
        0.9814021846938976,
        0.8508020142312569
      ],
      [
        0.6929662248678725,
        0.675742723861483,
        0.1990636114420492,
        0.6041010889142389,
        -0.6948790622765302,
        -0.9339750216475928,
        -0.4820421991442547,
        0.1623262235591465,
        -0.6285229115202584,
        -0.31916956934781937,
        0.3862537657026319,
        0.8228665153238401,
        0.6424250040621482,
        -0.7759986863458896,
        -0.5682811232806988,
        -0.6243725150859101
      ],
      [
        -0.5790028907055331,
        0.4616233653293169,
        -0.9660021559822176,
        -0.24687458522834227,
        0.7775702951378822,
        0.39019617539455975,
        0.48311024776786904,
        -0.09559036491010064,
        0.196636357234919,
        0.04744841345443307,
        -0.6042769106198267,
        0.7290051640191162,
        -0.9927738929241694,
        -0.051118377798225145,
        -0.9651100120617391,
        0.40177384526386173
      ],
      [
        -0.15995835792232405,
        -0.6113059444527931,
        -0.13494110011182703,
        -0.10444396813455525,
        -0.5385522259351874,
        -0.823034890350387,
        -0.002926066216070833,
        0.35251583551697085,
        0.8277913790352465,
        0.5161817175387926,
        0.8035738829753161,
        0.4528872822137471,
        -0.637053466900035,
        0.5816305397342669,
        0.5716698952643584,
        0.1181001487023623
      ],
      [
        -0.9798834183721741,
        -0.3428505881878825,
        0.5356725673864113,
        0.6639460014136225,
        0.49442287475047486,
        -0.8294634201921594,
        -0.10887451199018217,
        0.047676277262896694,
        0.25499549262158383,
        0.8721216372535867,
        0.8915077839435908,
        -0.9797520338020285,
        -0.8150974590496305,
        -0.390691055529079,
        -0.33829308964566485,
        -0.49722527744870226
      ],
      [
        0.5171202416368585,
        0.7826013622378762,
        0.33546041709685315,
        -0.5951312481475777,
        -0.8341864715340681,
        0.6426625380367583,
        0.7416167353105652,
        -0.9828730966055508,
        0.08162165739705274,
        -0.9120708679825238,
        0.3983892823660793,
        -0.8263438050265273,
        0.23077999772997027,
        -0.643229384296031,
        -0.13962288594539274,
        -0.6595093467105235
      ],
      [
        0.7024813927388809,
        -0.07010877635083101,
        0.14469759799246962,
        -0.45629787799534394,
        0.7591026040027617,
        -0.14419564545658758,
        -0.24296403383158638,
        -0.3371217749393123,
        0.9006430829488528,
        -0.08103126377616454,
        -0.011167887861541104,
        -0.5493705413538039,
        0.6224419446901781,
        0.24689026853154616,
        0.17850355908573357,
        0.8532051746210798
      ],
      [
        0.726645240422036,
        0.4139173823450577,
        0.702822195903591,
        -0.20036427655790034,
        0.30126395172662823,
        -0.8962022808185044,
        0.2195971022031573,
        -0.4201155724863215,
        -0.16924632624993796,
        0.9592287502576919,
        -0.6048104050493206,
        -0.6121839064127252,
        -0.12246539452397776,
        0.859999805760258,
        0.018395695577356097,
        0.10117326473243682
      ],
      [
        -0.09248490612912863,
        0.9522877500335245,
        -0.33475564749097875,
        0.6417541177959172,
        0.6704577938932452,
        -0.5814195459860492,
        -0.12484428633745903,
        -0.8455687449615772,
        -0.5813858885286103,
        0.5208400979050152,
        0.767701121493769,
        -0.29451877299268303,
        0.916671492984581,
        0.7145826404573996,
        -0.44427397615250985,
        -0.2313462907498971
      ],
      [
        -0.40099953724899695,
        -0.41720470668267495,
        -0.6818209622399434,
        -0.5600168766500311,
        0.0176925140738311,
        -0.13541333604657857,
        0.5138059533106774,
        0.3404407283455346,
        0.48146692664169244,
        0.7275709766444314,
        0.6746769702916959,
        0.5664264201585638,
        0.11764741988307037,
        0.05406987959684595,
        -0.9299631318521886,
        0.5931462530240625
      ],
      [
        0.31875845151770044,
        0.12238582804132259,
        0.12016828316151318,
        0.16254042237793676,
        0.48394266195261726,
        -0.18041029554716825,
        0.27266350387437566,
        -0.30755813671757637,
        0.08658553991010232,
        -0.9575016676258634,
        0.7424273836609911,
        -0.18499887507042323,
        0.6408170182792339,
        0.1110306455096437,
        0.41531615111691433,
        0.8307849662617734
      ],
      [
        -0.47491502806222186,
        0.8434423514146006,
        -0.6675273538420046,
        0.18443516894091605,
        0.6111468731948868,
        0.9097015051643249,
        -0.9155423777104328,
        0.18744810297014736,
        0.022259031304872945,
        0.8188608454021589,
        -0.5529064052703145,
        0.6062662308643965,
        -0.8576004204119041,
        -0.45818092052365,
        -0.8216297795675196,
        0.5064488577333897
      ],
      [
        -0.7810639671817077,
        0.8716301416173295,
        0.46932803906532894,
        -0.01624744345933915,
        -0.929670122000749,
        -0.9307245912695827,
        -0.2886818496884356,
        0.025505956304851418,
        0.19711506182093808,
        0.5059619502752848,
        -0.7250184069638936,
        -0.8012400394732007,
        -0.5712280784352262,
        0.4723516736047735,
        -0.29426405744374184,
        0.4157975310869926
      ],
      [
        0.024771960059971176,
        -0.020175152362528426,
        -0.06883600283044666,
        -0.1197415141789624,
        -0.8816528223814253,
        0.09963226795653601,
        0.5116764128413627,
        -0.37554512244312255,
        0.276858488067669,
        0.9035612764678431,
        0.6849317313122549,
        -0.126159476687848,
        -0.04328011080669847,
        -0.9356832139434457,
        0.22193637108401143,
        0.36147296707904997
      ],
      [
        0.14536779901456875,
        -0.1579604738866336,
        -0.4569344909426776,
        0.8424336634576028,
        -0.20004051634855435,
        -0.46686438439068656,
        0.26921937764022696,
        -0.8744643024998162,
        -0.3457140510127308,
        -0.1174649805034329,
        0.7502668119894333,
        -0.11534349074569783,
        0.7153583008691833,
        0.7217366656039099,
        0.2304996362326337,
        0.18079061587038536
      ],
      [
        0.7274002860305833,
        -0.27772778165824175,
        0.43442719948086306,
        0.19579428577470281,
        -0.2422446390096158,
        -0.8700476400695794,
        0.5445931752232209,
        -0.6553757955679964,
        -0.8551232392191583,
        -0.22887723850011343,
        0.7679314659484935,
        -0.35566992929049457,
        -0.4370563907812697,
        0.9771415355653961,
        -0.7092342429876,
        -0.655135764021914
      ],
      [
        -0.4098511767490438,
        -0.3240376266992926,
        0.21670069105569456,
        -0.06760710412343873,
        -0.5581246949701828,
        -0.682326623463581,
        -0.5402619830979125,
        0.04626360123793316,
        -0.6711175730818721,
        -0.7229246229254478,
        0.26216237989683155,
        0.28400880154669617,
        0.9589389030095974,
        0.3712931501644787,
        0.028832655296509024,
        -0.20117687411498109
      ],
      [
        -0.24700710443784124,
        -0.6997681499172077,
        -0.7429317504014799,
        0.7185180596287513,
        0.4870344103929942,
        -0.8305384436420915,
        0.9142769744799855,
        -0.6813689839537209,
        -0.37018561399928607,
        0.572701215686436,
        -0.04949856948208131,
        -0.09392701598948161,
        0.6732319212362641,
        0.04185133929983742,
        -0.8409689061765624,
        0.7461128884709451
      ],
      [
        0.8612168773756459,
        -0.47314747527516565,
        0.5774988038230979,
        0.20545808428269807,
        -0.19963085919508972,
        -0.7325711528480334,
        -0.5104342374491264,
        -0.27704218849909146,
        -0.1077459435934296,
        -0.15770607084612198,
        0.33283601785365047,
        -0.19077988082255248,
        -0.5782691640534854,
        0.6056697417102868,
        0.9968976610587335,
        0.12709122564106612
      ],
      [
        -0.6713205820299732,
        0.756662808269551,
        -0.4396698360973177,
        0.9021087488607731,
        0.8138249432237727,
        0.8026316263258575,
        0.634803451721881,
        0.534259276881369,
        0.025571489502759004,
        0.9314530343833562,
        0.5827866314382402,
        0.363769066670915,
        0.8848241590605608,
        0.8801169995877978,
        0.7479425016179464,
        -0.7312810798062528
      ],
      [
        0.06201343724270414,
        -0.18884133795434033,
        0.3003696880069058,
        -0.7669624670079387,
        -0.21776560911550047,
        -0.8206981236226609,
        0.8146943049545519,
        -0.24987546672666117,
        0.26963658315236616,
        0.730710413111928,
        -0.9943896190027504,
        -0.32029085743736085,
        0.8200581534184608,
        0.47451204130782565,
        0.383578980437016,
        -0.038588312919098255
      ],
      [
        0.21010990440569932,
        0.942966191745771,
        0.11012248532030444,
        0.3516540195404616,
        -0.6754499715398576,
        -0.20849958040956906,
        -0.26661444339028706,
        -0.6826624253325273,
        0.5103016291766933,
        -0.4262739212345559,
        0.6263239312979823,
        -0.0694014117437114,
        -0.7327678874861656,
        -0.824678287715892,
        -0.972574487873658,
        -0.6200412742129466
      ],
      [
        0.6066407190917746,
        0.33242414066269377,
        0.18378408870941976,
        0.6779127857378013,
        0.633010868345065,
        0.01597789009771744,
        -0.07719966438526504,
        -0.8702101344758193,
        0.23169499933505833,
        -0.8682155990124525,
        0.03401249456892641,
        -0.7190987272810083,
        0.9921557910846024,
        0.5014222272783633,
        0.9950252246449542,
        0.6107005887733779
      ],
      [
        -0.14062663776166628,
        -0.6082423920245061,
        -0.9336828148368121,
        0.27449397158614497,
        0.994236505781785,
        0.2681004860404643,
        0.10088336818294596,
        -0.06205952311724472,
        0.7832259551152134,
        -0.7999838436795204,
        0.3019284971459202,
        -0.2502134379216283,
        0.23287795983656778,
        0.5706986105819802,
        0.3723417050012081,
        -0.5874592887844106
      ],
      [
        -0.6053740282294826,
        0.020168009357125927,
        0.24826968340411404,
        0.5882432880009418,
        0.07866895194549661,
        -0.363602424670719,
        0.005383949561550638,
        0.2016395131720241,
        0.5303190392143124,
        -0.4427296103202627,
        -0.09242304547123315,
        0.2588635678175739,
        -0.07383508363609792,
        0.5991275548117023,
        -0.9965410148980278,
        0.00849115712330728
      ],
      [
        -0.6922971517895846,
        0.16276240892011873,
        0.7291484471563174,
        -0.05467817992279289,
        -0.3877427843151904,
        -0.6436138466328314,
        0.9910843674356176,
        0.8432932468138143,
        -0.26520871005724533,
        0.9079302994187075,
        -0.14398152622708404,
        0.26924226339346036,
        0.5588571599821981,
        0.9800850737637989,
        -0.1376294501763069,
        -0.5948850242945589
      ],
      [
        -0.3518754229210532,
        0.3827934157096826,
        -0.3649872878706055,
        -0.1403549011810168,
        -0.4275737762838372,
        -0.6265270943815753,
        0.5949373833137379,
        -0.07919273049668663,
        0.6790625960985162,
        -0.8689476479352518,
        -0.3116469557613264,
        0.6500874442936677,
        0.9990385409384204,
        0.24511569215098716,
        -0.6717066424564373,
        -0.02647132420979781
      ],
      [
        -0.5306716902196105,
        0.13621746429019388,
        -0.9493733297768259,
        0.04052668364252665,
        0.356609070177208,
        0.2743590042048334,
        -0.23282112203455196,
        -0.49703132333841515,
        -0.4579120416306235,
        -0.3047744956612297,
        0.48525569406747904,
        0.6035014014106586,
        0.7663176955309727,
        -0.4027521417951214,
        -0.7866950022490113,
        -0.3757236744132917
      ],
      [
        0.21915964308241054,
        0.8620682001819242,
        0.5117868255130307,
        -0.6582004191282982,
        -0.02470071226441295,
        0.7272212123292445,
        0.8238671316541035,
        -0.9685136833670616,
        -0.41512393507447287,
        0.6403241197861982,
        0.24159408875021704,
        -0.1929039750214161,
        0.7728982538963165,
        0.8256072769915457,
        0.5278626293645254,
        0.011463056374185765
      ],
      [
        -0.11597896032224742,
        0.2009466177838366,
        -0.12157001592548133,
        -0.9791489425734272,
        0.23453826101523045,
        0.7432756619584102,
        0.659948886505066,
        0.2494587671266053,
        0.6802033636546885,
        0.138970411908113,
        0.9404745335329676,
        0.6378258993538408,
        0.7158930812969109,
        0.7276925308274114,
        -0.16332246347551727,
        -0.2661532480948654
      ],
      [
        -0.8142040933599874,
        0.2807380378396125,
        0.4159623597636646,
        0.4274078311554541,
        -0.06964296953593241,
        0.09429965411548769,
        0.35690794855217445,
        -0.37606448851420815,
        -0.6939959931019686,
        0.1725144201788109,
        -0.4635299480031454,
        0.6341365546739697,
        -0.8130035624939045,
        -0.3077998804896769,
        -0.5344262902672783,
        -0.6938443309663784
      ],
      [
        -0.5722475629738051,
        -0.23567545853675176,
        -0.9907984887990675,
        0.5669048926545321,
        -0.913242122871865,
        0.4461186248589972,
        -0.9829225437123343,
        -0.835785550634957,
        -0.45239006251550107,
        0.5411774206382334,
        -0.0396008356497386,
        -0.8415135365832025,
        -0.6417441358733758,
        -0.6387459302189535,
        0.7437321144828177,
        -0.7677024495451639
      ],
      [
        0.4571102597722987,
        0.507208718973474,
        0.9684934692564531,
        -0.41341604274222066,
        0.5044438330426857,
        0.7250433392190359,
        0.802850232292526,
        0.9460036031754859,
        0.7712730322450627,
        0.8245160971759522,
        -0.4634375619648552,
        0.22566652602636017,
        0.13268648288368112,
        -0.400447736534012,
        0.6726480144288289,
        0.9277880075330434
      ],
      [
        0.3562371147965837,
        0.6614991095361973,
        -0.10892856833953979,
        0.6405592131974176,
        -0.28689599519861697,
        0.1528401078374253,
        0.15386988135206847,
        -0.8933107869155326,
        0.31243332446532057,
        -0.3608735673127861,
        0.044790504551005084,
        -0.612525544322277,
        -0.8044189617970754,
        0.4285152427124428,
        -0.8515062377454896,
        0.7859722477390603
      ],
      [
        0.732802970295438,
        -0.9347302552225234,
        -0.9416554178324925,
        0.585836265864905,
        -0.8517789198014432,
        0.1143170074962292,
        -0.9723672980146418,
        0.056423523372643336,
        -0.3743421852880451,
        -0.6028243621372735,
        -0.7543710690084455,
        0.7569513755035984,
        0.40561855583319084,
        0.08974837133073921,
        -0.8175392476236669,
        -0.8020576331654761
      ],
      [
        -0.3731799222565717,
        -0.6780307925076614,
        -0.0705349861145892,
        -0.5861911839774334,
        0.9964181016342473,
        0.10213450578333227,
        -0.17832475097717748,
        0.5105896316957936,
        -0.47265789095707156,
        -0.746229269116977,
        -0.5766741043892196,
        0.8633749245418458,
        -0.057813267372392785,
        0.22059330551587597,
        -0.25705214046821445,
        0.12855041545210422
      ],
      [
        -0.7344026645345456,
        -0.7464340474717275,
        0.36217618418945285,
        0.24133410747956074,
        0.5051356864921974,
        -0.9447307465480768,
        -0.6122303618789189,
        0.19881926040593045,
        -0.7555054148888041,
        0.19495543818096595,
        -0.21660799974392453,
        -0.7907630256260036,
        -0.4843238338600515,
        0.9483794386955835,
        -0.7447864943915632,
        0.1684076186626704
      ],
      [
        0.8554317768816626,
        0.4306489431301541,
        -0.15880632954038343,
        0.8703114807771148,
        -0.15545782192831292,
        0.014987528237566883,
        0.009888081084727274,
        0.4680459197543221,
        0.6170453077180498,
        0.9042861561987312,
        -0.9621979963873302,
        -0.011272427133427465,
        0.39502937753785083,
        0.8805632187877044,
        -0.457228457659862,
        -0.32565990473135376
      ],
      [
        -0.45384813098945487,
        0.410699232262679,
        0.6740602228066324,
        -0.017823243277602874,
        -0.8368510412921668,
        -0.9807290599363028,
        0.6478967232302539,
        -0.8925868659773109,
        -0.8822942068323936,
        -0.315706315489233,
        0.40925484437785764,
        0.7937761015690221,
        0.8359421491059797,
        -0.2959233186907404,
        -0.5383551695663722,
        -0.38148483951038425
      ],
      [
        -0.9593345872012886,
        -0.8118240422241605,
        -0.32298514583766447,
        0.4756733743938455,
        -0.3417353971177428,
        -0.6986317837733975,
        -0.7680568094987923,
        0.2804183598573433,
        -0.6843726999046769,
        0.9857301766434579,
        -0.2145790463551287,
        0.6336035325135869,
        0.8636752356634216,
        -0.7867463623647659,
        0.5183102626206819,
        0.9360021916925008
      ],
      [
        0.6937779373193496,
        -0.8935594823919066,
        -0.8134801574351931,
        -0.4938918387233895,
        0.9098585614420538,
        0.5898895159430826,
        -0.4689009266273436,
        0.966505533523943,
        -0.4828450382426128,
        -0.8007382363791367,
        -0.1347621005154287,
        0.8434289189711732,
        -0.5784890987532876,
        -0.10971540745285102,
        0.3182018840691474,
        -0.1415793267402201
      ],
      [
        -0.6802593565084949,
        0.01742917502336816,
        -0.21456708390783397,
        0.7781611129836621,
        0.9664009579195987,
        -0.9601323215729707,
        0.3578570997639883,
        -0.7740905280102806,
        0.2342234527117899,
        -0.1830948663428753,
        0.18709982638505118,
        0.4883921590886262,
        0.6593334864932268,
        0.8075352388792989,
        0.4000929545699823,
        -0.18343569306633567
      ],
      [
        0.25481000756259364,
        0.329618659618244,
        0.6929679866159302,
        0.9172796571874742,
        -0.7942437350208973,
        0.09133849122207094,
        -0.30784994538775523,
        -0.9387141568377846,
        -0.6960541022339097,
        0.12825391129073527,
        0.4780661957007786,
        0.5598928586795813,
        -0.6843826272479903,
        -0.040794340229947545,
        -0.666547642255626,
        -0.15306288637962195
      ],
      [
        0.960186014667006,
        0.8859109110972649,
        0.008820195397178487,
        -0.9683679098044309,
        0.6085838608058538,
        0.25592043968196476,
        0.9766011639240151,
        0.05655918250305958,
        -0.025554314670533262,
        -0.26033411507115733,
        -0.6640529724299902,
        -0.6240996607221694,
        -0.7420140624536933,
        0.17425769454472206,
        -0.21736435174350688,
        0.5849178851340895
      ],
      [
        -0.5597254982336304,
        -0.23428424786850055,
        -0.20348799150891494,
        0.6165973921957015,
        0.7120526532265745,
        0.8010870896223521,
        0.4098250029792663,
        0.5942835865638945,
        0.9898421351705347,
        0.3356739704279237,
        0.3414498557625363,
        0.5826462812810764,
        -0.8988287889779354,
        0.2217650161979301,
        -0.3937938140978199,
        -0.2818400782313948
      ],
      [
        0.011030291686175087,
        0.8689766189950296,
        -0.162747683874652,
        -0.26639956815017585,
        -0.4471607371265489,
        0.11245585139084646,
        0.05868771269193873,
        0.3202004835657384,
        -0.5715398821403406,
        0.08150321781620229,
        -0.1522329302368428,
        0.5044618978568887,
        0.32386384762161047,
        0.8941319801078138,
        -0.574854450830744,
        -0.434712553686186
      ],
      [
        -0.948283066712841,
        0.2910120660397062,
        -0.38560762884000277,
        -0.40870654003643603,
        -0.09051238256354388,
        0.5604785606048663,
        -0.2078452783216762,
        0.35514989562387766,
        -0.6554360007463025,
        0.5059308064471855,
        -0.1945705869233032,
        -0.9851278926007521,
        0.549151239843672,
        -0.6761902779314253,
        -0.22494354603243538,
        0.22014313575601174
      ],
      [
        0.10597632885314656,
        0.24546465662091865,
        -0.47054912197750887,
        -0.19696334222597978,
        0.8856059120853805,
        0.5426844553404073,
        0.3054225700263711,
        -0.2256603249035385,
        0.7645768864986922,
        -0.622101403689092,
        -0.8803775608108266,
        0.1457641853924423,
        0.19792735161194464,
        -0.9504139637803541,
        -0.8110346215206423,
        -0.771026438435582
      ],
      [
        0.5653050533733943,
        -0.03137754371957313,
        0.8728606580086249,
        -0.9302288678753283,
        0.23809859415241075,
        0.13596394360184605,
        0.8908285484787375,
        -0.04356779019779777,
        -0.1735451683827378,
        -0.5911670225738725,
        0.7913791994173616,
        -0.7706429255420766,
        -0.9048731400902801,
        -0.9694710956802028,
        -0.5159159132323701,
        -0.6805590739280172
      ],
      [
        -0.47613289908656964,
        0.9590800771449803,
        -0.7645893004887139,
        -0.7419700072162905,
        0.2730035716588659,
        0.7154986063666429,
        -0.7560094069780332,
        0.7840905929285023,
        -0.18535252776023747,
        0.6253800469858,
        -0.005585420554192311,
        -0.5052558553025495,
        -0.37683357203223444,
        -0.14170545905904008,
        -0.27166731562347657,
        0.5969945706349962
      ],
      [
        -0.5261984800257713,
        -0.32946237026520686,
        -0.05760130798423635,
        0.3204572707594313,
        -0.5701406966964324,
        0.9042273805734731,
        0.5328319034475271,
        -0.7207816126621802,
        -0.11068135378767208,
        0.12428918413260615,
        0.8970104730304602,
        0.2609253236473008,
        -0.6154430768821897,
        0.7791685458910738,
        0.44314958819415295,
        0.44699582467113785
      ]
    ],
    "biases": [
      -0.38673707157601167,
      -0.7129270203781348,
      0.6334402048689791,
      0.44955106005728984,
      0.10493669879445067,
      -0.6205272994569844,
      0.09818172964779182,
      0.7869094634145137,
      0.6206682818558855,
      -0.06809103996943522,
      0.3233126576927521,
      -0.8436105863877128,
      -0.8400194149934794,
      0.8979117541620287,
      0.6679174348890413,
      -0.17648818445024905
    ]
  },
  "layer_2": {
    "weights": [
      [
        -0.0031815601512166225,
        -0.46040072019466005,
        -0.8513237769207826,
        -0.34957743012440434,
        -0.6514004064351215,
        -0.7904497285200178,
        -0.43995259012697785,
        0.2934293458811159
      ],
      [
        0.68257824767186,
        0.39190803560240606,
        0.09245098263608376,
        -0.6754161662908325,
        0.34362340317600304,
        0.6202724837311324,
        -0.01888544949552351,
        0.9037687699230752
      ],
      [
        0.9291348878356158,
        -0.429724311987459,
        0.7207158186283134,
        0.07962611800766073,
        -0.914551257693903,
        0.9695343450581011,
        -0.6507636568581083,
        0.7658809358964693
      ],
      [
        0.5328233643347728,
        -0.10951672468716889,
        0.3054740093961208,
        -0.4592514948037878,
        -0.8480734718970475,
        0.8088930034384312,
        0.7392473317605366,
        -0.14601218795376703
      ],
      [
        0.8127443779631731,
        -0.3606987328220459,
        -0.8495393998292142,
        -0.786846191809984,
        0.9059852173299137,
        -0.498852524992883,
        -0.8579257874960624,
        -0.4241816105665981
      ],
      [
        0.9229281998089278,
        -0.8458403093871436,
        -0.035063099929763863,
        -0.6805550077083085,
        -0.6661334906740222,
        0.36903128581298605,
        0.6744057431551669,
        -0.7850979763436226
      ],
      [
        0.6977460382151031,
        0.5356855462290302,
        -0.5389980982052858,
        0.07284975314947317,
        -0.804174938505712,
        0.056313539425823844,
        -0.6342768867475923,
        0.7270596962701557
      ],
      [
        0.18509800418088718,
        -0.4628918509994202,
        0.3311739420999591,
        0.30276982904940763,
        0.7550724372042739,
        0.619247543859875,
        -0.6975009850657339,
        0.3287950921269154
      ],
      [
        -0.3611148873761689,
        -0.45208380036114626,
        0.5934752170662467,
        -0.3907945053987658,
        -0.1442854205671933,
        -0.8581632141040951,
        -0.8346406658075161,
        0.25895484661497736
      ],
      [
        -0.920587082634007,
        0.6620790115928119,
        -0.9536486399140227,
        0.6562368975699024,
        -0.7466285298631412,
        -0.2970840677124882,
        -0.24650890322640184,
        0.7152957345213506
      ],
      [
        0.2960051439630733,
        -0.9947946345325713,
        -0.08209078794966085,
        -0.6242047917021618,
        0.2746770715940281,
        0.10799579492657241,
        -0.7371830777168575,
        -0.6693363922156679
      ],
      [
        -0.5555805300933037,
        0.777645385953148,
        -0.9541314725391801,
        -0.47335299023550026,
        0.0786826264576832,
        -0.1326283361585492,
        -0.8274409658540203,
        -0.20017160171296133
      ],
      [
        0.8004333226557254,
        0.8427443910636796,
        -0.19261437971245776,
        -0.3288144300299125,
        -0.46577168350895914,
        0.724540595029751,
        0.42080313723424,
        -0.9034295678970752
      ],
      [
        -0.6114572099643178,
        -0.17951696462493527,
        0.15174268585095407,
        0.42637756635391577,
        -0.45384219286671135,
        -0.0031194206335156682,
        -0.4746239276156001,
        -0.31834128922988025
      ],
      [
        -0.6931918650239302,
        0.3919203949817873,
        0.631566219467647,
        0.8847199621496049,
        0.3455731237016515,
        -0.7373413386895107,
        0.5215325526697265,
        0.948740029247779
      ],
      [
        -0.27427548133233315,
        -0.9612252029548736,
        0.49696309802212646,
        -0.834601127215093,
        -0.7657269277217003,
        -0.5841465439430777,
        -0.970801392530988,
        0.29066504070136645
      ]
    ],
    "biases": [
      -0.8461344031427616,
      0.06787493760372576,
      -0.08994289828153379,
      0.8800348136387945,
      0.9265939476090552,
      -0.8392709252695778,
      0.1445093391984822,
      0.22741923545449638
    ]
  },
  "layer_3": {
    "weights": [
      [
        -0.811854454570532,
        0.7176867748663476,
        0.9968695893184121,
        -0.6058742144493168,
        -0.5958316060699784
      ],
      [
        -0.8831896528860461,
        0.19941410814173643,
        0.22830692610724101,
        -0.4653124272293987,
        -0.37461933351876553
      ],
      [
        -0.8585859672012659,
        0.7179699487006175,
        0.5655458606651855,
        0.554050836576325,
        0.1648812978201215
      ],
      [
        -0.5026200213855043,
        0.8973885876238339,
        -0.935938733365185,
        0.16010781847378985,
        -0.4905549160459439
      ],
      [
        -0.5075704062265367,
        -0.43284114450980193,
        0.8856032695018554,
        -0.21452784230071842,
        -0.5657586383626569
      ],
      [
        -0.14800059605262716,
        -0.3384604758188927,
        0.3714322341557166,
        0.8107965967680744,
        -0.8200689002602852
      ],
      [
        -0.029287603870628676,
        -0.9500515879970732,
        0.5125452999019107,
        0.6531007137568614,
        0.737996573176378
      ],
      [
        -0.8445104460538042,
        0.7428022464547901,
        0.5840048061191145,
        0.2982988704278635,
        0.3099868148835978
      ]
    ],
    "biases": [
      0.6430074745918619,
      0.3185168019988762,
      -0.9197503640903,
      0.7826875552907935,
      0.24834087658193993
    ]
  }
}