{
  "layer_0": {
    "weights": [
      [
        0.44048731677676234,
        -0.7391283926102505,
        -0.9481957854982852,
        1,
        -0.36719900594761323,
        0.24803551607627278,
        0.21023076718619718,
        -0.7050261166086299,
        -0.6722298425690756,
        0.49258539251732497,
        -0.44758880554451436,
        -0.44016515110812066,
        -0.1332933072854502,
        -0.3244962724580314,
        0.7505427211219122,
        1,
        -0.7268930755275224,
        -0.018408410698225432,
        0.4720993285681113,
        -0.15754730247942134,
        0.34463852205105877,
        0.2907074572617233,
        -0.44594477587813,
        0.17870044183640868,
        0.2699302192858387,
        -0.006641872591685733,
        -0.5543983006404846,
        0.943028278383629,
        -0.20102307712450626,
        -0.02529241135229105,
        1,
        -0.6524575268991752,
        -0.8262376876422336,
        -0.06245297071338771,
        -0.08420363515681288,
        -0.014642075684004118,
        -0.15302069648853797,
        -0.22947194715331876,
        0.2377465986080827,
        0.588401999227381,
        0.3746594257968495,
        -0.48731712277337036,
        0.07069838447446085,
        -0.6942049939780524,
        -0.5006694443604348,
        0.02225716524637334,
        -0.0064233654019218815,
        0.4731736829621979,
        -0.249311631660457,
        -0.31438194441406336,
        -0.35681045510979453,
        -0.1232567235981876,
        0.11655415219337309,
        -0.08025759755026865,
        0.09317131238765493,
        -0.03607044766187526,
        -0.391968051454487,
        -0.5638661195850921,
        0.7017461109385716,
        -0.5789334636406086,
        0.044043147262212916,
        0.7518100959105886,
        -0.17629831539069182,
        0.6039084470078527
      ],
      [
        -0.007581889292163588,
        -0.21213236703848123,
        -0.2522577864717715,
        0.7274680530184603,
        -0.363906760619222,
        0.5059489835228599,
        0.5355467898366353,
        -0.17159295048994005,
        1,
        0.02730983372472726,
        -0.017020994087884777,
        0.14013069439711132,
        0.4586686746408629,
        0.09256933047254319,
        0.4370762003832316,
        0.005459627442276276,
        0.05962725158251912,
        -0.4899344692228795,
        -0.14854947520349907,
        0.23846471169199465,
        0.5489520228434536,
        -0.3678518854233994,
        -0.24700131868670755,
        0.7153865240633535,
        -0.04727217092921092,
        -0.1122293960205503,
        0.297906146194713,
        0.3961499081543863,
        -0.44271152102437017,
        -0.24999901000386485,
        0.0977798413131946,
        -0.0949111823179343,
        -0.36690870376315377,
        -0.03958649785405208,
        0.17324021901216594,
        -0.53879471423526,
        0.00826073430082883,
        0.2537123492642077,
        0.17001386572472657,
        -0.5890005151643978,
        0.20312013456181388,
        0.025557182150500266,
        0.08247630666454547,
        -0.3008937477900774,
        -0.25337697764642625,
        -0.5495894451458586,
        -0.78196651222444,
        -0.6802035032981671,
        -0.23778763415921406,
        -0.7100086641394684,
        -0.20035994892186912,
        -0.44001317668020673,
        -0.5914369297821329,
        0.7291065513909618,
        -0.15724685780013203,
        0.05929024090781547,
        0.5833386497943419,
        0.3936488220691624,
        -0.024565451816922334,
        0.50290139111426,
        -0.1363241271739435,
        0.23490134588264217,
        0.3195912757558194,
        -0.10711964269444102
      ],
      [
        0.1238278320956403,
        -0.15917146519058145,
        -0.027099068539790338,
        -0.08169962117566103,
        0.699368801284562,
        0.14305799621070256,
        0.7881644218533219,
        -0.39659819197848334,
        -0.6330998219069862,
        -0.06700168221982448,
        0.14798415998574438,
        -0.1369053727085736,
        -0.2402499120018145,
        -0.2725916700387167,
        -0.22197927905057255,
        1,
        -0.17795252003592538,
        0.6849469444479658,
        0.017661006830364107,
        0.152042694142797,
        -0.08812192352667131,
        -0.28286106054463195,
        -0.06615840575880247,
        0.17211829483212537,
        -0.3462573610085044,
        -0.010073886716714976,
        0.6959845854241833,
        0.22502842816664206,
        -0.028756684303799754,
        -0.05347230201134373,
        -0.026035960591405838,
        0.012123538068038014,
        -0.23730547842623234,
        -0.20902076531689479,
        -0.3081833589077484,
        0.03859403448633966,
        0.8001745438055167,
        1,
        0.13006848085526165,
        0.26402725656939297,
        -0.4093285716945943,
        0.7249177183831204,
        0.07278276624815311,
        -0.36792127011459974,
        -0.20582355447056633,
        0.8990877504096885,
        -0.1038843870707984,
        0.46747727557944574,
        0.9712201356887817,
        -0.6079538207183315,
        0.2035981384685072,
        -0.37152129110105414,
        -0.062278186022958974,
        0.12094566280720315,
        -0.07165701674355068,
        0.3672350739957884,
        -0.6734397099976118,
        -0.14932301411423776,
        -0.09798089472673133,
        -0.29616778792110016,
        -0.20089714602186665,
        -0.7741949529868691,
        0.14859258550155968,
        -0.37639073260043227
      ],
      [
        0.580545678846117,
        0.14358239606019887,
        0.6089410265973804,
        0.6505152413144231,
        0.45345762292698893,
        -0.13587525693982264,
        -0.08841580138988955,
        0.15155487896369557,
        0.4798483948739972,
        0.03407951405080183,
        -0.3981018678263033,
        0.0649615031687936,
        -0.7046172527754268,
        -0.5762961306931713,
        0.44154775395571016,
        -0.2842763881928596,
        -0.8017814422869942,
        -0.03500944157160014,
        0.8436054517687747,
        0.43748687177878853,
        -0.9468295349757532,
        0.4187378866337696,
        -0.0588217250040871,
        0.032247050532767885,
        -0.142404610928898,
        -0.15545926589215314,
        0.001289327116003975,
        0.5148460981025681,
        0.2920815173141864,
        -0.48780929767422265,
        -0.2634002615142377,
        0.06735802861167223,
        -0.47679779100609304,
        -0.3101561168860227,
        -0.1265305051579449,
        0.11463257274398915,
        0.08649779686600406,
        0.1995053711116026,
        -0.39748719191876236,
        -0.31973657773937764,
        0.18166691231383697,
        -0.25296070707543955,
        0.5407352122106199,
        0.38965864269871414,
        -0.1704110438467191,
        0.795007147641991,
        -0.054878302541752834,
        0.011346314138093755,
        -0.13007521448347825,
        0.32462477209278007,
        -0.182895159079037,
        0.5618051684027264,
        0.02380616250096669,
        0.08687427581978445,
        -0.24191057636162,
        0.15636950634993468,
        -1,
        0.7832694371303188,
        -0.7904857512466272,
        -0.04700236439380496,
        -0.044649410396468435,
        0.23620077584443938,
        0.03192290938287637,
        -0.019267227853901753
      ],
      [
        0.06290037832135881,
        -0.25416720503932866,
        -0.02505520342249588,
        -0.1452986660565833,
        -0.13591091681395723,
        -0.010201672997797421,
        -0.004798725695505731,
        -0.20712932149207822,
        -0.7678792491158867,
        0.627916131782785,
        0.8232060519180481,
        0.21836860853097775,
        0.07562638128949908,
        -0.8611207506624274,
        0.8346037837416049,
        0.15238779214647422,
        -0.6137469239968665,
        -0.3559651826352496,
        -0.03714511105683178,
        0.059265284972170255,
        0.40165990798719364,
        0.42979052376380944,
        0.4387779420556374,
        0.1316559108729282,
        -0.20506726395207278,
        -0.13237928750677003,
        -0.494689126514096,
        0.2606161976281105,
        0.466845833466855,
        -0.47034397424409147,
        0.355992856814637,
        0.19183066466264417,
        -0.46021547086617365,
        -0.6765626359159718,
        -0.12181338721686438,
        -0.03044698434467405,
        0.37334869714286123,
        -0.8827067676447444,
        -0.7197835412273969,
        0.28164354471301645,
        0.21498804977627256,
        0.0987072082390511,
        -0.29642712627005,
        0.4063195072880568,
        -0.22844981012041468,
        -0.4954808135372269,
        -0.24002026962502188,
        0.3711962057178944,
        -0.14742254879647873,
        -0.8071609811728593,
        0.29617274938002314,
        -0.009500042814914872,
        0.09181052138881919,
        0.8059293963630467,
        0.17907105900882078,
        -0.011220859411693393,
        0.38625374510734495,
        0.17125099552698222,
        0.4643626953852703,
        -0.36064930259701616,
        0.6934739700413042,
        -0.14533130017398427,
        -0.2520729155438045,
        -0.2574807390061699
      ],
      [
        0.6681773245979085,
        -0.7159888175480607,
        -0.20100239304970796,
        0.03177862427330026,
        0.9380921013035941,
        -0.6640008510061847,
        0.12504855060604905,
        0.3233373409872136,
        0.040860893019222105,
        -0.09103432234948057,
        -0.44519653749455845,
        -0.03698859407355292,
        -0.13820877300764342,
        0.5876828994159533,
        -0.06584070347348255,
        0.20116994311912892,
        -0.3062519818628949,
        -0.0971114116814901,
        -0.29549314049404,
        0.58566262987954,
        0.28818535672143863,
        -0.09172350825738924,
        -0.07008841441935446,
        0.13422135254133286,
        0.019749864373879527,
        -0.18764063845765913,
        0.4765728432920207,
        0.002297620209838413,
        -0.5353187192066727,
        0.16023294880505715,
        -0.1513104640218195,
        0.3656296751533501,
        0.4279272517239226,
        0.42580235622970036,
        -0.09915253778210575,
        0.7260937827268363,
        0.08099507189411571,
        0.1050733562930901,
        0.32272875819995595,
        -0.3228172496719417,
        -0.06237834069261647,
        0.3080904546820705,
        -0.6949213410004282,
        0.10072204449087534,
        -0.1500486091137474,
        -0.3432918234659034,
        -0.2836570413806355,
        0.37277468444175815,
        -0.3428411877827784,
        0.48580895167515303,
        -0.2040252292474992,
        0.719725904412971,
        0.1910947288145635,
        0.028161514287696275,
        -0.26274240428344037,
        -0.3062735742851408,
        -0.7102431553993125,
        0.24604163688055333,
        -0.06811021071785656,
        0.2598368536351598,
        0.31898858911483363,
        0.33761372475053447,
        0.1922720485901401,
        -0.2189983508385839
      ],
      [
        -0.269613546500121,
        -0.5193029481367659,
        0.2531798877195533,
        0.3857023607322834,
        -0.18492479783999444,
        0.37178897526324367,
        -0.6968525639016996,
        -0.3898391846016155,
        0.9286457300186157,
        0.20989241151165622,
        -0.018225678635914823,
        -0.6168404424126749,
        0.34479801889372647,
        -0.07500665969635652,
        0.8713273998244224,
        0.002467415973683311,
        0.11995611051731603,
        0.13920561968224798,
        0.9212824176361029,
        -0.3906300866127119,
        0.7232627368185046,
        -0.48899866375195744,
        -0.13259294847274256,
        0.23140850277457717,
        -0.03974031905154298,
        -0.2472320119126566,
        -0.1971679475604939,
        0.2789638942991818,
        0.7322851747529554,
        0.13204908774747637,
        -0.03954309707670273,
        -0.18760061858604343,
        -0.48115742832402686,
        0.08133041301651164,
        -0.025652164428890577,
        0.2284704967116818,
        0.19813861899513072,
        0.02440193067261786,
        0.2563836553136835,
        -0.3125735768283422,
        -0.18662018859081006,
        0.8190976855572576,
        -0.812078362736162,
        0.42176336404863396,
        -0.4904009926657176,
        0.12392591481796351,
        0.4111905992417488,
        0.754870143128455,
        0.6193392755148736,
        0.2158382322817437,
        -0.12234806927112306,
        -1,
        -0.2102833073618314,
        0.4256156388471838,
        -0.22934017964716358,
        -0.39206790943721026,
        -0.21777462589636454,
        -1,
        -0.2860495887651003,
        0.29997680705502844,
        0.2120879330100156,
        0.8188404269029822,
        -0.5062524670069091,
        0.24586926773744977
      ],
      [
        -0.006505155150657124,
        -0.5733804914959014,
        0.17613663516389938,
        -0.24240033925155094,
        -0.08324091029189903,
        0.12662238904352674,
        -0.1311741493164705,
        0.01487246752382711,
        -0.184436936854895,
        0.41407538996649396,
        0.3610856240998438,
        -0.9982463430214552,
        0.29024936510020405,
        -0.027984008240058027,
        0.27489905504761075,
        -0.15339106819441986,
        0.35923813537798477,
        -0.5561260374221136,
        0.2232542126210628,
        0.41577538139349113,
        -0.20501729933725213,
        0.729174304185876,
        -0.21527325562476077,
        0.19028341844965888,
        0.09815502875377503,
        0.7276700823720919,
        0.6009307978427617,
        0.149860895093253,
        -0.027545581683795426,
        0.00983961239073741,
        0.44855072691072634,
        0.16093276893719283,
        0.19019229194701281,
        -0.09927561074033218,
        -0.7004757434258186,
        -0.7532609548631853,
        -0.0041428654297373385,
        0.8247863189616711,
        -0.19502152188292618,
        -0.42839158584702564,
        -0.3305264708733793,
        0.3315794742647224,
        -0.18133206215329048,
        0.2632517384194905,
        0.15562522296386902,
        0.19579309840616574,
        0.06485072775450187,
        -0.41092748649951294,
        -1,
        0.15162099710691992,
        -0.17833041638418667,
        -0.0678295095996606,
        0.2985277440414704,
        0.2415773411024242,
        -0.3426871822566792,
        1,
        0.165888351804469,
        0.33544118722084737,
        0.2216168417375669,
        -0.2339800343073777,
        -0.2245412274396299,
        0.1633189820652806,
        -0.21929083767342736,
        0.24437277618761347
      ],
      [
        -0.015496389241313458,
        0.5166934504590741,
        0.6255655203087719,
        -0.2266282744842453,
        0.8283465475011283,
        0.06413346547824386,
        -0.11662003814722983,
        0.07695054297221439,
        -0.02092418950093862,
        0.23139731509926365,
        0.17164673518932608,
        0.4132489701933527,
        -0.14674602114587085,
        -0.16164287230988444,
        0.2379979775760334,
        -0.04231336016505548,
        -0.26911516038030486,
        -0.18003683006943247,
        -0.22739368866110177,
        -0.12557393558076815,
        -0.38576161240067697,
        0.06415725225120412,
        -0.27793868322445753,
        -0.5171657696826317,
        -0.6442422371380228,
        -0.38252383053514233,
        0.4927216440393987,
        -0.3530964680693603,
        -1,
        -0.3633291478785561,
        0.019699038926382563,
        0.06136604942723752,
        -0.5397439318294562,
        -0.30479192686730283,
        -0.07200782995038628,
        -0.406069159837311,
        0.11739775873266933,
        0.25675314469899996,
        0.24494056429282113,
        -0.327095399979299,
        0.5248347216976585,
        -0.4009861680803769,
        -0.22389266517418865,
        0.08025108621753144,
        -0.5081222285493013,
        -0.8846977018063313,
        -0.3862756834838524,
        -0.11576496223700235,
        0.15229863067283672,
        0.08520495212881211,
        -0.1490358396716008,
        0.7670518316329998,
        0.1054919158446203,
        -0.8240971540102903,
        -0.0026231176931629935,
        -0.4279556302491421,
        0.024979288688988098,
        0.7111156488686801,
        0.5104086809158978,
        0.2328386909736165,
        -0.09863467634009561,
        0.38837957265236167,
        -0.2622661696579238,
        -0.3168039163180256
      ],
      [
        -0.727353472078894,
        -0.21344276791695077,
        -0.01153189198257471,
        -0.1756836933041225,
        0.10275135346075469,
        0.8008659014998569,
        -0.861741031433478,
        0.924910836244816,
        -0.9015525753822515,
        -0.3637451608846583,
        0.0918857156569969,
        0.7680730241069753,
        0.031806338107240845,
        -0.07138627735441808,
        -0.506977752200185,
        0.07738924829645535,
        -0.012092864063586617,
        0.21038295280861355,
        0.1324151782991811,
        -0.47213291880580754,
        0.9111512717072117,
        -0.3869237279668542,
        0.8965683258583539,
        -0.1825393095315437,
        -0.588050405816164,
        -0.3112218001717133,
        -0.48077178952944,
        0.39334879962376273,
        0.45062941752419344,
        0.4600135972141613,
        -0.2753884132410478,
        0.21296610268302363,
        -0.12537580411076885,
        -0.7672024888705151,
        0.5308304958276215,
        -0.24708652330683983,
        0.19836759043665414,
        -0.08148891945169165,
        -0.34395237653431365,
        -0.14821890369154783,
        0.5315769662171177,
        -0.2592853418341065,
        0.30739054441034414,
        -0.4277175125657472,
        0.6445963212496191,
        -0.24785971169546836,
        -0.09565496590719977,
        0.5137183024776509,
        -0.47484850470873247,
        0.27407304097438157,
        -0.005140740347047522,
        0.6440690498488784,
        -0.5195360271492283,
        0.14642041920487955,
        -0.556102262531778,
        0.006171499513766176,
        -0.6233563413414024,
        -0.02159321237200317,
        0.5045293074460553,
        -0.011430649300104834,
        0.3929271456452682,
        -0.6040378017310453,
        -0.05209939705763869,
        -0.08149351024324575
      ],
      [
        -0.13999647826629638,
        0.5943867471265104,
        -0.1517948023400966,
        0.6526725568823858,
        -0.04630238703041147,
        0.03124658489460673,
        -0.614744429432199,
        -0.20280702795227262,
        0.6296633622836483,
        -0.2023245527863844,
        -0.3406910289856817,
        0.7221514767495666,
        -0.3326113368581392,
        0.172525128673292,
        -0.5823308799065673,
        0.12074255914242067,
        -0.9739539981351731,
        0.22971818250453463,
        0.08650398956902614,
        0.642786479254285,
        0.25340165899030315,
        -0.40392825306041574,
        -0.21136784308974382,
        -0.23933694572929393,
        0.32216025109245233,
        0.6742165121770477,
        0.133790303068082,
        -0.025983119193576078,
        -0.12383104197648095,
        -0.3614962493520667,
        -0.05268971610061601,
        -0.718159917787315,
        0.4815675549360686,
        0.107613057809362,
        -0.5006795347569711,
        -0.06335661914742677,
        0.5311754343037866,
        -0.6702030663008147,
        -0.6261232597899525,
        -0.16910124984087,
        -0.44481575450009364,
        0.30324438736393006,
        -0.7461778537793861,
        -0.6796297472989926,
        0.0844262275640726,
        0.04076295158316972,
        0.7723286589229902,
        0.3267102631333759,
        0.13535353117146642,
        0.4966754482244768,
        0.2630027443404801,
        -0.03184362763088756,
        0.05413121094818456,
        0.41155692800737265,
        -0.5033254319196374,
        0.19589753148578073,
        0.15201930415776418,
        0.5551306529446949,
        -0.8619727289867571,
        -1,
        -0.39519878839441036,
        0.05032790208388366,
        -0.12549146010204346,
        0.14587583276712823
      ]
    ],
    "biases": [
      0.0832619880407637,
      -0.24291894352228666,
      0.3601405882729037,
      -0.1051285667884437,
      0.960687910023114,
      0.6530427490288496,
      -0.2657863227732533,
      -0.14272992975632526,
      0.573989812369709,
      -0.08190363661183185,
      0.8595939583544728,
      0.5250295084801327,
      -0.9806648606204534,
      0.781637468066726,
      -0.18232873152082218,
      0.2232997876279675,
      -0.22964905709529498,
      0.31855726871998735,
      -0.05740940611003571,
      -0.24681882667917596,
      -0.32489917750321856,
      0.31680608224542545,
      0.21722865737503597,
      -0.3934227545300838,
      -0.5555963997858688,
      0.396226725355007,
      0.1268771926536259,
      -0.12549090985566733,
      0.08046073083704837,
      -0.06317637501850674,
      -0.16868981955662765,
      0.0328755896129749,
      0.7582611833344403,
      0.22042110473771517,
      0.47736324384942275,
      -0.3955036421367988,
      0.5003097309338749,
      -0.7617706748404022,
      -0.18037402927136342,
      -0.1988681291252579,
      0.7456290298228767,
      0.7915586043097381,
      -0.07740016938809102,
      0.2791247456822365,
      -0.45969497891291405,
      0.006719853321165046,
      0.12285170354495979,
      0.10355045430921977,
      0.22767789110770204,
      0.07993419077949987,
      0.9199697971343994,
      0.16423509450670778,
      0.7228061976141892,
      0.1486571075783574,
      -0.038959931295921034,
      0.08594136812332012,
      0.03722800896883976,
      -0.13663379791520525,
      -0.29643229310228714,
      0.41381024462583216,
      -0.3167388739783629,
      -0.2302773429875402,
      -0.42258206587166364,
      -0.8420369366616242
    ]
  },
  "layer_1": {
    "weights": [
      [
        -0.40134714168644653,
        0.5199942268387863,
        -0.11354348847527623,
        -0.2615403738337311,
        -0.25706621197485374,
        -0.016668355540962982,
        -0.23632407163183014,
        0.4704393142083401,
        -0.20347363969127039,
        0.6391152076751535,
        -0.5609241279888908,
        0.05993974537420729,
        0.574943858508109,
        0.2386663901079604,
        -0.1285552548260956,
        -0.026092946671249763
      ],
      [
        -0.283129249968943,
        0.16187954760626963,
        -0.4353040429985387,
        -0.16423478467060268,
        -0.02451280806148522,
        -0.052041475437541125,
        0.19496197907629603,
        -0.20302094708924065,
        0.005026791712621795,
        0.1498830024411118,
        0.08719085666270913,
        -0.4091088290932703,
        -0.12932117837819163,
        0.4540665001119863,
        0.050495668429514806,
        -1
      ],
      [
        -0.24325088007391762,
        0.26813597934994576,
        -0.025052214845457478,
        0.28871421455068264,
        0.6943908473172644,
        0.06243834905086364,
        0.3090677224669994,
        0.7015134182093135,
        -0.3522383499758572,
        0.2115563564983108,
        0.03016081393067773,
        -0.1510939668357276,
        -0.4667621714324617,
        0.20960324024943225,
        0.1122630812198025,
        -0.6962299826269812
      ],
      [
        -0.007212649047401024,
        0.6204417011730963,
        -0.8118331251041488,
        0.723913231119657,
        -0.02619869266840121,
        -0.17361184686037212,
        0.03897958836897185,
        -0.0575283554332347,
        0.5924303229965509,
        1,
        0.1931690673717401,
        -0.05218833555447154,
        -0.6908798118524282,
        0.8363520061054522,
        0.18246605535018928,
        0.7246438600501424
      ],
      [
        0.10392564207603426,
        -0.09652294539460786,
        0.22118388958560514,
        0.28454692500040707,
        -0.7429647435625829,
        0.25859147705137003,
        0.0023157935409228217,
        0.5428196314551295,
        -0.13907365518810197,
        0.27895365937683847,
        -0.06763454868907567,
        0.2075675613173365,
        -0.33419720356075117,
        0.24458357412857698,
        0.13294718592249888,
        -0.40357882707799514
      ],
      [
        0.4393386259716085,
        0.5631392589738751,
        0.049148589319777676,
        0.5689070626304344,
        0.4881902905433846,
        0.20428232609439148,
        0.7318291728970073,
        -0.08938293513190543,
        -0.7207320267352675,
        -0.14690737863111247,
        -0.25260607303534516,
        0.058551692527868765,
        -0.8932776728261871,
        -0.46370782705189134,
        0.00716386655076239,
        -0.2507158548353044
      ],
      [
        -0.08252292786273026,
        0.2944610648635417,
        -0.16921984429725048,
        -0.19075827907922732,
        -0.011670282886189175,
        0.8827970366592304,
        -0.36709795021734337,
        0.014577914602764743,
        0.49655809873086415,
        0.022939652312128876,
        -0.28880408474394775,
        0.3591870988355306,
        0.18619807623442938,
        0.1951498930006445,
        0.30227187289917595,
        0.45528660911786933
      ],
      [
        0.6578757168979306,
        0.2227261983740225,
        0.13316802204166475,
        0.0794407981392115,
        -0.18254611370551943,
        0.09674286729643004,
        0.6615357333629538,
        0.3238548631614216,
        0.6802512077243302,
        -0.8293533622491434,
        -0.21542909045233027,
        0.3097536260409001,
        0.18244258662060536,
        0.622988787556285,
        -0.2398775103795687,
        0.2897147590559946
      ],
      [
        0.6789220762799856,
        -0.39142966392330836,
        1,
        -0.44190283995716395,
        -0.1017601841903345,
        -0.029066507362754693,
        0.6910059469948201,
        0.40667361761177434,
        0.6131719267315411,
        0.2504762979163092,
        -0.4298941283012964,
        0.12478772162565302,
        0.12514552658967265,
        -0.46115361631326485,
        -0.6844259231414261,
        -0.3688884288214314
      ],
      [
        1,
        -0.15106233324825122,
        -0.1265255871104737,
        0.3124098218885094,
        -0.4063463601906254,
        -0.027507183652768993,
        0.3070606859188964,
        0.08771756108868083,
        -0.2095836638084518,
        -0.05150298952536444,
        0.4188740886134818,
        -0.264381710583211,
        -0.8941683906932114,
        -0.46895908139827874,
        0.46422549094322546,
        -0.05391278254586691
      ],
      [
        0.29103853935082474,
        -0.45014518424523586,
        0.41373592838700457,
        -0.21727282864402497,
        -0.4373411278837196,
        -0.18644077291333958,
        0.365016409980244,
        -0.7946521796071918,
        0.06110416998827497,
        0.15415146635158483,
        -0.8422542874767329,
        -0.39625437395297297,
        0.1422269499697267,
        -0.6700386136493522,
        0.8137638642372133,
        -0.5198267903464906
      ],
      [
        -0.6690150138008036,
        0.1617524626663458,
        -0.12984379223789572,
        0.6392052916303681,
        -0.8036050111934675,
        -0.020626322628981102,
        -0.335961055389917,
        -0.3542409651345522,
        -0.5679430526671563,
        -0.11489073872557284,
        0.9400045107043559,
        -0.6136650080484046,
        -0.579320383143855,
        -0.46806987495820807,
        0.17449694360464585,
        -0.4809984474954203
      ],
      [
        -0.07472439157485393,
        -0.05390477994842207,
        -0.2753055258733802,
        -0.28488585104542963,
        0.1094462114588195,
        0.054127361095716774,
        -0.38160217224144405,
        0.22523068497254545,
        -0.3543057775816837,
        0.2505675848334653,
        0.2616801143715493,
        0.637285623051602,
        0.9402352466223275,
        -0.631132422975728,
        -0.9254905661597765,
        -0.018080240313841155
      ],
      [
        0.5135673459813654,
        -0.15115341348750252,
        0.770207538977342,
        0.32671352009830895,
        -0.5083101883418553,
        0.05334773737577109,
        -0.18005800524397278,
        -0.10974359395071813,
        -0.1499851311440615,
        -0.15583443651551618,
        -0.5961581578912637,
        -0.3996866030787906,
        0.03905738242276383,
        -0.15753237830256633,
        -0.5261756567128726,
        0.6846468611768667
      ],
      [
        0.09278602280369624,
        0.1749900160224146,
        -0.39242826432469874,
        -0.586606388345591,
        -0.8814006388338376,
        0.7891999822860065,
        0.16224236846766205,
        0.46312946903909125,
        0.177771113850017,
        -1,
        -0.6427579871998654,
        -0.18616843246172465,
        0.18516168239578337,
        0.05783672873266269,
        0.06633635819312733,
        -0.4864679962344695
      ],
      [
        0.05220635386511837,
        -0.3303811894079173,
        0.283412436371035,
        0.8205837385531912,
        0.8227203478380309,
        0.4268508044309701,
        0.1570227739080981,
        0.782308115284499,
        0.3442028444501297,
        0.4424545217361872,
        -0.018264374531712733,
        -0.34972139337616376,
        0.43886387664707277,
        0.031484155173124716,
        -0.6368376580730752,
        -0.07330779445711666
      ],
      [
        0.6837844072506654,
        0.891339656764943,
        -0.26150576632464667,
        -0.8371559062697477,
        -0.44317979741690894,
        0.09011730061732047,
        0.12531970503159243,
        -0.033179135811101594,
        0.05906139678233926,
        -0.09423984465163088,
        -0.6189689208617343,
        -0.14926255020218646,
        -0.15823965017505792,
        -0.07739086854811132,
        0.20784466842098406,
        -0.013634769737251124
      ],
      [
        0.21094838633504656,
        -0.19837922045989942,
        -0.2885349248717527,
        -0.19985087543382823,
        -0.27762650240098447,
        0.36666783701478706,
        0.7844117408858404,
        0.29671367382763514,
        -0.9876142752546767,
        -0.22625570433101636,
        0.24726692490085558,
        -0.11340025623329499,
        -0.11945713701905691,
        -0.787866460969959,
        -0.5211892559970452,
        0.17169354087577177
      ],
      [
        0.3963927903601896,
        -0.839522365559755,
        0.509755857726809,
        0.18741080506363703,
        0.0330414284921221,
        0.30125350443738713,
        0.49463366759518784,
        -0.35014865163086617,
        0.2460779211940187,
        0.22144407820945372,
        -0.30878623048819087,
        0.5797667527580845,
        0.1421931216640008,
        -0.70030462322005,
        -0.14277493011579265,
        -0.08528488519805674
      ],
      [
        -0.44736394998221524,
        -0.16619338412003695,
        -0.1049460623591247,
        0.3146957549890788,
        0.11263599021100579,
        -0.1954340862624121,
        -0.12580002974341065,
        -0.07931231280701577,
        -0.22153196634999017,
        0.15523107025215946,
        -0.015919919008011183,
        0.085437887766441,
        0.27128537499749145,
        0.33483046075755574,
        0.18786204400425363,
        -0.811750771240491
      ],
      [
        -0.5745936811640849,
        0.008385800447258056,
        0.25336149239854444,
        0.2576392270456923,
        -0.23861706262530155,
        0.21566738173688085,
        -0.028905232616823744,
        -0.057029116991109456,
        -0.31750407120994534,
        -0.5505920310151381,
        -0.28762119786510354,
        -0.17243948318063715,
        -0.5441271535669364,
        0.059271923335172644,
        0.27491551843295065,
        0.31473433577317345
      ],
      [
        -0.16318449379268612,
        0.1313850975641661,
        -0.04372871075390265,
        0.03181859437724283,
        0.07916849127095327,
        -0.4912054867753024,
        -0.8657261954317349,
        1,
        0.2813657093244531,
        -0.3538395008763805,
        0.03111539542754086,
        -0.03950811389351968,
        -0.5210715617626737,
        0.07794358274624165,
        -0.8750462422747955,
        -0.47851841019158525
      ],
      [
        0.9350573024871263,
        -0.03664891496113931,
        0.8795925082400169,
        0.0542431912016349,
        0.5178411644245016,
        0.8088334606504408,
        -0.14748642092862177,
        -0.6178662113040236,
        -0.6306715375746057,
        0.3440871917706356,
        0.24565634785928622,
        0.2985805711517187,
        -0.042739581614479334,
        -0.3324255080617959,
        -0.9005836055775447,
        0.4824715207807445
      ],
      [
        -0.029770400411923463,
        -0.5014730335398172,
        0.3574195254336428,
        -0.5824465244517767,
        0.04505483737402202,
        -0.011490439939637984,
        0.6275702223253071,
        0.19347519532765614,
        0.07079602368452312,
        -0.5600814335327264,
        0.26375470812414464,
        -0.38675712815399066,
        -0.4390300762959757,
        0.23861878322562693,
        -0.5003510975527683,
        0.00326574750275431
      ],
      [
        0.01001877291774222,
        0.029058256419940306,
        0.5905272366986836,
        -0.2431879344278256,
        -0.008577855088151494,
        -0.8314295645798938,
        -0.3282204074094898,
        0.14097532008267102,
        0.022960368715608397,
        -0.3216086779622208,
        -0.4431473143471348,
        0.02020258204500355,
        0.20452992235520973,
        -1,
        0.09271450390834694,
        -0.016080670272250953
      ],
      [
        -0.3462753996065746,
        0.30967641686467334,
        0.6201751086145407,
        -0.35598657599569483,
        -0.745791264867161,
        0.21096288714581746,
        -0.4490718917985061,
        0.36238891581416255,
        0.24732661568042802,
        -0.6682260538930643,
        0.12273618283495957,
        -0.662028574346648,
        -0.009879934266218079,
        0.12766157195979258,
        0.25562721976876907,
        -0.21986329608771196
      ],
      [
        -0.1949871175056476,
        -0.2190060214769246,
        0.26154281936806334,
        -0.002821371514436232,
        0.019798347754245455,
        0.6637529729289023,
        0.35278765887178754,
        0.2935474257911514,
        -0.3416765861834291,
        0.7494223195769366,
        0.050191462446094764,
        -0.3123330579454484,
        0.4750827068762415,
        -0.3182059487953119,
        -0.7977890341571278,
        -0.5442464726543484
      ],
      [
        -0.07325051210135886,
        -0.11648829006756695,
        0.14867435885013608,
        0.5023721489010349,
        0.38022827988168967,
        -0.3405856674754664,
        0.32742262331040334,
        -0.317578275917602,
        -0.29940878885711814,
        0.7853609234636141,
        -0.4730849949720284,
        0.3707782737152446,
        0.18619453730796773,
        -0.06510797979568352,
        -0.2976219157845351,
        -0.03258051797417128
      ],
      [
        0.5136340447701079,
        0.9728479376325545,
        0.334127863273693,
        0.4084555916774132,
        -0.03813305448433097,
        -0.5392030422108485,
        0.08421035483750246,
        -0.33536900659412505,
        0.6553782146186004,
        0.25209632218762956,
        0.8708923926773242,
        0.16102583325599282,
        0.8980178725687235,
        0.2780864072961706,
        0.16006383207369537,
        -0.4718978246727722
      ],
      [
        0.09425840542768157,
        -0.17465000049710613,
        -0.4963718709932235,
        -0.1037478387247958,
        0.7180735144491668,
        -0.42459355918792835,
        -0.08038628700918307,
        0.05208649541648238,
        0.2937773020226959,
        0.4651561329781613,
        0.3052445819342627,
        -0.19683964713556204,
        0.2877760790087695,
        0.09022625058340196,
        -0.06605103215199422,
        0.027425179507012128
      ],
      [
        0.8684059024650219,
        0.11939319514597384,
        0.8087106217896707,
        -0.7478824098937094,
        -0.21013433196170384,
        -0.8215025181329508,
        0.38397237617880264,
        0.07930644996850404,
        0.11902738804542055,
        -0.41225868100572277,
        -0.317080608678496,
        0.32877955572671197,
        -0.5378780303699982,
        0.24296109814033964,
        0.09314768920256848,
        -0.5477003566912495
      ],
      [
        0.5347518001460849,
        -0.20644574236548596,
        0.04181888263518489,
        0.88259097058598,
        -0.4429756714429129,
        -0.9723212122917175,
        -0.16415132153209078,
        -0.19741748323768035,
        0.002729610218383872,
        0.18350796899798172,
        0.45017206506959573,
        -0.21787463070774596,
        -0.18423962804323268,
        0.6259893582704744,
        0.5106181073891509,
        -0.5475421278809821
      ],
      [
        0.196134425402216,
        0.4854750172620994,
        -0.26896110667532835,
        -0.6181133296453827,
        -0.5210462041995372,
        0.23098638738252023,
        -0.8155783999814235,
        -0.5881802646677744,
        -0.12645453045278882,
        0.03996884998036606,
        -0.7621388861606901,
        0.8149803987425882,
        0.0034955354592128215,
        -0.8578593134812993,
        0.2813336436913589,
        -0.7937559695455504
      ],
      [
        0.3683967039692423,
        0.17940626287301378,
        -0.35815974713791604,
        0.42450012053905983,
        -0.3682757948752721,
        0.2662463697635768,
        -0.3265897667305402,
        -0.23980941857047802,
        -0.710835196644496,
        -0.5779843085754874,
        0.02941310608626538,
        0.6217478014856658,
        0.28542338655247396,
        0.4738124369217506,
        0.09970870591631381,
        0.08406309330891662
      ],
      [
        -0.49604796965462344,
        0.3339771409611797,
        0.11264499688220184,
        0.2185106636052071,
        -0.13530559289232866,
        -1,
        -0.09777437704290394,
        0.10640029676103978,
        -0.6317856637009869,
        -0.296446283199281,
        -0.05697240508776367,
        -0.36378295656607534,
        0.4676778197526739,
        0.109733571846306,
        0.3189425609736796,
        0.30395490272088255
      ],
      [
        0.1693523889759696,
        0.21549442610160247,
        0.0880744824764629,
        -0.59989450242402,
        -0.010645532476926343,
        0.3033118996237171,
        -0.27174637733110163,
        -0.23046780399420005,
        0.36816025397407315,
        -1,
        -0.08467956151523975,
        -0.17702147030134757,
        -0.6361903414725449,
        -0.42858971657280676,
        0.2313854362580525,
        -0.04495809783405386
      ],
      [
        -0.11843850183422112,
        0.4963883800141327,
        0.6437759499132366,
        0.22966610617702118,
        -0.16952314152467887,
        -0.11121244934296111,
        -0.27534651787890574,
        0.6585286089505304,
        0.005445279560622987,
        0.6671367548028453,
        0.17944850853478408,
        0.2075030200484628,
        -0.21497084151449886,
        0.039280569400974984,
        0.28217874212389743,
        0.2120786665350854
      ],
      [
        0.3776587357818525,
        -0.09829838936386133,
        -0.18162589246390218,
        0.20619081787710555,
        0.7084416485307179,
        -0.06841174928018028,
        -0.3048784604253369,
        -0.07451928642989768,
        -0.006986871505819909,
        0.7947409080056805,
        -0.1813712168358039,
        0.7724450940743315,
        0.2247386931632547,
        -0.8763347310089671,
        -0.5630388198819504,
        -0.2521733962335468
      ],
      [
        -0.1874773533404336,
        0.4026448300927084,
        -0.017196014274043096,
        -0.2799806379451723,
        -0.39196331208087487,
        0.08750959642868274,
        0.7973734392296928,
        -0.17101818627543822,
        -0.20418248978092074,
        -0.04904924308674117,
        -0.8586802765817493,
        0.5685557632803415,
        0.06939548874096545,
        -0.04323592054997593,
        -0.40790538882728755,
        -0.13885187302234342
      ],
      [
        -0.5775042030953198,
        -0.9869422646319278,
        0.22356814815031414,
        -0.2373354630929879,
        -0.04571771456658403,
        -0.19585292860760298,
        -0.2013826786265128,
        0.5613627271019647,
        -0.32763593229253296,
        -0.0734536619414088,
        0.37456910516011144,
        -0.11830257250646943,
        0.14683727204481634,
        -0.14186238395631076,
        0.4107920573633809,
        0.07356862306510849
      ],
      [
        0.5209826485533772,
        1,
        0.1230983295680366,
        0.040494822068725,
        0.2040469721427511,
        -0.34830402463469556,
        -0.062291353278502985,
        0.7684841352396875,
        0.18992704690503465,
        -0.5824001179259456,
        -0.11402705994383946,
        -0.05208192014677035,
        0.8967079843081299,
        -0.63745867746052,
        -0.3901108006647924,
        -0.8725648564032262
      ],
      [
        0.5435038854724208,
        -0.6623576482281635,
        -0.1314257586135107,
        -0.00782182669582267,
        -0.5738456673081178,
        -0.2872815836203847,
        -0.016429610265695567,
        0.387875794394957,
        -0.850772949893906,
        -0.6233187393774698,
        0.9262678934671429,
        -0.24898150204106897,
        0.922435307070661,
        -0.3788522050678162,
        -0.013945859744125867,
        -0.042658362818012406
      ],
      [
        0.19491898313116338,
        -0.2833363691085764,
        0.122504669567022,
        0.6692951105510099,
        -0.29607494960148484,
        0.8280637063107398,
        0.9603367019071999,
        -0.41661746508867253,
        -0.2141260557019415,
        -0.20900389925367496,
        -0.3744919254706679,
        -0.384001167572174,
        -0.222117163419537,
        0.3753265978377521,
        0.15493883519488064,
        -0.664994302718103
      ],
      [
        0.5131714922552982,
        0.11220133471825203,
        0.8845426315528355,
        -0.14464318814920957,
        0.018953107442695637,
        -0.8627225850616659,
        0.06212691831040453,
        -0.07961745142624599,
        -0.3675315142379516,
        0.024640108214020455,
        0.22510618203101362,
        -0.14484130843211498,
        0.07905032701603525,
        0.09686681923123015,
        -0.43806031579005544,
        0.18909009568747048
      ],
      [
        0.053120747548158376,
        -0.15151188925202896,
        -0.709477343088653,
        -0.10901329312373459,
        0.5765973824566938,
        -0.7995651902724267,
        0.9563127150827313,
        -0.18392130502217238,
        0.17791093352863485,
        0.21852894663637557,
        0.18951466603756134,
        -0.19674810742491206,
        0.48469522551026323,
        0.012713549012208898,
        -0.30655590610934325,
        -0.23310460995304355
      ],
      [
        0.1345790345879594,
        -0.34645229351460277,
        -0.4539986215592894,
        0.2953449291215662,
        -0.573737817021387,
        0.3910483310110499,
        0.053088288955823806,
        -0.1916632209936734,
        0.5652553377130881,
        -0.13677727419539862,
        -0.060372903694126186,
        0.7584097516437757,
        -0.12581163399088238,
        -0.4528237643820419,
        0.6166018791763743,
        -0.2112988680782639
      ],
      [
        -0.7367952175795793,
        -0.35652400627428327,
        0.4004868282173054,
        0.13621128366452148,
        0.09877196398292462,
        1,
        -0.48941690520626097,
        0.17458023517436605,
        0.15267922441217352,
        -0.4749811792880325,
        0.6440617672495178,
        0.17628400703769023,
        0.7842559237509704,
        0.6829385973661903,
        0.6918113723230529,
        -0.43579395296406837
      ],
      [
        0.3399952252381232,
        0.3758714917589275,
        -0.6926786459186364,
        -1,
        -0.09448998664122786,
        0.46347543558656673,
        -0.32111069854928836,
        -0.514605748300509,
        0.2935713918972721,
        -0.018581802836638486,
        -0.5019236041584522,
        0.048640057875987484,
        -0.06351623611503546,
        -0.5876222383690435,
        -0.9622370077154706,
        -0.3476338190399814
      ],
      [
        -0.08120600719161532,
        -0.47842635441822196,
        -0.721516353594662,
        0.2974756966387684,
        -0.003923422997529321,
        0.9043170484723321,
        -0.9459919303823137,
        0.1162072232370397,
        -0.8831971681024798,
        0.19928951023980282,
        0.1541831243830307,
        0.7862577137841577,
        -0.8177183653894787,
        -0.22556358542774838,
        0.5692131281703109,
        -0.5272978620734993
      ],
      [
        0.03847235167212928,
        -0.033673492841035935,
        -0.33184830888879585,
        0.7414151044779684,
        0.49433773036876527,
        -0.5882193096949985,
        -0.1459016593250803,
        -0.908915551122883,
        -0.5704849163286714,
        0.6054945917090262,
        0.030436241379797894,
        -0.2689980038962934,
        -0.09935855506912722,
        -0.5425306084133271,
        0.22942723395347292,
        -0.9032641053199768
      ],
      [
        -0.2600289935175698,
        0.5879854094335045,
        -0.05837025028688292,
        -0.10705690195435627,
        -0.012358114726634667,
        0.25979999230880163,
        0.1369919545739138,
        -0.37913454583920886,
        0.43126110467026674,
        -0.20760525928580875,
        -0.07721848051157335,
        0.18676516622761316,
        0.03753479945848667,
        -0.06064538155244983,
        -0.7053461533727418,
        -0.0902311417742238
      ],
      [
        0.1452628172019502,
        0.40572971012209924,
        0.30782356099595337,
        -0.4579080382424158,
        0.9116579820498348,
        -0.12307751060799577,
        0.02046031942879092,
        0.3053612820194717,
        0.47302294187740956,
        -0.2815669103062288,
        -0.6219464876254671,
        -0.4764756049562834,
        -0.30298919053399925,
        -0.07077352464527566,
        -0.45568885680274535,
        0.11118776842602851
      ],
      [
        -0.33445548110469386,
        -0.22480216847425674,
        -0.8834166721903913,
        -0.3418728177132755,
        0.19181179295462372,
        -0.62607414999426,
        -0.16178897190854372,
        0.9080792571341586,
        0.05002870747811036,
        0.6076628417045447,
        -0.2659551042088537,
        0.5905759323387597,
        -0.37597049640578617,
        -0.2508925664150342,
        -0.031574484393011755,
        -0.3550864750877902
      ],
      [
        -0.08525971543532775,
        0.03246987867552058,
        -0.013130093605766117,
        -0.2898715147568362,
        0.28415828888042194,
        -0.7818893177650829,
        0.1481829601750287,
        0.09384108269934775,
        0.01035597983383098,
        0.33977533261578535,
        0.2153300581957502,
        0.6122375721874475,
        -0.22802299649788862,
        0.31775650107174525,
        -0.8926155926263313,
        0.27429516556820166
      ],
      [
        -0.18111808631917495,
        -0.510660047622345,
        -0.5761396728330295,
        0.4094438654609887,
        0.074784253633957,
        -0.031963775306476566,
        0.3348238397596746,
        -0.38810432174499193,
        0.08707169321604515,
        -0.033514955059162944,
        0.6849341539763916,
        0.22412907370677448,
        0.006230009664885707,
        -0.09393907803277089,
        -0.1423254690762621,
        0.9272865470132459
      ],
      [
        -0.062463903853841526,
        -0.24176396365091404,
        0.09244043748227698,
        -0.3288230224189867,
        0.3501954745062433,
        0.20275572058114916,
        0.3398044606853599,
        0.5667659131872032,
        -0.671512178149219,
        0.8642604149806233,
        0.9969022809054655,
        0.7960089812264367,
        -0.07281279049728036,
        0.3081683964247419,
        0.6514402133241408,
        -0.0825529180277134
      ],
      [
        0.021021017881940444,
        0.2812317151838078,
        0.013804374369872079,
        -0.4835680940152415,
        -0.27901695675850224,
        1,
        -0.8772373592023994,
        0.09513955893884489,
        -0.314748292860792,
        0.8880240321159363,
        0.023889589113067267,
        0.2829256851808655,
        0.34790281605300166,
        0.2954601123252822,
        -0.450211802110065,
        -0.2766437311798691
      ],
      [
        -0.11817203744314032,
        -0.0176451083752478,
        0.6515704905474391,
        0.06546401317122624,
        -0.33965571489534485,
        0.44229084949835556,
        -0.360155286443712,
        -0.6495750843991628,
        -0.2555647298453588,
        -0.024377350464751913,
        -0.10782270522524681,
        -0.05147422495843236,
        0.027829426235142587,
        0.13755139969046962,
        0.39846144786285653,
        -0.9255818724632263
      ],
      [
        0.04375716909020573,
        0.1563908366799929,
        -0.6869011448822173,
        -0.2769993546358292,
        -0.11093251102416483,
        0.6827364462123483,
        0.7375961586767644,
        0.4390494069863328,
        -0.31480512215007556,
        -0.1250615127098224,
        0.16191784929474093,
        -0.14932057590206652,
        -0.5968956364795005,
        -0.46388459139495336,
        -0.2698608658316558,
        0.039186515036989895
      ],
      [
        -0.585746935244972,
        0.044391199272494734,
        0.23222774916100924,
        0.3891094651606277,
        -0.08190035859605407,
        -0.46611947811538934,
        -0.41609333076079835,
        -0.7162095129525355,
        0.31646322816074857,
        0.44510311316924306,
        -0.06065428472436859,
        -0.11312529895163043,
        -0.9217681752856066,
        0.20995075669369181,
        -0.40531687393375976,
        -0.20139425667340502
      ],
      [
        -0.05765241898837003,
        -0.8232123362527696,
        0.4003973039856793,
        -0.006237574293105873,
        0.14052942788070188,
        -0.03516941285319152,
        -0.34470025930689746,
        -0.4510809579828274,
        0.29276875869793534,
        -0.041794346557673286,
        -0.348352944052498,
        0.29041974643485663,
        -0.06993206296016813,
        0.04296311751845501,
        0.4620542952243618,
        -0.26277643390189437
      ],
      [
        0.018394311487505383,
        0.24509911443437282,
        0.6633582624704749,
        0.21845197228967905,
        0.9454761141455159,
        -0.20487015168607065,
        -0.3853595660835324,
        -0.27898685714689947,
        -0.9365572929382324,
        -0.21701198111348335,
        0.3523927486728364,
        0.02041683589104901,
        0.6421571784833312,
        -0.09519978129279184,
        -1,
        -0.8298023903037515
      ],
      [
        -0.3024460677826602,
        -0.3043681006988002,
        -0.02410441205248182,
        0.1816153728561427,
        -0.4470459835896717,
        0.6226550784500531,
        0.28383206118322435,
        0.11195023008451613,
        -0.4893385768898989,
        -0.2548241616013672,
        -0.9086888186283414,
        -0.5589421298793484,
        -0.11692131386745748,
        -0.20067389394805493,
        -0.145990909037964,
        0.06905013909832389
      ],
      [
        0.8069241158688236,
        -0.2538976345688425,
        -0.17773196533586186,
        -0.09708353406678723,
        0.552267981962481,
        -0.36865640177645653,
        -0.06846737937083747,
        0.8492756479682959,
        -0.21027901659704865,
        -0.38144094701366626,
        -0.685945619549401,
        -0.41968265748773,
        -0.0009686681676310576,
        -0.1995772239095155,
        0.09770009316403756,
        0.12477848935778799
      ]
    ],
    "biases": [
      -0.01489011395261292,
      -0.6448297403264299,
      0.18472205335781172,
      -0.9630391945795614,
      0.15427148329614232,
      -1,
      0.05972156754003295,
      0.11771071986739318,
      -0.540482494455024,
      0.14581983541841265,
      -0.40424304513927556,
      -0.5398843645890582,
      0.282036871533869,
      0.5836470582850672,
      0.20380266827349267,
      -0.41463062331953876
    ]
  },
  "layer_2": {
    "weights": [
      [
        -0.8570005097027461,
        0.7759880028479903,
        -0.08933997390271989,
        0.12030699321745024,
        -0.07820339670255753,
        -0.5601079808987378,
        -0.7885179572475775,
        0.01798775373617204
      ],
      [
        -0.605663115891183,
        -0.5030626452671269,
        0.36609868539919327,
        -0.17263065871634134,
        0.04574228323581687,
        0.13391819198084842,
        0.30239608943113677,
        0.13720017093709383
      ],
      [
        -0.2723395363131163,
        0.37753281561165464,
        -0.34000468034830117,
        0.09903630144703074,
        0.1151493266262226,
        -0.8361295529738394,
        -0.24232463192471843,
        -0.22920541342728826
      ],
      [
        0.2821069017174531,
        -0.6451819301936252,
        0.5504343554007143,
        -0.4390135632264584,
        -0.14818306668969705,
        -0.2076642888785798,
        -0.6194553986232878,
        -0.35834599818253543
      ],
      [
        -0.12287547219197267,
        0.25503242942643095,
        0.5478223925172601,
        -0.23493509982957975,
        0.4581662773796086,
        -0.6915220451684247,
        0.605526565271823,
        -0.21117154531642474
      ],
      [
        0.022028897058466352,
        0.03313336244767403,
        0.0847031522018976,
        -0.10504121033192698,
        0.34073454052235386,
        0.13994701594964787,
        0.39127788947449044,
        -0.2776591751273203
      ],
      [
        -0.1944306263111937,
        0.23648459629898247,
        0.09662245870191014,
        -0.07605360323039341,
        0.004506809405016927,
        0.50764554400299,
        -0.23520765098949464,
        0.019851972176437253
      ],
      [
        0.18133920383322347,
        0.15725152693110198,
        0.5463828870095162,
        0.11548711381327591,
        0.5106699145287363,
        -0.558072915059461,
        0.027214707898028247,
        0.9545894851774079
      ],
      [
        -0.0077746650760523684,
        -0.3155049292254404,
        -0.8464033954453868,
        0.41136291590626783,
        -0.5540807583479258,
        -0.25248483316501924,
        0.24786080922249992,
        -0.025261529898765747
      ],
      [
        0.49437546004538874,
        -0.12831356058695642,
        -0.10669875416450149,
        0.7219457419847136,
        0.18070568000020087,
        -0.9259952031182341,
        0.7944780417958046,
        0.11548722052135615
      ],
      [
        -0.480757925019537,
        -0.21526835667556182,
        0.4603710196383133,
        0.11301427402896959,
        0.1242721094941369,
        0.6449213038098479,
        -0.13411445882954193,
        -0.6775623379371396
      ],
      [
        1,
        -0.02994266744643192,
        -0.3546882960073492,
        0.2568132792150853,
        0.5079321226812573,
        0.4429012581123389,
        -0.196313887889454,
        -0.037584788437086146
      ],
      [
        -0.7736044186003483,
        -0.341351710251547,
        -0.008836256378153568,
        -0.18938660867099116,
        -0.06777298077727159,
        -0.12119193658902855,
        0.9775781824632548,
        0.7435048097857908
      ],
      [
        0.3937792401480373,
        0.5120504564708825,
        -0.13811506932736492,
        0.5071362632022118,
        -0.2925741125318785,
        -0.18506368474007412,
        0.34049219042339124,
        0.22663328305295735
      ],
      [
        -0.20054250248279754,
        -0.5822666979818398,
        0.0005804089178902479,
        0.022769197006737844,
        0.08224438288535703,
        -0.3614475071280257,
        0.2085541747630585,
        -0.33063376910286657
      ],
      [
        -0.4550240594222593,
        -0.8844489224384664,
        -0.019450518722404463,
        0.16374541804505535,
        0.4043817741664198,
        -0.047820910075985844,
        -0.07243636866612005,
        -0.2848914828594776
      ]
    ],
    "biases": [
      0.14131274663271187,
      -0.2849008654509238,
      -0.2763198966811573,
      -0.05284858559272272,
      0.07977516848385542,
      -0.7529309964592099,
      0.07317691075293431,
      0.05973891900718249
    ]
  },
  "layer_3": {
    "weights": [
      [
        0.43087217716754533,
        -0.7045019697919465,
        0.6245433298401644,
        0.0825037731361736,
        -0.07569972299617683
      ],
      [
        0.16049148483498,
        0.07919172112519106,
        0.5047334118592232,
        1,
        0.9601563215255737
      ],
      [
        0.02372444403483598,
        -0.5918686306045954,
        0.07236155617436432,
        0.21051740507942807,
        -0.21703111867348263
      ],
      [
        -0.315192841738145,
        -0.6622696557132209,
        -0.24982725172473738,
        0.15678284298657205,
        0.8534865410545587
      ],
      [
        0.23904278497644882,
        -0.09368784952177645,
        0.3080452415191512,
        0.17939487144809596,
        -0.16064599945544697
      ],
      [
        -0.3286804933293407,
        -0.9144504698048698,
        0.029332958278401634,
        0.08791758872567201,
        -0.7624810150300619
      ],
      [
        -0.5744838698924287,
        0.4255440118317898,
        -0.7539582940611418,
        0.20846268293064565,
        -0.5786131251108256
      ],
      [
        0.8186837729388332,
        0.15039418948071126,
        -0.13274823707161673,
        -0.5838169548171003,
        0.20365304503238427
      ]
    ],
    "biases": [
      -0.7298370261927123,
      0.08433943104554263,
      -0.06934682768027405,
      0.1289304549058886,
      0.13338657007806562
    ]
  }
}