{
  "layer_0": {
    "weights": [
      [
        -0.7823156590539591,
        -0.6044537376963002,
        0.09143576013399515,
        -0.6845895434064664,
        -0.9414267425055358,
        0.225933411222757,
        0.6404487539937275,
        0.2691914164763039,
        0.6831857918062992,
        -0.6706152337744724,
        0.36123173138484754,
        -0.32979578303277446,
        0.1505596525545835,
        0.4951930642211632,
        -0.7006499803436108,
        -0.7939311306252049,
        0.3670130215404615,
        -0.7165100764816136,
        -0.960548343519261,
        -0.5238837694634157,
        -0.7744837436721216,
        0.8117112986488872,
        0.48419902524796904,
        0.5626838152012714,
        -0.9350058128266899,
        0.3780812971180746,
        0.03888469221868661,
        0.6851847465479957,
        0.8247688099668344,
        -0.9370546562480073,
        -0.19237830034870887,
        0.6963458918369658,
        -0.9145502301028222,
        -0.3828897119483431,
        -0.3399985184935078,
        -0.6717622538652614,
        -0.14432054032903435,
        0.1741341725085594,
        0.18374633408965468,
        0.6262322829069547,
        -0.023068624976434665,
        0.5085774181828511,
        0.38723375193769694,
        -0.6943947698351689,
        -0.605686728198506,
        0.8518265558575425,
        0.6450691970181923,
        -0.05917572667914578,
        0.8539167019708682,
        0.642784106792688,
        0.7637926492971435,
        -0.3554689221070856,
        0.128932056496152,
        0.019966481965451872,
        0.0010407291264812961,
        -0.8976445646963869,
        -0.2041940421279939,
        0.7038235228413319,
        0.7315971516164077,
        -0.9326080955309607,
        0.6839805827062353,
        0.6635885187083029,
        0.7281953305411126,
        0.6405182090081358
      ],
      [
        -0.2272719340940146,
        0.8031647003713089,
        -0.7179384609824903,
        0.052393498310224565,
        -0.7840843895716252,
        -0.4731894299067012,
        0.32076742875216385,
        0.15030347756015688,
        -0.2361746921546191,
        0.6240423300794543,
        -0.3271308368529511,
        -0.5623322271311095,
        0.2676562849640339,
        0.38988874265860446,
        0.44997745206126305,
        0.05397962244853384,
        0.8858519157997471,
        0.5346853013827467,
        0.9238525804903304,
        0.4430835505824793,
        0.783326637024825,
        0.6318685321498096,
        0.15077473383307377,
        -0.060866076751377715,
        -0.7903608447599678,
        0.5916646767333271,
        0.7894950762586675,
        -0.8189605496893791,
        0.8107605878505654,
        -0.5159655192289706,
        -0.06113159796942876,
        -0.4486098187818033,
        -0.22740854744327293,
        0.4115424578456292,
        -0.38411875369768994,
        0.6214172647482675,
        -0.7915662553173213,
        0.565028764382641,
        0.5254601355115522,
        0.590105282821609,
        -0.2216597228794698,
        -0.38407289417001755,
        0.9519880362590318,
        -0.1804218379421019,
        -0.49170521132813355,
        0.08516132525202834,
        -0.8465836642320111,
        -0.3710886727364137,
        0.4058802937728255,
        -0.48722650823323366,
        -0.43096570681901686,
        -0.8557843077556098,
        -0.026181149340457815,
        -0.30278284735269256,
        0.9108792679023873,
        0.6211004109357754,
        -0.8718728448629527,
        0.4122160390483342,
        0.43062598218568526,
        -0.5593293614987895,
        0.10608035567315768,
        -0.31548389173181834,
        -0.9566673115668703,
        0.24441477273640733
      ],
      [
        0.1862409317518423,
        0.8340118311492961,
        0.6569957633859018,
        0.4216985136093896,
        0.29717254873882004,
        -0.40461218088815065,
        -0.7535281625136296,
        0.21615774510683025,
        0.3834017558189215,
        0.6680129692177365,
        -0.45985021171807955,
        0.13343196377901828,
        -0.236445500285281,
        -0.5460017834001017,
        -0.04684699348906944,
        0.21373899250182793,
        0.874200236961347,
        0.45408307899236716,
        -0.2500761033070582,
        -0.4317155097021684,
        0.13675349407932844,
        -0.2385838100065858,
        0.8275303269345552,
        -0.4296005494365497,
        -0.7291284742914947,
        0.9316221440742861,
        0.16081302955855525,
        -0.724513823679262,
        -0.1072478778905112,
        -0.15364120142906673,
        0.3864544565946707,
        0.39758597788662187,
        -0.8129022894773483,
        -0.15663496229667145,
        0.8219880533203713,
        -0.8664614758334027,
        0.3904841963897852,
        0.949953075706665,
        -0.3496655088986516,
        0.671128137856818,
        -0.9202544783347987,
        -0.28313971438724955,
        0.47068490404390034,
        -0.36451245020156414,
        -0.0973376758605594,
        -0.2453060360440322,
        0.7811466796829865,
        0.026024797347267776,
        0.6523746226803481,
        -0.9344827208241615,
        -0.8206761715861408,
        0.832484934969385,
        0.5763489883159505,
        0.9706086577595961,
        0.14440883102496305,
        -0.2918821717605209,
        0.4892996169376445,
        0.4105769361473776,
        0.9051501582130154,
        0.5991304769091089,
        0.12959500741489346,
        0.3914502063029496,
        0.2563166613519657,
        0.5317240239255568
      ],
      [
        0.3807103116641908,
        -0.6084353028596965,
        1,
        -0.42822789416750046,
        0.1777747731722085,
        0.8421196109248985,
        0.13210809614000732,
        0.3343658580197489,
        -0.9947764301609202,
        -0.054402971553586824,
        -0.2558634184840451,
        -0.9382947194308375,
        0.6216656099476878,
        0.782783005200764,
        -0.22889860336492074,
        -0.7023390189161735,
        0.4021328337608636,
        -0.8476907102853386,
        -0.7311992916846728,
        0.06013192866742934,
        0.26567114399689684,
        -0.3305923447142783,
        0.33030314223038093,
        0.6605983543182677,
        0.7985702919820279,
        0.4659106747275235,
        -0.656618826793915,
        -0.380602232285475,
        0.5555280143050167,
        -0.0925201393904325,
        -0.4323404643758321,
        -0.15475000990789423,
        0.7741089808487389,
        0.0027789898560404806,
        0.8840002499174358,
        0.9807639319935773,
        -0.3786986755897604,
        0.46714314151496433,
        -0.26397017999750194,
        0.09830015768570538,
        0.3660456968654103,
        0.29954537083549265,
        -0.004088134923796437,
        -0.8286506282777211,
        -0.4384372337130782,
        -0.4821793535072117,
        -0.8640565049155249,
        -0.09051864888227895,
        -0.552331414615575,
        0.41437069701629514,
        -0.89183338094503,
        -0.983626378396769,
        -0.21886989807831542,
        -0.17315342505744508,
        0.6330037003412138,
        0.48687603521068695,
        -0.19873038178629265,
        0.08131009796718511,
        -0.5851637403523361,
        -0.3168400771914001,
        -0.2939576865023192,
        -0.3392594120357199,
        -0.04620291213844683,
        -0.8573524153458594
      ],
      [
        -0.43226180081778476,
        0.3408920441642517,
        -0.25292102947096884,
        0.5443279389032496,
        0.34827508834362797,
        -0.14471643815559077,
        0.7946383295133016,
        -0.5916167423275273,
        0.8285548262960077,
        -0.015777129658525596,
        -0.7906671406849727,
        0.4249150645480868,
        0.3165091399761541,
        -0.805738713193869,
        0.4998418410723851,
        0.006876580182327371,
        -0.17519680226677373,
        0.6586835962239944,
        -0.28074382323983194,
        0.6129473071804882,
        -0.04328962443727801,
        0.8107091943712086,
        0.5915417401016231,
        0.7556791825438317,
        -0.9632875153721443,
        -0.7206177026663733,
        -0.16972666526703672,
        0.3337237833763176,
        0.29626072192004593,
        -0.3771727691150728,
        -0.01734556065390265,
        0.7903548745588921,
        0.7769046105829573,
        -0.42500720638740225,
        -0.6575046825528442,
        0.28775579840228943,
        0.7984453434099665,
        -0.1818922549725306,
        -0.6695951184136839,
        0.5067042084612783,
        0.1966882259550066,
        0.3392257955031425,
        0.24904377945833597,
        0.9715470737490032,
        0.8177464305166221,
        0.13098478758939186,
        0.9196485624069377,
        0.591588100904723,
        0.27529853965716883,
        -0.14091955869588224,
        0.0767497061928936,
        0.5877491365647523,
        0.2178369415456344,
        -0.8328867234827396,
        0.8404293654857612,
        -0.5448303059795335,
        -0.3156662931813089,
        0.7312413612738121,
        -0.2433969702600178,
        -0.4260251324291267,
        -0.9183991281386432,
        -0.3550428526854407,
        -0.15485703927888053,
        -0.6387238534564463
      ],
      [
        0.7188270036056414,
        -0.8526261814981109,
        -0.3544567695657779,
        0.22585507520929712,
        0.1373675772041204,
        0.4124909181765002,
        0.17094567956909912,
        -0.12010905473743079,
        -0.8271550615918973,
        -0.35136546668079666,
        -0.8520855427081843,
        0.7884492189245078,
        -0.44709366446324544,
        -0.1850841395011737,
        -0.6524159271179295,
        -0.42212536310623566,
        -0.5839164610952968,
        -0.601918769382145,
        0.5523648431490792,
        0.7970697269437008,
        0.5287666765706076,
        0.8065990151876544,
        -0.09458110204889489,
        -0.6629281794944768,
        -0.9738864709898852,
        0.06370698761622255,
        0.3267821515245709,
        -0.18627116824889714,
        -0.2965316467948424,
        -0.8350179167936448,
        0.65111635908322,
        -0.4406118785330671,
        -0.9015252169302149,
        0.48224057478419996,
        0.002660913224818855,
        0.6152208851259827,
        -0.7696565020882441,
        -0.6822767390105298,
        0.9384734564738099,
        -1,
        0.5503713266728067,
        -0.462289737503305,
        0.3419244297915177,
        -0.364553290750004,
        -0.6476074439893662,
        0.6044718846914101,
        0.338134607161277,
        0.3456709215011861,
        0.4152349897426039,
        0.5670527789566933,
        -0.9537303760704814,
        0.4147095460026388,
        0.14175134602922443,
        -0.4332848908968522,
        0.06878181475118354,
        0.2888028103379082,
        -0.2320840460089389,
        -0.9503156151418387,
        -0.543189515555948,
        -0.4559736437551041,
        -0.962480723979813,
        0.3565580677499314,
        -0.8879863331111805,
        0.7517719572237246
      ],
      [
        0.19657726447254434,
        0.6115516027084641,
        -0.21636398737164855,
        0.4425431455574667,
        -0.43159567255611475,
        -0.3899495306631714,
        0.6678230006364712,
        0.4315728625722807,
        -0.8180291856175983,
        0.581153548214273,
        0.10361583330965124,
        0.9839397934872885,
        -0.8408245766459709,
        0.09266193337219183,
        -0.019858434649288867,
        -0.26108628772464515,
        -0.23966570833313766,
        0.020054381336925577,
        0.9496718050685057,
        -0.4918228029210371,
        -0.39675925301132575,
        0.764749419377055,
        0.20793687803682132,
        0.33890168221905564,
        -0.28075144871071095,
        0.66360631214569,
        0.03791544422961196,
        -0.09359891213574084,
        0.725563174850036,
        0.5004504474242962,
        0.5790277054665931,
        -0.9067328910241188,
        0.58293469490483,
        -0.29168933510188266,
        -0.21635381348805874,
        0.885665023556943,
        0.14163330545995317,
        -0.15215461713147124,
        -0.8403151623996915,
        -0.42397892048373576,
        -0.21965207183543667,
        0.4252781993438661,
        0.25992729077632054,
        -0.7359255264641568,
        -0.10549655574141033,
        -0.6487703172530545,
        -1,
        0.684935260594946,
        0.406858579673467,
        0.9140142833083473,
        0.04312077915721634,
        0.8588570614163393,
        0.48200256540168634,
        0.12232406119503167,
        0.00391981591914031,
        0.6372789363641034,
        -0.06202516114526628,
        -0.4978575487950195,
        -0.6608725639425139,
        -0.16061867967808585,
        -0.9541923331764447,
        0.1818168961175566,
        0.6426760780966545,
        0.736399270303988
      ],
      [
        -0.6817300995579679,
        -0.3550542526173744,
        0.00955514610914301,
        -0.7291576373094157,
        -0.37974652699849404,
        -0.31841638285788515,
        -0.13760429363394291,
        0.2913991527902462,
        -0.522826927555821,
        -0.7406958101996474,
        0.5425626086297902,
        -0.20682508955969486,
        -0.2537091555749551,
        0.4739119170200934,
        0.3032821593633234,
        0.6944874240752376,
        -0.27104138786689685,
        0.8922451614157118,
        -0.41716199936739873,
        0.4106215087942725,
        -0.2759293837547641,
        -0.8202237431940285,
        0.48538277053166023,
        -0.6834080957481159,
        0.05964349742348203,
        -0.7472878268558844,
        -0.2942569274358431,
        -0.712181959635519,
        -0.9333746395998278,
        -0.08342063619683832,
        -0.8181422818606351,
        -0.8520640283777905,
        0.24712843829089715,
        -0.2552307738995983,
        -0.24555409398882233,
        -0.41764429311139195,
        0.2008685894921966,
        0.05106630414988113,
        -0.017508613444690572,
        0.3148286613047176,
        -0.4208720885587434,
        -0.6325522347225269,
        0.40480460479339647,
        0.7547524573329651,
        -0.9695687243254176,
        0.80457583167268,
        -0.9358403476201071,
        -0.367755039669493,
        0.4682672928613809,
        0.45664663596041316,
        -0.902133848190385,
        0.16642393733776883,
        -0.7868660829117327,
        -0.717340517587456,
        -0.04801036445547377,
        0.9445499647334433,
        0.8932559691599447,
        0.2881707190524438,
        -0.07857310481393116,
        -0.693027806269938,
        0.9817671087463378,
        -0.5971579341155203,
        0.36145372482132127,
        0.38289455158292723
      ],
      [
        -0.720345979072753,
        -0.6940371273582465,
        0.2047209978469637,
        0.04516926019969576,
        0.16759954801343,
        -0.29876221844630785,
        0.008251977211842827,
        0.39604035666657794,
        -0.18466146013355858,
        -0.6751947248572783,
        -0.34965610684918624,
        0.2217210724862357,
        0.7475258600313425,
        -0.10786532061877806,
        -0.8426670643008146,
        -0.8866402619581707,
        0.8461708325447433,
        -0.1481762105507967,
        -0.7031526816042791,
        -0.7910022185161805,
        0.6909356946752898,
        0.2966487988624422,
        -0.3453550902559417,
        0.3065294449674586,
        -0.40077128955488966,
        -0.0163112289683325,
        -0.06894312034063083,
        -0.4508380131991325,
        -0.2867931293868063,
        0.6524501549919038,
        0.3025321942831109,
        0.8638808445204774,
        0.4509195579443619,
        -0.7653536302337223,
        0.872859871060888,
        -0.7759155027538213,
        -0.4725805257575532,
        0.6418473901820158,
        -1,
        -0.44142343217691427,
        0.9684135202797294,
        0.6339683119634394,
        0.33150389754669163,
        0.7176350717679211,
        -0.16581749181582184,
        0.18872553068297349,
        0.7333750783420306,
        0.6368676912710438,
        -0.5860625929795616,
        0.08742190088424485,
        -0.8534385593113809,
        0.293531206276081,
        0.8091570936373321,
        0.2897514926102402,
        0.7436242119285733,
        0.08428865660354841,
        -0.6656889351809848,
        0.6814742968468643,
        0.0715580738548421,
        -0.3291836925219572,
        0.27086491748577796,
        -0.8474130577373578,
        0.3096712777341584,
        -0.020646473237040074
      ],
      [
        -0.8069041586749585,
        -0.5044046072949766,
        0.986328993565067,
        0.31224346164991157,
        0.0550202821280715,
        0.8207145982785002,
        -0.8293812175409166,
        0.9848556860894611,
        0.12506325302071006,
        -0.6484057632639536,
        -0.45436874366431157,
        0.6500583528564818,
        -0.38028654754309293,
        -0.1480489498533079,
        -0.37605555221909187,
        -0.6028969683316863,
        -0.33335956025388236,
        0.5832101743766905,
        0.041381140861570916,
        -0.18705858176211526,
        0.20426331548745347,
        -0.1972501482868837,
        0.8623335011354633,
        -0.058053975682593,
        -0.6823080612860474,
        0.06826343400304462,
        -0.4047282161160488,
        -0.2842067427313471,
        -0.7980604356891172,
        -0.4575248748526285,
        0.8246927579074269,
        -0.3855377624242117,
        0.6695398063004934,
        0.11230344128733412,
        0.2122818210333232,
        0.09041053446140061,
        -0.5929135137709822,
        0.19919980255818298,
        0.4733093940939688,
        -0.6490959183108432,
        -0.42666976947653734,
        -0.40921092573714113,
        -1,
        -0.29054445484165625,
        -0.5983457540153743,
        -0.05209874015261068,
        -0.2043691542673161,
        -0.30949088367727035,
        0.6649409374686371,
        0.1305436208764248,
        -0.15431943770119882,
        -0.3001455670687699,
        0.2765694013730598,
        -0.14204837686537927,
        0.6084081626847123,
        1,
        0.13944750657165808,
        0.13629199818077437,
        0.7263332938164133,
        -1,
        0.2643593075380081,
        0.6525394651596942,
        0.8187828246820721,
        -0.3584266282205189
      ],
      [
        0.144624627475379,
        -0.3459159329607871,
        0.4443662833667823,
        0.3920605726189858,
        0.13008481016390763,
        -0.23446876668350225,
        -0.5082134760016933,
        -0.020097561918653105,
        -0.28874762841548524,
        0.8234931957371346,
        0.7828826612224723,
        0.0654490913566834,
        0.8727810353541803,
        0.7768357735375907,
        -0.42267105188897236,
        0.8945310811307126,
        0.14245437863858904,
        0.8012970255807,
        -0.759460752089521,
        0.37828459130483744,
        -0.5002339334026,
        -0.01324966595482186,
        0.697150337930214,
        0.8348383994151035,
        -0.05250991168097822,
        0.11183318183419509,
        -0.20762343720357457,
        0.2152976912350937,
        0.84244145910066,
        0.037747335882045,
        -0.31978170812887136,
        0.3906476544965888,
        0.3012922689014938,
        0.12287590012039441,
        -0.7274239249283372,
        0.4273836512451484,
        -0.5525729565902769,
        0.178982414389203,
        0.6329562922477764,
        -0.931016974204149,
        0.7405318128979016,
        0.11601366381199871,
        0.07741952472935153,
        0.34617872681941125,
        -0.30876862228792573,
        0.41709519598865225,
        -0.8105036538278153,
        -0.014718928428362782,
        -0.22282473080543574,
        -0.8629269877827084,
        -0.1905670693546881,
        0.34783036100020576,
        -0.18266500194124477,
        -0.7719802673695102,
        -0.13706727039255281,
        0.2439864710366321,
        -0.8882536643686414,
        0.7210509907029917,
        0.46049031685415476,
        0.15814722086597027,
        -0.7292742490595004,
        -0.2312318366224913,
        -0.16271369924670873,
        -0.40328965868460215
      ]
    ],
    "biases": [
      -0.7818260301943393,
      -0.28461329995101425,
      0.8157579304226361,
      -0.9399952685264493,
      -0.9604830700872,
      -0.9724379777908325,
      0.47546582742375304,
      -0.2875820935676703,
      0.7906800016423408,
      -0.6636940093550474,
      0.9640438034393051,
      0.7606325413349257,
      -0.8091932970230157,
      -0.28989564975455767,
      -0.13795727821072584,
      0.4204483386797646,
      0.15276568134038923,
      -0.03937702734637825,
      0.8117718517117105,
      0.5419084454100693,
      -0.8796048243335827,
      0.23686892749712232,
      0.005228388215212349,
      0.6634984785658232,
      0.3252164205392264,
      -0.3705056369885553,
      0.04673252591606613,
      0.3444514148483241,
      0.0904199714536755,
      0.04783476725854066,
      -0.752865183799289,
      -0.29810914171061476,
      0.8551335548631651,
      -0.12713169029294524,
      -0.11884572425281138,
      1,
      -0.5715551883515713,
      -0.31135511621788414,
      -0.006396688377051901,
      -0.38167428109773205,
      0.4129349437201386,
      0.6102598547468651,
      0.6645128884656455,
      -0.5324430391578022,
      -0.07003942010685127,
      0.3765865965632052,
      -0.4171490015005906,
      0.5380879659526181,
      0.8829421463354037,
      -0.25704840594567435,
      0.12450503547298125,
      0.2922348791240785,
      0.6956024007975324,
      -0.6752032684943385,
      1,
      0.047882599160615755,
      0.5571129555655439,
      0.36280079233336643,
      -0.7908524801203269,
      0.04740771088611097,
      -0.5787049642101505,
      0.18824498960630662,
      -0.537954944521049,
      -0.04830637620506133
    ]
  },
  "layer_1": {
    "weights": [
      [
        0.8595162192093491,
        -0.2741921973995038,
        -0.22823100887036976,
        -0.4935669964999207,
        0.2414398822864868,
        -0.5618400020159842,
        -0.9284221721748017,
        -0.6676736885436075,
        -0.301203199946601,
        0.4132630093117831,
        0.726276209886292,
        -0.2233063842773016,
        0.2830797710155531,
        -0.43671869701132504,
        0.04010191586560834,
        0.6002621391070871
      ],
      [
        0.9398499779052801,
        -0.8105952639812134,
        -0.005122418280316293,
        0.10260354094667921,
        0.6994276469175599,
        -0.5795916160075429,
        0.6282366933736029,
        0.20214179452467976,
        -0.20754556620522685,
        -0.8120848624653869,
        -0.7199837149894872,
        -0.8833190338573357,
        -0.8916043289900645,
        -0.04189264090652323,
        0.6948003175000653,
        -0.34955472939474763
      ],
      [
        -0.7351547550283614,
        0.8569286189441655,
        0.40416360022954356,
        -0.034825231462005404,
        0.26130046699591986,
        -0.6295356863201579,
        0.0659138883943093,
        -0.9275895898119338,
        0.014599816127489937,
        -0.5976823686650209,
        -0.46107151240136196,
        0.7308370680767369,
        0.027035595096252817,
        0.8698727733898296,
        0.5094385671316506,
        -0.7606600187098955
      ],
      [
        -0.12869805334357098,
        0.476212581023773,
        -0.06236389939394553,
        0.8660753699749068,
        -0.8833792049231866,
        -0.10438612146445786,
        -0.9136251345837453,
        0.9119878034456299,
        0.30125189400780766,
        0.022217395778557573,
        -0.6776824805292126,
        -0.8422978287117948,
        0.4325444096246841,
        0.7553710702409058,
        0.3500210294825698,
        -0.6735434831066951
      ],
      [
        0.8620297937377268,
        0.6908908492575996,
        0.912246552811565,
        -0.8300724274939305,
        -0.006844455655482389,
        -0.2246652217491486,
        -0.896076949871407,
        -0.82939936573958,
        -0.8813390312112321,
        -0.2876464699240347,
        -0.5007870973481272,
        -0.6292957436949185,
        0.44209090625980363,
        0.06516189885464166,
        -0.07060101098366446,
        -0.5893538090277377
      ],
      [
        -0.9379951209297939,
        0.9367937002326809,
        0.331236202548693,
        0.08530169404650491,
        0.4284547591015871,
        -0.07585289220167449,
        0.6574052753008641,
        0.005107407101230156,
        -0.13717590629549584,
        0.6929227193168334,
        0.5869964024347836,
        -0.5933773004464582,
        0.21001708924544968,
        -0.061492513046191244,
        -0.9572640061378479,
        -0.5563806899698422
      ],
      [
        -0.5273138465745246,
        -0.28941070687602966,
        -0.40156611703327383,
        0.3989889816252149,
        -0.7512058773000931,
        -0.6114135192341716,
        0.25933154465401664,
        0.6301443055381889,
        -0.730626340776639,
        1,
        -0.6548409600156193,
        0.6469047000660776,
        0.7967823652354804,
        -0.8870205029437279,
        0.5643383095704791,
        -0.5575217674247397
      ],
      [
        -0.6885279986554755,
        0.5855379556854992,
        -0.8436472963220686,
        -0.6405923388843492,
        0.025231150103654912,
        0.024728799363483763,
        0.2247792736622486,
        -1,
        0.12125989358685774,
        -0.23737044572893984,
        0.34574185277697195,
        0.9844464427994879,
        -0.5610829861125831,
        -0.6908429797150597,
        -0.703082032046277,
        0.0658789292868175
      ],
      [
        0.07198869574801,
        -0.1003508576473562,
        0.25569387183747294,
        -0.39351068326557426,
        -0.0876202010189023,
        -0.6067813476284238,
        0.1979362811032009,
        0.6820746464755708,
        -0.1040364601754161,
        0.7958174484100424,
        -0.9298983196105001,
        -0.37207533872003773,
        -0.977391642274237,
        -0.2273320830945885,
        -0.0009147697059986254,
        -0.6880788223134475
      ],
      [
        -0.25876712347016917,
        0.27683940605066837,
        -0.9958015933848581,
        -0.3040116871105444,
        -0.6590894717939316,
        -0.8441053394771579,
        0.618200592602149,
        0.3004285218415412,
        -0.6466468933047157,
        -0.5292999939648594,
        0.42453887203832724,
        -0.6627286140272628,
        -0.5025205444638646,
        0.5787210483205792,
        0.19455900234537607,
        -0.4425667980897923
      ],
      [
        0.5436305487535324,
        -1,
        -0.3198114917800339,
        -0.8389732226228488,
        -0.7453623164071318,
        0.7892957923577745,
        0.2004084840134577,
        1,
        0.8219561051196205,
        -0.23253775464823023,
        -0.5639820616262282,
        0.3668837721659843,
        0.6968589514840773,
        0.8168527512622407,
        0.5713413700089872,
        -0.822249049029587
      ],
      [
        -0.3816879115188898,
        -0.6281160076978153,
        0.5706409480538857,
        -0.31671566255070865,
        -0.1605965615944104,
        0.6063664134865768,
        -0.4685557359534386,
        -0.25164732482884605,
        0.7729078295966927,
        -0.5699674268164556,
        0.9785810902702571,
        -0.00999355504928896,
        0.6139177921432895,
        -0.5041180807625448,
        0.6453760571111258,
        -0.01704360329214913
      ],
      [
        0.5860977140794389,
        -0.7890392227672068,
        0.27197396458242,
        0.6921703714044944,
        -0.539536483220524,
        -0.2829115072957436,
        -0.7135707081353692,
        -0.3751488187071834,
        -0.5838331679760725,
        0.2893840538863448,
        0.014369397277535714,
        -0.7494189301685714,
        0.14127083461044654,
        -0.35725157196354485,
        -0.027515897399731554,
        0.9557924605579576
      ],
      [
        -0.4974467891005016,
        -0.7793464725076569,
        0.5857093427940139,
        -0.3856171800800687,
        0.6585049826865382,
        -0.31864064910173256,
        -0.6925728744365541,
        -0.8787575335590898,
        0.26972380567379617,
        0.17499654863903896,
        0.08154996152605656,
        -0.7666933169659524,
        -0.3666758976188927,
        0.04314513203833151,
        -0.8740420811950512,
        -0.1913787074899856
      ],
      [
        -0.7401965616595347,
        0.8488278512909767,
        0.7158146975341533,
        0.4933638036172073,
        0.7882607420655019,
        0.3027640239097033,
        0.012169748290695705,
        0.142121641954567,
        -0.5340779464975924,
        0.07700553653657789,
        0.03001159327237135,
        -0.36190529475031846,
        0.6205187152342174,
        -0.47799509538605317,
        0.2107878086063028,
        0.8831730377737472
      ],
      [
        -0.7550456863922221,
        -0.42805813098806683,
        0.6234471887148647,
        0.5483879008210295,
        -0.7165352145558889,
        -1,
        0.6459679003455033,
        -0.37443547893520013,
        0.7712255178198573,
        0.27495986134817463,
        -0.915791769776756,
        -0.17821575553441119,
        0.1278298145621793,
        1,
        -0.9124673607052379,
        -0.6951153483078389
      ],
      [
        -0.7328453088022426,
        -0.5428017126662468,
        0.3179572139003967,
        0.5021435378291824,
        -0.9113101876538773,
        0.17947508137901047,
        0.13955558670963697,
        0.027303432031895756,
        0.13070444527526828,
        -0.559673482895237,
        0.8081385963909556,
        -0.8404332160240583,
        -0.26633011615806235,
        0.8044523015062988,
        -0.1387724892430047,
        0.8095953088188388
      ],
      [
        0.32848208291184106,
        -0.6740511370259505,
        -0.2589646185080426,
        -0.28795770625009137,
        -0.467324232464469,
        1,
        0.1249791453429372,
        -0.3689744597390722,
        -0.24412461454793963,
        -0.04883665656069039,
        0.780645758208312,
        0.03751768098661297,
        -0.7758809520069169,
        -0.3214471128631989,
        0.04989753590505218,
        0.3994253396452608
      ],
      [
        -0.38841792278729254,
        -0.21047838594109952,
        -0.26336065210685766,
        -0.3369631030098128,
        -0.11023820013958813,
        0.7660630439533512,
        -0.47786284474966184,
        -0.8167333750490546,
        -0.8997158738594516,
        -0.5538311020422964,
        0.666867207832208,
        0.3404785357559849,
        0.6401628420870868,
        0.9209176774028621,
        0.24024138149728022,
        -0.46017176704080254
      ],
      [
        -0.13800769330023407,
        -0.4534987278167865,
        0.022436915524219614,
        -0.3522986695135138,
        -0.13408963782167468,
        1,
        -0.7221736064121471,
        0.6295516347507321,
        -0.4013388932101323,
        0.8861908661518764,
        0.9262749680804561,
        -0.6037722557116098,
        0.7449128422057544,
        -0.7405748645474669,
        0.015354845036030301,
        0.7195733476357256
      ],
      [
        -0.9024270067404813,
        -0.5387861148789871,
        0.754991992986404,
        0.5853491053173985,
        0.5927248505108623,
        -0.9140844241704851,
        -0.9641196598746029,
        -0.24270665048544368,
        -0.01576341738909568,
        0.19485627757296234,
        -0.9534756404657869,
        -0.8679299975079341,
        0.7231283482035169,
        0.6258799346700071,
        0.8352494100557769,
        0.25087693684070106
      ],
      [
        0.6917278165728099,
        -0.6061608452409355,
        0.5434078600879403,
        0.33065021107376796,
        0.3206079443612238,
        0.7287159368900867,
        0.5892509373652257,
        -0.009854104313702339,
        -0.9196207586082775,
        -0.6728157170352848,
        -0.7413027419093899,
        0.3228573158486237,
        0.81721900764236,
        0.8636411905590855,
        -0.3166013314757857,
        0.27465373205972704
      ],
      [
        -0.48441981867162576,
        -0.22317865852747498,
        0.48360568344520166,
        -0.259236565081589,
        -0.7062176097164221,
        -0.07597791825167689,
        0.9265511844590192,
        -0.7172707543152003,
        -0.056606217371881075,
        0.23996527890704447,
        -0.7345292580540215,
        0.876622019954648,
        -0.31228676801121014,
        -0.5319095410534933,
        0.14831322479392234,
        0.6071656310272405
      ],
      [
        0.784005443616987,
        0.6361599350425458,
        -0.4626208980705022,
        -0.6192805197900846,
        -0.509636707595575,
        -0.22830050573936048,
        -0.051467483834824364,
        0.08646402503757773,
        -0.9968743920326233,
        -0.572751676702831,
        -0.8239273393382717,
        0.4890488298015719,
        -0.19266559715226322,
        -0.8478896977999013,
        -0.9465874004090632,
        -0.32112873415469584
      ],
      [
        -0.8353833712886054,
        -0.2379901462695303,
        0.8672284358279418,
        0.03497868125825203,
        0.9430815119627562,
        -0.1770781486318987,
        -0.8356654615816331,
        -0.43307731274132377,
        0.3693291580398972,
        -0.4317725411150437,
        0.837784530630215,
        0.6708489649455822,
        -0.7952232132530208,
        -0.3802247078888093,
        0.3625281573242701,
        -0.6138220664201254
      ],
      [
        -0.29175573388753046,
        0.4188955693374663,
        -0.6694334391966134,
        0.9270705540176157,
        0.8272497512200291,
        0.4886688834387718,
        0.30750157815052753,
        0.0057926092985078875,
        0.09674427847121328,
        0.16612581659553852,
        -0.14026237599682126,
        -0.3233435023600959,
        0.94844455488574,
        0.17874643102596693,
        -0.4039390916177488,
        -0.34178051541266574
      ],
      [
        0.49562309320348613,
        0.5374350002540131,
        -0.5085043763050795,
        -0.16550104180580721,
        0.7851712693892754,
        -0.8357766140750305,
        -0.5777407767005124,
        -0.3804951714086728,
        0.4272351950045829,
        -0.9523681486867943,
        0.010671916225825417,
        0.4511969311033246,
        0.6657129670013154,
        0.8959272521715202,
        -0.817910426662515,
        0.31150380022311314
      ],
      [
        0.8781190212112381,
        0.8048613173591804,
        0.09908865449465637,
        0.31433453094397557,
        -0.2923280960514951,
        0.48480369241286037,
        0.6310247196123538,
        -0.585408813007202,
        -0.19002456513459137,
        -0.061071967911249206,
        -0.24727359947282682,
        -0.687525556121217,
        -0.3744408065302672,
        0.31234669045546837,
        0.407361990438328,
        -0.8924690487080317
      ],
      [
        -0.6686221315898079,
        0.630487011901726,
        0.17485467475026192,
        0.4589109327784749,
        -0.14199697210712092,
        -0.28822962668226493,
        0.3776165574468706,
        0.6431916987338657,
        -0.43700458109940327,
        -0.30838456505128725,
        0.5387290884404309,
        0.9919231420600148,
        0.03991041354988239,
        0.6377914634470485,
        -0.08519207779888995,
        -0.3621790239998643
      ],
      [
        0.7221992753606882,
        1,
        0.5795620517507346,
        0.7318706925194162,
        0.9111744944453843,
        -0.649276823568807,
        0.15325265973220992,
        0.22855354791989285,
        0.31033918293347046,
        -0.00586879497447847,
        0.10899353725304033,
        0.7173905282698744,
        0.6520781291908117,
        0.6912633279527435,
        -0.26517291678948063,
        0.44641291838743813
      ],
      [
        0.3841702898417623,
        0.6256558829970374,
        0.27212574757273567,
        0.7841661288776924,
        -0.38073789651818163,
        -0.3027184929730741,
        0.1300955754286275,
        0.38318553678536077,
        -0.018684910404874883,
        -0.8900794277384891,
        -0.7879009735889848,
        -0.5306141918525651,
        -0.8789707944378091,
        0.16095547334409346,
        0.7926856730888094,
        0.36343942103427124
      ],
      [
        0.08423638156856582,
        -0.15211276758709924,
        0.4805040128263898,
        0.7080429519651539,
        0.7862915885549658,
        -0.0033554073620031964,
        0.4090505620826096,
        0.9601207971572876,
        -0.7818616813345279,
        0.622279310935802,
        0.047207029855095624,
        0.8417263198167715,
        0.10786394420746213,
        -0.1424999013458698,
        0.5986092998170147,
        0.41949712253053956
      ],
      [
        -0.3623589426123696,
        0.030889849395012544,
        -0.9697197319868742,
        -0.2930102850898421,
        0.6225923972048837,
        -0.21492620359511133,
        0.5652682132564854,
        0.9513763577891732,
        0.6958866325831413,
        0.04688695597352466,
        0.2628082536544794,
        -0.9228964822345693,
        0.2169267633077524,
        -0.8520922763296939,
        0.633846941510884,
        -0.4411610468768967
      ],
      [
        -0.7648520291198707,
        -0.09477413798648207,
        0.7308770101815838,
        -0.014146929589312992,
        -0.4216281155128318,
        -0.2827805408759721,
        -0.7272222743006523,
        -0.9414724267496277,
        -0.2676737636579417,
        -0.5417805122061089,
        0.35928137320378645,
        0.7590027547572503,
        -0.27259537117012356,
        -1,
        -0.6989239207396997,
        -0.31474311394105786
      ],
      [
        -0.8052157908108417,
        -0.19839365634062436,
        0.5107384456889401,
        0.5855211741900228,
        -0.4309069872718457,
        0.2531937571775117,
        0.11023325857032108,
        0.3122676026298758,
        0.4267800479989799,
        0.712107846129454,
        0.04468309969916731,
        0.3546386336681739,
        -0.9702951705865908,
        0.6853063792765156,
        0.40733068791838273,
        -0.39302716852361436
      ],
      [
        -0.9326314059390433,
        0.725738065228849,
        0.5373504960980683,
        0.5924734219269238,
        0.1484412965217409,
        -0.7865720694697134,
        -0.9968483448028564,
        -0.093627649597861,
        -0.6658973825027452,
        0.08031235683738462,
        -0.749678633787921,
        0.1462225019700206,
        -0.9064881388680712,
        0.9936696627745221,
        -0.5312457213077804,
        -0.33610370741098494
      ],
      [
        -0.14074667749673128,
        0.21017590726394006,
        0.4144624694315213,
        0.5753271550016072,
        0.2741567801671612,
        -0.6323155418340192,
        -0.21235717357602443,
        -0.15259875710655882,
        -0.5414672653596634,
        -0.9221545365414061,
        0.4092043283498158,
        -0.7240967781608184,
        -0.28030003862369063,
        0.36567184789463564,
        -0.9222868858104563,
        0.061487319992576256
      ],
      [
        -0.4487963308294851,
        0.7532224365518326,
        0.4527998470918858,
        -0.4184824804363691,
        0.925421895170995,
        0.21354751392708643,
        -0.2879158236611937,
        0.5663485881980901,
        -0.7814505474617257,
        0.08390708332054256,
        0.032745088684709656,
        0.910598699653897,
        -0.6706433474739301,
        -0.9677456617355347,
        -0.5069477437970935,
        1
      ],
      [
        -0.1741217900305448,
        0.21547977532794402,
        0.7563244238163154,
        0.4395443177361476,
        -0.5108883775892118,
        0.22331106279240695,
        0.08395335191852844,
        0.871486334781582,
        -0.3577205722839928,
        1,
        -0.6517181662600983,
        0.21389149265666402,
        -0.06350242987673635,
        0.2503335156321524,
        0.05909738057005042,
        0.5334774671560671
      ],
      [
        -0.4535588356783268,
        -0.9683014265442738,
        0.2681030282309101,
        0.6256531941015526,
        -0.8677444491398528,
        -0.5821763889479944,
        -0.9314109710490257,
        -0.8808433021916606,
        -0.31848216990539546,
        0.051648012812081714,
        0.8051536986992941,
        -0.6027522585013315,
        -0.2393323512288422,
        -0.7416954558987067,
        0.882786851503512,
        -0.24348218570431465
      ],
      [
        0.8291016351691133,
        -0.01622096416150053,
        1,
        -0.891783134943562,
        -0.377941618415621,
        -0.06592158192381863,
        -0.7747996099784282,
        0.8910183343629952,
        -0.19044072804441614,
        -0.8767504018336023,
        0.7196473795153773,
        0.07912353357129659,
        0.8719824880585303,
        0.4167601320992769,
        0.09587662401907256,
        -1
      ],
      [
        0.28806364803985485,
        0.5319195476915836,
        0.599143245669968,
        -0.28807445180863217,
        -0.6503136001823197,
        -0.5784834186277708,
        -0.31534892819858856,
        -0.5180949055061095,
        -0.8694875262609305,
        0.7201323759975654,
        -0.8153190713966371,
        -0.8620501464121151,
        0.7704422178143532,
        0.758530052501722,
        0.1573718631529644,
        -0.4996418855368492
      ],
      [
        0.5116905357503415,
        -0.8195947467867561,
        0.2785656105677366,
        0.20707383847649521,
        0.3054236637596544,
        0.8030859628142005,
        -0.2150315304314044,
        0.7046421794801159,
        -0.08808642681126709,
        -0.7844074211463787,
        0.9789652899460219,
        0.20621791149105734,
        -0.6439370064221678,
        -0.7910592130402108,
        -0.14128504265988345,
        -0.2953013662752572
      ],
      [
        -0.9481514585645183,
        -0.4194096377225182,
        -0.39266983806058003,
        0.018219542428775888,
        -0.5713064061738113,
        -0.9152620030577645,
        0.7470542981330313,
        -0.9599165523339082,
        0.7141165119727387,
        0.708468728221359,
        -0.2968206374389669,
        -0.2509050545738157,
        -0.13207033623877898,
        -0.9828656315803528,
        0.7924598078749031,
        0.7245333837617893
      ],
      [
        -0.3983160341751689,
        0.2835778215992523,
        -0.14708184815326034,
        0.7042503471527382,
        0.6004823458723985,
        -0.48187373325685706,
        0.8764403840257698,
        0.6225427889490881,
        0.7427694620538693,
        0.6936081232199258,
        0.7270796507268324,
        0.6555489930296996,
        -0.5234583258511734,
        0.6351953118936466,
        -0.31833686467360484,
        0.6851255189751976
      ],
      [
        -0.5224659848976068,
        -0.2875364866307367,
        0.600411561506641,
        0.024088511822988625,
        0.4572234702002668,
        0.38309423416889926,
        0.17806034606676951,
        -0.12626330816034975,
        0.6063642846313451,
        0.4423792992345882,
        0.11670860088759333,
        -0.49334335549281166,
        -0.4457471556633987,
        0.8150628826611465,
        -0.17426864674944495,
        -0.8663264616303307
      ],
      [
        0.37301574298727064,
        0.15995622505544463,
        -0.5682024220359003,
        0.20543096627579802,
        -0.8519036358386614,
        0.9209703623677807,
        -0.36490976736260594,
        0.44392784545795094,
        -0.5052057001109235,
        0.10831276152155611,
        0.0642245621547165,
        -1,
        -0.9568469584245394,
        0.6911943424421672,
        0.8171588049673012,
        -0.817712530145287
      ],
      [
        -0.7042539704735856,
        -0.5106396683486997,
        0.6165691586456937,
        -0.5842722168096205,
        -0.32274883201113264,
        -0.8074117089003185,
        0.360037042172845,
        -0.8135126480310023,
        0.6775211392062409,
        0.26840532733575145,
        -1,
        0.9047830036606416,
        0.9807943452528645,
        -0.3951184984930058,
        0.47953291299475503,
        -0.17918080060880753
      ],
      [
        -0.5878847374702846,
        -0.12423579442199457,
        0.9327152902908378,
        -0.2216865937473482,
        0.8042314415066018,
        -0.12127786069443941,
        0.37235812077800706,
        0.6914299858024575,
        0.373795055887623,
        -0.6786967737867535,
        -0.8963065474584239,
        0.054769198871239565,
        0.4839473644291583,
        0.18589486160871396,
        -0.23493830224403742,
        0.2777384386131311
      ],
      [
        -0.8091553711589351,
        0.7894340219490242,
        -0.4610408583151781,
        0.14060590489031372,
        0.5524150066879808,
        0.7248697577930727,
        0.7532128278799665,
        -0.14942174266159566,
        1,
        -0.41721976555684565,
        -0.4830984195375733,
        -0.6599074533411176,
        0.32421577600985285,
        -0.3190573711549012,
        -0.4437125172206313,
        -0.8127987550512613
      ],
      [
        -1,
        0.07086849095393749,
        -0.4245502751840731,
        -0.5936354017642924,
        -0.7541487443503974,
        -0.7699096458009279,
        0.685360727781039,
        0.08214697752038073,
        0.2342250784131976,
        0.3452935047644172,
        -0.040639152943832586,
        0.8520179873625806,
        0.24133798396029998,
        -0.9596571767682402,
        -0.7333157904892331,
        0.28858512092815364
      ],
      [
        -0.532337677142258,
        -0.15698125308106506,
        0.13552092195132553,
        -0.9225966059651165,
        -0.5409079317098252,
        -0.07791106994887316,
        -0.4671472325362249,
        0.5762151947262157,
        -0.8502315391354104,
        -0.4053163941701362,
        0.39116604644535574,
        0.01530238996810945,
        0.07451241831875922,
        0.9415986310430644,
        0.31968297135050394,
        0.12690846597312144
      ],
      [
        0.09695043903127042,
        -0.13933794147665127,
        0.597214202639023,
        -0.3054163250869294,
        0.81502653870941,
        0.29519483636264027,
        0.22965603088072856,
        -0.022835538353531113,
        -0.5138613556432436,
        0.20132104996669217,
        -0.12603252779873836,
        0.24805768989313962,
        -0.6465352051137082,
        -0.5928765082565327,
        0.8986955326786453,
        -0.27355541806395783
      ],
      [
        -0.3562231739499368,
        0.617589227221907,
        -0.802620900247287,
        0.1700044300221703,
        0.5202731480356952,
        0.4651935071681176,
        0.9773191033782974,
        -0.5147004518838896,
        -0.8385071160997588,
        -0.5914008514425136,
        0.0014443969937607123,
        -0.13335614065837811,
        0.1968954289144813,
        0.09467101165422255,
        -0.34452012101009366,
        0.09803436632356505
      ],
      [
        0.21206840811066133,
        0.22988190780500822,
        0.5444085707744608,
        0.7668891554869951,
        0.3243591493510179,
        0.08612337307984255,
        0.3665032787525789,
        0.4543599069373408,
        -0.9591417920185604,
        -0.26750443980644084,
        -0.273837382094844,
        -0.09053755465955758,
        -0.7170528273002661,
        -0.3407274413681713,
        -0.36332760986629764,
        0.038236005773203144
      ],
      [
        0.6612532554108075,
        -0.230336982066839,
        0.6167174437155066,
        0.13261601752022315,
        0.600190649551258,
        -0.9605493193461274,
        -0.6966035510576823,
        0.8918610745411625,
        0.2898045085430459,
        -0.3115157048907679,
        0.36997718858881373,
        0.40961231184172286,
        0.6643452865514231,
        -0.7182720963945037,
        0.12343503959152911,
        -0.9419145922250891
      ],
      [
        0.2552702512481381,
        -0.8440626213634934,
        0.6900003202601859,
        -0.23777891039976787,
        0.5198637042437612,
        0.73407817710256,
        -0.2971061176321954,
        -1,
        -0.24444964401129077,
        -0.05987257580346007,
        -0.38552613960375537,
        -0.5723560221521763,
        -0.7842840606062172,
        0.8761708192325954,
        -0.38402429451057696,
        -0.6877780880680929
      ],
      [
        0.5855407349718127,
        -0.00915315348155615,
        -0.20123269867845697,
        -0.8611269568921919,
        0.29884512011541065,
        -0.8509873271920677,
        0.6855455200832573,
        -0.28895268607057867,
        0.24106872028973841,
        0.7056016229559392,
        0.2714334497134225,
        -0.15515903868101513,
        0.08070983106793797,
        -0.24888687334969797,
        0.889276468911751,
        -0.3753464716107776
      ],
      [
        -0.7269928751482124,
        0.8998762919635059,
        -0.44318760829048665,
        0.010736720555608665,
        0.15781577329522053,
        0.20074956028709204,
        0.016798973455301187,
        0.5814566244309616,
        -0.7845732330399978,
        0.6105860137715917,
        -0.2373350132322141,
        -0.8470926088121312,
        0.8736312161150039,
        0.7410900984965544,
        -0.5501517595821355,
        -0.7548087057574895
      ],
      [
        0.4906114960242606,
        -0.6777057616484602,
        -0.5597294311432096,
        -0.5514019848061378,
        0.842986040018771,
        -0.18221853794846193,
        0.2400165665479059,
        -0.4185615492862056,
        -0.8126211049859033,
        -0.40563619723885347,
        -0.09215627718716207,
        0.013693281734209773,
        -0.3076807902289717,
        0.7689975778386315,
        0.8414064666455836,
        -0.7487413028166189
      ],
      [
        0.29052711065797104,
        -0.7477249359888144,
        0.11732426646072061,
        0.9229108621562631,
        -0.016051198869709557,
        -0.6235926902058923,
        -0.7804442478197525,
        -0.8936476451614878,
        0.6764981689940422,
        -0.686615388186674,
        1,
        0.8673866279144193,
        -0.039474166332481665,
        0.6539811238313218,
        -0.8550424216881517,
        -0.3580234154120449
      ],
      [
        0.04757529305288138,
        -0.9611786007881165,
        -0.8397301887723037,
        0.18709106964165945,
        0.3384948335835155,
        -0.6832263590871192,
        0.12399224110108657,
        -0.3190604987194509,
        0.7650128304376965,
        -0.24301408383260395,
        0.11908192210333049,
        0.4535975973177126,
        -0.35129344378433297,
        -0.8269200323534371,
        -0.08830357819052097,
        -0.45194528310444193
      ],
      [
        0.7607748643266673,
        -0.8657770297233708,
        0.26076821116716403,
        0.5875312632598991,
        0.4897531763138395,
        -0.6551125406731516,
        0.21525755276779207,
        -0.3504582370197309,
        -0.002607127512754372,
        0.01170414674373568,
        -0.2527748493487593,
        -0.6585308164140891,
        -0.7654221598744744,
        0.028713809585629954,
        0.28871254031771115,
        -0.39550553144768014
      ],
      [
        0.13971554006095144,
        0.8490362237572525,
        0.5060575851595343,
        0.3788307686479204,
        -0.3189524276877234,
        0.8044555721457213,
        0.3422297250298935,
        0.09241445300937523,
        -0.38535815317220484,
        0.5967737786061156,
        0.11121136984061424,
        -0.8149247591228616,
        -0.5485829028976099,
        -0.52282496966586,
        -0.3663298437658737,
        -0.5524879441188035
      ]
    ],
    "biases": [
      -0.3817199882625267,
      -0.060666340426742585,
      -0.3952949747260309,
      -0.4698879816940971,
      -0.6118345124193406,
      0.6149844826276276,
      1,
      0.2330231762699793,
      -0.7680242370120132,
      -0.133306565331787,
      0.8173622783481823,
      0.06473563458855258,
      0.5745534660700752,
      0.9257640510354169,
      -0.09882635962624757,
      -0.16981875071659547
    ]
  },
  "layer_2": {
    "weights": [
      [
        0.44202667740751367,
        0.055226010566371185,
        0.0784957665958393,
        0.6647108928310759,
        0.37175564710540404,
        0.5229543290520262,
        -0.8746848944665906,
        -0.9424606124818807
      ],
      [
        0.942818760785105,
        -0.8763635048076811,
        -0.45007008161383927,
        0.2758648372813078,
        0.04276026611977804,
        0.26671771678096795,
        0.2832215797077984,
        -0.9777849389822262
      ],
      [
        0.2948945202635867,
        -0.8138142300144776,
        -0.9214260159760116,
        -0.26753491489483405,
        -0.046751029003445216,
        -0.3507634516154859,
        0.1621775265542173,
        -0.26994953039374947
      ],
      [
        -0.5333272381358906,
        -0.7001149319380693,
        0.09226648095419131,
        -0.46675938690923313,
        0.8855061713853452,
        -0.3094303568240053,
        0.4969403155410441,
        -0.5694988041987448
      ],
      [
        0.18531855843742517,
        -0.7669015139145784,
        0.32761543354826983,
        -0.21841811015866283,
        0.7304656924852513,
        -0.1604222503616146,
        -0.7985298534913379,
        -0.7876587463186856
      ],
      [
        -0.8235758165689592,
        -0.44232658374624695,
        -0.25119853306986484,
        -1,
        -0.2089458996122735,
        -0.7123433673589941,
        0.9887973250222359,
        -0.8466584618392767
      ],
      [
        -0.21203709937790427,
        0.687067880070288,
        0.40121344844854484,
        0.2765248689145439,
        0.3256679274099562,
        0.12322547846620809,
        0.13610720478396357,
        -0.7072926210894315
      ],
      [
        -0.6801807840847429,
        0.17240365354445686,
        0.06864986646637562,
        -0.5501402567549237,
        0.15368990048776973,
        -0.5595509578738916,
        -0.5808180698673897,
        -0.6807601437649734
      ],
      [
        0.330301947863404,
        0.5134124880423122,
        -0.34373729682017795,
        0.07922083095926304,
        0.5416380610686921,
        -0.2860181886576725,
        0.31132912799448426,
        -0.18692495973063522
      ],
      [
        0.46594477324848815,
        -0.3513468320898027,
        0.5291620931808829,
        -0.13026410388563842,
        0.4077217909243149,
        0.9676832662656665,
        -0.8313319168527804,
        -0.22973093604477898
      ],
      [
        0.45354907155874585,
        0.37280906243091594,
        -0.827071098006524,
        -0.4904182458767787,
        -0.7231923666596917,
        -0.7598180363893915,
        -0.4306479709406263,
        0.2411356868313532
      ],
      [
        -0.0634994967905069,
        0.9852329005411143,
        0.2523737804845046,
        -0.6062661874437015,
        -0.735223279674902,
        -1,
        -0.7565506555672542,
        -0.4429813534261182
      ],
      [
        0.8869632068313373,
        0.1900539120608676,
        0.4006644504120273,
        0.2800880536602038,
        -0.8805855218428327,
        0.6482168210352741,
        -0.927235747371242,
        -0.48599740922369944
      ],
      [
        0.09032205935413445,
        -0.14764205103089822,
        -0.6036012838884086,
        -1,
        0.13938932870196083,
        0.3899295761511137,
        -0.7850746547475785,
        0.8663915168777508
      ],
      [
        0.1654011492829384,
        -0.9481829783687071,
        -1,
        0.3695666978676118,
        -0.9382088592877007,
        0.12239500629170753,
        -0.09821911665268267,
        0.9773040347253836
      ],
      [
        0.6723876071700142,
        -0.03965503384851939,
        0.27701915360565194,
        0.9949451684951782,
        0.4400234255301906,
        0.43729470482758426,
        0.9281557342054466,
        0.1906111788987664
      ]
    ],
    "biases": [
      0.8251111338335494,
      -0.6319891855720103,
      -1,
      -0.04080006333520806,
      -0.640661956235446,
      0.057325534293710324,
      0.09617916843413218,
      -0.41843965695481217
    ]
  },
  "layer_3": {
    "weights": [
      [
        0.04466631219388593,
        -0.639009286545679,
        0.9783856007702983,
        0.7580814375592436,
        0.0803444269333167
      ],
      [
        -0.7711290658638904,
        0.9387129072352984,
        -0.5362920292453133,
        0.0029258922732100165,
        -0.6740067896817671
      ],
      [
        0.12570416370419993,
        0.09801661294286244,
        -0.21963670579377934,
        -0.028028973239842086,
        0.4204042573714194
      ],
      [
        0.5526100270306914,
        -0.5361288842603048,
        -0.5882131818127576,
        0.42324383943367944,
        0.07639337677671107
      ],
      [
        -0.5211598045057596,
        1,
        -0.980076770290988,
        -0.038705622036837355,
        -0.7201633295412592
      ],
      [
        0.5855776850270534,
        -0.7466355516582176,
        0.2908535848046578,
        -0.925834265321076,
        0.21341507928002762
      ],
      [
        -0.589898240708244,
        -0.2795790945021921,
        0.692810747213669,
        0.10915412560261444,
        -0.7092593862107464
      ],
      [
        -0.7466687560666634,
        -0.8238461911187807,
        0.771570673727477,
        0.6723268250924154,
        -0.4209593770175129
      ]
    ],
    "biases": [
      -0.056800518813297625,
      -1,
      -0.931177448685815,
      -0.6663117414848556,
      -0.6935687972255354
    ]
  }
}