{
  "layer_0": {
    "weights": [
      [
        0.535332001924592,
        -0.4820956141458118,
        -0.8422009441282405,
        0.20080739007294954,
        -0.730783249665308,
        0.26428750944456075,
        0.30293591786203533,
        -0.7853264107367499,
        -0.4699159625854464,
        0.8050796896652421,
        -0.7663127984222303,
        -0.3059693009588856,
        -0.10631568989230697,
        -0.39142828774831134,
        0.3858117723721215,
        0.8000362919514578,
        -0.34030092284324326,
        -0.02530641585018249,
        0.7882545233659569,
        -0.13659643339334632,
        0.30676241752727135,
        0.40742421345741797,
        -0.4989733104582091,
        0.07270668465180483,
        0.21318713617359053,
        -0.011480942995527306,
        -0.6249389947339472,
        0.8343579846585258,
        -0.24609448448301335,
        -0.048225543930930564,
        0.4432955698724031,
        -0.6962897199807088,
        -0.8038555617207225,
        -0.047825696535171235,
        -0.050074694091668384,
        -0.024026895688041547,
        -0.22939743682794614,
        -0.3842072293103015,
        0.2835670130008527,
        0.636849413081997,
        0.22097356408208446,
        -0.556724896624061,
        0.05827599658481557,
        -0.6556253702962453,
        -0.44043523286200403,
        0.0438212295868387,
        -0.0065072396302990575,
        0.8837526902329828,
        -0.15886724139313135,
        -0.4370667910643421,
        -0.18208619602445383,
        -0.17425224579435689,
        0.03829026918919651,
        -0.15103134659985876,
        0.20390934238132422,
        -0.04492626916240965,
        -0.8082383726678131,
        -0.623401248616121,
        0.8653050941876642,
        -0.32764972343763704,
        0.08013061916922214,
        0.8549864686270746,
        -0.11220608664090871,
        0.5363835960050386
      ],
      [
        -0.0139647213401942,
        -0.15713905547737558,
        -0.30622061245317705,
        0.6326333566035169,
        -0.22405788978247826,
        0.651937369876965,
        0.7313603668498819,
        -0.30955785237369343,
        0.6778521487931684,
        0.0281243041079195,
        -0.013686020833517727,
        0.15013956912813756,
        0.5329187033098932,
        0.34244015493853164,
        0.7800318880460142,
        0.006073066578315418,
        0.1134539695030141,
        -0.3565354959057047,
        -0.13309071002376469,
        0.40046380116309366,
        0.6186055756724889,
        -0.36978634721471304,
        -0.3412110463527545,
        0.439682278621546,
        -0.0949658451622383,
        -0.24019534359166536,
        0.1326507652953886,
        0.4715052304131784,
        -0.3200603712936563,
        -0.1759145455153735,
        0.04485212269763907,
        -0.16815528662625723,
        -0.5684442245112946,
        -0.12993714681800655,
        0.3499140248103305,
        -0.7396296556752099,
        0.010038801692044293,
        0.17901514779827626,
        0.20451807193808952,
        -0.9637662743680542,
        0.09956811507177049,
        0.03733214365761423,
        0.1982609020945745,
        -0.2296655631299837,
        -0.10448815457060459,
        -0.5245906338536791,
        -0.9792754830799043,
        -0.8497243447830476,
        -0.3616456884831234,
        -0.5153109120944932,
        -0.14857258872498866,
        -0.3949430942965484,
        -0.7338824072411851,
        0.7115108750902671,
        -0.41812572926931957,
        0.05151085306002117,
        0.699511451679081,
        0.44561672839880323,
        -0.022814958760536682,
        0.6821697037054103,
        -0.38870429123017736,
        0.3114314865505888,
        0.3053824029764024,
        -0.154090743542015
      ],
      [
        0.1710521576782916,
        -0.13394791383432023,
        -0.022856864689868178,
        -0.1595360267500637,
        0.4665454598719778,
        0.3240437339274775,
        0.7298961736751021,
        -0.9964601819121973,
        -0.8312603121027625,
        -0.21904756175725468,
        0.2494174486188037,
        -0.0841060286328422,
        -0.2679531926183935,
        -0.2989481308957578,
        -0.14026719460769438,
        0.9068165981244083,
        -0.13316642822446678,
        0.771621543641783,
        0.018972818080660522,
        0.13283921034998591,
        -0.12720476929678964,
        -0.2852664594679419,
        -0.05236134014264961,
        0.44783950125588645,
        -0.2066958343673867,
        -0.012721621758055468,
        0.7809199920762704,
        0.3715550979670311,
        -0.10591668621452702,
        -0.06039611272794641,
        -0.027806571787981033,
        0.01482791726359914,
        -0.46329052979146723,
        -0.1748249671173698,
        -0.33057926587463554,
        0.06812420693404383,
        0.732215321900325,
        0.44017643477852,
        0.13151106819960728,
        0.22801709641127027,
        -0.622665054501912,
        0.45607347388805564,
        0.05352763253865609,
        -0.2583259264095595,
        -0.19088367348576335,
        0.854363844017801,
        -0.1486601960464704,
        0.3852434824030924,
        0.6167105896070292,
        -0.5021542357253475,
        0.33702526852144554,
        -0.3200701147045892,
        -0.04065809043939498,
        0.11144069443969969,
        -0.07267496140047289,
        0.331057680577314,
        -0.6926282882053794,
        -0.20083222757560967,
        -0.3414320496993034,
        -0.25984418409139254,
        -0.2350681832241782,
        -0.7959387892494532,
        0.07643064081065869,
        -0.29806131706484607
      ],
      [
        0.8868856332005315,
        0.3256281766015575,
        0.28095992783931073,
        0.6283226384256099,
        0.7216868854969876,
        -0.1584181788758662,
        -0.06019114705228505,
        0.11616425232390856,
        0.4592711485485387,
        0.022053382480842283,
        -0.4394701525386024,
        0.05973673950816819,
        -0.6382823151072736,
        -0.7058778338987723,
        0.615392059327447,
        -0.3411351988081413,
        -0.3914013391827508,
        -0.018376291877265378,
        0.5812433226619664,
        0.41578693212825957,
        -0.7948657247097706,
        0.38905884560706444,
        -0.07964420873109058,
        0.0518303777082589,
        -0.29179317938975363,
        -0.230929935870593,
        0.0008343267215665482,
        0.8877023102265809,
        0.11126534869779232,
        -0.38945261750493854,
        -0.31906750901337233,
        0.05715895953659604,
        -0.5861537817569656,
        -0.10460576566505668,
        -0.10536799886704884,
        0.18337360354391197,
        0.14149124860329254,
        0.2202953310013745,
        -0.3502307809410917,
        -0.6967213270782584,
        0.17251736487944302,
        -0.24049744673988657,
        0.2652497789098485,
        0.3065834007322758,
        -0.26110003783666513,
        0.7330026007324271,
        -0.05318265661871712,
        0.01668461321710614,
        -0.06664600280870346,
        0.6570865293118776,
        -0.20704094173332613,
        0.36126670592131654,
        0.027641802915586287,
        0.12220105499143659,
        -0.22968628395112248,
        0.13682638672193217,
        -0.7055754421228199,
        0.6020989126775669,
        -0.8595810106483256,
        -0.026062154415180828,
        -0.06175420217021975,
        0.9462593149551535,
        0.011181186689260996,
        -0.014260931354118626
      ],
      [
        0.0474643613423998,
        -0.2502118281531066,
        -0.022298835010416046,
        -0.17109858320284033,
        -0.1244283358197347,
        -0.012075141313332753,
        -0.006817190146367569,
        -0.12967188002521884,
        -0.5679391905136751,
        0.6459186098584822,
        0.7146983725441536,
        0.21158472654304838,
        0.06763187689203488,
        -0.574490040577903,
        0.43799499182393453,
        0.15214985900335606,
        -0.9509226283628832,
        -0.3011919800150711,
        -0.05362811558879746,
        0.10722231330251668,
        0.5960158222774907,
        0.339586665383333,
        0.5870384431865306,
        0.1621439403430324,
        -0.23108139698839616,
        -0.18080042262330515,
        -0.6283461498329108,
        0.5262351197697922,
        0.81346378595552,
        -0.3199279072697052,
        0.398621505647394,
        0.11949357661958493,
        -0.47612568163471186,
        -0.4582725886685533,
        -0.17002686311934348,
        -0.0783008254486963,
        0.574568098473422,
        -0.9054377069317324,
        -0.49429915109374123,
        0.2691967615556703,
        0.2637542139839244,
        0.1676630061455663,
        -0.07916240972193324,
        0.506266084249618,
        -0.13520700345553457,
        -0.793239723636748,
        -0.18399617384016118,
        0.45024581496297367,
        -0.2562567290443747,
        -0.43434142754801813,
        0.3866149065474151,
        -0.023198105029699635,
        0.17072269040858545,
        0.764591053425203,
        0.10257993901122152,
        -0.029214752846414182,
        0.3857219749924057,
        0.3215957750538282,
        0.4425826255674225,
        -0.3514027351064723,
        0.7105510816095755,
        -0.5345129589556853,
        -0.5094666902093526,
        -0.4401875710034382
      ],
      [
        0.8293019970648106,
        -0.6954429336916264,
        -0.25573010138772745,
        0.043031731127397985,
        0.3887511885955187,
        -0.3934449633016229,
        0.11281114358669508,
        0.17333555527172761,
        0.06588636105939545,
        -0.0921322138904013,
        -0.33664032599152216,
        -0.06168442029831417,
        -0.3849410280977349,
        0.32679027292713914,
        -0.05668941155539424,
        0.20410671726049953,
        -0.34296709622541527,
        -0.27292672553861574,
        -0.4875245330721922,
        0.7245605399683335,
        0.2784893350443366,
        -0.21281977481021275,
        -0.0658026383881236,
        0.42365239406883876,
        0.017704243230042833,
        -0.11778349034310424,
        0.5223967269002032,
        0.002557432741718548,
        -0.46918758164251184,
        0.10613444156144804,
        -0.06698180335184462,
        0.31761420822007874,
        0.8019099118407798,
        0.8315578181553843,
        -0.07891351434518547,
        0.8504383740028786,
        0.36055307799154485,
        0.22355344541245137,
        0.16030257866619138,
        -0.2013622705573529,
        -0.038468835557144754,
        0.41198083272215824,
        -0.9095799573665666,
        0.14297988244733534,
        -0.06341378539458967,
        -0.3229422814725353,
        -0.15424224534806405,
        0.7551210939584365,
        -0.5308823086310286,
        0.5887558763807884,
        -0.18574044243214796,
        0.34388056031513203,
        0.12984647114220602,
        0.0853906358474117,
        -0.261764563852692,
        -0.3260023923772437,
        -0.7551910647210058,
        0.4507575361057666,
        -0.08992737380483955,
        0.6186454703621755,
        0.24305589975208897,
        0.3831724366824915,
        0.20218611217588758,
        -0.17165603723456144
      ],
      [
        -0.10105826607712472,
        -0.6710313504362386,
        0.30134827502968037,
        0.14534613280323475,
        -0.14489972573369397,
        0.12708862142922928,
        -0.5090296726059879,
        -0.46653452781187094,
        0.7032582692861469,
        0.33976376039076966,
        -0.015101608811192707,
        -0.3660749473476862,
        0.1360967688397517,
        -0.09927782092947421,
        0.5878475750832649,
        0.001210250695041389,
        0.18444701774167768,
        0.11908264032164431,
        0.7195458507764882,
        -0.20903090151520087,
        0.4628795836349417,
        -0.5799518310625983,
        -0.33428098454575,
        0.10353737383368508,
        -0.03329123355025998,
        -0.3772962430305163,
        -0.34040935053270605,
        0.37566617951944803,
        0.3732645560898997,
        0.2792574180264862,
        -0.0668731576060322,
        -0.33129898194664126,
        -0.9701236387442214,
        0.1101656272900084,
        -0.04102321291632687,
        0.275803134397182,
        0.3134211368934595,
        0.037132672740599684,
        0.26190039276910854,
        -0.10606470907571194,
        -0.23648045287388247,
        0.8383644825406852,
        -0.6728661704329555,
        0.7688650901435465,
        -0.5986556682321277,
        0.09910622869728734,
        0.44505099178719154,
        0.9564011541352619,
        0.7374334964317559,
        0.6494488395306187,
        -0.073060573134052,
        -0.7807440206712912,
        -0.1865840774896773,
        0.3711561558244042,
        -0.2960775156313678,
        -0.23789902460938828,
        -0.2082754795936498,
        -0.5563510882010207,
        -0.3319729331306052,
        0.14095502864570694,
        0.11484280471524375,
        0.6180173198521596,
        -0.25111002835037227,
        0.7567080048753329
      ],
      [
        -0.0055613265500912374,
        -0.670129461456024,
        0.19395557701530475,
        -0.09104242500349176,
        -0.09538452687108148,
        0.22226253019768724,
        -0.1255971366533691,
        0.015642580438143504,
        -0.13429031462526264,
        0.9469352354652592,
        0.41584518563956935,
        -0.5065893262005382,
        0.3957062004831665,
        -0.05330675700166198,
        0.493713199293837,
        -0.1305008295890488,
        0.9640858949491791,
        -0.36752277371533193,
        0.6387300785719172,
        0.36205720922335877,
        -0.3594841896883153,
        0.6335639436579906,
        -0.10729838862590428,
        0.2507406672819508,
        0.08873061886987198,
        0.5620513794117978,
        0.7004396488997667,
        0.1505348151926615,
        -0.020980502307776202,
        0.011721621880426952,
        0.37845146440078675,
        0.22822468193546552,
        0.2687219686919349,
        -0.16705018909411265,
        -0.4190692160798693,
        -0.9642538656189675,
        -0.006367704666473203,
        0.48392094217430226,
        -0.2270311382001297,
        -0.19817271522373686,
        -0.3188417034568733,
        0.2637136755203416,
        -0.15671103356385344,
        0.42645963824421523,
        0.08346748700559693,
        0.6744905717692742,
        0.09829352786842231,
        -0.17654055874745642,
        -0.8181563471547273,
        0.3682708291163561,
        -0.3042419452410497,
        -0.10346477213424456,
        0.3917684500086741,
        0.19785633340874256,
        -0.4625666338606014,
        0.8617691318273345,
        0.7889277924352561,
        0.2856277299185592,
        0.44722741021926044,
        -0.47786767316923523,
        -0.3965560031023952,
        0.3539700658379359,
        -0.27996660126219014,
        0.6861138896151007
      ],
      [
        -0.01490917836105289,
        0.4887943723334981,
        0.8358682534743106,
        -0.2710666985381911,
        0.555876664770379,
        0.06911620525949347,
        -0.11198641757293855,
        0.07484538871630554,
        -0.06018931419837056,
        0.3984169063478083,
        0.08245741274956009,
        0.3328029334837152,
        -0.2835125650842143,
        -0.09598319434537317,
        0.5252822404967324,
        -0.028188715656173594,
        -0.3570706578035022,
        -0.2553953954403716,
        -0.10027010040685407,
        -0.16807238776590225,
        -0.416817332782096,
        0.14571877107333536,
        -0.2817942616993459,
        -0.4939029289945229,
        -0.7066615467332809,
        -0.39495733402953986,
        0.6369234510193217,
        -0.606333229348701,
        -0.7813476716626212,
        -0.5809603306172058,
        0.020434301420356002,
        0.05919046355777871,
        -0.34567309131627055,
        -0.17941951061920092,
        -0.01692746894285208,
        -0.4301479259705434,
        0.4237465675315092,
        0.5860013730503226,
        0.20790274694050234,
        -0.23550799603891762,
        0.5218400200828791,
        -0.40437252337452684,
        -0.13914275411253219,
        0.08728643507105054,
        -0.9943658531069048,
        -0.7688127521622299,
        -0.3007224288109441,
        -0.07690339282381199,
        0.12163498465640517,
        0.06889373233091445,
        -0.34475275779519987,
        0.95197388089043,
        0.21913480058692902,
        -0.8926990310535524,
        -0.0038475687106772475,
        -0.533916219686097,
        0.024000258734832133,
        0.3667604486411827,
        0.41852472290654635,
        0.2719901783269195,
        -0.09777701206275956,
        0.333852240588637,
        -0.9916471270276161,
        -0.30592839989547527
      ],
      [
        -0.6307226681655935,
        -0.15035212856794453,
        -0.019675078547608634,
        -0.1018093550890884,
        0.07322591600711242,
        0.6294703957121545,
        -0.7740818267046576,
        0.8598850888875574,
        -0.5201155679417374,
        -0.35322637109290633,
        0.10333956805080724,
        0.7450787659270774,
        0.08025360357272124,
        -0.19611140133803717,
        -0.22866269668827266,
        0.054183583219480635,
        -0.00911791071525734,
        0.3758751947995275,
        0.12357929235642369,
        -1,
        0.7277152704564444,
        -0.3658928930782765,
        0.6454080496763427,
        -0.2089203381149171,
        -0.9161993039175503,
        -0.2259690059164475,
        -0.24996538694883205,
        0.7201540988291866,
        0.27218415153172576,
        0.44285936168166185,
        -0.12771444166946144,
        0.18010830922751328,
        -0.19276351868266559,
        -0.3966242136522285,
        0.8413193689276907,
        -0.350420439562457,
        0.6226324031987429,
        -0.030763133622583476,
        -0.6417370655558547,
        -0.19025636857905728,
        0.24153143116379286,
        -0.15675207321228868,
        0.25188598833550346,
        -0.7503568022113973,
        0.4030751732810681,
        -0.12594249881426117,
        -0.1476357773717508,
        0.5381618146990806,
        -0.28892006620911137,
        0.16854988550747757,
        -0.008847492944822358,
        0.9987314982351342,
        -0.5775666888815061,
        0.15135704656837068,
        -0.8876104732367026,
        0.006454809329589776,
        -0.9838071679341381,
        -0.01639585421709639,
        0.2588347210614002,
        -0.010506535679939215,
        0.2258749127021068,
        -0.389715591094225,
        -0.1015799425829724,
        -0.1939218557310304
      ],
      [
        -0.49364177538731296,
        0.4706240275348909,
        -0.17404501069834533,
        0.9765347116542165,
        -0.0550646653480976,
        0.0355329203491257,
        -0.8605224664845654,
        -0.20035941166997356,
        0.3430149283553901,
        -0.13953431464340899,
        -0.4436176286796068,
        0.8557804384332616,
        -0.1820121528212902,
        0.20779525030161702,
        -0.36835485325860157,
        0.17363956875811243,
        -0.37341960294677495,
        0.45345910697415615,
        0.11144429742059239,
        0.7750993882778454,
        0.20446336701584364,
        -0.2691617517902204,
        -0.15847055026858897,
        -0.25453170290997723,
        0.3257980849629804,
        0.9782396714707736,
        0.06428951480461821,
        -0.04156657037736167,
        -0.0905696121151515,
        -0.40268494266578614,
        -0.05898700884696564,
        -0.6082443321195422,
        0.3462738274068905,
        0.03895408155102694,
        -0.24130691625603898,
        -0.033069571603212125,
        0.2354476664108901,
        -0.5792181568658795,
        -0.6616532931588204,
        -0.06395527023972532,
        -0.8978751440903779,
        0.3250399757154867,
        -0.42960497900786143,
        -0.5454229360864995,
        0.15941917556289378,
        0.042607707589217086,
        0.9482864406828873,
        0.5480143004780821,
        0.13131741461081692,
        0.9135901080168752,
        0.1999688981442021,
        -0.017252966523145598,
        0.05432792662494925,
        0.6508844725339784,
        -0.3015755984202189,
        0.13565077391535504,
        0.14743389333103868,
        0.33061093726902785,
        -0.622471947250088,
        -0.5104808361410373,
        -0.7819158940529499,
        0.04662771229621416,
        -0.12427064727442677,
        0.1903639756995799
      ]
    ],
    "biases": [
      0.078306673378936,
      -0.25284813697328,
      0.13450838689730502,
      -0.5944405112662182,
      0.8626999583921234,
      0.2932861999637689,
      -0.45557610563973716,
      -0.181981805192514,
      0.4069544069166398,
      -0.09883920285330941,
      0.7564247137891151,
      0.32268239304435664,
      -0.8111346597352651,
      0.3415986168108452,
      -0.12259240990801781,
      0.23447034703697484,
      -0.08416080390165527,
      0.7809774120895114,
      -0.09257437182803002,
      -0.3070806889985055,
      -0.5699218764069679,
      0.42137434711755833,
      0.27941387653981575,
      -0.31629434855580263,
      -0.30057555698064325,
      0.5203227195734863,
      0.023927899341736482,
      -0.1566557064247574,
      0.038799846188069156,
      -0.06780885616974731,
      -0.09044857586329767,
      0.029211219309977613,
      0.6649097758984626,
      0.17038558824346714,
      0.31376249506463827,
      -0.15581936761354864,
      0.6682959986110433,
      -0.46104302134870423,
      -0.21788194419730395,
      -0.33168639794980564,
      0.7821038674774364,
      0.8618684204174838,
      -0.045036675822198,
      0.36177493862228083,
      -0.5775998665050751,
      0.018619189363215716,
      0.15298840892608737,
      0.07513672526980972,
      0.37198793506222766,
      0.08537125239406651,
      0.778563089807663,
      0.2520295243193955,
      0.6045786288436333,
      0.2713809312419103,
      -0.07438186434649599,
      0.09005292541191713,
      0.04007480092064189,
      -0.2300390409412716,
      -0.19626435560627703,
      0.5966907322733304,
      -0.21921910634661723,
      -0.3158364897782141,
      -0.23423491194235704,
      -0.40520549726086436
    ]
  },
  "layer_1": {
    "weights": [
      [
        -0.33446188680082195,
        0.4502356792954816,
        -0.15304519719265744,
        -0.23143530121975345,
        -0.15027606651095596,
        -0.025379709067015872,
        -0.5082388948207524,
        0.7364388898378124,
        -0.21102380465609288,
        0.36152476569845626,
        -0.7958903023057567,
        0.030427926352860415,
        0.8755036682276228,
        0.6813129440367232,
        -0.1642943477789271,
        -0.028863905683641763
      ],
      [
        -0.2942477869827511,
        0.4559395096270288,
        -0.6618628487854549,
        -0.30172364204233515,
        -0.041653522861959766,
        -0.05982126858085357,
        0.29006361636880446,
        -0.3211025806563092,
        0.008935508455296698,
        0.24917482320373943,
        0.11549563313436352,
        -0.3155483660650709,
        -0.1546267917765462,
        0.8250306752280956,
        0.09062802581180494,
        -0.7422717348991521
      ],
      [
        -0.2511210969020276,
        0.47336666378049214,
        -0.04373705699727968,
        0.34976116558665143,
        0.5586081693191692,
        0.13495324850543824,
        0.5326729917110503,
        0.8298897590944987,
        -0.2567360734288341,
        0.17414768798099284,
        0.019391685831068865,
        -0.22832746746283414,
        -0.9204512511738177,
        0.2880603811612924,
        0.11879332502791874,
        -0.9510923695117127
      ],
      [
        -0.018776726666251655,
        0.3305604126192386,
        -0.5699671427428256,
        0.5127161101183754,
        -0.0638467782745667,
        -0.2854171618230407,
        0.05966133490121408,
        -0.10076932284739379,
        0.34364980917046856,
        0.80537960673803,
        0.08969832653897297,
        -0.06934430721464792,
        -0.9578369247980172,
        0.7143656741010933,
        0.2417695574000033,
        0.8138357264739307
      ],
      [
        0.16720377742690098,
        -0.07914313164618635,
        0.09155610860121231,
        0.19616166242657207,
        -0.9448218059090826,
        0.17778711298816377,
        0.0015322495361385477,
        0.301585801732032,
        -0.28243501123565046,
        0.3001370536218233,
        -0.056808601574568206,
        0.30600486060869775,
        -0.3156379678207137,
        0.37101351234443186,
        0.3253079954002696,
        -0.6571965781984556
      ],
      [
        0.46966332221623547,
        0.7679354623197043,
        0.06060700607810877,
        0.5858999715308161,
        0.5345834633032931,
        0.20139284395025286,
        0.8225819692690037,
        -0.050797426873582234,
        -0.8558923299075174,
        -0.2937635058847005,
        -0.3070235893424465,
        0.09551114100093311,
        -0.5819995444775583,
        -0.9763648891035964,
        0.008489205734886388,
        -0.15770251290106194
      ],
      [
        -0.1617452065205495,
        0.3493447302378303,
        -0.16581841269007025,
        -0.12474765720890454,
        -0.009152280112319021,
        0.42765977787654313,
        -0.3363661151742083,
        0.10365749741874516,
        0.19828575309395813,
        0.01939465804197698,
        -0.11851158859729327,
        0.29666555232665304,
        0.39234667229035197,
        0.11666560407322162,
        0.3437897338401105,
        0.2923492311889994
      ],
      [
        0.5210688775178777,
        0.2585848108563632,
        0.13964702716241903,
        0.1116448223213886,
        -0.15177833354632173,
        0.09266942303364538,
        0.544639547304888,
        0.4715982649735597,
        0.7287509934499933,
        -0.4979669600829634,
        -0.25899585947211484,
        0.26453526727476356,
        0.10042181584286954,
        0.42590492208425534,
        -0.1718086275221852,
        0.38539253001560453
      ],
      [
        0.637549219381632,
        -0.25688371588064957,
        0.9914927510054734,
        -0.9659820982561929,
        -0.2069519986741865,
        -0.022113137529864508,
        0.574902785726673,
        0.5012341117450967,
        0.7772111449401718,
        0.7158506615013048,
        -0.7258680205748221,
        0.12621581643399626,
        0.06664933522898103,
        -0.4722899912959428,
        -0.3325828675816445,
        -0.33735363199908214
      ],
      [
        0.8996545345521766,
        -0.13141606747032852,
        -0.23410575786981253,
        0.6634897025332145,
        -0.601800368690619,
        -0.027424091564519155,
        0.4430364791097246,
        0.26196450918392034,
        -0.28978944426065734,
        -0.025320399160818772,
        0.20184552030536534,
        -0.24497197472012625,
        -0.6744275218194195,
        -0.7740406619744821,
        0.35175122095946265,
        -0.04985185795597266
      ],
      [
        0.14835588040491257,
        -0.8530518735130966,
        0.22912974063439717,
        -0.4704253060066173,
        -0.4665953724600033,
        -0.35850688427351396,
        0.279736596816695,
        -0.6072622244819813,
        0.09970693528866388,
        0.683712824835612,
        -0.7939177402427776,
        -0.6147271640006425,
        0.1454285983479207,
        -0.34429777428259156,
        0.6998610290788629,
        -0.22978825888561466
      ],
      [
        -0.5294350705474182,
        0.5818674411488273,
        -0.17017240945952578,
        0.6672753030578069,
        -0.8053075528533292,
        -0.018837796850662974,
        -0.29553108901981867,
        -0.3298062173615467,
        -0.5330139841757776,
        -0.3102766236733837,
        0.510149739851229,
        -0.417048585619245,
        -0.29712307213896066,
        -0.5408915551965109,
        0.9071566505332873,
        -0.774094291642983
      ],
      [
        -0.19871595347815105,
        -0.22628374476030738,
        -0.22844785117843566,
        -0.2342319545210291,
        0.09478396829539293,
        0.08715258742713182,
        -0.4372888865514199,
        0.32115254827486883,
        -0.6905386610394356,
        0.49157717123003075,
        0.40072078199247496,
        0.544144764858357,
        0.7509318532720436,
        -0.2546010615852934,
        -0.6902890813206074,
        -0.006670342493953655
      ],
      [
        0.6947634298325747,
        -0.242470778751578,
        0.7727928791676487,
        0.18179349500171074,
        -0.34756308684604453,
        0.10322172167862678,
        -0.2672899974105863,
        -0.0814240948461044,
        -0.38847052472326765,
        -0.2617409317484795,
        -0.45668364208377,
        -0.26673070444898955,
        0.05027873712353459,
        -0.40459776553445287,
        -0.32137301021101256,
        0.9806792756487308
      ],
      [
        0.1443134522462175,
        0.21510523352849087,
        -0.1995417581461314,
        -0.7692053843069903,
        -0.612912489520449,
        0.6389229018448785,
        0.23905226877874997,
        0.2889842802421937,
        0.26591335298833463,
        -0.9925898028709615,
        -0.44143867224866157,
        -0.2895809628979487,
        0.1945148670587763,
        0.053819209248055645,
        0.039178032667164575,
        -0.37813282128208797
      ],
      [
        0.08902702304954788,
        -0.43299992641018475,
        0.24043841411712696,
        0.940428664725108,
        0.650218171579335,
        0.7289582581408612,
        0.2184109542330646,
        0.34944488226931475,
        0.5778748821396523,
        0.36284875967462454,
        -0.02234726785796239,
        -0.5654872838066658,
        0.39441666043597345,
        0.024163279298419632,
        -0.5182664602981724,
        -0.1188931096748307
      ],
      [
        0.48518737380019406,
        0.7489782787064176,
        -0.3268832108776464,
        -0.5288574874627778,
        -0.27639159178655787,
        0.2093249624024724,
        0.26899074555470276,
        -0.09742056462768998,
        0.04369394204305763,
        -0.07354545053844466,
        -0.3378416443742439,
        -0.05755800833085427,
        -0.07685700077176796,
        -0.07610274015341988,
        0.2744431512276408,
        -0.027831462878637084
      ],
      [
        0.33445657785868466,
        -0.11145703012503586,
        -0.6651126748074634,
        -0.1295867726020034,
        -0.27177878143071454,
        0.17782664588499045,
        0.6067100733366031,
        0.8678703003345442,
        -0.7943966808634976,
        -0.21623533110391166,
        0.47534507120902086,
        -0.09742212927945809,
        -0.2650910211492473,
        -0.6532444418086442,
        -0.4513153842001257,
        0.35244150945102976
      ],
      [
        0.44162507238484977,
        -0.5637295546741016,
        0.26000551684257994,
        0.057844147968149316,
        0.054221860587625306,
        0.4135777290514533,
        0.26145939977116867,
        -0.29320972845090065,
        0.36340551084867695,
        0.3238761181920587,
        -0.3295150827602035,
        0.4867297053795506,
        0.1182499228753839,
        -0.5237540564420093,
        -0.24785733675462202,
        -0.09456126170902582
      ],
      [
        -0.3470718172626412,
        -0.06665251497733753,
        -0.1411857912496804,
        0.38939717432307325,
        0.06360610046714152,
        -0.2013421009441444,
        -0.14518927357742942,
        -0.041321603743129036,
        -0.3905018487105213,
        0.12550368617714908,
        -0.019567561438244827,
        0.07848621744863131,
        0.39426163381406854,
        0.46504684108656985,
        0.1324298525726864,
        -0.6854696620918926
      ],
      [
        -0.9928014335331863,
        0.015955997449247653,
        0.2871383672455839,
        0.22912834262002035,
        -0.6505617397316988,
        0.06541148806437713,
        -0.031214011913369307,
        -0.045423266915937455,
        -0.16825128823293728,
        -0.5697816760090012,
        -0.3357615526438465,
        -0.2005897016447402,
        -0.6213236985282982,
        0.027971332914557445,
        0.36353815489971986,
        0.7593420338470578
      ],
      [
        -0.31129016514646357,
        0.32083143093359007,
        -0.12264890299630603,
        0.05880452838682382,
        0.17167413730411388,
        -0.9802276544800277,
        -0.4678229696065097,
        0.49804307897829353,
        0.6620537936088791,
        -0.6048401959657397,
        0.05186556493527603,
        -0.0634837341782508,
        -0.5451809132199203,
        0.06889830758556895,
        -0.41778722911480504,
        -0.26149136269852796
      ],
      [
        0.9494957791990299,
        -0.16629402829304216,
        0.8017465657276464,
        0.06335625686068112,
        0.6426103904878055,
        0.7172095859695179,
        -0.27956170652612883,
        -0.6288073383183267,
        -0.9634111340154256,
        0.16075246845519386,
        0.33890328191277824,
        0.9571648046846308,
        -0.02752068156468393,
        -0.19881002929006183,
        -0.5122605700444876,
        0.49354488462880186
      ],
      [
        -0.08755110230846795,
        -0.4004489070285833,
        0.44382945638052324,
        -0.5354681041744762,
        0.09857735586411737,
        -0.020701659633622572,
        0.5044616596586433,
        0.187451473200493,
        0.08319352804021747,
        -0.5400372731214081,
        0.23871291702268888,
        -0.4290293276880378,
        -0.6806577530231875,
        0.25078958155075914,
        -0.7937397518493365,
        0.005852454478353846
      ],
      [
        0.005991809496664537,
        0.014183699242722126,
        0.469004930816121,
        -0.1389369451292702,
        -0.023812238614705043,
        -0.5873099326721442,
        -0.4637596409539742,
        0.11239675679513365,
        0.04770806075481792,
        -0.351613466927915,
        -0.48145419807433193,
        0.017346742354134297,
        0.17164378587826948,
        -0.7582311935612449,
        0.1529817018719833,
        -0.013357705085249211
      ],
      [
        -0.6460013893124325,
        0.3701448359490683,
        0.4802921172029784,
        -0.7321905070610122,
        -0.9162136478979458,
        0.267999656571324,
        -0.5019711324052312,
        0.4208728029655308,
        0.49463170985879223,
        -0.5037553785587361,
        0.06024261426495903,
        -0.4282968402963359,
        -0.007212834013579985,
        0.149798363423817,
        0.2306311405145549,
        -0.19735634747393363
      ],
      [
        -0.2750974434358016,
        -0.3654327935849788,
        0.28435193024066663,
        -0.004474067732850384,
        0.01262511529703326,
        0.42113330354937445,
        0.7967448531992544,
        0.2729555773124104,
        -0.3308093282610336,
        0.9091592311071258,
        0.10153354307942153,
        -0.23834345716485245,
        0.7165884831588276,
        -0.1704885510819501,
        -0.4337763397841764,
        -0.40999051112550416
      ],
      [
        -0.1426018324425911,
        -0.06863754280840682,
        0.2127217618561909,
        0.41014089066567644,
        0.19578035231755495,
        -0.15619576399886081,
        0.6751628499731659,
        -0.25877952040806196,
        -0.197639325463024,
        0.9908602937997975,
        -0.346312716913561,
        0.20299142960677619,
        0.19162568541213656,
        -0.10516330717588034,
        -0.3883821992181659,
        -0.059159698515072606
      ],
      [
        0.5609470309566341,
        0.7987186774817351,
        0.20301833301013505,
        0.6597125101925284,
        -0.07892698994838154,
        -0.6645718695552648,
        0.10015853076126714,
        -0.25202306073484626,
        0.6173940419329207,
        0.35023539249010427,
        0.6182372120512871,
        0.06596176865777831,
        0.9740836226312726,
        0.1353511045207536,
        0.17622876958714326,
        -0.6319967020379408
      ],
      [
        0.07190492332180562,
        -0.3309792788097756,
        -0.39463390851541097,
        -0.0667692083028122,
        0.48225520416052753,
        -0.47259096051514765,
        -0.2861081242774008,
        0.06187898655989781,
        0.5902484085787011,
        0.9457533125137423,
        0.24347538078417033,
        -0.11894300621882907,
        0.3523164311876263,
        0.16999420189966047,
        -0.029205554133621834,
        0.03253834583087953
      ],
      [
        0.6499190249331195,
        0.1431322572289044,
        0.5284478631203331,
        -0.4149889671714858,
        -0.2176965562069683,
        -0.930897473027217,
        0.17451424630122492,
        0.04145741991278263,
        0.14026463410824108,
        -0.5542655666727431,
        -0.27760886828179804,
        0.5879897650508706,
        -0.9901793037315088,
        0.32098052571883723,
        0.1039091340433396,
        -0.8266417647143641
      ],
      [
        0.7536964372380991,
        -0.37078184264435887,
        0.11517366249360209,
        0.558360346768722,
        -0.48125173617531214,
        -0.709265830215708,
        -0.19844154154813928,
        -0.21513519698322817,
        0.004923247750000673,
        0.20517178827541735,
        0.7743346911646465,
        -0.32299828921454077,
        -0.6078787236494103,
        0.6235910780447419,
        0.9676084071723162,
        -0.2905211981025331
      ],
      [
        0.18391939958251963,
        0.513034375209837,
        -0.2638920110138802,
        -0.6128417763352748,
        -0.5857095888701254,
        0.4160357134869827,
        -0.8548327697381493,
        -0.5128936330041172,
        -0.11205646793096716,
        0.05133686217559438,
        -0.8149869693925422,
        0.9142008285493173,
        0.0031478824921986528,
        -0.6576972731979891,
        0.09814731282579191,
        -0.690476271205161
      ],
      [
        0.4193889169791457,
        0.07982827040272526,
        -0.8684561536120524,
        0.4791779558784862,
        -0.39745778916044294,
        0.32065642620574675,
        -0.5574783443683637,
        -0.21007458691274486,
        -0.6386537226838462,
        -0.7915362718485248,
        0.09412334914941249,
        0.6814193604954755,
        0.7548661193261713,
        0.578607649792901,
        0.22838554843532546,
        0.13535797078794404
      ],
      [
        -0.9483751236376489,
        0.3410030758465262,
        0.1687357058234782,
        0.16774847626867567,
        -0.29282778370886836,
        -0.871351725501976,
        -0.18792760187401347,
        0.10070142532876163,
        -0.44959268691605375,
        -0.2266541464441283,
        -0.09568537626950115,
        -0.9637184324684163,
        0.6147089930718538,
        0.1494758870724913,
        0.3522810547274223,
        0.40807668323333746
      ],
      [
        0.337385567637266,
        0.3901184404942417,
        0.11143774094898165,
        -0.5290350232035754,
        -0.014825149782773876,
        0.15988667596579942,
        -0.24146844408540102,
        -0.2868094220212619,
        0.23363863536879084,
        -0.7202775229327462,
        -0.2136511225146996,
        -0.3124513993599889,
        -0.378789814990597,
        -0.6283531690568858,
        0.33576204850828517,
        -0.03255715872347492
      ],
      [
        -0.1646466879792808,
        0.28861249249324517,
        0.34630554713616607,
        0.6665391198368761,
        -0.15536032569122377,
        -0.1566434921153432,
        -0.44258997077209844,
        0.5410455227484371,
        0.005627661901419661,
        0.5849080486564355,
        0.17738369582415328,
        0.3594604082061955,
        -0.1685626096581317,
        0.030732496139867213,
        0.34857899174794776,
        0.1535470350993062
      ],
      [
        0.39502151873955293,
        -0.09894503497728528,
        -0.07193992898637733,
        0.289385406868389,
        0.9279089784403995,
        -0.07793117324631323,
        -0.30588742226501714,
        -0.09122061148740075,
        -0.010115171483906357,
        0.6057921870826048,
        -0.27734321161871756,
        0.3158483846100435,
        0.3879033352970384,
        -0.652983563113702,
        -0.3270992437674251,
        -0.22423768996502624
      ],
      [
        -0.19893890043086784,
        0.5048687387462915,
        -0.011125640174384872,
        -0.21837787003838763,
        -0.5086327774454454,
        0.061991227682772744,
        0.8673497506703504,
        -0.1841779085512505,
        -0.5508477632688379,
        -0.07910860938546657,
        -0.43142361763732373,
        0.4593761469856804,
        0.046557127055337995,
        -0.18541486598236612,
        -0.5437874667425762,
        -0.21922123623272932
      ],
      [
        -0.7334942397419602,
        -0.6861512250163597,
        0.4166501299034637,
        -0.4945149924032031,
        -0.025606903243909088,
        -0.2517369957389433,
        -0.14007494509248364,
        0.48885265999551625,
        -0.5258708519780952,
        -0.12122808090406027,
        0.6364659981017265,
        -0.08161772895566442,
        0.1544962195678408,
        -0.2862495704622517,
        0.3907022934449513,
        0.06381700475009451
      ],
      [
        0.5757993011567363,
        0.7625959984341374,
        0.07032979477351155,
        0.04158998132056109,
        0.3516047342979453,
        -0.7960118905638767,
        -0.11691228187751954,
        0.39335729409458553,
        0.2139088964875327,
        -0.9868547503706944,
        -0.17742611205233508,
        -0.05007085610280986,
        0.7084287967486943,
        -0.4595308147661106,
        -0.6562447683760518,
        -0.7193777539675319
      ],
      [
        0.2854363906217489,
        -0.4099185928536983,
        -0.10285057098163776,
        -0.01462607718474797,
        -0.7090862222449744,
        -0.27143974064155163,
        -0.017242095189967954,
        0.3742319921125189,
        -0.8968307485304673,
        -0.3617204774493242,
        0.7189888564824973,
        -0.27791800251152793,
        0.4944623516116017,
        -0.4408432422284651,
        -0.04622110071295497,
        -0.04161022689713623
      ],
      [
        0.2753800721127726,
        -0.2174909836614352,
        0.0970623665671905,
        0.7206823789308974,
        -0.2534855852304541,
        0.8358026961127772,
        0.8510777951096421,
        -0.5429307062033951,
        -0.2419301862037455,
        -0.11749259795872657,
        -0.4731766264458036,
        -0.38850242272472846,
        -0.0659894887244512,
        0.1980903535906316,
        0.2115114795201785,
        -0.5619482284580416
      ],
      [
        0.343194796498281,
        0.0885664908974363,
        0.6425840633751022,
        -0.05746009112995362,
        0.015944523885625585,
        -0.7634129868877604,
        0.0849756970387811,
        -0.04804153348858447,
        -0.22174015314284867,
        0.06762925936640837,
        0.22980695637253418,
        -0.1053084919793566,
        0.12887429169765,
        0.10446263966954973,
        -0.20184303940846557,
        0.16129886416604125
      ],
      [
        0.036543457544701605,
        -0.18022076744891702,
        -0.5630982113111536,
        -0.08594316212272878,
        0.604825006584404,
        -0.41983396774796483,
        0.9101887555488138,
        -0.19589772515003448,
        0.21093674896552742,
        0.3406002012235525,
        0.06363731139160465,
        -0.2701679865995701,
        0.4612682538783342,
        0.015378164705760635,
        -0.1892790898665258,
        -0.22406550507013154
      ],
      [
        0.3368874084900406,
        -0.4994335456190137,
        -0.8978334781388853,
        0.11577724345295017,
        -0.2772325709628332,
        0.46824398402455986,
        0.08640351711513582,
        -0.2552958796770399,
        0.7828502603193125,
        -0.12986299483471708,
        -0.1262338931430139,
        0.8879152559399992,
        -0.16814023904479855,
        -0.7654903677791258,
        0.6546378326543341,
        -0.22216168591050914
      ],
      [
        -0.3410382283495408,
        -0.4893857956518355,
        0.8402176056368159,
        0.047884599428392086,
        0.055275558759777625,
        0.31956988673940245,
        -0.21946145496573669,
        0.1507408162187431,
        0.37592409698425006,
        -0.3159052263394843,
        0.342327358202117,
        0.1361113966658988,
        0.4606193495889904,
        0.733141757983924,
        0.38724819911925135,
        -0.33663179079308153
      ],
      [
        0.506047151324259,
        0.4591858688043778,
        -0.7452295544805313,
        -0.5753352866688748,
        -0.15572729927159326,
        0.45070707167648516,
        -0.6136702682966583,
        -0.9531525071492081,
        0.37206565646927886,
        -0.015082766159820864,
        -0.19063435001532336,
        0.057280432314384955,
        -0.07051257741895761,
        -0.39251822980946777,
        -0.5277982287364081,
        -0.20985268777574195
      ],
      [
        -0.08319492772596751,
        -0.7655097496541639,
        -0.5314239510534231,
        0.8558109981149989,
        -0.002036817713827912,
        0.7155955084925287,
        -0.9631364892581011,
        0.12908732065051365,
        -0.7697015749371395,
        0.2893039717454433,
        0.13730795532617518,
        0.9621662421862176,
        -0.34956116557971634,
        -0.29690146910970766,
        0.2826030947573336,
        -0.23693143535287603
      ],
      [
        0.05347362515685353,
        -0.05925717050886505,
        -0.35088144966018525,
        0.9566129858942795,
        0.1566605583687715,
        -0.8333303492341568,
        -0.16312411294362353,
        -0.9939700229711517,
        -0.274500776353789,
        0.9776286225702027,
        0.01730940119705746,
        -0.28668267713892637,
        -0.10355755219793368,
        -0.38817429289773225,
        0.16242552593746276,
        -0.44558797099975866
      ],
      [
        -0.4306669787038678,
        0.5539416016955784,
        -0.071507723279959,
        -0.08342070445467656,
        -0.021157820719080796,
        0.2224527206976045,
        0.2976784872414531,
        -0.4940382494561101,
        0.48630320766986257,
        -0.2055984016214428,
        -0.09555619014750096,
        0.19687006200611107,
        0.01973648295465221,
        -0.09407287121978199,
        -0.5245682404566064,
        -0.12485805772936003
      ],
      [
        0.12620702730049332,
        0.5002342859758417,
        0.2442435886518485,
        -0.29793616320429367,
        0.3868733897676531,
        -0.05732730357029684,
        0.03064266654576374,
        0.34146840415723945,
        0.6405155048149785,
        -0.48168390751614343,
        -0.8701813336342193,
        -0.8638300501162807,
        -0.21553908708016967,
        -0.0942485406554601,
        -0.6804276118671757,
        0.20458298014787038
      ],
      [
        -0.41055037199795896,
        -0.2625505131992225,
        -0.7975597242812403,
        -0.43682712663173295,
        0.11330326418351601,
        -0.45902696888294325,
        -0.2930603922908844,
        0.7091694665253814,
        0.12868210046093262,
        0.8431820506421335,
        -0.5453124526270092,
        0.817402154848563,
        -0.7716797006397508,
        -0.4295771307905466,
        -0.03370979532357812,
        -0.5634121918802603
      ],
      [
        -0.11329689507830272,
        0.038373043662998325,
        -0.04462987899958898,
        -0.6460114834926062,
        0.1859296830768222,
        -0.7038574678385667,
        0.2925957750142011,
        0.0430261403209664,
        0.037013398118939736,
        0.6356189925048513,
        0.17380759930356238,
        0.802056789884069,
        -0.20582289281564556,
        0.7868224586139212,
        -0.958563483340485,
        0.17828876060409538
      ],
      [
        -0.2416396463224676,
        -0.6470748934222673,
        -0.46346973554830284,
        0.41169378799629336,
        0.02014769237567175,
        -0.01287084345518023,
        0.11565022632726941,
        -0.20186034603396724,
        0.0492547020127835,
        -0.027531766864007892,
        0.7041216192616494,
        0.06202815970826794,
        0.008791970203450019,
        -0.14192949132916408,
        -0.19011544138445702,
        0.7767125588503436
      ],
      [
        -0.05669938508270767,
        -0.2809891580412159,
        0.1303461207022042,
        -0.15898772064563585,
        0.6551412641284634,
        0.9553930350396725,
        0.44022959055765487,
        0.2640693616187035,
        -0.6893534019382229,
        0.6683022448079893,
        0.7762426212749618,
        0.6974504580757117,
        -0.04092875325515949,
        0.5847621141043422,
        0.7791500734784559,
        -0.14286833343688157
      ],
      [
        0.028101198337152394,
        0.4789823830294344,
        0.02567172633714961,
        -0.34322217708301883,
        -0.5369033400759637,
        0.6043149364554841,
        -0.6614876919594352,
        0.14954502925935267,
        -0.20500057979915626,
        0.8929053880330269,
        0.03621586723381624,
        0.3003752198629126,
        0.48298357476315107,
        0.19654063680569897,
        -0.29864558482887293,
        -0.26328474618540404
      ],
      [
        -0.12825161396961138,
        -0.02123954147265696,
        0.3670192458388286,
        0.18651864991109787,
        -0.2597476153311739,
        0.26965489568485623,
        -0.25638398904858245,
        -0.6843020208299844,
        -0.17124385150397303,
        -0.042307926782302274,
        -0.19667101519841773,
        -0.05609826781525797,
        0.08846233777221689,
        0.26780030759958784,
        0.42953290749542317,
        -0.8530551160527182
      ],
      [
        0.06984134432850304,
        0.07139922632967174,
        -0.4918019281362008,
        -0.5620776990964712,
        -0.08256590700697988,
        0.7995909968863452,
        0.7640406322777156,
        0.20304010118506013,
        -0.4811831721687358,
        -0.10555542033264398,
        0.172567211408491,
        -0.3847415972397411,
        -0.3968236842065973,
        -0.22624035391454053,
        -0.42784298169234825,
        0.041254525168252384
      ],
      [
        -0.9856016910502715,
        0.08068095235442939,
        0.5242720897495642,
        0.6438465398531306,
        -0.23672292874238823,
        -0.2527151548538753,
        -0.23023807660715143,
        -0.6600004705186152,
        0.33189421879705544,
        0.2404219238987476,
        -0.10567227754915996,
        -0.09150854245503988,
        -0.4389403694134836,
        0.18531337698511383,
        -0.6834628683517688,
        -0.3550760522314497
      ],
      [
        -0.056674227255774076,
        -0.37674639045278707,
        0.4446858307506663,
        -0.003822156908615115,
        0.2949178244357161,
        -0.11570079904726892,
        -0.4471034982179661,
        -0.48343105689702487,
        0.4236072099065536,
        -0.04548606597577905,
        -0.2733829144156914,
        0.3436647152623695,
        -0.053898863299384946,
        0.029546564983135896,
        0.44506009469921837,
        -0.17791922735506502
      ],
      [
        0.016950488998467225,
        0.24010939750796742,
        0.4010339137421975,
        0.6099399866051491,
        0.363243562274979,
        -0.2912956582049601,
        -0.34603069735234393,
        -0.18236573597182437,
        -0.8416722152962035,
        -0.4172661034870923,
        0.13847498104288583,
        0.04196155711907914,
        0.7357777237208807,
        -0.21337296191692254,
        -0.45411299395610966,
        -0.8435665398000683
      ],
      [
        -0.36342445911601196,
        -0.4111971315454475,
        -0.013686776134298077,
        0.1675951472219489,
        -0.35429213046882146,
        0.8541849315416645,
        0.21011017377874866,
        0.13318337164719127,
        -0.44646995298849346,
        -0.4933701620913486,
        -0.4779437508881603,
        -0.5608104272436025,
        -0.10229038185724768,
        -0.21792317095225258,
        -0.2590666293333898,
        0.06290172534598325
      ],
      [
        0.7298061729753897,
        -0.34346636405622616,
        -0.30956918494844465,
        -0.09828579510185784,
        0.9646470619260678,
        -0.3946749737332161,
        -0.08910970042090527,
        0.8136254111914649,
        -0.35767557996025096,
        -0.3029069082736888,
        -0.7442650975859681,
        -0.35261352419453,
        -0.0017959318492317773,
        -0.1152440395696384,
        0.054814818416205585,
        0.16573411236172272
      ]
    ],
    "biases": [
      -0.010563697106894927,
      -0.8441177970094654,
      0.24307239267424235,
      -0.6002753567176502,
      0.2678216772973734,
      -0.951132741799812,
      0.10534076336982179,
      0.19047192947487065,
      -0.578367875314936,
      0.13595840494019593,
      -0.3522899523825482,
      -0.6154201834740414,
      0.3749381377145123,
      0.3716627433738189,
      0.38625866352020716,
      -0.4679787550874381
    ]
  },
  "layer_2": {
    "weights": [
      [
        -0.6816369385750262,
        0.6200501914127154,
        -0.04269165156278929,
        0.07536244285912584,
        -0.047999634809003176,
        -0.5722900857675676,
        -0.5454365025376765,
        0.014484313077397446
      ],
      [
        -0.8014143315609503,
        -0.6915512170609707,
        0.4638537342649531,
        -0.14354186136940106,
        0.04127373659297572,
        0.14888004272552763,
        0.3734727597127239,
        0.12500439498235968
      ],
      [
        -0.2000564038110796,
        0.9676617359981557,
        -0.37040016356726085,
        0.20538927978529514,
        0.17531043501466445,
        -0.7550344824032361,
        -0.19015668152852444,
        -0.40629397238843556
      ],
      [
        0.35456773607039066,
        -0.5846750554010623,
        0.5846849660788018,
        -0.3145025527920115,
        -0.15440585762274867,
        -0.2539159760184858,
        -0.6382422551322317,
        -0.33012601774750744
      ],
      [
        -0.1426202453724662,
        0.5748439860504391,
        0.46539983086985875,
        -0.43115690018587205,
        0.34365874951996583,
        -0.5901041356328535,
        0.7538327627724227,
        -0.1876412170078
      ],
      [
        0.02490566873912326,
        0.0232240492801783,
        0.0489769276910224,
        -0.10725877986887891,
        0.605319189157738,
        0.3032034299045381,
        0.4504865763463806,
        -0.1992658811776126
      ],
      [
        -0.07316101980632027,
        0.8405823958353056,
        0.317009582992838,
        -0.0596186570202309,
        0.004561729116716682,
        0.49654683541518824,
        -0.3366719412901936,
        0.05848862952208144
      ],
      [
        0.4042035473213031,
        0.34768677538599074,
        0.6255943965885387,
        0.17455565000648893,
        0.469426035673182,
        -0.42326739861981344,
        0.04369312553215603,
        0.6448524416250627
      ],
      [
        -0.0161273892591969,
        -0.566788940503041,
        -0.8055380914139549,
        0.3569660840587026,
        -0.46715945550637883,
        -0.502384976983185,
        0.5020583845994332,
        -0.016998516309596583
      ],
      [
        0.32621356359351134,
        -0.1338546917337542,
        -0.2590921758051743,
        0.7223968418869757,
        0.061917314015768825,
        -0.6865611327728954,
        0.36621174687172664,
        0.12346805471364099
      ],
      [
        -0.5673763932900889,
        -0.1906710091892506,
        0.3109443761342563,
        0.042128335597697915,
        0.0524561103188299,
        0.5206416117294597,
        -0.10399574069648543,
        -0.765841621171842
      ],
      [
        0.9035830619795387,
        -0.05324739075237651,
        -0.4392595582719603,
        0.17734405317578586,
        0.3852832917118847,
        0.3557513975037826,
        -0.09102817432406177,
        -0.06968373806748164
      ],
      [
        -0.5646198612190987,
        -0.8017367320466923,
        -0.009493012669242485,
        -0.13802518664780233,
        -0.13297207294924715,
        -0.23488996821716412,
        0.4530366683298884,
        0.45687157811356977
      ],
      [
        0.31203642893436734,
        0.21748473849888345,
        -0.25018293217934845,
        0.13496583929273545,
        -0.3829617263394644,
        -0.21855041594473784,
        0.5611334089327885,
        0.9415387245986838
      ],
      [
        -0.43097753326000404,
        -0.78547011280596,
        0.000490337376236768,
        0.0625393915707283,
        0.1012790834135986,
        -0.655599758092519,
        0.34631200081466773,
        -0.3262584978388824
      ],
      [
        -0.5280301053309596,
        -0.32876352177718476,
        -0.021492687069690593,
        0.29248217986406944,
        0.6238351856734874,
        -0.07905045049823177,
        -0.09538339925026408,
        -0.21747368693025976
      ]
    ],
    "biases": [
      0.4517055651240196,
      -0.326196382361132,
      -0.5643144584030074,
      -0.05194438429471771,
      0.04875794824787275,
      -0.6779840413357471,
      0.08705132856662019,
      0.08888535490492326
    ]
  },
  "layer_3": {
    "weights": [
      [
        0.3591120691105101,
        -0.3200040938077936,
        0.5338926386049793,
        0.03471204642280892,
        -0.1102819718130904
      ],
      [
        0.2646931426390609,
        0.08293349723454654,
        0.5595975045732167,
        0.7435882876949529,
        0.8577219679325914
      ],
      [
        0.05091174767995935,
        -0.6403107932712291,
        0.07915272395742032,
        0.22952965248915863,
        -0.6228621987364551
      ],
      [
        -0.2308496881019297,
        -0.4234532859193441,
        -0.3141310862251186,
        0.10815802601192442,
        0.9398195340789331
      ],
      [
        0.21362307336668915,
        -0.05587638030292684,
        0.5599759829503788,
        0.19156340318731657,
        -0.18289842889853364
      ],
      [
        -0.2859421706597539,
        -0.980866267788855,
        0.07770011331606047,
        0.1332067297232642,
        -0.41362426666251567
      ],
      [
        -0.26416698583869647,
        0.7486920171543318,
        -0.9204590560324859,
        0.25605765309751066,
        -0.7818597422585611
      ],
      [
        0.794112690690976,
        0.26460164676393205,
        -0.14615638302092007,
        -0.21115976149746116,
        0.3354991242872783
      ]
    ],
    "biases": [
      -0.6708142698853513,
      0.051454591613168274,
      -0.1405816102571116,
      0.10774072375250426,
      0.12028750661581138
    ]
  }
}