{
  "layer_0": {
    "weights": [
      [
        0.3900340461482988,
        0.12435142211011768,
        -0.22621531854171875,
        0.30113667868880883,
        -0.682589096869507,
        -0.9492738144231541,
        -0.6821738143032525,
        0.3370651829312529,
        -0.4891274303517033,
        0.7820560134625754,
        -0.2063016998732984,
        -0.5839455402405971,
        -0.18753931887585001,
        -0.1119396273344188,
        0.2553887081651448,
        0.5322002484482408,
        -0.3787015254102656,
        0.017240029951982067,
        0.5422209770276079,
        0.38398434937037346,
        0.19083944369725558,
        -0.3814805627512248,
        -0.48208769801473206,
        -0.7799609165974887,
        -0.44137009410780037,
        -0.1937489646063233,
        0.6903613566647293,
        -0.4272655427143068,
        -0.09093537005241253,
        -0.5100020009303534,
        0.3219426881227266,
        -0.6943905384754514,
        -0.5114510173922439,
        0.9871612899950647,
        0.8168287869723432,
        -0.8781954115774162,
        0.27292885622423774,
        -0.9953850989003715,
        -0.4969272876542439,
        -0.13756509376339582,
        -0.15690155080229112,
        0.6588036746477777,
        -0.42185587680389125,
        -0.6079210613124667,
        -0.29242062005640745,
        0.5027948078809067,
        0.6043161904631672,
        -0.11111067847027878,
        0.23385654472574927,
        0.03262049080406924,
        -0.8349880140672391,
        1,
        0.436689429315657,
        -0.7580338098092663,
        -0.40112206720354526,
        0.6135840298580201,
        0.9268218251984081,
        0.6407609628261602,
        0.2299615740078699,
        0.8735874518580365,
        0.30822231228734537,
        -0.2875426536960653,
        0.48717469964256704,
        -0.036532413717543025
      ],
      [
        0.44310808504587296,
        0.6929267197250157,
        -0.5143129687922546,
        0.8590888190686129,
        0.24345258814295534,
        0.640132878081962,
        0.23152965359774014,
        -0.2243507694506256,
        0.9282242274397158,
        0.8261981408113288,
        -0.07003451533252437,
        1,
        0.49989805923007846,
        -0.8377776124165534,
        0.22621077078078974,
        -0.32768264191342367,
        0.8625701125772105,
        -0.49595223732506516,
        -0.42774264339856916,
        0.09853257388616787,
        0.6433489591762321,
        0.2927189856643151,
        1,
        -0.07609774700239579,
        0.4352145650671477,
        -0.14444814134205083,
        -0.48550950796231124,
        -0.3063418321483278,
        0.6749017064320642,
        0.5455872289066875,
        -0.7233492520250393,
        0.623136912888375,
        0.18954220557855966,
        0.9114527489972055,
        -0.40608626039739876,
        -0.3287817048178919,
        0.20465080969547214,
        0.013602967474362225,
        -0.8578534223552351,
        -0.8980048550912987,
        0.4485738369626295,
        -0.060581855375877694,
        0.3301603281995377,
        0.6657904411797702,
        -0.2403422134528137,
        -0.5793179126890801,
        0.6091202422662175,
        -0.33863306278631433,
        0.18382139832185984,
        -0.0033823423141259423,
        -0.5911131248744628,
        0.8157262078522305,
        -0.9990190863609314,
        -0.6401853592497048,
        0.5330621180980556,
        -0.19996047198991296,
        -0.925588497648185,
        -0.8687706782190355,
        0.723067094519988,
        -0.9502598756114647,
        0.10841118549027283,
        0.30862307323869664,
        0.13398159620563926,
        0.8299790614940867
      ],
      [
        0.1395555083217665,
        0.8934727450562213,
        -0.02155466285749378,
        0.35881547847644085,
        0.9381880342984669,
        0.7244588568285811,
        -0.6997215169810843,
        -0.7753031689617607,
        -0.01232624351967986,
        -0.9050604183884652,
        0.08076808503487554,
        -0.8474817736790056,
        -0.602132690117454,
        -0.5637081359694177,
        -0.3690183025469964,
        -0.6446597513445539,
        -0.7095211109584012,
        -0.1294932908588069,
        -0.8957973212058524,
        -0.31945999461908386,
        0.05153037560305034,
        0.9250932558748747,
        0.8750625710364552,
        -0.5377254268822371,
        -0.19155926526057837,
        -1,
        -0.8356544425966429,
        0.5868763402742918,
        0.08287020060337712,
        0.13109475840934043,
        -0.14922964940272435,
        0.2121623702563166,
        -0.5054359897326273,
        0.9434744820082966,
        0.35731555266195064,
        -0.33276741018841177,
        0.3345660856801854,
        -0.942909470188409,
        0.45103462389441895,
        -0.5230643577708834,
        0.05689734086218551,
        -0.9283124282068979,
        -0.8987740274588785,
        0.44497856072977304,
        -0.8180154912376356,
        0.0578574956245795,
        -0.6684535572209396,
        -0.9206824097778115,
        0.622794015329903,
        -0.6708090118685858,
        -0.4600512743595969,
        0.8112678229445556,
        0.03845265199899413,
        -0.12828570111518048,
        0.9448496334109924,
        0.8422624377048973,
        -0.3457314721497016,
        -0.8172110118273653,
        -0.45477520713138336,
        -0.5481156178426773,
        0.028108459452635064,
        0.21401093078453406,
        0.5202485380193735,
        -0.019072158472968087
      ],
      [
        0.43280497212759445,
        -0.6313584857205206,
        0.8964158732802002,
        0.2565373110241348,
        -0.07147658006351072,
        -0.0675886902960037,
        -0.7566921481969358,
        0.08908782055030771,
        0.8655300632955426,
        -0.2925251564467851,
        0.5204211476080037,
        0.6176080478755255,
        -0.15149578047255324,
        0.31841385119491833,
        0.6173745112530176,
        0.8878414747942642,
        -0.22103877017419782,
        -0.33118637905446696,
        -0.03871907746168447,
        -0.18651893683489018,
        -0.904716193224195,
        0.7669791346642126,
        0.5805134487042461,
        0.6698197492308448,
        -0.3250599072251949,
        0.16872019400263955,
        0.13820151449463916,
        -0.9561283590907663,
        -0.8729878662070817,
        -0.6318091841159755,
        -0.5390368982509561,
        0.3877384620502036,
        -0.5891922624090268,
        0.6851128604587534,
        -0.3915731379557031,
        -0.6925535428109274,
        0.5171429805802257,
        0.7141839396785594,
        0.7905779329571436,
        0.41394062375541624,
        0.08522573017712659,
        -0.5043243667457971,
        0.0967399648131223,
        -0.9418960129673254,
        -0.6146219779901144,
        0.1568310509288447,
        0.9504945518937447,
        -0.04636156487971767,
        -0.5790192905218049,
        0.768136512421153,
        -0.9385034246622269,
        -0.04507092803202675,
        0.6503469120907639,
        0.6338094546823938,
        -0.8227764517152114,
        -0.7699634601661096,
        0.0663550523898729,
        0.4556088687171567,
        -0.8264547729715741,
        0.5114346257647411,
        -0.8832555845717854,
        -0.21510589737500418,
        0.7266729938270445,
        -0.973862886428833
      ],
      [
        -0.5598359394796577,
        -0.9834369959090075,
        0.3611631068660298,
        0.5459451516102247,
        1,
        0.7415584812435383,
        0.04372291043592093,
        -0.932876586464644,
        -0.5120080200529983,
        0.23487419983146923,
        -0.5326965904456901,
        0.013156119665702692,
        -0.7480043754481238,
        0.9822534498376511,
        -0.6509215169932205,
        -0.03603181483272635,
        -0.21152191334335202,
        -0.5475238841740596,
        -0.8089887028915028,
        0.1578537982411234,
        -0.2405037463321855,
        0.7843493576580791,
        0.3609955878621761,
        0.5582405020977793,
        0.14721639036500928,
        -0.8635207118256786,
        0.9300192672660855,
        0.7550497250583602,
        -0.03590065991706489,
        0.5904229963349662,
        0.08642663802850725,
        0.6796085753347942,
        0.7615340452040821,
        -0.34884681929524386,
        0.16375240544157227,
        -0.8871664089325945,
        -0.3102312025579907,
        -0.910824608147065,
        -0.6860374073867814,
        0.0044447502671963275,
        -0.9043842108227226,
        -0.6917764057261573,
        0.2651896294842717,
        0.5975767398522562,
        -0.6020139426486886,
        0.3771147089122263,
        -0.6071715721493982,
        -0.1494059514666883,
        0.5597717359542252,
        0.7080977660857162,
        1,
        0.46743752705251834,
        -0.8487517369116306,
        -0.6015959444524759,
        0.7754794086669943,
        0.9271168654934558,
        -0.41465937429690825,
        -0.6789471530726584,
        -0.2399676948018204,
        0.5190098497238169,
        0.7658297687634327,
        -0.27780316045830683,
        -0.8613071573825972,
        -0.7345670380691242
      ],
      [
        -0.17126353841955738,
        -0.03502924688351665,
        0.2931856377089233,
        0.7799565926161547,
        -0.884456189166846,
        -0.5881884932952562,
        -0.6523948054046915,
        0.9239815389979266,
        -1,
        -0.3494075216098197,
        -0.5602328651701239,
        -0.9747165722650794,
        0.3341202850652374,
        0.5585503119483444,
        0.777933305423109,
        0.3512878167816565,
        -0.21002852223396684,
        0.3046522570224659,
        0.1185102113219268,
        0.994479903568952,
        -0.4427159493557142,
        0.7534663887368259,
        0.7467069257445332,
        0.6610907291637332,
        -0.46318095326227404,
        0.09794281914558381,
        -0.2033377842851192,
        0.11785293586089009,
        -0.8133907208531334,
        -0.1236033598419949,
        0.6957273140529776,
        0.2921298034338981,
        0.4492290522416774,
        0.8172995333855019,
        0.657427153287519,
        -0.570706395705626,
        0.4471173625213848,
        -0.8078211620812982,
        9.32219999607914E-06,
        0.702600240306731,
        -0.5431286372800248,
        -0.2011599520762135,
        -0.6971880619367736,
        0.82658077563707,
        -0.08928853530787682,
        -0.6308801905231,
        0.18124574512267355,
        0.6542290482985411,
        -0.2150286161760044,
        0.8003712355480395,
        -0.8453446149888868,
        0.4220265386929022,
        -0.8315592234512805,
        -0.26274137518307134,
        0.3007161038710571,
        -0.09683369094421325,
        -0.4407365306995559,
        -0.8946460564103311,
        0.5461581019322235,
        -0.7862658589229485,
        0.9231654422264969,
        -0.44391828045857906,
        -0.07386567822867728,
        -0.7561454644696312
      ],
      [
        -0.15771746613206725,
        -1,
        -0.9992882063432077,
        0.847925156710039,
        -0.25703879655781325,
        0.7645984677668276,
        -0.8958683980354116,
        0.7476818982948032,
        0.06317124336284277,
        -0.3051679316824365,
        0.4406396614240749,
        -0.00668149312108143,
        -0.5633094573552061,
        -0.3833945585095506,
        -0.30913807943665556,
        -0.43486438526995796,
        -0.48053348550228475,
        -0.307212697425496,
        0.8499410046713956,
        0.44665895806383205,
        -0.8971140707683849,
        -0.8754883385232414,
        -0.9435390168759509,
        0.9431083038735242,
        -0.18012877092380283,
        0.7616771542797293,
        -0.7982649829849404,
        -0.013147048814616853,
        -0.868812294822851,
        1,
        0.026689837923315352,
        -0.4201792936153442,
        0.8928800662856102,
        0.033018731384829164,
        0.7609967888409944,
        0.08643672311360438,
        -0.11509621162920974,
        0.8462125961422753,
        0.7605901101450876,
        0.8601024228559196,
        0.5120898852630996,
        0.6061681299012647,
        0.18772589475831833,
        -0.29930754956259475,
        -0.14708722180300896,
        0.8811175187879968,
        0.432365990622167,
        -0.8605814987138153,
        0.7460568745853993,
        0.29847658523671156,
        0.1107305194915606,
        -0.3409824860372719,
        -0.39470773256698266,
        0.31504023263546843,
        -0.3752230690214233,
        -0.8439613251162125,
        -0.5310063987318513,
        -0.8605549826837247,
        -0.39656046775723647,
        -0.7953029148197094,
        0.4398466443653366,
        0.0742219721720332,
        0.24882208164413144,
        -0.15887163010143437
      ],
      [
        0.15983765410451056,
        -0.41584898284072375,
        0.18420469887015148,
        0.6245445153792357,
        0.24463790418762651,
        0.9277654441847992,
        0.37407006510270785,
        0.5814439764996403,
        0.1990932607292824,
        -0.5225465870385633,
        0.5524042128998697,
        -0.4581562921022015,
        0.7455214240811397,
        -0.6903915337202594,
        -0.1552584809867508,
        -0.2200384824853198,
        -0.9661730788653468,
        -0.6647544681982481,
        -0.8579935823219964,
        -0.6893393676025549,
        0.6754142244694721,
        -0.6736487206519703,
        -0.33249124842823363,
        0.4667998340852921,
        0.7563976973275788,
        0.15088156253363316,
        -0.14376679504213205,
        0.849229371661687,
        0.9211347654050873,
        -0.7270627450948046,
        -0.8474207182729918,
        0.47663029525007344,
        -0.8735699212056519,
        0.5294597815313422,
        -0.7696191361134564,
        -0.8299032221930436,
        0.7965401896519632,
        -0.3250544373570053,
        0.3795659319160615,
        -0.1467647709411203,
        -0.1342784933384783,
        0.2811437888172498,
        -0.01834827789164901,
        -0.3958721083676102,
        -0.9782911409602412,
        0.46676296736896916,
        0.9373460718421731,
        0.36037190647434386,
        -0.057102364535768606,
        -0.28295096614694626,
        0.8984094232879628,
        0.012790740258482487,
        -0.5585369902088431,
        -0.7108119622371295,
        -0.9532628864883578,
        0.953908436052514,
        0.9556296889997189,
        0.10387037127600957,
        0.8284129013263194,
        1,
        0.5093211291597327,
        -0.752184063423119,
        -0.018490297723802156,
        -0.15883323095563787
      ],
      [
        0.5211048787242443,
        -0.36800698829238204,
        0.7632408898314034,
        -0.502176750927196,
        0.5969389821328237,
        0.27968663900399104,
        -0.825531942738676,
        -0.024056145844301956,
        -0.5123128540534211,
        0.8575815218873427,
        0.05304601334303386,
        -0.2628095134240692,
        -0.4703762020977458,
        -0.5273332751504458,
        0.40689921398983747,
        -0.540370167140138,
        0.43866880302777767,
        -0.266044611873958,
        -0.7592735697049976,
        -0.571347044888202,
        0.08467477175064646,
        -0.3219882580811925,
        -0.2648212727593973,
        0.465427655498643,
        0.5392864271419865,
        0.4973328384056924,
        -0.38349627224314736,
        0.7397101371819337,
        -0.40241989728649613,
        0.7444479394580287,
        0.24486683077432014,
        -0.4282362576059675,
        0.6376067205078647,
        0.39918210683672994,
        0.8416369987278459,
        -0.08344644107650943,
        -0.26504921346836524,
        -0.047666550653837084,
        0.7004329191788703,
        0.8251435701809096,
        0.5374025647352234,
        0.7080890279915694,
        -0.30043202015810827,
        -0.9957586253319938,
        -0.4253965897276231,
        0.008863513368689607,
        0.06482589009052377,
        0.5698408792282883,
        0.18156676270211158,
        -0.7562842741332216,
        0.4166550478054719,
        -0.26911586280779554,
        0.8696449075763618,
        -0.8018547787969325,
        -0.03142474059746429,
        -0.4053213285591905,
        -0.5867665579191591,
        0.7670916197754065,
        0.5919929786935786,
        -0.31168092088087984,
        -0.14629481253334453,
        0.15249513236382073,
        -0.10923324701836773,
        -0.036689305589195226
      ],
      [
        -0.4929239246786609,
        -0.15955093489802474,
        0.8774166636525341,
        0.19429754469882435,
        -0.5974786039712109,
        0.6016222137874817,
        0.20945762870390486,
        -0.36966030729668625,
        -0.5206858833183113,
        0.36916634947271354,
        0.5614965351270421,
        -0.02235820364090419,
        -0.5128297347555495,
        -0.41289863229812274,
        0.2812123226784314,
        0.9614402005341256,
        0.5505720275988994,
        -0.049158168850917505,
        0.016014524544577517,
        0.6593461714100126,
        0.6158385943720178,
        -0.540409287591711,
        0.16985026233998685,
        -0.48233294087966194,
        -0.6709579666969923,
        0.18036161724868385,
        -0.9431454227700635,
        -0.8420864686020584,
        -0.3067488116221071,
        0.6432053257723,
        0.5593435399689592,
        -0.691853887527683,
        -0.5207619975309289,
        0.4173829445787849,
        0.8181308490818591,
        -0.8873780209041967,
        -0.9676280286222491,
        0.05771268101144285,
        -0.6982382256637102,
        0.9237981934022468,
        0.8767801621230723,
        0.3678540770682657,
        0.05875282768738876,
        -0.42942174592894455,
        -0.03934702290437763,
        -0.23611995240430947,
        0.23831301886517986,
        -0.09749821558726211,
        0.8589712650433812,
        0.3703962202981957,
        -0.8825399779524553,
        -0.2372902672749279,
        -0.2712081142900423,
        -0.8775211543527656,
        0.8170271310091601,
        -0.5090987178805136,
        -0.7732038678373119,
        -0.6821856916625919,
        -0.5803456036437956,
        0.13226464261569887,
        0.32504517782150616,
        0.5477832493344232,
        0.21237963983802893,
        0.9768216978819074
      ],
      [
        0.23791843071754765,
        0.006731230428737932,
        0.7155982313396042,
        -0.25858704164518675,
        0.9609652757644653,
        0.8138139204905138,
        0.8284551414355401,
        0.35949369260224573,
        0.0974689559897511,
        -0.7312692226164575,
        0.804429638292436,
        -0.7895810441113853,
        0.17879366870007987,
        -0.9510388628574914,
        -0.8237698689829475,
        -0.7597027702330429,
        0.5234842657587033,
        0.10055809318684014,
        0.26069290820241353,
        -0.2342261125641634,
        0.36327119322339807,
        -1,
        -0.5650435818057878,
        -0.45561305842273386,
        0.3547174488755357,
        0.5701361349551737,
        -0.8759573786878636,
        -0.38794027211781756,
        -0.630443830369301,
        0.257398978462529,
        -0.05549636672303559,
        -0.06062373492291169,
        -0.04397246877376504,
        0.5448753557365851,
        0.7859566285613633,
        -0.7753099491147635,
        -0.3670509679851695,
        -0.21470770381896886,
        0.6511289705961255,
        -0.5763661433680349,
        0.4266821343556873,
        0.17028742040555248,
        0.7518991846220072,
        0.6400116903194049,
        0.3143532312024127,
        0.6390034737327456,
        -0.4358292326355782,
        -0.7754872116898686,
        0.36944111950463066,
        0.5596928632883731,
        -0.9663263971848993,
        0.753270163115741,
        -0.06765329879289227,
        0.043511245899021805,
        0.6701823939094959,
        -0.6750352384006026,
        0.3542596910277287,
        0.17155852125396484,
        0.32412433848852235,
        -0.017181110832075353,
        0.7786349992682162,
        0.2317459693579395,
        0.1464737407361922,
        -0.38535789539188037
      ]
    ],
    "biases": [
      -0.48010667168117965,
      0.46307865712796653,
      0.9132082588112422,
      -0.103762200709389,
      0.8206707690235328,
      -0.5445365279937359,
      -0.3447288149444385,
      -0.46510302831367756,
      0.510319149909393,
      0.055433748254290094,
      -0.45279795431833875,
      -0.6382914675444584,
      -0.3751928559957405,
      -0.7988057999680881,
      -0.19915430284718916,
      0.3454421742734494,
      -0.7577401099010668,
      0.948389916989442,
      -0.0840472699585495,
      -0.794577554255003,
      0.8037993897787825,
      0.5227682687139292,
      -0.37829863690809584,
      0.6669521154461824,
      -0.4173689436935548,
      -0.7707180034376584,
      -0.7711834519977023,
      0.16907363051645577,
      -0.8610323849907794,
      -0.5619676166247751,
      0.6411607345780505,
      -0.3724272123091822,
      0.39754018637052263,
      0.6911197551080704,
      -0.35324948089283786,
      -0.14435631384998637,
      0.8539866100846896,
      0.2853397281085399,
      -0.09046975912101769,
      0.702941209200747,
      -0.1615267319175184,
      0.7807840074525564,
      0.057820012131018214,
      -0.8969959635889497,
      -0.854061461732483,
      -0.8198633652340117,
      -0.16593360504167343,
      -0.3371514797389522,
      0.7496839822101249,
      0.030968930759617545,
      -0.3618146719104371,
      -0.4638588909180141,
      0.4860297655514254,
      -0.12575165935133947,
      -1,
      -0.43710467861672847,
      -0.47314813390412014,
      -0.290125741984355,
      0.9634057227702387,
      -0.5824356508757541,
      0.04893259225764031,
      -0.37785484398773767,
      -0.9857763625311691,
      -0.05942911168035275
    ]
  },
  "layer_1": {
    "weights": [
      [
        -0.11109310261807985,
        -0.0156235192028114,
        -0.5159227170252154,
        0.5973289026971736,
        -0.766817262962059,
        -0.8511099765981385,
        -0.38360570166598773,
        -0.5602582495434038,
        0.9797245264053345,
        0.576499021365294,
        -0.5209581918837002,
        0.42582392484439224,
        -0.7991309778318003,
        0.05897290403810266,
        -0.43676594880971087,
        0.16273729349904906
      ],
      [
        -0.12859695507045976,
        0.49411098451835006,
        -0.29879365624892645,
        0.5340655328723255,
        0.7327435700622587,
        -0.48047456712358433,
        -0.5470728809120227,
        0.8222984594764635,
        0.15718268829745563,
        -0.13217184811057567,
        0.9450586261558963,
        0.06058224865008737,
        0.27342592456408515,
        0.7904888205021133,
        0.6187851419606012,
        -0.01234007496044995
      ],
      [
        -0.6952538458040537,
        -0.47206134976975456,
        -0.29461767902746394,
        0.47540740093082556,
        -0.6942743073536376,
        -0.9186714699694354,
        0.03945349312926804,
        -0.5688194584269376,
        -0.9544345736503601,
        0.21998074823090114,
        0.5633196874717357,
        -0.05978819193983491,
        -0.30296467167037766,
        0.8696819086292766,
        -0.6677869075880839,
        0.8670458933522779
      ],
      [
        0.6598339330411279,
        -0.39769679437108174,
        -0.3711106236885566,
        -0.7775166916727707,
        0.27851410425579115,
        0.9052051738437961,
        0.4780663471860549,
        0.11840780984660527,
        -0.30188132297782566,
        0.861834513237955,
        -0.6628500944620856,
        0.681379146499347,
        -0.022138222734519562,
        -0.20023446837421396,
        -0.3953458034280974,
        0.44363801174795675
      ],
      [
        -0.1109378882772983,
        0.380437763928476,
        -0.8710690953177398,
        0.6868485979622878,
        0.1764797432559635,
        -0.11858294176744955,
        -0.08990647977390524,
        0.9543464614330675,
        0.19676595602108943,
        0.27622483297605327,
        0.7922332997058253,
        0.6382141333071267,
        0.4635105734191399,
        -0.578492387612918,
        -0.652292964121274,
        -0.5103429615029408
      ],
      [
        0.7103631827713489,
        -0.24057238249961474,
        0.9511444568634033,
        -0.5046247467598562,
        0.5462129214775204,
        0.5813425666959668,
        0.5532886643179724,
        -0.5143994692828492,
        0.3252170759374469,
        0.15686970523735452,
        -0.9477065567953923,
        0.6044990536024779,
        0.749857577701257,
        -0.028752246893282825,
        0.6606608143947549,
        -0.1724332174817385
      ],
      [
        -0.6764683804671904,
        0.8908241628230364,
        -0.2867693612831637,
        -0.04719162975893322,
        0.5140968516863147,
        0.7171575853443527,
        -0.8022966712327706,
        0.8268211445207319,
        -0.14636956679206073,
        0.25046582463365696,
        0.8248268621736321,
        -0.66862400817392,
        0.8338115589462325,
        -0.691512956091896,
        0.7206014378347536,
        0.20499091486253423
      ],
      [
        -0.981163056057003,
        -0.449677957774111,
        0.37739654961374863,
        0.6032066369125887,
        0.9537424601683948,
        0.6816220379607543,
        0.20242101800465648,
        0.698215960883875,
        -0.3637388561873101,
        -0.603208218178708,
        -0.9129453515065858,
        0.04367243555579736,
        -0.1437527870855122,
        0.13764396001774784,
        0.5266793564776405,
        -0.19616684094491674
      ],
      [
        0.24254907358531783,
        0.8856544172589133,
        0.7394894827662363,
        -0.43870446725015266,
        -0.9021513967534514,
        0.8218689883369401,
        -0.5158563361340089,
        0.2133939239085165,
        0.4810890665538075,
        -0.08445183186087764,
        -0.9587179505438654,
        0.3860668108235978,
        -0.31879253894303305,
        0.4002395200850795,
        0.8260456456891906,
        -0.13218392266356915
      ],
      [
        -0.9632789459947367,
        0.5797889724988352,
        -0.3896063077732574,
        0.8835216589492746,
        0.528525614333785,
        -0.6336191155616503,
        0.8469129272290604,
        0.8402999561641114,
        0.9405692055945971,
        0.006275848734657316,
        0.5020796449170085,
        -0.9698646068572998,
        0.558436874484641,
        0.29793338704623007,
        0.24012553545945273,
        -0.694296510299061
      ],
      [
        0.7199991618543731,
        0.9029635356588441,
        -0.9939873769486796,
        -0.5361072327967968,
        -0.659970992110783,
        -0.3249061386559187,
        0.3663798108126667,
        -0.21335709826622962,
        -0.6876848001905648,
        -0.3535821953702086,
        0.28993418328938025,
        0.44887371632686324,
        -0.9526477969754413,
        0.42744099084548165,
        -0.6131117130639591,
        -0.1178820041152232
      ],
      [
        -0.9138542220644811,
        0.5298224934535284,
        -0.7574940619287134,
        -0.4826088227023694,
        -0.5694713451780102,
        0.300806792895591,
        0.3188702372822428,
        0.8895940295067436,
        0.8329921850781599,
        -0.35979059904727717,
        0.9026030068841308,
        -0.30917131264287906,
        -0.33330666330419123,
        0.8171184817700838,
        -0.6172501104937957,
        0.593952425631133
      ],
      [
        0.24420212506573055,
        0.47465075379484917,
        0.6840303189092224,
        -0.0514317005952971,
        -0.05311687881224529,
        -0.9201906566464735,
        0.27067274915444595,
        -0.2611119360145226,
        0.44614793477712933,
        -0.2627056609312793,
        0.5423288615865969,
        -0.7019549456767407,
        0.8159349483771575,
        -0.04389233022821368,
        0.9079589973766377,
        -0.8051193403649827
      ],
      [
        -0.08034447581946688,
        0.3234670786002867,
        0.4067107573275856,
        0.29419824999223293,
        0.7960444281463208,
        -0.6255607149921568,
        0.4900415532857925,
        -0.7947524583679879,
        0.7759437418414236,
        -0.5936612095655083,
        0.8515133565578595,
        0.31894463974430093,
        0.5342119735374726,
        -0.830560761630005,
        -0.792521783407791,
        0.014382052133352198
      ],
      [
        -0.4219598603739056,
        0.2764548419597021,
        0.7299559955059491,
        -0.3410279607050937,
        -0.7455560502993079,
        -0.9689299609630073,
        -0.7861716362995459,
        -0.8228033757496926,
        -0.6265600148650337,
        0.6763463806979799,
        0.843937188165995,
        -0.15225699858896394,
        0.9142101887936558,
        0.9214935578821637,
        0.35180661860912904,
        -0.2219988400030562
      ],
      [
        -0.5679757449955339,
        -0.7028374265676693,
        0.9226604073573257,
        -1,
        0.45667685819631637,
        0.3843585689190135,
        0.4134136463786266,
        -0.47904611406910036,
        0.6542882478887427,
        -0.884361656382156,
        0.8276556849479748,
        -0.9508925170403055,
        0.8582967296082463,
        0.5657821565541515,
        0.2395821302049013,
        -0.8651342672172047
      ],
      [
        0.8938932211063629,
        -0.5838701583445594,
        -0.3851000848744731,
        -0.9462215339085789,
        -0.39080028107566744,
        -0.33865484554004316,
        0.7321349272310883,
        -0.08029693707472453,
        -0.4749792819212044,
        -0.3844927564393037,
        -0.5708857558571612,
        0.8417433643908162,
        -0.9050492437589955,
        -0.3741662028025413,
        0.08122535936991875,
        0.2665275614508587
      ],
      [
        0.2503837331415017,
        -0.8495019571543547,
        -0.044915720260946236,
        -0.8115750856882714,
        0.6750603635112239,
        0.2053701823001964,
        -0.28387536099670746,
        -0.5132332084651274,
        0.7208156248472268,
        -0.11085247164983283,
        1,
        0.6494396879202156,
        0.787975633212338,
        0.8549651831490345,
        -0.004281192827558345,
        -0.7299459401248773
      ],
      [
        0.5563261447481661,
        -0.08910469320638964,
        0.13413113544373192,
        -0.4681386647137803,
        -0.5005409134642802,
        -0.2593590821830346,
        0.6152013790491723,
        0.2742018304337809,
        -0.6993686153289768,
        0.37696789360589295,
        -0.0057740429279536125,
        0.7997872784751265,
        -0.6027674325576028,
        0.23152179728063635,
        0.3847667729754843,
        0.4247058635068212
      ],
      [
        -0.6618036168601625,
        0.5955443756428042,
        0.9321581480579624,
        -0.540713315347726,
        -0.1983813685138271,
        -0.49345129482121913,
        0.39204289105869705,
        -0.8407438167673237,
        1,
        -0.3190873677581906,
        0.7470094811261172,
        0.7431317115336467,
        -0.13557647809353754,
        0.01584746933939253,
        0.7424081839882459,
        -0.7201985946416732
      ],
      [
        0.7228898336311083,
        -0.8083977259715251,
        0.4075997064689999,
        0.11941007382520015,
        -0.7381558956873682,
        0.01018300514572421,
        0.6313233454493297,
        -0.3459879205423528,
        0.1873671166870384,
        -0.9649413209867517,
        -0.23703777790132216,
        0.3461813314427715,
        -0.08771351507123518,
        -0.027785797879123796,
        0.9385515103722267,
        0.8109979353531179
      ],
      [
        -0.11987719128211227,
        -0.10625920086919882,
        -0.6307279213871027,
        0.37238281654353883,
        0.011229258832463954,
        0.8209367193030104,
        -0.5837140436117066,
        -0.9861837222575992,
        -0.890396163948154,
        0.5375832715611725,
        -0.6240360716599566,
        -0.7682474052717074,
        0.2140567701044267,
        -0.9640938865540745,
        0.2157546529698633,
        -0.970365014876673
      ],
      [
        -0.12423816207931264,
        0.2827206625274213,
        -0.8716660424023862,
        0.4911322271292276,
        -0.859470864037746,
        0.9236834655954591,
        0.299167676014444,
        0.5530151203909683,
        0.2127481329248716,
        -0.5584867742002018,
        -0.9605225287853472,
        -0.1256861635442148,
        -0.2227220989652628,
        0.8550590968225195,
        0.25650481434972755,
        -0.28994085046425266
      ],
      [
        0.8084992914319096,
        0.5259279879824483,
        0.22330864009216986,
        1,
        0.39563696126499165,
        0.8861049865931713,
        0.5868912676252878,
        0.1903308174869634,
        -0.7146974807412065,
        -0.7857093483776513,
        0.02301845118210436,
        0.9190588169859022,
        0.6063711463503832,
        -0.5610983312088014,
        0.2353215032542787,
        -0.545944779601301
      ],
      [
        0.1692142492172052,
        0.009084796735339337,
        -0.6734486195946614,
        -0.4434974341217375,
        -0.27814497652933406,
        -1,
        -0.40443501129917936,
        -0.11038560160459476,
        0.7439737468435386,
        -0.7471446831428067,
        0.9171288806902079,
        0.9611269873974138,
        0.47216166759980294,
        -0.7108011114655458,
        -0.9929058952849417,
        -0.6189618212713976
      ],
      [
        -0.19319526890373448,
        0.8142385135624727,
        0.7347654308941562,
        0.23328823387228428,
        -0.9678317621610478,
        -0.9283806586325782,
        0.5383136510141535,
        -0.3632504382379948,
        -0.20576385727352114,
        -0.6250436301428827,
        0.760858052249052,
        -0.26359536178558024,
        -0.9465732397388956,
        -0.3670310919884977,
        -1,
        -0.9158876449906848
      ],
      [
        -0.8921892177208385,
        -0.40644042630242244,
        0.9653509188905413,
        -0.7913167731807337,
        -0.08934745163948243,
        0.1990564886563803,
        -0.7572237619557315,
        0.8405114415797057,
        0.42219916404121854,
        -0.21967886882107612,
        0.38425250110934084,
        0.39402247888276,
        0.6491630550103304,
        0.6775996383979762,
        0.8449963355398902,
        0.20947402198036866
      ],
      [
        0.31999367219622826,
        -0.09500096552725451,
        0.7127257942972459,
        0.11317969938293333,
        -0.7614315025489025,
        0.5592764257660152,
        0.9533854497448051,
        -0.6439764824089402,
        0.6883921671733996,
        -0.7082565750141342,
        0.9249639416087184,
        0.631436288712448,
        -0.2528087620513786,
        -0.6237307236465169,
        0.5306199305303154,
        -0.7157451882863628
      ],
      [
        0.5053014290604123,
        0.7132987021877119,
        -0.6317364093300225,
        -0.37679381427645997,
        0.6419537794682378,
        0.1140866939434468,
        -0.11740337260829194,
        0.21317330310600321,
        -0.25419358432999317,
        -0.7899564295902269,
        -0.8680455023340287,
        0.5621172406846854,
        -0.4054755010899131,
        -0.6477340401040722,
        0.43139289295533245,
        0.7398141840050442
      ],
      [
        0.23683630645164497,
        0.08052334406537208,
        0.06069357626988993,
        0.9301299108965841,
        -0.6183466204660736,
        -0.4057361565677057,
        -1,
        0.09567025201922205,
        0.6226838907827557,
        0.22089456116102865,
        0.14048566081090016,
        -0.9403384671286755,
        0.6601474853184508,
        -0.5550869154442403,
        0.5173051078146169,
        -0.06565781570782797
      ],
      [
        -0.7032655626209776,
        0.32919733500945814,
        -0.15141132979028488,
        0.34221290421444733,
        -0.2807111166362228,
        0.1649801540284811,
        0.05131667508913991,
        0.6350039527470884,
        0.6684864067323099,
        -0.6424498981468139,
        0.6344056729626416,
        -0.01983423325026784,
        -0.17684822548954376,
        0.4625517864214411,
        -0.5854707972934664,
        0.03987450353699554
      ],
      [
        -1,
        -0.8448986064511843,
        0.4032257925388668,
        0.5928163693631436,
        0.29053657604386524,
        -0.3971859476676738,
        0.8729569577265225,
        -0.024093983768724386,
        0.8489262890608104,
        -0.508955735966111,
        -0.4794612157462135,
        -0.8446764965384054,
        -0.690463846178521,
        0.038274446719130294,
        0.8626430948380225,
        -0.2830157466829319
      ],
      [
        0.44677410991980315,
        0.35326446322382105,
        0.5848143219352383,
        0.7578160472030229,
        -0.4156847589155303,
        0.8313486406053846,
        0.21504474582249158,
        0.8327721589072815,
        0.945444081542286,
        -0.9630727042705287,
        0.053900194733928534,
        -0.5501590593913129,
        -0.6260274264980726,
        0.9555567779497102,
        -0.8773616505533637,
        -0.6630248810137849
      ],
      [
        -0.5806121300324664,
        0.3253285810330345,
        0.8170271114316515,
        -0.3258587268635464,
        0.44834971509101157,
        -0.4526889728247127,
        -0.5377078095562019,
        -0.29245929446104724,
        -0.6495167634173761,
        0.06010462291973039,
        0.14820788896972414,
        0.5821042166773235,
        -0.1956830899766964,
        0.955499885878076,
        0.1605185408144953,
        0.752434368588497
      ],
      [
        -0.2940686411676021,
        0.6532293745875579,
        -0.14359584055581476,
        -0.9999227625548772,
        -1,
        0.787780049483124,
        -0.13234331887695613,
        0.3535576382920338,
        0.32171123805114626,
        -0.7311650416603928,
        0.10688377168942997,
        0.5153601980686543,
        -0.8541953937320941,
        -0.5946906603691945,
        0.4565444973241484,
        -0.537024240437939
      ],
      [
        -0.065770749011954,
        -0.007122833555924431,
        0.08029120703938727,
        0.2666580895243321,
        -0.9301352533596462,
        -0.6998393485515048,
        -0.2885760801712535,
        -0.621797598446304,
        -0.982933421626634,
        0.3067456405145506,
        0.5011702590845646,
        0.26929217923702903,
        -0.3409615261956331,
        0.6380592849405515,
        0.5183454963642344,
        0.25032239240522164
      ],
      [
        0.22416206921544682,
        0.34774857430143297,
        -0.4800327694894936,
        0.012756659081548325,
        -0.6483824546201598,
        0.860545574770579,
        0.3673410128190721,
        0.2870363044734005,
        0.6390277751196423,
        -0.2592114829104396,
        -0.877209732623082,
        0.21314170813845748,
        -0.31167862058466383,
        0.740258649655423,
        -0.3286281089313211,
        -0.40169051842730663
      ],
      [
        0.3488609098823569,
        1,
        0.9563396573066711,
        -0.6133540456405058,
        0.05153558427296081,
        -0.677116734143198,
        0.745639641385238,
        0.4086179651593794,
        0.5012797298110822,
        0.9561246423843954,
        0.48585061672538754,
        -0.5637980401156549,
        -0.8188843661532541,
        -0.6959099061558641,
        0.1835060778952677,
        0.6436265155429021
      ],
      [
        0.896941232755591,
        0.9531964904767541,
        0.8342271266121212,
        0.17239456473759351,
        0.6494556019663366,
        -0.28488558292896643,
        -0.8269444023864898,
        0.20397103638414202,
        0.5067241166783761,
        0.201962984088922,
        -0.2991726336030371,
        -0.43250312013478787,
        0.44131551374835243,
        -0.2782691190850207,
        0.6534999055925748,
        0.04437825290573066
      ],
      [
        -0.05409688372815406,
        -0.8688541596787921,
        -0.5279061086461158,
        0.4721070657398282,
        0.6695828197706744,
        0.3313755136321522,
        0.7585706378127592,
        0.7470277368617203,
        -0.12690010009296407,
        0.06517183202495878,
        0.44222978440467436,
        -0.7852114395336062,
        -0.590501381870148,
        -0.450255753625677,
        -0.7683115961461174,
        -0.9943148346401319
      ],
      [
        0.29725427634857937,
        -0.8121340461524387,
        0.7862242868423475,
        0.13855659181451455,
        -0.3724677888892581,
        -0.3964100854285385,
        -0.06592772391438713,
        -0.1418355186206668,
        -0.808280423876676,
        0.3197427126062254,
        -0.6068714286430853,
        -0.042422737299676945,
        0.6996113901384706,
        -0.07212014275427503,
        0.0006754104041441902,
        0.0534473938373555
      ],
      [
        -0.8077660556925917,
        -0.21634547142078395,
        -0.8418459734034788,
        -0.556181508078417,
        0.6297427139649576,
        -0.9552951250097756,
        -0.2646741647449621,
        0.3451075205778036,
        0.35499683870934673,
        0.6131197687486927,
        0.5704828297135401,
        -0.8602509516084739,
        0.38403166764744257,
        0.7883658302168859,
        0.03724548351734994,
        0.9823350238972086
      ],
      [
        0.1665358625735721,
        -0.5114059108741829,
        0.46419199913437437,
        -0.15487872562894742,
        -0.4745175359199804,
        0.008447875115255228,
        0.4984797621323732,
        0.30460458180703187,
        0.4128003749498633,
        0.6271855967825777,
        0.028231581652324336,
        0.09186574912433279,
        0.47867070302836146,
        -0.9325945219249535,
        0.39765428449638585,
        0.2520441792564138
      ],
      [
        -0.3677317428182794,
        0.2908400556116098,
        0.5167005705629248,
        -0.7109855040975107,
        -0.12980507105941766,
        -0.02388190039235372,
        -0.7955915367971798,
        0.3145004054092815,
        -0.6982882628339481,
        -0.1509811775116129,
        -0.0641537618175136,
        -0.37641044747665325,
        0.2611528257719937,
        0.12943830729045736,
        -0.5336014659530147,
        0.07000797436245365
      ],
      [
        0.6798242728684107,
        0.1601685006192339,
        -0.7034221156230844,
        -0.4759800184707744,
        -0.433082728938726,
        -0.19097143451659943,
        0.12186925372054118,
        0.038045086710358805,
        0.4703486012974351,
        0.48814003625900515,
        -0.6800529927111523,
        0.8967933329489612,
        -0.07771696106872199,
        -0.888999489027631,
        0.7892429784254223,
        -0.5540148538020357
      ],
      [
        0.9364971966803186,
        0.46531734234080674,
        -0.8159146598180177,
        -0.6802597564553664,
        0.29227848025734104,
        0.7816797606344758,
        0.27333584476054273,
        0.60563307360654,
        0.7442069888244871,
        0.94987327090156,
        0.1624337393991973,
        -0.595072059085169,
        0.21272490577894865,
        -0.6938643022364277,
        0.8805758433246244,
        0.8366868323600495
      ],
      [
        -0.8904672167461314,
        -0.6515794989305225,
        0.6476715892474827,
        -0.1384114896658483,
        -0.5171249269718332,
        0.4574886506439606,
        -0.30644759241907393,
        0.5965508594980798,
        0.5363436500428487,
        -0.8736952877834133,
        0.48239600109941244,
        -0.809943247986283,
        0.16274039639771895,
        -0.2815989028963805,
        0.2655606678560394,
        0.8133007919518166
      ],
      [
        0.7611015554590035,
        0.28634073247666175,
        -0.7263826935898668,
        -0.6044164886945961,
        -0.7373435188385308,
        0.04630778439769248,
        0.5419031732402281,
        0.3796291080628591,
        -0.410346662531027,
        0.737339220782676,
        -0.48691610901285837,
        0.10935389603072272,
        -0.8426596528559219,
        0.026944828856056514,
        0.28401122912969445,
        -0.7680606062743409
      ],
      [
        -0.12254773304328005,
        0.2951867407489932,
        0.4912696202531122,
        -0.427646045517461,
        0.0368060265405759,
        -0.054129340994149816,
        -0.15343616560534168,
        -0.8859384578433256,
        -0.6691898627378389,
        0.4577298906454798,
        -0.3063963585007148,
        -0.8483782536812893,
        -0.08130039810362455,
        -0.571627302831758,
        0.13687484260984667,
        0.36111101018562236
      ],
      [
        0.9444462225319057,
        -0.5386556317894251,
        1,
        -0.5582467149410858,
        0.4427743740363372,
        -0.1679213014049216,
        1,
        -0.05160950667324627,
        0.14599673707631644,
        0.964035670349499,
        0.13091915197936438,
        -0.11995160906032784,
        -0.4304280692920987,
        0.6121681200964845,
        0.6133156186540494,
        -0.05054837173437933
      ],
      [
        0.3267193186042092,
        -0.7370560545781507,
        0.5508294114339527,
        0.47547778474066565,
        -0.4024018335104456,
        -0.23037645933139347,
        0.6479841182159488,
        0.3820329524633818,
        -0.4602988637400212,
        -0.6442435852521307,
        -0.33856805458515865,
        0.04644026766936078,
        0.9692733287811279,
        -0.8816570361664824,
        -0.7468033434610781,
        0.5731784096354785
      ],
      [
        -0.3382011517100276,
        0.5377804479195478,
        0.5551278886060291,
        -0.4329432317131202,
        -0.03682302898795338,
        0.05761184054398553,
        0.9586344957351685,
        -0.4742293583040697,
        -0.5342065762759991,
        -0.7392232982433459,
        0.4201425799189371,
        -0.6385611509278537,
        -0.61148264134594,
        0.31867038147657556,
        -0.7715834341416827,
        -0.8089095525298154
      ],
      [
        -0.02432128091046533,
        -0.7416253875223247,
        -0.43255278743974906,
        -0.9444542840699114,
        -0.09027805518068577,
        0.9863095287321357,
        0.7353464206167647,
        -0.14442687374893903,
        0.39203012166739265,
        0.56052813404447,
        0.168416819334311,
        0.6968851669325747,
        0.4430496191798461,
        0.6856979120562207,
        -0.08041078848005678,
        -0.838521740557724
      ],
      [
        -0.393748226504867,
        -0.9761124869361315,
        0.028058399610779897,
        -0.13320104228001636,
        0.9772037863731384,
        0.3579594217016738,
        -0.4075651988050377,
        -0.5891891852789072,
        -0.21527012028208575,
        -0.6567678864984474,
        0.7775009033562169,
        0.9375105191144988,
        -0.9851079094330155,
        -0.40406416443236015,
        0.9388610067397986,
        -0.38014677176236433
      ],
      [
        -0.7042283907978205,
        0.5912305437191294,
        0.22050432418454552,
        0.5862123002934184,
        -0.381308544630483,
        0.15081048910353478,
        0.8528272143037068,
        -0.7323304653662785,
        -0.5633212112999317,
        -0.22762741638639258,
        -0.29648286261024487,
        0.6332813533923716,
        -0.8875706094144546,
        -0.017838917094207454,
        -0.8524339054355619,
        0.6533248964756522
      ],
      [
        0.18061541247422547,
        -0.6996952955891678,
        0.6013432107695246,
        0.5957204095687999,
        0.13454593268785214,
        -0.5458857652459336,
        -0.5357316651987944,
        -0.6188997338568066,
        0.9596555829048157,
        -0.11087947073594302,
        0.849164923816485,
        -0.223630225744946,
        0.017550131806443235,
        -0.6100452738430288,
        -0.05872557698405055,
        -0.44776006048437395
      ],
      [
        0.7307747915453614,
        -0.27464907673530214,
        -0.8581039814993058,
        -0.37373680987581287,
        -0.2958496371157396,
        -0.42438854456321823,
        -0.039833557737129904,
        0.16964893205526982,
        0.7922815893956393,
        0.22561746923811452,
        0.8697513690786691,
        -0.08437636027046597,
        -0.6740436967438019,
        -0.1157257846465472,
        -0.10297373124354221,
        -0.4483449816708562
      ],
      [
        -0.5234511279705194,
        -0.49040440878912167,
        0.4973273986268351,
        1,
        0.018999557770130647,
        0.17039458226885532,
        0.2628426169288861,
        0.6081035531637423,
        0.16924676087671978,
        0.1721823870521064,
        -0.10949851662520327,
        0.707448236794059,
        -0.40726519226720953,
        0.22406021258081282,
        -0.15124898490239544,
        -0.23995764530965988
      ],
      [
        -0.14542008052004052,
        -0.053816375898496804,
        -0.6360148832097251,
        0.2972111054531222,
        0.6754142848668465,
        -0.0930774169228165,
        -0.7426609248451451,
        -0.21688179697518903,
        0.5574289013945883,
        0.06358097604060753,
        0.5996703397463037,
        -0.9195999495260223,
        -0.7221058033015879,
        -0.17194606327673254,
        -0.6993139663513092,
        0.2514216794826133
      ],
      [
        -0.2658598315518642,
        0.2877377343327186,
        -0.8090625067138468,
        0.8670449189401418,
        0.3039407543857818,
        -0.1496385533857912,
        -0.7202304825059753,
        0.5954926451464364,
        0.7456093872375984,
        0.21179926896804105,
        0.3033348799141437,
        0.10767727095783687,
        -0.20755756313319526,
        0.8991416150461592,
        -0.2018148875881346,
        -0.04445093497462074
      ],
      [
        -0.16189546433061822,
        -0.5835685057174982,
        0.36833718506814894,
        -0.9632903933525085,
        0.835769035147004,
        -0.29061877156650195,
        0.1646003733377134,
        0.556450863803277,
        0.4415833998041807,
        -0.6761232486641083,
        0.5168331287006784,
        0.0005290950042218963,
        -0.44425576480499823,
        -0.9973400431731108,
        0.08872426881147868,
        0.8487215064656454
      ],
      [
        0.48830183606114214,
        0.18895368426710318,
        0.3218231188984041,
        -0.8718411448126845,
        -0.5362416491875948,
        0.24031203607391513,
        0.07045610990361337,
        0.05831713965742938,
        0.6420367853259771,
        -0.7494872303004607,
        0.8915198495133322,
        -0.3330467192899838,
        0.18497953743888582,
        0.7660635612456878,
        -0.684105389232993,
        -0.06172318637331374
      ],
      [
        -0.9740970439735416,
        -0.48376721657164967,
        0.6185340503355138,
        0.6339201664692679,
        -0.490209547804245,
        -0.9626023173332214,
        -0.9519114056110567,
        -0.5660850149592502,
        0.4182122194104053,
        -0.6512126229529848,
        -0.4902714986586848,
        -0.40507479495189785,
        0.8682990998091861,
        -0.14606898289958015,
        -0.4334634655624671,
        -0.6232728427315243
      ],
      [
        -0.6658263360637602,
        0.5728793142668454,
        0.79836627447507,
        0.39565682726043955,
        0.34332679968576746,
        0.8871309143096408,
        -0.7274546367870889,
        0.6964923094657569,
        0.745437735311486,
        -0.4074877299254577,
        0.6145761962973559,
        -1,
        -0.6004509945310583,
        -0.4729852354097719,
        0.10256227485688688,
        0.3600959064690829
      ]
    ],
    "biases": [
      -0.46053964240846224,
      -0.6017204187195546,
      0.5365090330908953,
      -0.4999862142752925,
      -0.7945543128633925,
      0.008249129711449614,
      -0.4326822931375678,
      0.22019893101954838,
      0.6291957832119278,
      0.760247337033999,
      0.5196233822277159,
      -0.6046651312324258,
      -0.6059247591436804,
      -0.3348663005259767,
      0.32040050546713067,
      -0.552802984128711
    ]
  },
  "layer_2": {
    "weights": [
      [
        0.7159639734270029,
        -0.3381011218098768,
        0.3208875605099128,
        -0.4720035806004877,
        0.2504219670565942,
        0.6079782973687813,
        0.9976536469599794,
        -0.4029353351573558
      ],
      [
        0.8223493517568483,
        0.38254012691758704,
        0.3333590305292544,
        -0.8502115950033827,
        -0.424117597143357,
        0.9707233527874876,
        -0.4580523774824681,
        0.7648197862329424
      ],
      [
        -0.06857027257527541,
        -0.9613413543604836,
        -0.8361148014438452,
        -0.8965951055440765,
        0.2598168448563104,
        0.5796402436188725,
        -0.8207441489124376,
        0.3426885292913903
      ],
      [
        0.7036572669225547,
        -0.6830848805251762,
        0.9381830116747758,
        0.5434920944206677,
        -0.5834846741659231,
        -0.8199429259130375,
        -0.12524760189011241,
        0.2693229231693257
      ],
      [
        0.6075556537528873,
        0.9560693353670341,
        -0.6941011846608194,
        -0.19112239585453722,
        -0.07429674966596952,
        0.4636974056238064,
        -0.265287111828812,
        0.7168454328886431
      ],
      [
        0.1449731044280476,
        0.32561083378471034,
        0.7290757896927483,
        -0.8324148122705466,
        0.39872904965772793,
        -0.6635764899459357,
        -0.25286462730565556,
        -0.89363348607247
      ],
      [
        -0.5663424937501838,
        -0.058628488294191955,
        -0.5164062525251996,
        0.16869496889465296,
        -0.09012513543571317,
        0.2684941639324195,
        -0.8474739296366534,
        -0.8886155999613367
      ],
      [
        0.3959324974986883,
        -0.10506151458692041,
        -0.7179972223573676,
        0.6607988915788486,
        -0.13210743809671321,
        0.4673026070780224,
        -0.2836467418565699,
        0.6200902043197183
      ],
      [
        0.438282778118569,
        -0.8109692327841924,
        0.4695520309295231,
        -0.4530040404432666,
        -0.8652783825100488,
        0.2677881709536244,
        0.40158777284713476,
        0.6711385717708863
      ],
      [
        0.8644426010691532,
        -0.5770695498739271,
        -0.2592148772154534,
        0.9694331288337708,
        0.16640390480902184,
        0.21417199092201725,
        0.5116784155430872,
        0.2650054467905158
      ],
      [
        0.6893850226213816,
        0.033653184173387744,
        -0.4251155240844882,
        0.006798654141386339,
        0.2151287923082733,
        -1,
        0.1760390494547691,
        -0.6632749590253672
      ],
      [
        0.7074935438026426,
        -0.21564606906517822,
        0.08784182269178716,
        0.1383185726142697,
        -0.5422645924676859,
        -0.924897290349686,
        0.32543002008808464,
        -0.7169364611949046
      ],
      [
        -0.5086190258558464,
        0.373253014944287,
        0.5610220003586383,
        0.8334802601364619,
        0.33116202292105046,
        0.6731080297490728,
        -0.19949955236972763,
        -0.4150470364023375
      ],
      [
        0.22347917322842753,
        -0.715313298312827,
        -0.5818939800750206,
        0.7522421987640321,
        -0.6405047848414185,
        -0.9502402805550411,
        0.7788095722092507,
        -0.3184928658058388
      ],
      [
        0.08873307533355317,
        0.18477737867893942,
        0.5924990407934082,
        0.03341090778777472,
        -0.9414792038878539,
        0.2173912301637577,
        -0.5893682017842876,
        0.015388957933153261
      ],
      [
        -0.6425515013877463,
        -0.8192234909850024,
        0.5763528015286093,
        0.053226848988162836,
        -0.3266887532879229,
        0.766640269852809,
        0.195096698040299,
        -0.14789478225863897
      ]
    ],
    "biases": [
      -0.8509067877452782,
      -0.6379648436566738,
      -0.7519306236860707,
      0.9616072228570757,
      -0.44399570446346004,
      0.4675050062119772,
      -0.6857972486057123,
      0.18090588139117697
    ]
  },
  "layer_3": {
    "weights": [
      [
        -0.08279845486264269,
        0.329898567960738,
        0.5114770493833293,
        0.39895541994725536,
        -1
      ],
      [
        -0.7520618355747619,
        -0.7318599797044834,
        -1,
        0.8933521177885743,
        -0.12802351988117744
      ],
      [
        -0.966728687286377,
        -0.8122956375006563,
        0.6692254396984849,
        -0.5221917276036437,
        -0.2869279284758831
      ],
      [
        0.10680893193223288,
        0.7990178838993214,
        -0.8803472336600893,
        -0.016962654330004743,
        0.43751349094469966
      ],
      [
        0.9226701083136055,
        0.17379332020802032,
        -0.3935190367268201,
        0.21139159522905238,
        -0.6967800591331313
      ],
      [
        0.6773165801363057,
        0.6925966475376725,
        -0.03483927577736922,
        0.27898400964598813,
        0.27239596767558394
      ],
      [
        -0.30233795162244914,
        -0.2328312673267449,
        0.032566415961407226,
        -0.9166101580162331,
        0.7111025907550113
      ],
      [
        -0.33698223910002145,
        0.9334229296041769,
        0.7842411861271744,
        0.6619042211957438,
        0.5049549963433796
      ]
    ],
    "biases": [
      -0.4030462234251747,
      -0.5960559416107291,
      0.12117286315521021,
      0.9645366932545433,
      -0.5253115184173222
    ]
  }
}