{
  "layer_0": {
    "weights": [
      [
        -0.027787239067881275,
        -0.8461673343660596,
        0.677523002480872,
        -0.24817720306284152,
        0.7693165251308935,
        -0.3005965608306387,
        0.5298146522243667,
        0.13666618870027802,
        0.664241356097069,
        0.8769838796651692,
        0.3929441121958859,
        -0.07756571708878246,
        0.9218486967159876,
        0.8281968082679083,
        -0.5176632154420235,
        -0.7419061725551441,
        0.4675061403681222,
        0.2751268157640949,
        -0.9190700505503853,
        0.38731535872263523,
        -0.4574998645330397,
        0.16119893197530377,
        0.32985448941683493,
        0.1506276373552331,
        0.7212976775903954,
        -0.1720115400912947,
        -0.4177174464216804,
        -0.8046073554432323,
        -0.8647201494295198,
        0.20882841370894734,
        0.4759559688754105,
        -0.08447347942918415,
        -0.254736484404682,
        -0.39066276045225146,
        0.3533795661228918,
        -0.020205482587745793,
        -0.8415337774654246,
        -0.2506118244189459,
        -0.8773918316652867,
        -0.7904855879257133,
        -0.6603836033200099,
        -0.8207043654460611,
        0.9187799774077627,
        -0.6204994541637248,
        -0.1901169413413546,
        -0.784057426833003,
        -0.6159708487063533,
        -0.507620056792655,
        0.03737450981300361,
        0.19958470747990908,
        0.3217521813643376,
        0.03817860556541808,
        0.9724724402550229,
        0.9349601038304816,
        -0.014077472739543406,
        0.2728798961376824,
        -0.04339598606347694,
        -0.503576942530265,
        -0.06048677881718123,
        0.8588009295322672,
        -0.46676443135611634,
        0.8088385514561327,
        0.4179999558197993,
        0.9912380736916149
      ],
      [
        0.7878951775501444,
        0.7990183857071229,
        -0.9728235796532343,
        0.9519795854242155,
        -0.9390202410915842,
        0.25916336489012504,
        0.3528040731723876,
        -0.43315831754341483,
        0.6256045196672171,
        -0.4859133229070791,
        0.4753299593497964,
        0.8352693514885234,
        -0.5229478099107805,
        -0.4057974989979205,
        -0.7907440895862268,
        0.8140045787049748,
        0.9950907342653337,
        -0.4289362678698849,
        -0.2695218815346452,
        0.1320639745295884,
        0.43230960971253163,
        -0.5841105603381982,
        -0.5219824291771407,
        0.08022648264530408,
        -0.10456322270607354,
        0.8520932994145378,
        -0.016948012858080785,
        0.1341465903730421,
        -0.6605072793619504,
        -0.4367155256579176,
        -0.3376521569497366,
        0.1761565088069159,
        0.22543239423838402,
        0.2904401491631916,
        -0.4864074135136318,
        -0.6545059967164661,
        0.5585775085488514,
        0.9863771293943651,
        -0.35145198601946825,
        0.6671030934773552,
        0.7250539351520475,
        0.6216701594235066,
        -0.010241617237945144,
        -0.30646510901073976,
        -0.755407932092544,
        0.25662705562558275,
        0.601841930619192,
        -0.001374121891948521,
        -0.15978675283991217,
        -0.7057900838266782,
        0.3868760946476446,
        0.7979899047940135,
        -0.8544332539829531,
        -0.022164718420050633,
        -0.022352103276271906,
        -0.4297152141634153,
        0.5168303109646546,
        0.7583756490616678,
        0.14549093000237678,
        -0.18991391898754761,
        -0.995771856798845,
        0.9824101196591271,
        -0.1855438073874427,
        -0.3474324282272918
      ],
      [
        -0.501847842528321,
        0.011236998747386817,
        -0.6988577457889553,
        -0.2950264098052535,
        0.29649737993252856,
        -0.7911062474609203,
        -0.13147332103411236,
        -0.7423356811647122,
        -0.12861702279020348,
        0.959778322887807,
        0.8151373549300389,
        0.8413469507251781,
        -0.768658212376867,
        -0.5027134152552537,
        -0.12288155027879233,
        -0.5434596134351366,
        0.7591799641946382,
        0.13179875565440957,
        -0.24034354679127978,
        0.9921985583852482,
        0.5998469346781539,
        0.5203850565215917,
        0.8907855590880485,
        0.9363506760087528,
        -0.20857466661020418,
        0.30784414057261,
        0.6231218836802457,
        -0.7283054249067371,
        0.2754384168322841,
        0.7200051355012451,
        0.03865349493392234,
        -0.7904221824932964,
        -0.9758492687222478,
        -0.0022246536212076062,
        0.4961739456274883,
        0.32846914743869426,
        -0.056213079465735616,
        -0.3065463069643555,
        0.5138416240695394,
        0.1844759966962355,
        0.921367939144571,
        0.8029844643508359,
        0.6876227718967316,
        0.15605895106312562,
        0.21546449748090812,
        -0.7395400388040627,
        -0.8423514120766664,
        0.42003192978239845,
        0.6776362871748949,
        0.11234813916296771,
        -0.6700619788720179,
        -0.6888824772745406,
        0.8511486950415614,
        0.12490310546537597,
        -0.18444441010926615,
        -0.07726266356055023,
        0.3586871585481246,
        0.40474179419500134,
        -0.5575488378799356,
        -0.794445586434146,
        -0.9752995273753893,
        0.9672748989507347,
        0.41421332218075513,
        -0.4044715657413991
      ],
      [
        0.3025727899492552,
        -0.19824790833163308,
        -0.2958901353002894,
        0.6915860253676511,
        -0.8398571020418428,
        0.21778357010479854,
        -0.07872269954111255,
        -0.5005737272570661,
        0.486447127668971,
        -0.8638576779118898,
        0.8928546634068304,
        0.6155459966083057,
        -0.08238408954150911,
        0.5688593568228506,
        0.12103598341685062,
        -0.30805362624517274,
        -0.07272450792878393,
        -0.6166073044305922,
        -0.8284834031800044,
        -0.1357673940972648,
        0.838906301783295,
        -0.660022457130389,
        0.9191043753164767,
        -0.4651653102149742,
        0.5838276948123882,
        0.28828534849716747,
        -0.4263164122864149,
        -0.0722363662535701,
        0.4861239644616262,
        -0.14549481249092344,
        0.4935576401885906,
        0.8916021941335737,
        -0.4766231527298308,
        -0.6964430762985445,
        -0.6993597654475934,
        0.20685567762511248,
        -0.02575715247478705,
        -0.44899128880537,
        -0.9647893881045337,
        -0.9637095757874838,
        -0.23126026423881285,
        -0.7885652582798541,
        0.3767673939004337,
        -0.5794523506319205,
        -0.3258118316495855,
        -0.2536033095018697,
        0.5927094044162056,
        -0.7707831251333421,
        -0.043745720960537415,
        -0.16322567876296268,
        -0.5449190737018526,
        0.732757831986014,
        0.2708848932266059,
        -0.042039144854628896,
        0.5169103056607114,
        -0.318334445269689,
        0.7807621020082685,
        0.5750763071117859,
        0.7909071197552726,
        -0.8829253850594625,
        -0.14263250206440947,
        0.7634573829361961,
        0.5073650390761801,
        0.7386210542261202
      ],
      [
        -0.7924160603710624,
        0.7282610835531806,
        0.5612128963648524,
        -0.22937418808509613,
        0.9763317860844662,
        -0.30648251324278775,
        -0.9868353981566875,
        0.06820537695128581,
        0.2042134329849179,
        -0.125921730738358,
        0.6171385048293017,
        0.8374139534238978,
        0.5352908057346613,
        0.9935835997505671,
        -0.4375745816692602,
        0.4479243922904377,
        0.6883501092190845,
        0.5259506483396565,
        0.3733023918243754,
        0.7751724372051387,
        -0.6350112993110733,
        -0.8291675921043695,
        0.00546709573351678,
        -0.6507373803506598,
        -0.6513834886849104,
        -0.022006793492287624,
        0.339587728034523,
        0.2513865057539695,
        0.35567028816209745,
        0.15583701305697528,
        0.9946442319063618,
        0.2355984532084372,
        -0.20837345788568795,
        0.6677310177332947,
        -0.34281819021459925,
        0.758269447697449,
        0.04376419397234388,
        -0.3233382073207238,
        0.4344217811961182,
        -0.17676113372378333,
        0.43649093571900144,
        -0.22095060829439572,
        -0.6897180414224973,
        0.9216698122920235,
        -0.7620604792071088,
        -0.9338506712494332,
        -0.8454564214710092,
        -0.10293175166239643,
        -0.873216862439258,
        0.6262173817092478,
        0.7969195018733912,
        0.7360448017612,
        -0.11835336830165,
        0.16295157330921572,
        0.9316630545021818,
        -0.8913863552102912,
        0.1360467473111473,
        -0.4215229653070396,
        0.08350171448140342,
        -0.7757403803298997,
        0.2883995055616404,
        -0.9059678672818718,
        -0.6945160340953689,
        -0.2916044036457197
      ],
      [
        0.05148420829499312,
        -0.433897269312602,
        0.04911009202528893,
        -0.9843414441835328,
        -0.6615823851177451,
        0.40239335531617204,
        -0.6633310937576211,
        -0.9839343510547487,
        0.15541077103566336,
        -0.20524884184959946,
        0.46357344806803824,
        -0.1485372873672124,
        0.03969469954675442,
        0.6708613020029495,
        0.7782636161296457,
        0.14717953789952598,
        0.9748618145772046,
        -0.16385333723597761,
        0.3776097766292237,
        0.4709725628933359,
        0.7172638660964183,
        0.08649087210501616,
        -0.2024402300691157,
        -0.10162294639622016,
        0.33306091505041313,
        0.5520900362027021,
        0.3526897254726198,
        0.7317250079925797,
        0.9943305357601735,
        0.02355296310341637,
        -0.432001737914836,
        -0.5471642802255874,
        0.5267950593076107,
        0.8395595453129632,
        -0.7795020614749868,
        -0.2888868365693349,
        -0.5941239485359193,
        -0.017187109068666828,
        0.5656555451520564,
        -0.2965583945057588,
        0.08228950595304552,
        0.4443041510323864,
        0.6866441954802807,
        0.1298554072981144,
        0.15470996233790735,
        -0.15151228488858703,
        0.1580802333883542,
        0.0038399434408002975,
        -0.12377503300640158,
        -0.2717895275066655,
        -0.5634593523709068,
        0.9982393044732933,
        -0.31978585005587234,
        -0.7304235815696587,
        0.821929768419658,
        -0.4322623505015928,
        -0.4585651821745258,
        0.19598470480703667,
        0.6213018877887841,
        -0.5294017453459023,
        -0.9649756705861132,
        0.4560439476802889,
        -0.04719590259659179,
        0.531876986019924
      ],
      [
        0.08094872375542117,
        0.1761529189173372,
        -0.7047272957976547,
        -0.08888572508099091,
        -0.096437343107584,
        -0.2718058654264994,
        -0.9313182418239356,
        -0.7353896913511868,
        0.6010518278921833,
        -0.911249473431957,
        -0.8965968272350537,
        -0.07851943236221759,
        0.8885940322796861,
        -0.5378609983664797,
        -0.5373207936981736,
        0.773330693726962,
        0.9598203358509501,
        -0.7276540408892209,
        0.7041556141064169,
        -0.03330685819016699,
        0.08329525803068716,
        -0.5597757075686365,
        0.23626143959867374,
        0.14969272743171524,
        -0.8583734475385838,
        0.8031634479635374,
        -0.0818575801659116,
        -0.4819438754412013,
        0.008823223318060958,
        0.7757346126598508,
        0.14132047139313175,
        -0.5219737263606021,
        -0.7206795638598571,
        -0.8322759287533008,
        -0.45355583074625616,
        -0.3469708781695462,
        -0.010025854822522051,
        -0.6769296411492283,
        0.38933086405455786,
        -0.9475111850006079,
        0.3602776812999777,
        0.3419092194931719,
        -0.3717502447294674,
        0.20365956323442536,
        -0.007146843095976907,
        -0.6587879134566652,
        -0.8469387226138478,
        0.6191161316977309,
        0.7210826078096948,
        -0.3784017678255458,
        0.8528439299311967,
        -0.8162137420756803,
        -0.3158904818248871,
        0.7778085435658557,
        0.5162053575365182,
        -0.5596340885821447,
        0.3058065859229633,
        0.6562091961498713,
        -0.9312523027585995,
        0.7299155589526449,
        -0.09692579572824722,
        -0.1670149743778646,
        0.808248546838386,
        0.7635300722882183
      ],
      [
        0.7425913031785898,
        0.028349281591040665,
        -0.2976698239032143,
        0.6799614302564443,
        0.6721668532591984,
        0.2578583986690257,
        0.2545800729794385,
        -0.2628374773116078,
        -0.2795555706207582,
        0.025694674383127447,
        0.44520081748684226,
        0.2228601697321304,
        -0.895321214986166,
        -0.5245911375201155,
        -0.8178011277307939,
        -0.41754962578951815,
        0.3917144694203185,
        -0.8531458301989068,
        0.3960693938779898,
        -0.8628007624864242,
        0.22780731251626762,
        0.5125963208438504,
        -0.5955566239232506,
        -0.5123307466599731,
        -0.2445772200137335,
        0.8211082083543824,
        -0.08580171679264459,
        0.2908613056659177,
        -0.22578136118981407,
        0.242286624806471,
        -0.6696256611048488,
        -0.9575969299727405,
        -0.7290523787984424,
        0.5813791411262412,
        0.7182195009220806,
        0.2747103145175884,
        -0.18722759167590297,
        0.51139411592824,
        -0.5338652769866281,
        0.2490645286497859,
        0.33772765715891895,
        -0.5771849306996251,
        -0.3748784303013486,
        -0.8911480556652542,
        -0.002069796412004221,
        -0.7804828451991954,
        -0.22801095819916162,
        -0.6618616893895919,
        0.3665739868673459,
        0.8314976281261275,
        0.28197765495742844,
        0.25124558780443595,
        0.03070764532303283,
        0.930545207885171,
        0.21429284365717494,
        0.8647977990413716,
        -0.9398640065679995,
        -0.5982933254980438,
        -0.22999103709146662,
        0.5538111493896252,
        0.4881866527947696,
        0.2685784986418991,
        0.16265551590604233,
        0.5812445381577074
      ],
      [
        -0.15410172140844147,
        -0.9563654698491928,
        -0.5206433231177692,
        -0.34341678858620606,
        -0.4221731578034127,
        -0.22521217647887015,
        -0.42272170804909925,
        -0.2733948673834701,
        -0.35140999987197263,
        -0.8896358101383595,
        0.863065806665539,
        0.5417832010083419,
        -0.3414559974067788,
        -0.8450246051584431,
        0.16043771205340196,
        0.08239145440436246,
        -0.2152148427588898,
        0.8176510740484724,
        0.11458236525538168,
        -0.11651644681261408,
        0.8977540174806182,
        -0.6802550419071629,
        -0.24163369230243203,
        0.1955609125273119,
        -0.9696957473031502,
        0.7786997804215281,
        0.9468442612086487,
        -0.5117325225893514,
        0.8270437867265859,
        0.32935789902905954,
        -0.5595227319597413,
        -0.9030716750282899,
        -0.8926658150693183,
        -0.26748275003468014,
        -0.6934606054601342,
        -0.3536293626551954,
        0.4487278007156523,
        0.28379175706952786,
        0.39244755993591274,
        0.3862958082121992,
        -0.8168701975686723,
        -0.6263348323333213,
        -0.8503797888283098,
        0.593655227718257,
        0.5449351819987363,
        0.09187962114043957,
        -0.6650373959568088,
        0.3120370740134073,
        0.4147795129044425,
        0.37488755547816854,
        0.9734667508618648,
        0.7221693770081781,
        0.05905431576397335,
        0.7713939795302396,
        0.14742375049098388,
        0.869089354629736,
        0.25857968459855196,
        0.8815159186328385,
        0.05466256597525243,
        0.5062657842420142,
        -0.28053799704725835,
        0.515125843579116,
        -0.5620377057856429,
        -0.5658077833971418
      ],
      [
        -0.38289921672141647,
        0.5067724980575972,
        -0.8017008061696818,
        0.6034987567248948,
        -0.3397887300885414,
        0.9700283715109974,
        0.9296225461104499,
        -0.44647796010245533,
        -0.9868217765095748,
        0.5134192614573412,
        -0.6215249302075132,
        -0.942754092804305,
        0.5202230719479262,
        -0.611639811327839,
        0.16238566584376635,
        -0.9950868757094291,
        -0.5980834498777652,
        0.7735724602832486,
        0.15868200106107144,
        -0.4625200225735606,
        0.23445829301984822,
        0.4193350671636915,
        0.5105363701123677,
        0.4161749168536737,
        -0.25330821980808826,
        -0.610713215305817,
        0.8332306080062215,
        -0.3009986834997722,
        -0.29538392706791905,
        0.4802026719458117,
        0.11317055584788993,
        0.9131814425095477,
        0.7610934195796666,
        0.8176381754832212,
        -0.6061646139547026,
        0.8453159840047022,
        -0.8040892547191341,
        0.07715793750836841,
        0.17376476901860616,
        -0.2560233938949834,
        -0.7902506276316401,
        0.03917265092263733,
        -0.717632390009632,
        -0.022232829403831422,
        0.7952350694027788,
        0.09639347127514641,
        0.9240605530054642,
        0.21744311710067032,
        -0.30265056404963886,
        -0.3036925338747707,
        0.9080437032384538,
        -0.8759407050741366,
        0.2669977920257196,
        -0.9094149751635352,
        0.6185228218639802,
        -0.6159324686606018,
        -0.7558705655481897,
        0.13453764783982614,
        -0.31678371969642516,
        0.7912815183351498,
        -0.9344899246653711,
        0.3158407540246537,
        -0.6659669839797187,
        0.6598023014577532
      ],
      [
        -0.6482759604966792,
        0.30420529305159305,
        -0.37759545318078525,
        0.1934620310488151,
        -0.6554313147662838,
        0.6107668333881231,
        0.6956124869073002,
        0.2905463068611749,
        0.9301485026225833,
        -0.13000550967785096,
        -0.9249364584335671,
        0.1322661080606553,
        -0.419544718434292,
        0.9229245111824671,
        -0.14246755464374816,
        -0.7965824136105999,
        -0.7726214738962738,
        -0.699850850589977,
        -0.6958410499335257,
        -0.9272087064212005,
        -0.590984053245029,
        0.3324398260916164,
        0.7954088178171217,
        0.4282625133968261,
        -0.005290577990958001,
        -0.6912441759328036,
        -0.19601976309432279,
        -0.7140952930968008,
        0.9924913161367521,
        0.3372270558287047,
        0.6374574004269784,
        -0.7439013105095429,
        0.17061777745052042,
        -0.44312536293038685,
        -0.0975950556094265,
        0.4477376754247866,
        -0.0866724632473066,
        -0.5518847286086899,
        -0.43849235468251613,
        -0.29376936028231193,
        -0.6800771478865022,
        -0.2914711832051369,
        -0.02610148117674571,
        0.6144340087265221,
        -0.07496370177732148,
        -0.7335793066489618,
        -0.3441129277484043,
        -0.8735918767796458,
        -0.340561533017131,
        0.07994542957838369,
        0.3608525660441113,
        0.07927078499157347,
        -0.9050998362593141,
        -0.612376433072944,
        -0.18299696379006458,
        -0.1486393974671152,
        -0.12377567238065557,
        0.4704155327772881,
        0.2643298438628514,
        0.5954741611534953,
        -0.5345351775977076,
        -0.7543142413746258,
        -0.5719434454798209,
        -0.6413738877546025
      ]
    ],
    "biases": [
      0.5947825921684151,
      -0.6751084214956655,
      0.7433218168486364,
      0.30808416677582207,
      -0.49043460580357134,
      -0.9826969725281072,
      -0.5609706427884953,
      0.8236226529466466,
      0.6083865906699191,
      0.1396979953349171,
      0.6884890519039737,
      -0.5068239259633232,
      0.841940379530421,
      -0.311136563284951,
      -0.23071498260533874,
      -0.4412208480564972,
      -0.4748476821423324,
      0.08634734231192542,
      0.25406640752659504,
      -0.9452307098874464,
      0.3033377129072423,
      -0.7939060873357426,
      0.8603115288573653,
      0.7620665585122925,
      -0.2316089423832648,
      -0.4435864033970798,
      0.7502568351190251,
      -0.35269818014432475,
      -0.4990817056471335,
      0.58868673011232,
      0.43557226129325954,
      -0.3902231813575232,
      -0.5652330008855795,
      0.08647155173009158,
      0.007325124493872792,
      0.9201919967663184,
      -0.011798234825475706,
      0.9685649695021121,
      -0.4139928810691944,
      -0.6649916015212844,
      -0.12467741684771605,
      -0.15146777948138945,
      -0.1763392149580174,
      0.7124258368968315,
      0.5234369711102729,
      -0.45171043311170456,
      0.4195493293106298,
      0.9640149879102868,
      0.5343725716750836,
      -0.4705399237058596,
      -0.5162612819730354,
      -0.01443729276451644,
      -0.5632400824527808,
      0.890211995971504,
      0.6339239398955048,
      0.33192760988602266,
      -0.5546993250560035,
      -0.8063305095602766,
      -0.3439068154486318,
      -0.4669826011468967,
      0.37400823590610677,
      0.6469298277842479,
      -0.37655381051097647,
      0.6327991296711841
    ]
  },
  "layer_1": {
    "weights": [
      [
        -0.778663850376317,
        0.8470868496657067,
        -0.7516330504157713,
        -0.30489548001804634,
        0.9237989929483157,
        -0.3671890325313958,
        0.9401686268874361,
        -0.9841506925777002,
        -0.20215925575234373,
        0.008196645656789459,
        -0.8766431040897935,
        -0.44437188667829264,
        -0.3026647267818907,
        -0.5280616210207258,
        -0.7555349698722493,
        0.6014375554333005
      ],
      [
        0.7559453726784227,
        -0.9472907584104302,
        0.15203769845788395,
        -0.49628391189590504,
        -0.9508492965440869,
        0.5528126056778957,
        0.8646304913586087,
        0.7570289022651646,
        -0.3630439925510993,
        0.6480447756397778,
        -0.18279069069115028,
        0.8789170005211377,
        0.6275118539863163,
        0.313362002950448,
        0.6568750079972621,
        0.8970122088631829
      ],
      [
        -0.6274205574776641,
        -0.6057498635526799,
        -0.9263249364617172,
        -0.1149590578303723,
        -0.6470865997000048,
        -0.6102836929069366,
        0.24209560307686884,
        -0.11375484492882038,
        -0.4118552374306752,
        0.12407504131295455,
        0.9516055998970203,
        -0.11121988721408727,
        0.5513611854165363,
        -0.9214398781383994,
        0.6582447880304072,
        0.7637597260045079
      ],
      [
        -0.24452866583570976,
        0.3808443985653651,
        0.9527274424588832,
        0.5962734271333265,
        0.2711519960343429,
        -0.044513029323209885,
        -0.8615747624922645,
        -0.22401018312161702,
        -0.2983589361938599,
        -0.9707497936550993,
        0.043734054550272905,
        -0.9238664538069099,
        -0.23099021783480267,
        0.7582269878924988,
        0.06916632606100492,
        0.485772445172431
      ],
      [
        0.28115208084954335,
        0.16584432739878152,
        -0.193804014512984,
        0.5871371504952443,
        0.410501930965653,
        -0.2791052470047177,
        -0.1575202875936148,
        -0.9914616452444844,
        0.393156077769927,
        0.3284305625674826,
        0.8729504785380617,
        0.4462959105321287,
        0.6454338517514715,
        0.3602771980457655,
        0.8948414317993083,
        0.12705794279581495
      ],
      [
        -0.5216924163800822,
        0.025814809270033212,
        -0.6790718323277865,
        -0.5864327431543359,
        0.9252975167191311,
        -0.27051445817566533,
        0.5596444618642846,
        0.5220634204233914,
        -0.8988604343581132,
        -0.9674416927813687,
        -0.5954241980151223,
        0.35617301903203624,
        -0.4505833024240382,
        0.27022278404524225,
        0.47238880526201354,
        0.48583777715589505
      ],
      [
        -0.9895003081712688,
        -0.22901626185205615,
        0.6170923559858124,
        -0.5216236248947363,
        -0.9587899538678499,
        0.03361969106046958,
        0.9859507826632408,
        -0.7325028172321337,
        0.5162735164793668,
        0.39080404264179935,
        0.40403214934544995,
        -0.23801759204912787,
        -0.3486471010141363,
        -0.15498761823322327,
        -0.2584825668908246,
        0.44328415405818733
      ],
      [
        -0.3569178755378144,
        -0.13971600222456626,
        0.562381040501317,
        0.15027311842509605,
        0.45058042487414673,
        0.7183847870730622,
        0.44003309026620907,
        0.8940755752617264,
        0.4103384849730154,
        -0.2814111654365594,
        -0.1352351606574007,
        -0.010983915003826894,
        0.6693046911446034,
        -0.005685929846984905,
        0.19279193877720568,
        -0.5150190504605441
      ],
      [
        0.9749938638989888,
        0.8234072679907289,
        0.5330780171111671,
        0.40430843175262265,
        0.4035500604764173,
        -0.9898184712172116,
        0.4468456130899843,
        -0.5351215883645031,
        -0.5776407040924327,
        -0.9962958000190896,
        -0.6891071634161072,
        0.8325259477178033,
        -0.19669141805902113,
        -0.8703970496627549,
        -0.03347249759192672,
        0.8915675847969817
      ],
      [
        0.7380801611138366,
        0.05295099043129148,
        0.7548927428023369,
        -0.8296541644241848,
        -0.36907646835271035,
        -0.8508484164112879,
        -0.23286454272511192,
        -0.061485082629892274,
        0.8689428802381329,
        0.09274356165576303,
        -0.45683292903189043,
        0.6621672401555507,
        -0.4541861966687253,
        -0.44961081703510564,
        0.4908176300081084,
        0.724285431048902
      ],
      [
        0.4102519276230081,
        -0.49596452722480344,
        0.7363195684629154,
        -0.5203856786506085,
        0.6433100772275364,
        0.429836145388369,
        -0.5804981543189229,
        -0.5852596209818415,
        -0.3603053879860376,
        0.8331280939571524,
        0.0018981125603474425,
        0.9274817024990589,
        0.8281395437421919,
        0.05866654620992873,
        0.5465156282667112,
        0.6712578978704411
      ],
      [
        -0.9522284388807922,
        0.6342556721526584,
        -0.1585281630153177,
        -0.8111952117181926,
        0.008152233897679162,
        -0.6393248790565522,
        -0.001240490248082704,
        -0.64012485817421,
        0.4581563152868826,
        0.25288916824132923,
        -0.7901565117982159,
        0.35471348384376045,
        0.6872523476905115,
        0.38976628492732845,
        -0.8109437341465171,
        0.65502212534634
      ],
      [
        -0.33812973365802934,
        0.484748351290911,
        0.8022154013040712,
        0.35524170057988824,
        -0.17921715435915675,
        -0.0954199650227876,
        0.05711634356746775,
        -0.3823338779053531,
        -0.4901217341227877,
        0.7840399583408824,
        -0.8263396499842519,
        0.3054178569550541,
        0.18713122663474246,
        0.8627268800633032,
        -0.21479329737474528,
        -0.6995853798507172
      ],
      [
        0.40923566915602216,
        0.9912118813155826,
        0.995571570678466,
        0.03756262565091495,
        0.4323429444797169,
        0.8639250905655358,
        0.11088214971492394,
        -0.9185551075513612,
        -0.27703672930072476,
        0.06026466352150117,
        -0.712772883483551,
        -0.031805675694387636,
        -0.8708366224212167,
        -0.6587794573670369,
        0.7796393578358238,
        0.9756055662072702
      ],
      [
        0.7353701032935986,
        -0.19299189016924778,
        -0.504539963621591,
        -0.1255363223471344,
        0.29790040419712405,
        -0.250739525738227,
        -0.7818925240785848,
        0.8033697036003946,
        0.621641933197203,
        0.35600986982012706,
        0.7694840342212508,
        0.282653551265029,
        -0.3576894521747833,
        0.37514633350432103,
        -0.16426469586212722,
        -0.37160170945981874
      ],
      [
        -0.7269434222062674,
        -0.695987329117536,
        0.3440756558939193,
        -0.9108981581487117,
        0.4741917810144276,
        -0.4677439041263556,
        0.07654862986336153,
        -0.6182067528807735,
        0.12885419863123837,
        0.45658879332075886,
        0.989337523449282,
        -0.6632106346474196,
        0.44729866824431785,
        -0.02464495248048082,
        0.5104226569897308,
        0.014859324352680892
      ],
      [
        -0.4546727437506273,
        0.15366613914617178,
        0.8313271096606143,
        -0.44755412716272236,
        0.37984892798802394,
        0.7159647229949007,
        0.4447004486663626,
        -0.3656204272146206,
        0.6597989744863038,
        0.2386479690659422,
        0.1111829341689774,
        0.6698558523842513,
        -0.3167440861245281,
        0.9997172889820132,
        0.6991727555111016,
        -0.9424389572714447
      ],
      [
        0.5550495680287222,
        0.7749610549437216,
        -0.34301350009929266,
        0.15282151000440525,
        0.009724821616333035,
        0.7240924311912127,
        -0.4475335487624019,
        -0.23580504399450675,
        -0.8532192331457056,
        0.4215314950231408,
        0.3760881810412069,
        -0.8577152910406454,
        -0.3316422577164717,
        -0.8547587097786071,
        -0.6392693735354225,
        -0.8500098560120735
      ],
      [
        0.41362447102777145,
        0.3918548997449185,
        -0.9592504349879674,
        -0.829887886057167,
        -0.2958928788120072,
        -0.26393325005691737,
        -0.65036460903131,
        0.9322566276798294,
        0.15556373033941773,
        0.6986294058928302,
        0.3920152337063061,
        0.24693862370190423,
        0.26393512332789393,
        0.05217625012910743,
        -0.932091224987526,
        -0.9604392252295864
      ],
      [
        -0.8062331033405699,
        0.5145698488736115,
        0.4883641777124017,
        0.8258388004525599,
        0.9465209889641144,
        0.45996680829772907,
        0.2718742107003158,
        0.17593539281222692,
        0.5942745812827295,
        -0.14193879038627455,
        -0.3753490390257672,
        0.04606637230236044,
        0.06658674597717296,
        0.20427596323486008,
        0.2934485763037149,
        -0.30134799391534206
      ],
      [
        0.9113067694859345,
        -0.0013840264987177164,
        -0.5554152987533649,
        -0.6877371804443018,
        -0.4253634825192685,
        0.4130021273117992,
        -0.31207106644813387,
        -0.12005677883469712,
        -0.778328223427045,
        -0.7244543712008003,
        0.46692769031946124,
        -0.3359136810332157,
        0.9138385228476933,
        0.35121892491685847,
        -0.5410479032084059,
        -0.5860303615750084
      ],
      [
        -0.9531816175906718,
        -0.9420323376555308,
        0.564805118953998,
        -0.4295285963491764,
        0.8203662675816286,
        -0.5494545508656228,
        -0.3851834983506357,
        0.6621992570780817,
        -0.0061168128477469,
        0.864719830889304,
        0.789010089461397,
        -0.5175460994532759,
        -0.43401494429783094,
        0.8004189589410686,
        0.23003894483576892,
        -0.9286869788273335
      ],
      [
        -0.7457439895919327,
        0.40466623881144104,
        -0.391948980680201,
        0.17326727451362456,
        -0.44972011617945795,
        0.16964991637079718,
        -0.8851062026869383,
        -0.8620369020721923,
        -0.8540908529189457,
        0.44611337032257237,
        0.41401854084349177,
        -0.6288547838570813,
        -0.33961799670250725,
        0.4512912603582415,
        -0.29220195131269455,
        0.5699624491007509
      ],
      [
        -0.8236798686405653,
        0.8372840408409334,
        -0.6160814457133938,
        0.8789865750991293,
        -0.513538718484039,
        -0.8859788394849664,
        0.7444505438732705,
        0.6572735230289926,
        0.946002281074622,
        0.8326225680994834,
        -0.29968488814342553,
        0.7661526142242598,
        0.8557718533941794,
        0.291603900249203,
        -0.17695737463336525,
        0.15749948521392154
      ],
      [
        0.3393970281304943,
        0.6377857558154616,
        0.10529735001243856,
        0.738481150719434,
        0.1338167132534629,
        0.14869700716104317,
        0.7762673680468914,
        -0.5130429140963229,
        0.46895241122485687,
        0.49781499422938436,
        -0.8635458924117116,
        0.4929021264720821,
        0.49544716341639194,
        0.11440103247797073,
        0.15305573294778418,
        0.4982850512853576
      ],
      [
        -0.015073526113760671,
        0.5681065127435145,
        -0.1635816481856016,
        0.25165461114212007,
        0.4562135494151276,
        -0.700230995733097,
        0.3497819700534279,
        -0.19736217710483817,
        0.05059820095675138,
        -0.06632241557825869,
        0.5825090389643988,
        0.4012811092432287,
        -0.15180451112616278,
        -0.005303971942146157,
        -0.6966875048573691,
        -0.22772487055957824
      ],
      [
        -0.9111479510321348,
        0.5585178029629236,
        -0.8230562237418528,
        -0.7304526235708131,
        0.37580869120341065,
        0.03953360063750244,
        -0.7410234127789121,
        -0.057688972585531184,
        0.5952334477219274,
        -0.7088829934290428,
        -0.8508669343439925,
        0.8727336302546969,
        -0.7707956995148653,
        -0.8483406684176156,
        0.13830957903611218,
        -0.11976089423587855
      ],
      [
        0.9464044206963649,
        -0.3948742915065393,
        -0.47084453321491626,
        0.9384170944336847,
        0.4765954265360324,
        -0.8972328374131786,
        -0.7640717696431374,
        -0.9829432599374515,
        0.7622235533605521,
        -0.560484901688723,
        0.5567493599753639,
        -0.9304579933294423,
        -0.8614509669252537,
        0.6977723881443187,
        0.3752271446083151,
        -0.7725944602562123
      ],
      [
        -0.4699021625865587,
        -0.36541710594355803,
        -0.7910236547494598,
        -0.8634699852416128,
        -0.01590569575978118,
        0.5236218257328709,
        0.6769412117706335,
        -0.2835762376788593,
        0.48488288140717994,
        -0.7569653245445607,
        0.9030036019285153,
        0.9204553157879998,
        0.9130387899084804,
        0.8985105345439102,
        -0.9867161763217636,
        -0.06210270960867059
      ],
      [
        0.8652992578025995,
        0.7083819761226882,
        0.012258266946533647,
        -0.9305019656344669,
        0.02188319015609541,
        -0.6024316714475724,
        0.4970638686109583,
        0.6479135629994299,
        -0.05563731669967509,
        0.5592241310809096,
        0.6684324857709478,
        -0.3669272872849365,
        0.002512636276355007,
        0.6464749268540635,
        -0.6537361199032827,
        0.38381127286340955
      ],
      [
        0.9898293998629863,
        0.29624790479519336,
        0.9735840504655318,
        -0.6521407530291317,
        0.8914796366426081,
        -0.12318171085113772,
        0.4718674725626153,
        0.11241310622346412,
        0.2771862952412327,
        -0.015827977354011313,
        -0.0029978750012196187,
        -0.49170160240551786,
        -0.2717254048402007,
        0.7155129151921231,
        -0.8167331362153702,
        0.8704582998261525
      ],
      [
        0.4516130237831346,
        0.9674685525269859,
        0.8135490292977832,
        -0.8121448812500558,
        -0.7686699140972635,
        0.6027959000802168,
        -0.7350098752401524,
        -0.38344830783831374,
        -0.6648395303259871,
        0.005273561118973369,
        -0.9395828622990565,
        -0.26739893385492497,
        0.7335301017925047,
        -0.5402231771533297,
        -0.1349408215689416,
        -0.5812605574696266
      ],
      [
        0.5297729232686539,
        -0.9800465394141069,
        0.5191733033770178,
        0.3650362581655682,
        -0.2810975224104728,
        0.8180522918279376,
        0.44387546212886253,
        0.7568434055745004,
        -0.15563925684397217,
        0.6504728104425941,
        0.2813054635621133,
        -0.4919892839064284,
        -0.7436438337203553,
        -0.14386661987856075,
        0.8887663904929437,
        -0.16245983895975713
      ],
      [
        0.6010112967537209,
        0.06954037912790767,
        -0.18092440416310884,
        0.12537268189243767,
        -0.0600294512813222,
        0.3262606047322223,
        0.2364699639966339,
        0.7299609750380329,
        -0.7215699923212335,
        0.26395962178839105,
        -0.7285356186068472,
        0.8154484798929043,
        -0.633570179888852,
        0.6907900095548556,
        -0.5263403885897542,
        -0.9553356503506445
      ],
      [
        0.44608951044396083,
        -0.5390982321109064,
        -0.042014865459769846,
        -0.6792071636680153,
        0.16662704989124966,
        0.01570365251924266,
        -0.29752018296900595,
        0.8742110497236792,
        -0.7596042402090488,
        0.9997227096438808,
        0.8236336056471454,
        0.7336583993198165,
        0.7625404800247366,
        -0.17056817632539079,
        0.017048089840759673,
        -0.6592156487643226
      ],
      [
        0.21337952639508728,
        0.8140305073868133,
        0.9145541075260146,
        -0.6294445848532608,
        0.3082213471148505,
        0.31445030546809893,
        0.46758757216063196,
        -0.7325382047655471,
        0.39419700124803003,
        0.430200770846874,
        0.8502118439608737,
        0.641731114711511,
        -0.10827227598336742,
        -0.5836894242137083,
        -0.8448571835271053,
        -0.6169672257085086
      ],
      [
        0.5960799241859496,
        0.18464779575433443,
        0.6527413384809588,
        0.5125691170582196,
        0.8252896939238432,
        -0.9581779412965579,
        0.8886355683743794,
        0.7155763493448952,
        -0.7826415430057001,
        0.9189911086970699,
        -0.04278879889713605,
        0.985999864128775,
        -0.9084338203295192,
        0.7986495169088379,
        -0.8335768676731303,
        0.3218382759078293
      ],
      [
        -0.36083850991721156,
        0.4061657608888658,
        0.6707018514588274,
        -0.9976838445821581,
        0.2089204383939549,
        0.9589328606769825,
        0.2980104873409626,
        0.5064012089002812,
        0.4528035814619722,
        0.3199839982306183,
        -0.009395265672432096,
        0.388991171845366,
        -0.09829921912458461,
        0.8090853544645085,
        -0.13180172448873106,
        0.8483655092446867
      ],
      [
        -0.8555514111963856,
        0.9727836693256522,
        -0.5307298355462768,
        0.08225124919128257,
        0.4195228058108975,
        -0.3792895289348195,
        0.7503870993066004,
        -0.9278434191738036,
        0.3306837306926982,
        0.7340670714990374,
        -0.8117198428676224,
        0.34295995919606814,
        -0.6466779449838878,
        0.38026711395218493,
        0.07245453593550577,
        0.7555068623454144
      ],
      [
        0.6262033975256922,
        -0.6646213980901199,
        0.3256276569671033,
        -0.5677822451045111,
        0.942205370688949,
        -0.1169814364568813,
        -0.21522496509805555,
        0.8964333196113121,
        0.5619600159562423,
        -0.05920544490664814,
        0.9636173135460917,
        -0.6256873656935573,
        0.10329889456390773,
        -0.2951983893915644,
        -0.3754337814261468,
        -0.6828011234977243
      ],
      [
        0.23445729349206035,
        0.7830105958741642,
        -0.03807077720699481,
        0.2788602861228602,
        0.6075233714830752,
        -0.07936569395123172,
        0.5645411921405732,
        -0.2590776563548205,
        0.29386897387701794,
        -0.8348936521280614,
        -0.431331916762149,
        -0.3018746917050166,
        -0.6879036992785912,
        -0.20624907840492224,
        -0.7811304060390194,
        0.6016705228472163
      ],
      [
        0.09708829340657976,
        -0.6186997742865628,
        -0.3322717030172422,
        -0.8231696118258556,
        0.37708575336675554,
        0.403019106005734,
        0.6748391205853015,
        0.5225790712457261,
        0.17738125951527595,
        -0.8264650945746213,
        0.8521479304207333,
        0.20948138299542807,
        0.700137540969219,
        0.07687427027348992,
        0.47915002130013273,
        0.9569084004262527
      ],
      [
        -0.25676237756485376,
        0.3970959184819516,
        -0.6100369769739731,
        -0.8302618118235623,
        -0.20035525265992815,
        -0.2953275554576946,
        0.360483067883276,
        -0.9610559757250376,
        -0.6684981356382516,
        -0.2085084542037985,
        -0.7127185243197858,
        0.9527231225478274,
        0.4489182169996295,
        0.06984564396124804,
        -0.2924533153805313,
        -0.43766497589610953
      ],
      [
        0.25660670542563047,
        0.5740481795658059,
        -0.019343535444097837,
        -0.00664867366119215,
        0.369701063041195,
        0.17373197187131928,
        0.2226646702551709,
        0.760532108435328,
        0.9326531554522661,
        -0.4038408081686573,
        0.8909833495163035,
        0.9101818205786496,
        0.18479776351476374,
        -0.9177865091856756,
        0.4390682760320981,
        -0.7169254723644114
      ],
      [
        -0.21620058697186617,
        0.3389230322853709,
        -0.5705606075054446,
        -0.8082570231261117,
        -0.039012679949906204,
        -0.9853231767991992,
        0.420447103007215,
        -0.4639317249107864,
        -0.3893172088412833,
        -0.9196145946657837,
        0.8084311626104557,
        -0.590166860253839,
        -0.5592779487774364,
        -0.7036013080821266,
        -0.8591725422067646,
        -0.8648759594439512
      ],
      [
        -0.2721004447261419,
        0.2348443037335619,
        0.42160034519454315,
        0.16015677325158562,
        0.7376268044051899,
        0.02914232112312143,
        -0.20061107206907214,
        0.6109373164607836,
        0.8921038504235776,
        -0.35871528300063016,
        0.5138198911506815,
        0.21722196115005743,
        -0.4300274826812527,
        -0.13676067547361948,
        0.4733272087380358,
        -0.2687630226788591
      ],
      [
        0.8333828199623461,
        0.14557975618412433,
        0.6971334250468812,
        -0.44396181379765354,
        0.9931469450503878,
        -0.5808182364776886,
        -0.8441172629403086,
        0.2136090902620753,
        0.22985992569201552,
        0.9916009576828766,
        0.3386393594165431,
        -0.8998327349096049,
        0.8990537079648031,
        0.11836994094440478,
        -0.39122594580503867,
        0.8117426266235737
      ],
      [
        -0.4233560386190591,
        -0.4019113266867449,
        0.9589194898153346,
        -0.911168994188005,
        0.23840759161966818,
        -0.2659871397997102,
        -0.8219615189287282,
        0.7123223271783523,
        0.3491534633108575,
        -0.24024117633610498,
        -0.8847548110480079,
        -0.19696553719525833,
        -0.5418229688339826,
        -0.17983056891220306,
        0.36125922361592244,
        -0.07159195050858425
      ],
      [
        -0.7436562586781141,
        0.665936242370385,
        -0.8064193083504205,
        -0.8849178803555688,
        0.6935201312547519,
        0.06561310581818591,
        0.366450742357902,
        -0.07217536799512425,
        -0.24098944556986912,
        0.07206402307737148,
        0.45131821757002877,
        0.2354865420917751,
        -0.2591546281334758,
        0.39971882737633924,
        0.6480111042188161,
        -0.05209868586139632
      ],
      [
        0.9044797362761674,
        0.33853831619718444,
        0.05804991773515766,
        0.04019940656574916,
        0.5099131469795508,
        0.44607886445186495,
        -0.3388766252982831,
        0.24367299489343197,
        0.9256872406008927,
        -0.9752162988538953,
        -0.46829850190771594,
        -0.008006782532625989,
        0.708863922506392,
        -0.5647694653454627,
        0.27302887977376544,
        0.20233902496800593
      ],
      [
        0.4433634808164608,
        0.33663593012096715,
        -0.8737452914685606,
        0.19323009883548115,
        -0.4480564274717993,
        0.48558678788312837,
        0.4569960848969943,
        0.3373606227897086,
        0.1388810046517781,
        -0.6232987966487069,
        -0.8187225756917207,
        -0.9150305092101854,
        -0.44138420672789747,
        0.8282845599909481,
        -0.46469768376647247,
        -0.8710274622449405
      ],
      [
        0.34180056290268124,
        -0.404857776253569,
        -0.8140336573625013,
        -0.8929536836519978,
        -0.4526045054375196,
        0.4185164815001585,
        -0.07062949555807996,
        0.4349781144278557,
        0.9212282121760011,
        0.00914902318499955,
        -0.0687793906905565,
        -0.6942193295915902,
        -0.060728417180817784,
        0.35458957444279915,
        0.05987592119771756,
        0.8314248217054383
      ],
      [
        0.6212220922410949,
        0.24507878358077706,
        -0.12856706209205915,
        0.09693033175492038,
        -0.6198013187663616,
        0.07487984468734532,
        0.8170999053275521,
        -0.45282628800581115,
        0.012058874966176525,
        0.5821373883904426,
        -0.5559443717696053,
        -0.19852625711576488,
        0.8832560563500687,
        -0.6396597514978404,
        0.8841210299944231,
        0.811191992818193
      ],
      [
        0.6752101841905422,
        -0.3153565162609553,
        -0.13922167816202902,
        0.8705343405980233,
        -0.420277386088064,
        -0.06482418327233774,
        0.8609227634107943,
        0.5602267066558855,
        -0.3321823168940521,
        -0.22536340980360015,
        -0.3222853543202451,
        -0.2631240440392819,
        0.2988690429769443,
        -0.34850648175515886,
        -0.4490343755669872,
        -0.8859197258468121
      ],
      [
        0.18527218091103603,
        0.7402155843396714,
        0.031527668527283836,
        0.596840477442325,
        0.5594688852995569,
        -0.15558303875971213,
        -0.24331461083477146,
        -0.18526603223060412,
        -0.4632364737725263,
        -0.36944300553279996,
        -0.9114184911438241,
        0.20305384526793002,
        -0.8728138702044608,
        -0.4867546455037792,
        0.10742025584396231,
        0.3664564761444644
      ],
      [
        0.020355507633580405,
        -0.28111133744158145,
        -0.7033142691802554,
        0.6150645536965644,
        -0.976867666703789,
        0.036922727354548046,
        -0.2148945604219079,
        -0.26681194973415456,
        -0.8167495958532311,
        -0.9352154151174863,
        0.2300958514860696,
        -0.9337066474308522,
        -0.7271015786001593,
        -0.5284203779767549,
        -0.7958724578580505,
        0.07902579075956284
      ],
      [
        -0.22320001149066626,
        -0.1671743078086141,
        0.5950300909401645,
        -0.6838275007974417,
        0.03938562763076736,
        -0.43478935658464013,
        0.1615030144679861,
        -0.6409036171827927,
        -0.9366665324057748,
        0.4325524470350841,
        -0.034438582933305595,
        -0.34384436495718496,
        -0.4444530824291637,
        0.4278758101093729,
        0.7977940282051015,
        -0.4426059514894789
      ],
      [
        -0.7947925204940187,
        0.457043815329786,
        -0.08412865765718802,
        0.38033546527875584,
        -0.040403861648189654,
        -0.928895775628263,
        -0.04220586999631881,
        0.7487565716551732,
        0.9012512039620706,
        0.30062542384086366,
        -0.04214737216428799,
        -0.5768396485159777,
        -0.5470002638203126,
        -0.32667606780975644,
        -0.2772241473712578,
        -0.5738759461241778
      ],
      [
        -0.4104083200921147,
        0.8295490775085743,
        0.052897025378653595,
        -0.060100600246625335,
        -0.12467908472235889,
        -0.32337389004404105,
        -0.0683186071053381,
        -0.5852055156927534,
        -0.3798975978213135,
        -0.9276298104853338,
        -0.7935702082671943,
        0.9964590967614491,
        -0.17086828960763123,
        -0.8156963238814579,
        0.7138731733783703,
        -0.896994151764495
      ],
      [
        0.8171151238923964,
        0.28950074746487786,
        -0.8031668647975487,
        -0.6973352794265126,
        -0.39665956252489853,
        0.25845163133065596,
        0.07960207987561807,
        0.5145567182230681,
        0.04481852915949469,
        -0.8294357023741359,
        0.15036740106109137,
        -0.825683789850213,
        -0.8735575100474229,
        -0.5834551185100059,
        -0.8743476218325263,
        0.050815090580621725
      ],
      [
        0.028092087713954328,
        0.3969293561399627,
        0.6698069258086352,
        -0.16136649821859406,
        0.45983949994608597,
        -0.7537244354084445,
        -0.8475703530205969,
        0.2123304178208658,
        0.5391208923524489,
        0.8711974039280272,
        0.7918753092277389,
        0.3585895905234089,
        0.5107987780006957,
        -0.030655746365600978,
        0.07919731341941061,
        0.10076600349817899
      ],
      [
        0.33597035357390514,
        0.0179381602290809,
        0.4536842554261067,
        0.9518641706936359,
        -0.10730632371412896,
        -0.03835277446358676,
        -0.7049058463704188,
        0.42815652524898606,
        -0.8898529934927955,
        -0.6721327906392058,
        0.30655088584267487,
        -0.0007365663694358648,
        -0.5246457183379061,
        0.37800591693080854,
        0.9438293182365249,
        0.7252057714088396
      ],
      [
        -0.062299906420093976,
        0.6499379112086394,
        0.6741812380178156,
        0.41001195492752784,
        0.16788923027185287,
        -0.3585792818070488,
        0.20530630906252778,
        -0.2437650317547102,
        0.6030108008907935,
        -0.09139343139939382,
        -0.24035627162974738,
        -0.3152057854274535,
        0.6625516878640363,
        -0.3499352668438511,
        0.0766834337097444,
        -0.8515658253599832
      ],
      [
        0.16656897419952887,
        0.9278906349877494,
        -0.6522383790996167,
        0.4551127056009783,
        -0.20171651123810097,
        -0.48045068991797035,
        -0.11041956051772939,
        -0.49091416399902,
        0.6842856002677009,
        -0.6108200158990795,
        -0.397949338538913,
        0.1961469294312046,
        -0.5660767219269962,
        -0.1307307915177609,
        -0.7639792615307905,
        0.1338378886311964
      ]
    ],
    "biases": [
      -0.2656925648406152,
      -0.6051981697984443,
      -0.5588957591593846,
      -0.1359355024752118,
      -0.4689097704397962,
      -0.22386101296878036,
      0.9897814258846502,
      0.7285082686378077,
      0.7484623677303541,
      0.07903640797490152,
      0.9282395153352196,
      -0.36384671961556236,
      -0.5655338768388498,
      0.497712554980138,
      0.7620102688968802,
      0.7835526423352233
    ]
  },
  "layer_2": {
    "weights": [
      [
        -0.04560231243414514,
        0.984278678058834,
        0.24191882651959062,
        0.599190105521586,
        0.7041080248647671,
        0.12416942785655705,
        -0.8836746735943093,
        -0.4038163550217544
      ],
      [
        0.33803864003849093,
        -0.6451715457662519,
        -0.12967807021217537,
        0.9265478009398074,
        -0.7370906128650023,
        -0.12732982995990372,
        -0.16595679230664895,
        0.5958473795903325
      ],
      [
        -0.3387200077323276,
        0.01773038478098199,
        -0.18169074239710836,
        0.048294726584859005,
        0.5066263131468354,
        -0.09440109081399739,
        -0.08395742116489324,
        -0.5093864554255336
      ],
      [
        -0.8414626131018677,
        0.8473285112920874,
        0.5547304054838398,
        -0.008927705700897182,
        -0.7341132300138782,
        0.4666913549892837,
        -0.7608568798895565,
        0.3265431881929446
      ],
      [
        0.06541252359586869,
        -0.887733179263837,
        0.8250581988406407,
        0.2635701934016488,
        0.2794858242887759,
        0.11899803236925677,
        0.9463747659436712,
        -0.09713693944424451
      ],
      [
        0.40893338222001696,
        -0.4531736953333123,
        0.2479044476269594,
        0.22449757923558922,
        -0.038798618147532604,
        -0.9209406564316291,
        0.8336848290837293,
        -0.4277602596280694
      ],
      [
        0.8324613537258287,
        -0.008084661551419181,
        -0.06387212909953899,
        0.2809210242577629,
        0.3979717171488151,
        -0.26726305140424356,
        -0.45604347906882836,
        -0.08298252331170852
      ],
      [
        -0.47232516904305144,
        0.2461173775625387,
        0.4489997912198309,
        -0.6227441008077312,
        0.013647460188545235,
        -0.26729749211942955,
        0.18590095658870376,
        0.8876514110125391
      ],
      [
        -0.18566686136091515,
        0.8437824386242292,
        -0.5077159297609701,
        0.6084376259767819,
        0.3922330124811235,
        0.8266357007545031,
        -0.18519348044406891,
        -0.7690785177309778
      ],
      [
        -0.04697562494805507,
        0.41650127283965666,
        0.8846179141916601,
        0.38514708500720607,
        0.5030069918070024,
        -0.8779280551663302,
        -0.4534346817199979,
        0.5267965085742239
      ],
      [
        -0.43133675698197904,
        0.7577949053004769,
        0.2934791786437623,
        -0.7765671863314096,
        0.27818844323650804,
        0.47760494637861317,
        -0.4073695506387851,
        -0.9424611490128214
      ],
      [
        -0.9526371264209217,
        0.41013035234429984,
        -0.30166591290210487,
        0.4350495586134224,
        0.026313476263527757,
        0.3348120000682957,
        0.8486585982551924,
        -0.27032328703341424
      ],
      [
        0.6190115608595299,
        0.08980567581740728,
        0.41953411831638365,
        0.015150057643666948,
        -0.05488616905270782,
        -0.6540860095027301,
        -0.49484902255218977,
        -0.7604501057667303
      ],
      [
        0.7843751758954178,
        -0.31713422624537335,
        0.3255851678618731,
        0.9914438391761948,
        -0.8799864104092658,
        -0.55673670440496,
        -0.2712653760787016,
        -0.6003416667855517
      ],
      [
        0.6698254837095143,
        -0.7192716087895807,
        -0.9322042950955725,
        -0.6001319111596555,
        0.27575779468353945,
        -0.47440582406013676,
        0.4121101365174922,
        0.19020536083178263
      ],
      [
        0.7252337149726691,
        -0.09058902171098904,
        -0.1258458202305004,
        -0.9973471991227907,
        0.5719634977128178,
        0.3013043408614051,
        -0.18666949308601133,
        0.3418338770518081
      ]
    ],
    "biases": [
      0.14656981475174158,
      0.7692070749203344,
      0.35531266782154924,
      0.6174803835771681,
      -0.4885668717011775,
      0.7148308160105514,
      -0.7349923921006232,
      -0.29014328806887435
    ]
  },
  "layer_3": {
    "weights": [
      [
        0.7448642163310617,
        -0.39401139269887087,
        -0.8807025723592918,
        0.3865150516326066,
        -0.4227597113840038
      ],
      [
        -0.8978863064707687,
        0.4110911929860337,
        -0.363658033013045,
        0.8423118315375966,
        -0.7810648605565302
      ],
      [
        0.005854095901471901,
        -0.23370022889288222,
        0.012579773185841026,
        -0.9948437318239962,
        -0.49686845233442756
      ],
      [
        -0.04124717419502133,
        0.4852477366011958,
        -0.35139731135530483,
        0.5978091393816309,
        0.9079899403947358
      ],
      [
        0.6881508607176334,
        0.04600369569607898,
        0.3804534370743098,
        -0.0704880347196426,
        -0.8426119931499587
      ],
      [
        -0.2933840161837966,
        0.4727394165178782,
        -0.2085681611968695,
        0.40855201503514316,
        -0.6130695843623426
      ],
      [
        -0.8594315244806925,
        -0.1944854456086389,
        0.798931698602021,
        -0.0019888946326451773,
        0.43054019835432755
      ],
      [
        -0.3661174004640615,
        -0.3964673631194189,
        -0.06565884442299286,
        -0.8946806840355563,
        -0.7260113830306729
      ]
    ],
    "biases": [
      0.7071811590945214,
      0.7895227992995197,
      0.5651996900569292,
      -0.6606841636247067,
      0.6632496324043606
    ]
  }
}