{
  "layer_0": {
    "weights": [
      [
        0.6007749355871173,
        0.8623395358764853,
        0.9597034939530086,
        0.08156127320839263,
        0.8015061309006984,
        0.23503949435100643,
        -0.48821916089729306,
        -0.4818206764405503,
        0.4738598045953212,
        -0.02569654401365093,
        0.6450432153341145,
        0.35366482067202637,
        0.696129737865394,
        -0.798952679176949,
        0.16700557346050424,
        0.7785991117672278,
        1,
        -0.2668113702058747,
        -0.017896008103626085,
        -0.15784046118705758,
        -0.7804683641228904,
        -0.8525238953197378,
        -1,
        0.6423111014464525,
        0.6450179818991816,
        -0.3520740399369152,
        -0.46282940601007533,
        0.4971363442629979,
        0.8785154782250554,
        -0.594775047237436,
        0.881021065887483,
        0.9371622056719109,
        -0.7510846156662687,
        -0.9095950079561792,
        0.3543600641021209,
        0.7037722706956728,
        -0.9664797512867719,
        -0.16314553466461212,
        -0.6080831431184188,
        -0.4392504225762432,
        -0.3937599732346767,
        0.18893000943193483,
        0.23265341238081486,
        -0.7977119452779787,
        0.9601556173214709,
        0.2827380016321662,
        0.30381049760385687,
        -0.41376781586865313,
        -0.11577093739972677,
        0.13117941791435633,
        0.62636309813478,
        0.27141169916660174,
        0.4306144554551783,
        -0.7258740920198725,
        0.6106541997610095,
        0.5625949377148564,
        0.12224632669035869,
        -0.29815613955096115,
        0.3753366234966415,
        0.9486608218620023,
        -0.3460597125592935,
        0.7023253716561014,
        0.9627380497511202,
        -0.4649354057095343
      ],
      [
        -0.08557470857196119,
        -0.4516608252913873,
        0.1919604990048813,
        -0.6074159774383326,
        -0.9264770987069674,
        -0.5842274417615355,
        -0.19860459159410782,
        0.28054482255506713,
        0.06275419211399468,
        -0.7153253807383212,
        -0.053792885529498104,
        0.4928986991562059,
        0.16874575114568896,
        -0.15964518959286786,
        0.05536688212678133,
        -0.5393002536956656,
        0.454635964517013,
        -0.866499850229094,
        0.38168456381785115,
        0.596603194042902,
        0.5984208353431006,
        -0.6905048230300662,
        0.5471840574702841,
        0.23297688570408706,
        0.00915642406145403,
        -0.6750825768058787,
        0.9739024983281452,
        -0.75005053091278,
        0.5891083872214581,
        -0.571424043268389,
        0.0911243300551677,
        0.4089963572006837,
        0.9180602120157468,
        0.6263285010334018,
        -0.33807954768741216,
        -0.9374206071774207,
        0.9217317250632036,
        -0.5119094283460162,
        -0.3049799585600208,
        1,
        0.8386519313806733,
        -0.8073194557076449,
        0.7335247105272859,
        -0.5629929110495767,
        -0.3098975495152134,
        0.7386779096093872,
        -0.9378148736798874,
        -0.8198760144332706,
        -0.8681705867646508,
        0.9175647898096476,
        0.2406112984140413,
        -1,
        0.5951411851111787,
        -0.21565231714713623,
        0.821158952135447,
        -0.5481991881637638,
        0.3636183909350368,
        0.7598906626737522,
        0.459323968413291,
        -0.8696716008249388,
        0.7170699759803614,
        0.6750441679281766,
        -0.4499655462901957,
        0.7495588703321022
      ],
      [
        0.959834521711519,
        -0.7120386387677589,
        0.533679954634105,
        0.7935466128726284,
        0.41000920664696655,
        -0.2146280444809202,
        -0.5714473686751317,
        0.01643740307122184,
        0.11041461873523109,
        0.8102514883887058,
        0.3540875462647564,
        -0.2091885587475151,
        0.8981612104189068,
        -0.4343278491591341,
        -0.12014466033029346,
        -0.8836912680978647,
        0.6622528979646543,
        0.010739707015941867,
        0.5155513711646876,
        -0.21973241834991863,
        -0.10162807683704507,
        0.1268155302471894,
        0.8880093811860695,
        0.7192225117217614,
        0.18707210654916362,
        0.7021826282527858,
        0.8723024104537537,
        -0.8734433596914547,
        0.03434358810592053,
        -0.10539980088544304,
        0.8080576796532527,
        -0.11852982583513792,
        0.5592908850588317,
        0.6356304034724484,
        -0.7476222448462236,
        0.9184743449160603,
        0.7576181965922983,
        0.5500302012290386,
        -0.7894316279028217,
        0.01314583659102622,
        0.3719077786561339,
        0.31272785995197677,
        0.3636477247334591,
        0.4815594485785535,
        -0.632732270376281,
        0.974416234543369,
        -0.08470558447217026,
        0.08873122702392505,
        0.9266419014372588,
        -0.2564976879636835,
        -0.3504926840671884,
        -0.5010349009467627,
        -0.6796929261082427,
        0.2773902885729034,
        -0.8962503829434323,
        0.29439526361546403,
        -0.4104670506745894,
        0.41285499264546827,
        0.6999227768483941,
        -0.3463451524934296,
        0.04068479206555162,
        -0.17917724649783862,
        -0.4291270804629674,
        -0.9522172808647156
      ],
      [
        0.5637004089306918,
        -0.26645879390795607,
        0.8274368319396628,
        0.5576631952351063,
        -0.7152414283745305,
        0.7875203058729632,
        -0.3869444749007592,
        -0.49672697980988,
        -0.9510549807833057,
        -0.8923884914571469,
        0.86144550719115,
        -1,
        0.3136505951514048,
        -0.11667057774480498,
        -0.4092548240513189,
        0.9558387391536359,
        1,
        -0.03554096413788895,
        0.8660942299205632,
        0.2713731579058582,
        0.41013868194766956,
        0.615618264395098,
        -0.48219824677222556,
        -0.6906065445173621,
        -0.8219356668006511,
        -0.030067811559645708,
        -0.08326506736722411,
        0.3936118244511126,
        -0.8539563450984405,
        -0.1188898679848866,
        -0.7207748721654309,
        -0.8931732037295188,
        -0.023931896739918235,
        -0.6078625569212791,
        0.8807935631186675,
        0.6422720229392705,
        0.49133446008995046,
        -0.7598241644165229,
        -0.5163598360162245,
        -0.3074778783833772,
        0.02820019508658342,
        -0.9094926918462705,
        0.21727924085133143,
        -0.5657641280043768,
        0.42741075377732535,
        0.5390213718631526,
        -0.5189125033843748,
        -0.4591849218773293,
        -0.7817018488834924,
        0.7915716635212162,
        0.6963167792593413,
        0.22602265075825514,
        -0.6646646179517934,
        0.08123084178839222,
        -0.2253944797021752,
        0.9361374508026424,
        0.2695649767570911,
        -0.24612181722328794,
        0.030370293565283545,
        -0.3735978181468173,
        -0.40661421933772773,
        -0.14820939623124377,
        -0.191545955022572,
        -0.1939265376187148
      ],
      [
        -0.5335813607414469,
        0.13325729119784196,
        0.8058821651218424,
        -0.2915686845125866,
        -0.32199290823432924,
        -0.759038611042519,
        0.9882632228014245,
        0.1771794053401758,
        0.7006738865777287,
        0.20481852896238575,
        0.1080888753879355,
        0.2392419151996914,
        -0.8594992669322943,
        -0.547650658527382,
        0.7106547701752626,
        0.012871985592458605,
        -0.21348908340678732,
        -0.255714841993233,
        0.6122968383205794,
        -0.8311976477525199,
        -0.7332531356049766,
        0.0354147323954233,
        -0.2516049281042788,
        -0.3871747183576787,
        0.5435600495348182,
        0.13118992263624052,
        0.09103559251237926,
        -0.6700009668047276,
        0.2880390261693439,
        -0.24540955232461004,
        0.051354574193129825,
        0.8097836335104293,
        0.7764579623499547,
        -0.7451048481670115,
        -0.4469127060256602,
        0.8175065797741996,
        0.46197191792502074,
        0.6879043024400878,
        -0.599669246258989,
        0.044944984307849455,
        0.7115939736515027,
        -0.6793960827159751,
        0.0759645703713326,
        0.911502466023781,
        0.9332849961735203,
        -0.755371355887384,
        -0.38657800469486375,
        -0.1769175798513528,
        -0.7118706129129769,
        0.5149924770482639,
        0.6844981372457377,
        0.4710400247690298,
        0.6351086292446707,
        0.8974090800302453,
        -0.9946372509002686,
        0.987116813659668,
        0.48427172775861493,
        0.8826474207078332,
        -0.36710693259258215,
        0.36223365542084585,
        -0.6988261064673275,
        0.2449612337616568,
        0.11416277313632661,
        0.6294895685044503
      ],
      [
        0.5801361275741941,
        -0.6451572843048708,
        -0.7150260928830826,
        0.809033207620908,
        -0.023433951312208042,
        0.9189829771120304,
        0.20336380872649606,
        -0.029482557273069577,
        0.8622701477330518,
        -0.8160791829201968,
        0.6810475422113716,
        0.4791763995653293,
        -0.6267036327911675,
        -0.7324881018624008,
        0.5127309975359288,
        -0.12378525436286451,
        -0.43528749264870814,
        0.3916427084129023,
        0.06303927103906035,
        0.9485659738923901,
        0.8947607972901052,
        -0.7617004969183375,
        1,
        0.34928760830075517,
        0.38559329273547543,
        0.7063827846735762,
        0.6214303143911287,
        0.31636428724079924,
        0.8508293439449066,
        0.05121765845076643,
        0.39132784691682887,
        0.11718408926716183,
        0.3133620211973083,
        -0.3100069236237496,
        0.7681448366533675,
        -0.2682544275842783,
        -0.49681900311701926,
        -0.7914480489886222,
        -0.9833675315917568,
        -0.4257152897363432,
        -0.7244208854318879,
        -0.07187134316380406,
        -0.3453705871889217,
        -0.5011950131216708,
        0.20934854551316331,
        0.45857444303954487,
        -0.501337257365639,
        0.13450267045458064,
        0.841697344782301,
        0.532727542067243,
        0.20552265880098303,
        -0.3287666180555729,
        0.4873090211757149,
        0.917729634145428,
        1,
        -0.12324449618359584,
        0.881954503620917,
        0.4411425775363005,
        0.050122410150075396,
        -0.31690135486403365,
        -0.6211635055639004,
        -0.9263149568642851,
        0.16952140634572244,
        0.9359215868889323
      ],
      [
        0.49910761657655217,
        0.5350942250507249,
        -0.33178053212962993,
        0.9454688029235442,
        -0.7170601023797452,
        -0.8712336102565669,
        0.16038237097127775,
        -0.9353424115780116,
        -0.8564661590779886,
        -0.5214876576163329,
        -0.7768870384745293,
        1,
        0.5976130995645957,
        -0.9869286164307962,
        0.22637871184925,
        0.22288355154833314,
        -0.7674661113897033,
        0.203439945004735,
        0.020800478156748983,
        0.28076505785946837,
        -0.13324658653341803,
        0.7191175596241952,
        -0.0768584992704924,
        -0.9594928236043793,
        0.30506928105407355,
        0.6656080015091264,
        -0.9924097220514319,
        0.18712351707285768,
        0.7870352489706441,
        -0.7854079462988018,
        0.3714765388189483,
        0.03373368576299994,
        0.36377335016574697,
        -0.8935045827600357,
        -0.396909097092231,
        0.5091830454170398,
        0.4480141317048061,
        0.09889344638311243,
        0.06044347808432394,
        -0.8704599572939347,
        0.26849730539463007,
        -0.23358641383140774,
        0.10394485055900173,
        -0.020384301705797105,
        0.28918230538735884,
        -0.534324233161744,
        -0.9940522313117981,
        -0.92021073467339,
        0.9691324559633299,
        -0.5049045663162659,
        0.14956395811017395,
        -0.6355577373264312,
        0.13957083693244263,
        -0.5680820232218037,
        0.38780949540597126,
        -0.3242186891261041,
        0.36051628346980047,
        -0.07370381355748518,
        0.9928624382825328,
        -0.1397092509555275,
        0.19955406433319156,
        -0.723942992875003,
        -0.30786500207246364,
        -0.5052060343105431
      ],
      [
        -0.8235021766015613,
        0.5565951079456316,
        -0.11349326635653496,
        -0.2758926535699068,
        -0.5652469333015305,
        0.38863842880297045,
        -0.8194798281543738,
        1,
        -0.8298605790403724,
        0.9749183581240942,
        -0.450755004447936,
        0.103978783011045,
        -0.7457234389352589,
        -0.8053474123963275,
        0.6279316252673075,
        0.9154022238496444,
        -0.7591955495854804,
        -0.06697571566483261,
        -0.4672341862405398,
        0.038721951651323284,
        0.2110332703844126,
        0.7115257522920618,
        0.7704066570038709,
        -0.0011916734432539018,
        0.9668230567921382,
        -0.4150908468589279,
        -0.1859118459864439,
        -0.5911537371481338,
        -0.8085907829125638,
        0.5050488477638824,
        0.46030081121329386,
        -0.23998637932510733,
        0.5207819811806673,
        -0.10786067363701012,
        0.7096633577277383,
        0.27334477825288245,
        0.5778744733439317,
        -0.6803993210443244,
        -0.5509780069781386,
        -0.8847861678435639,
        -0.4647070415442127,
        -0.7716680868096062,
        0.027584471934528853,
        0.7764660954557348,
        -0.959174394607544,
        -0.5744579314628232,
        0.08368433393414844,
        -0.40358002342474025,
        0.4956037666267924,
        0.28711421450285396,
        -0.8374432167178723,
        0.19215393521092472,
        0.7501764925742198,
        -0.3534253625042955,
        -0.2799454285811996,
        0.3466151486189308,
        0.7015594318431925,
        0.5447032117606925,
        0.8376050893454322,
        0.41340177269154477,
        0.3727340732591923,
        0.5444760299387666,
        -0.954950611697648,
        0.4749943653851957
      ],
      [
        0.29772504141199946,
        0.21860330828597324,
        0.2015803130818743,
        -0.8089249734805524,
        0.797476121526919,
        0.6618334149495017,
        0.604987198399957,
        -0.9079526685757218,
        0.5369447031191991,
        -0.9564608096434313,
        0.41018033334272014,
        0.69856155274075,
        -0.8356820969999578,
        -0.24557160435718717,
        0.8643608082152681,
        -0.7944166046191266,
        -0.46660603260593525,
        0.3227566530784737,
        -0.6430264875463146,
        0.8574644048172525,
        -0.3013696919140441,
        -0.08085200526667106,
        0.10311183690715897,
        0.8681978310792805,
        0.45846652540662525,
        -0.6077957808576367,
        0.3534541273073841,
        0.3760872415127689,
        0.9379831477013562,
        -0.13922317393061162,
        0.9696405486650563,
        -0.25466298215479016,
        0.20084478362268837,
        -0.004369549694790618,
        -0.5356609608355842,
        0.8618131590166287,
        -0.4164473962250195,
        0.3462743612726026,
        -0.36406608261772583,
        -0.8434613720790481,
        -0.9726450367184043,
        0.23650465954322153,
        0.3328488360988394,
        0.01940877215540559,
        -0.663451359186221,
        0.3273339968632813,
        0.17365554276008802,
        -0.05029108747607796,
        -0.7014788828472777,
        -0.7162560024425844,
        0.5517081559769857,
        0.8748747100081287,
        0.7838719925303034,
        0.3421615856823299,
        -0.28408227113088497,
        -0.5861099236538696,
        -0.533205986052602,
        -0.6071534460232816,
        -0.3693732112910641,
        -0.7452641528172625,
        -0.2502289341494654,
        0.6126146284226339,
        0.13644318494444657,
        -0.009897138430614879
      ],
      [
        0.20215493405488738,
        -0.6342640704817645,
        -0.738452740396934,
        -0.5588280329922685,
        0.9431244400628048,
        0.8724025168113352,
        -0.3221654423682997,
        -0.20883997033925703,
        0.008149329692632906,
        -0.7353046189905366,
        -0.8206738656180835,
        0.19215912414717656,
        -0.6246262184463797,
        -0.7334597238250045,
        0.22126661939663458,
        0.38169114459543035,
        -0.8668976616877866,
        0.3453792499905327,
        -0.4711110028352401,
        -0.5825978115893456,
        0.42494897573214085,
        -0.9293201833229681,
        -0.09574626620804223,
        0.6497944054319803,
        -0.35016973553494424,
        -0.18207875671004828,
        0.5026582118060294,
        0.44810964120576424,
        0.3206221122483911,
        0.12809630525167567,
        0.7353008491560258,
        -0.1921068595851898,
        0.7716364080774303,
        0.3294859565269273,
        0.9979550687545609,
        0.9274206585325304,
        -0.39949934756107486,
        0.6376620723645572,
        0.4681245687184047,
        0.7351262580760733,
        -0.8285499396135175,
        0.09739309422649009,
        0.9217664789622388,
        -0.04643623725421642,
        -0.6539828325149811,
        0.7668391842644572,
        0.4499960200125825,
        -0.4266516539693343,
        0.9190192950582572,
        -0.20670937926951838,
        0.7328470315493733,
        -0.6804585455862296,
        0.24318311030318493,
        -0.31066599661533667,
        0.40451730468980385,
        0.32755553309839336,
        -0.4662353376731913,
        0.20726326534934958,
        0.6389486679471427,
        0.5655644249524858,
        0.5734320621168834,
        0.5844209307593609,
        0.37855996370661704,
        0.7575395997544417
      ],
      [
        1,
        0.5779096463311197,
        0.339192327431118,
        -0.6691792636554313,
        0.08597399870801452,
        0.23018000881316705,
        0.3406245209602725,
        -0.09845401315973369,
        0.1964196589225266,
        0.4562572906380437,
        0.25619492745516226,
        -0.7806984452275728,
        0.715289765817576,
        -0.7006722972482817,
        -0.9412755110782001,
        -0.14264515036011624,
        0.5559598937403175,
        0.304059526105325,
        0.04597270180275837,
        -0.1512742725441115,
        -0.1807446184855411,
        0.2369781345454982,
        -0.9853318929672241,
        -0.08748635502483801,
        0.5169375780504379,
        -0.19727404278458652,
        0.41674538699889857,
        -0.9111457400517088,
        0.9559668137088625,
        0.15158561823231204,
        -0.5512965789672568,
        -0.8581402690124149,
        0.513380818435771,
        0.5425103959028029,
        -0.5459980428083302,
        -0.4022740642008069,
        0.6930058039875175,
        0.38639723133257775,
        0.04645566410267898,
        0.7451267846590325,
        0.7933975360283464,
        0.19285392623326708,
        0.9193024666129038,
        1,
        0.386797542691225,
        -0.1655405216699311,
        -0.6894491402715739,
        -0.6667008827181196,
        0.17219160552026075,
        -0.5032117423047527,
        -0.31053793604972796,
        -0.7513553348512351,
        0.463338901873085,
        -0.00822122431812224,
        -0.5049831278862225,
        0.9305018077865793,
        0.781276802552883,
        0.3089730597754743,
        0.4125288860874492,
        -0.2696290939914487,
        0.937456524779668,
        0.025828480082029773,
        -0.1853170628237399,
        0.4070469591450223
      ]
    ],
    "biases": [
      0.16224034735284132,
      -0.9374570598097441,
      -0.2826603045333499,
      0.4435283051669653,
      -0.399757655015264,
      0.8483530947083998,
      -0.7399688707007418,
      0.31503814498067034,
      -0.9668822442119629,
      0.39926848896043965,
      0.6543283978545358,
      0.0011571750263371222,
      0.9033623302832281,
      0.3263933225211871,
      -0.15868432271695504,
      -0.14957057327185275,
      -0.044416154606209624,
      -0.8367540403050548,
      0.6749009615395617,
      -0.7020010913204262,
      -0.5572445990949186,
      -0.925674280979712,
      -0.3936994657672756,
      0.322212257999844,
      -0.9207906096456525,
      -0.20456742495852331,
      0.7640080430572134,
      0.7474227389947007,
      -0.025859336247945612,
      -0.8588377129132467,
      0.4525215428355051,
      -0.8940651665377933,
      -0.9934911446010122,
      0.0675414646605295,
      -0.10554445403032904,
      0.8735551863002329,
      -0.10648234406899469,
      -0.9134394604368747,
      0.9303377856393669,
      -0.8628306525130071,
      -0.4883307511064066,
      0.8019687522748434,
      -1,
      0.04288863301419819,
      0.5365088797228944,
      -0.1147342876884683,
      0.5274504594141352,
      -0.9272760590651379,
      -0.8812005751046432,
      0.8898766630686299,
      0.2910456068295137,
      -0.14983041819310775,
      -0.011542363591596605,
      -0.9808018443670173,
      -0.15759307183316448,
      -0.8276555176614039,
      -0.7983897959536338,
      -0.2767392100327255,
      -0.7909512078672173,
      0.938772476405828,
      -0.8948375055240045,
      0.06800511641652146,
      -0.13874234496332707,
      0.6400827735362361
    ]
  },
  "layer_1": {
    "weights": [
      [
        -0.3809837841339504,
        -0.009027716915377506,
        -0.11775462420050874,
        0.405789149821252,
        -0.9705770611763,
        -0.28021034194065564,
        -0.82369751357643,
        0.17762619480128533,
        -0.8486235714042524,
        -0.28186951953882733,
        -0.0811874025055818,
        -0.2412451920835076,
        -0.4722506518859672,
        -0.6876571832078078,
        0.22369130120694977,
        -0.541312296985334
      ],
      [
        -0.5449892109280473,
        -0.7611384273267655,
        -0.8889354053957049,
        0.11677826962811276,
        0.47309151806280136,
        -0.652872034362058,
        -0.9135276786389338,
        0.4343351238990275,
        0.02998053448021325,
        0.20815206254024,
        0.27134955763183644,
        -0.3520369726957536,
        -0.8212374438505062,
        -0.7323335211861205,
        -0.3907066387723953,
        0.4127254111405216
      ],
      [
        -0.12930578029466916,
        -0.16847063256929062,
        0.2849353689167084,
        -0.3722076795094234,
        0.7686656928784669,
        -0.20761912384640033,
        0.49656954796379316,
        -0.5693045263332829,
        -0.4245995571728094,
        -0.2383080219571011,
        -0.9259682039632509,
        -0.4286339480841631,
        0.598379815992316,
        -0.3958420985943659,
        -0.6520836497394853,
        -0.33548078691206806
      ],
      [
        0.2667380016471933,
        0.4588558243405123,
        0.61630998035777,
        -0.5676326837359463,
        -0.29298646604137246,
        -0.7286635846581108,
        0.07141968551328165,
        0.14839369003721148,
        0.3581227726326333,
        0.08486424438098511,
        -0.5624067701076247,
        0.06543870398992943,
        -0.9021583205664656,
        -0.18769292765954407,
        0.0815874841041625,
        0.908235834610668
      ],
      [
        0.7699769477742613,
        0.5152911541080136,
        -0.7308948881425014,
        -1,
        -0.21149025277921285,
        0.1492472801493027,
        0.9110759100738011,
        -0.8316511560053993,
        1,
        -0.4812587651626125,
        0.604404243122489,
        -0.8206232967814522,
        -0.08452208184847111,
        0.15989378167874033,
        0.0841036788061622,
        0.9264784866040973
      ],
      [
        -0.10549804931301528,
        0.6300020419746714,
        0.7132761572989533,
        0.4672776827835304,
        0.8219504089798628,
        -0.6908168331674165,
        0.7470788769905358,
        0.3928217567304735,
        0.9728942451253355,
        0.8874629747133443,
        0.5338575761990446,
        0.3539964968084923,
        0.7904724338349266,
        0.2519995217793898,
        0.501924755366798,
        -0.35918094456242394
      ],
      [
        0.7312145037180794,
        -0.2798757397997485,
        0.3306844428685729,
        -0.2423612203752674,
        -0.026789353455585738,
        0.805332888954567,
        -0.910588402998569,
        -0.910695712393247,
        -0.4049720895458431,
        0.6488772243827184,
        -0.9381659520949766,
        0.5298220344211626,
        -0.1392042029865007,
        -0.939948389743164,
        -0.9309023012287778,
        0.05986166468209271
      ],
      [
        -0.32881197965172043,
        0.4523064056620342,
        0.5251012330972074,
        0.32638316338749923,
        0.16608534471168562,
        0.5069720703767525,
        -0.5322968156893841,
        -0.0961067276475614,
        -0.7112494596175403,
        0.1956021067441246,
        -0.3197934116132406,
        -0.9525312033560352,
        0.9130813286915961,
        0.27855709123797223,
        -0.9267766133389674,
        1
      ],
      [
        0.3683633504549267,
        0.7700468442554395,
        0.4954144342511071,
        -0.20280845617994744,
        0.07198375308767194,
        0.7540468082681354,
        -0.9822659215743683,
        0.5091373141167624,
        0.0371315079864992,
        -0.5483747587247756,
        0.009663099515570732,
        -0.7108792673696129,
        0.7765803613786986,
        -0.026176346309426553,
        0.12733229841025823,
        0.8887894854246626
      ],
      [
        -0.44805963694097395,
        0.9600335854917871,
        0.9600747246791609,
        -0.9533567096101574,
        -0.2349011823659998,
        0.5853335550505822,
        0.9625598897514411,
        -0.21484738779176435,
        -0.42886659177831166,
        -0.3821147297417431,
        -0.8546789587456862,
        0.884498063097212,
        0.33509837145834115,
        0.38557588516278135,
        -0.9164395295631655,
        0.9294823738881826
      ],
      [
        0.7738263903440064,
        -0.29251737378047743,
        0.16105291740168953,
        -0.4752981978516655,
        -0.05849724689834032,
        -0.42005552583451344,
        0.783768166600717,
        0.1608216384836724,
        0.7105468142116216,
        -0.596879602437461,
        -0.17079093533584377,
        -0.9056023191141004,
        0.615534893743223,
        -0.8312977154008758,
        0.39094998111041446,
        -0.06209936456591598
      ],
      [
        -0.8442632520986324,
        -0.8196600170953535,
        -0.5056890791354729,
        0.30861209901180575,
        0.9850504994392395,
        0.2712809892882879,
        0.22666746262239054,
        0.9575242161475678,
        0.9800515919580487,
        -0.6699138525707844,
        0.6071205120144755,
        0.666384842244879,
        -0.8353420270273562,
        -0.1284955925552262,
        0.6070401095743497,
        -0.1398429841635862
      ],
      [
        0.6657103279559008,
        -0.2850947307959751,
        0.8176273345312044,
        -0.16504354246976982,
        -0.28515224406523043,
        0.0005015902192847527,
        -0.07369884067149446,
        0.5088685157405067,
        0.41557145000993134,
        -0.5865607936123642,
        -0.3122426783594855,
        -0.6317403221132781,
        0.7888896896180494,
        0.1415499936593707,
        -0.0236320826140162,
        0.9352805094499521
      ],
      [
        0.25371890665541624,
        -0.3833970992793191,
        0.9287542524850387,
        0.6196112077397978,
        0.6077940163220371,
        0.44915449673682384,
        -0.49804788749306195,
        0.5748307414124062,
        0.567896040204502,
        0.6279801420717708,
        -0.6160314650495851,
        -0.9541873821925917,
        0.43377107268839904,
        0.6527586485468754,
        -0.7422962480197935,
        0.9095631129581521
      ],
      [
        0.4319245042129077,
        -0.15049773619432763,
        -0.6776040514122698,
        -0.5438987481002853,
        0.22556805544372405,
        0.7893333996662784,
        0.8007981591304579,
        0.02323568128396092,
        -0.07848207476926634,
        0.672619064984211,
        0.8631594717075106,
        0.14461232116501316,
        -0.0637552051553812,
        0.6696672413261396,
        0.8391780558126043,
        0.8718946154533761
      ],
      [
        0.8793021317595477,
        0.5304450067613645,
        -0.8705124975424489,
        -0.7977190948928903,
        -0.6884328982452441,
        -0.160134133262109,
        -0.3452709208313018,
        -0.8128227071098479,
        -0.8832891058641075,
        -0.7734599626598554,
        -0.4186501598010788,
        -0.40197354700289234,
        -0.6535346104197292,
        -0.19173014011893136,
        0.3092228910303425,
        -0.02995035285283119
      ],
      [
        0.20499336578664412,
        -0.09117610326689599,
        -0.7489560843219697,
        0.4698855529545125,
        -0.6666459930767263,
        0.3559528817058338,
        0.9858375662620151,
        -0.3417458893055769,
        -0.3809395238356639,
        0.36094250760967844,
        -0.21076755209602283,
        -0.8386638665183458,
        -0.5977387136400237,
        -0.268556393591826,
        0.3986772905350014,
        -0.535514658444857
      ],
      [
        -0.5450131007653042,
        0.2461724944387137,
        -0.7896661671080788,
        -0.7240406653571614,
        0.9629487991333008,
        -0.24875931816472507,
        0.44375797675710515,
        0.18811537109220702,
        -0.9191694338479691,
        -0.6595302065361704,
        -0.271471272195612,
        -0.056813216952893736,
        -0.4794975806575417,
        0.062411235594129075,
        -0.6862912161866898,
        0.6305620920415219
      ],
      [
        -1,
        0.3430400521500211,
        0.7276466897549276,
        0.9324141330244776,
        0.7057468277549149,
        0.028095897511935964,
        -0.714814947900086,
        -0.6603826220774431,
        -0.7806298892752879,
        0.1996299779632612,
        -0.4319774995632779,
        -0.6499747750613868,
        -0.8112382295020503,
        -0.32572515062951246,
        -0.4823691707888915,
        0.3703388801267367
      ],
      [
        0.5514119150013119,
        -0.5148171603859079,
        -0.6423485791556439,
        -0.43058038605660326,
        -0.019295156664198683,
        0.22069089339222425,
        -0.6077227037548072,
        0.5396067558303845,
        -0.220667355427428,
        -0.44650303188896384,
        -0.8207211299884805,
        0.2649556436887031,
        0.19489198915332281,
        -0.11796711280828158,
        -0.23400028862078817,
        -0.4749964735345034
      ],
      [
        -0.5444492407744247,
        0.3170506887209357,
        0.16354068031956617,
        0.15953622836400702,
        0.011975281308957867,
        -0.32169491642390247,
        0.4845307856466945,
        0.6294778973705445,
        0.1296271577495567,
        0.8728584514698681,
        0.15169138046202027,
        0.15564760698204605,
        0.23369737627251727,
        -0.004398486906893727,
        0.8730918769804247,
        0.3295394363038348
      ],
      [
        0.2278495525712696,
        -0.30646742544421895,
        -0.7175852355707371,
        0.11697249784178661,
        0.2558787640313379,
        0.38931045242178763,
        -0.3493014348701014,
        0.027620486681573825,
        -0.5035294796255636,
        -0.9617868148911813,
        -0.3965293894777935,
        -0.6987063385915421,
        -0.23105093803601937,
        0.6526378223626731,
        0.8954396082504295,
        -0.13516830089887855
      ],
      [
        0.39711297781953847,
        0.8029239106892262,
        0.8815815481081374,
        0.46232891923344754,
        0.7113385643442427,
        0.18361848170325387,
        -0.12762604863168991,
        0.8628420044030216,
        -0.5723370088390437,
        -0.7462637166094802,
        0.26500113492790117,
        0.28649857633680814,
        0.12128484879107825,
        0.12763638526551005,
        0.2689807945667178,
        0.3335441487433301
      ],
      [
        -0.08849566621422808,
        -0.6888885327564066,
        -0.841493894360762,
        -0.45363739877139153,
        -0.5537893467208228,
        -0.004753641942566122,
        -0.24642917841803694,
        -1,
        -0.5793561617156706,
        0.21554682273442652,
        -0.4255419961763817,
        -0.19107448352342715,
        -0.4096251248339278,
        0.94491028076314,
        0.9877138813037419,
        -0.7537660838520418
      ],
      [
        0.3453417096590691,
        0.5392144580374936,
        -0.5177168038346504,
        -0.7120543085979426,
        0.4771890028250542,
        -0.9277649479144704,
        0.6906522986793633,
        0.6978329332026911,
        -0.6968400528327197,
        0.6745973273683608,
        0.5796452070577411,
        0.005519884773282405,
        0.3529434884395819,
        0.3917485873629065,
        -0.48084285737299975,
        0.05548352407665344
      ],
      [
        -0.45642054486719824,
        0.14505091367024345,
        -0.29912276838815227,
        -0.38874782417242004,
        0.6960696360468873,
        0.47462352939691466,
        -0.5753686351076273,
        0.36055281564604996,
        0.11158509761861654,
        0.21846710286316912,
        0.703345808202001,
        -0.7959505804091164,
        0.07583642406481228,
        -0.9478184824748032,
        -0.10464866664763578,
        0.5650085217882004
      ],
      [
        0.9155028117463011,
        0.8533982626408542,
        -0.5523725273450031,
        0.1276375909753281,
        0.961884218402455,
        0.6355070206773819,
        0.21795595565614914,
        0.75255716324984,
        -0.25161176131775465,
        0.2392910688587788,
        -0.660042878995185,
        -0.20844747173469563,
        -0.8691753061309442,
        0.33278678728516675,
        -0.19267096654657742,
        -0.0019434534956993498
      ],
      [
        0.9208182497171692,
        0.2236176206090066,
        0.0985434294026332,
        0.6851202662182925,
        0.4339271047525107,
        0.49537437134925955,
        -0.6940811862737837,
        -0.22924681264371133,
        -0.8455735137494961,
        0.5959157394931234,
        0.7466693588510858,
        0.5205405102407923,
        0.859608097898207,
        -0.3230778129347596,
        -0.16187703548364696,
        0.20976308488701406
      ],
      [
        -0.6369824591434792,
        -0.8663767163860421,
        0.844365734056583,
        -0.5586965934377454,
        0.07414143770329384,
        0.601968929604705,
        0.23562195743421965,
        0.4500660798328717,
        0.8913269041288802,
        -0.1495841483811834,
        0.5604020866691312,
        0.7723634255027453,
        0.13743616669004521,
        -0.6839279985133107,
        -0.2851540094339987,
        -0.07692138777469394
      ],
      [
        0.3869500560570583,
        0.23492649043721456,
        -0.20750778041629903,
        -0.2869315432605027,
        0.7423977892654545,
        1,
        0.3877980011920487,
        0.36358900928794824,
        -0.27596105360442513,
        0.38933952685378836,
        0.47870242645294975,
        -0.1327971656522202,
        -0.08672464546279009,
        -0.5098095396277237,
        -0.26385202658801993,
        0.8292868247342002
      ],
      [
        0.06127533987527125,
        0.7007366035292671,
        -0.7912119564915701,
        -0.6103600442368528,
        -0.6678332699065709,
        0.14910574603361373,
        0.017884629994023366,
        -0.928648576282597,
        0.08445079356124534,
        0.6046110253935134,
        0.6080745350664749,
        -0.4508539305341348,
        0.37257486332982526,
        0.5353651808384753,
        -0.3644794750125858,
        -0.2714532571759794
      ],
      [
        -0.6214858370592539,
        1,
        -0.9680807096992728,
        0.4223648748456206,
        0.3882509645460965,
        0.32549992889924256,
        -0.5265554928407546,
        0.9408090571819558,
        -0.7610304521219974,
        0.6243272177322067,
        -0.9570399536265094,
        -0.21847394979552798,
        -0.29796096609299033,
        0.46513602393069337,
        -0.8711801444542457,
        0.11098834478468837
      ],
      [
        0.9031226862469672,
        0.6128100364303443,
        0.5645781511825575,
        -0.0004257823284810618,
        0.025808139903424038,
        -0.576488034359263,
        -0.43126270033019926,
        -0.22488090705404837,
        -0.40230464074624467,
        0.547078530089022,
        -0.7798207626854746,
        0.7963717665953983,
        0.20374708419727383,
        0.00689215519663646,
        -0.5834740563599741,
        -0.09617048791668431
      ],
      [
        0.5604047625936049,
        0.9193566718432541,
        0.867022980874251,
        -0.8296485382659701,
        -0.5270573131808197,
        0.29660807700717134,
        -0.9299737064709634,
        0.12806191558825214,
        -0.08632827790597035,
        -0.06516780532215187,
        0.2637848759801303,
        -0.04540398680081591,
        -0.807060244653415,
        -0.7286904910978503,
        -0.9681449005302476,
        -0.29080043582601406
      ],
      [
        -0.8210242252692603,
        0.13390855499328785,
        -0.31195746355050274,
        -0.7893605144675341,
        0.11169726940092517,
        -0.4005121226055413,
        -0.17216266055077248,
        -0.5691720934981359,
        -0.18264404246132393,
        -0.8239007826813052,
        0.48037272873373565,
        -0.8651254817945486,
        -0.7878634790657421,
        -0.6660280302494147,
        0.7416241371594485,
        -0.6505592104891147
      ],
      [
        -0.5536505426886053,
        0.05954930704498274,
        0.010012973439370416,
        -0.7207785089762974,
        0.6577592654405269,
        -0.5791314059830863,
        -0.944534945296916,
        -0.9705991616001984,
        0.6908609242142175,
        0.7984831013312693,
        0.7096865186412022,
        -0.4592390119014352,
        -0.8223895176677308,
        0.028331249244900353,
        0.03717235057605608,
        0.413657009666315
      ],
      [
        0.06776767598745408,
        -0.5918264102441704,
        -0.43749681611832086,
        -0.19796659892844667,
        0.8345050756099305,
        0.20617705447999005,
        -0.7417725042864093,
        -0.4127858716559231,
        -0.26326805233170547,
        -0.035084171348322514,
        -0.8614133400059215,
        -0.5012603541715149,
        -0.3608791779526031,
        0.5670765852230761,
        -0.048242739403621566,
        -0.7366399421453709
      ],
      [
        -0.7174608869181279,
        0.35272269472221446,
        0.5191213969843079,
        0.298198293404575,
        0.14986662959296637,
        0.8106945333850274,
        0.5544043090300399,
        0.933399881651827,
        -0.1980404387646448,
        0.42756600359245645,
        0.07247424735211729,
        0.09405048559482193,
        0.40295984488728454,
        0.9725641172698065,
        0.028757367994398934,
        0.5121936112595059
      ],
      [
        -0.42014828661228554,
        0.2740550401192174,
        -0.7200128486023285,
        0.16019130298888215,
        -0.2419007940872736,
        -0.8585236291417067,
        0.02759505877132495,
        -0.165668503208043,
        0.2915458264444478,
        0.813328606306184,
        0.3975153889217254,
        -0.2993261422022119,
        0.3688517802620427,
        0.050791552082425646,
        0.0852333733762653,
        -0.8191790109966454
      ],
      [
        -0.5623348397125436,
        -0.05387508383784898,
        0.8692811324773757,
        -0.6941179516673436,
        -0.4479228637393885,
        -0.08570402668944979,
        -0.016463641388264737,
        -0.8573560399929097,
        0.26990259772387254,
        0.5140278336032524,
        -0.43617839174167233,
        0.2431514870663739,
        -0.4804914619967113,
        -0.3423001895181936,
        0.5339354420402732,
        -0.5456579109062295
      ],
      [
        0.45780341305194217,
        0.4740403876073388,
        0.10728266428188907,
        0.2124662168160078,
        -0.5168321269128106,
        -0.06727394498027585,
        0.710325016817166,
        0.1842678736311332,
        -0.8110351500036637,
        -0.736236765947385,
        0.053408462087249704,
        -0.7868916178975597,
        0.5238942009674376,
        0.7383450011121343,
        0.6891746312275724,
        -0.29992018080592764
      ],
      [
        -1,
        0.09708981269800074,
        -0.6964691925512955,
        -0.5822277594475539,
        -0.7634381075577553,
        0.8979635628106012,
        0.9625266119712095,
        0.16801843057174187,
        -0.5935890090987447,
        0.6824299495785621,
        -0.8972740152647918,
        0.11001317385242818,
        0.0926086434237365,
        0.8916286489915646,
        -0.12410730803511677,
        -0.3278182806728611
      ],
      [
        0.39900738779733935,
        0.15714549965635444,
        0.14773570849865042,
        -0.06384207020598245,
        0.44204086858431413,
        0.6534364906702025,
        -0.11751903918094958,
        0.6389025568119364,
        0.7174425060134704,
        0.001668319961439357,
        0.9592772610489163,
        -0.7669838858032616,
        -0.4665807212110334,
        0.7969330198734753,
        -0.5113561649832553,
        0.9429671822123249
      ],
      [
        -0.35778286876867543,
        0.0789801738910579,
        -0.13057739350641934,
        -0.04888383873727515,
        -0.3574529417983432,
        -0.3494856911419956,
        -0.19754152555212345,
        0.846707593132958,
        0.029272628229892565,
        -0.4325373961559799,
        0.24465655058906544,
        0.05275605416026774,
        0.37196546715743845,
        0.16114675835388767,
        -0.8999110664692487,
        -0.6581120992829377
      ],
      [
        0.17436337342800842,
        0.10330323061131706,
        0.5666764033449428,
        0.6630769780643719,
        0.39862886128390673,
        -0.10361807649810675,
        0.09059005174087228,
        0.7041413905187809,
        -0.793435638925261,
        0.13125609231746024,
        0.14585720679978043,
        0.3205774895686612,
        0.931575999365331,
        0.4251463791623028,
        0.6639068054193406,
        0.7822764709077263
      ],
      [
        0.6014487081996809,
        -0.5746222061611688,
        0.6550732270030618,
        -0.9818837883785088,
        0.1708491285943823,
        0.031277512082787805,
        -0.5539052177159292,
        -0.46407079459767503,
        -0.4978649251098606,
        0.6670520379959964,
        -0.4144490758983264,
        -0.11366342659538745,
        0.7726204326492154,
        0.6865238669739571,
        -0.6367262078781631,
        -0.5356569496816957
      ],
      [
        -0.8248308858559222,
        -0.9301506297734283,
        -0.12294072338680913,
        -0.44066383250636865,
        0.3380912395901049,
        -0.5852057810633111,
        0.5886579143042913,
        -0.8994114280200771,
        -0.899295913864216,
        0.10486390524242874,
        0.21596938510393604,
        0.5472371178479175,
        -0.36169514906261657,
        -0.2859909819168264,
        -0.8245341313818526,
        -0.42191790706782883
      ],
      [
        -0.7168352831579196,
        0.6991340579760741,
        0.31578849655703517,
        -0.8432176791064705,
        -0.2267102462954439,
        -0.05174595059100896,
        0.9223721696203706,
        0.6709141411432605,
        -0.9540874636107737,
        0.8567692262840965,
        0.6967419094429622,
        0.02031660937979332,
        0.4894355145198835,
        -0.6626160177190308,
        1,
        0.340215440040849
      ],
      [
        0.8562274796100838,
        0.9795008667941173,
        1,
        -0.8992434023837416,
        0.04836410708867038,
        -0.6234142166949123,
        0.6580164329605669,
        -0.6874793653170725,
        -0.31691103129223913,
        0.9989700317382812,
        0.7390801310835347,
        0.3438056417304053,
        -0.5818422588215073,
        -0.3429036396428031,
        -0.9382426239660057,
        0.5646007601335152
      ],
      [
        0.5352483012590643,
        0.6470696378648845,
        -0.5000930008478937,
        -0.44500334978031386,
        0.7883245553945385,
        -0.730878013029506,
        -0.7638497931494624,
        -0.5826412637385788,
        -0.8818136056767848,
        -0.31446373792169613,
        0.9292223256977586,
        -0.7289854869756105,
        0.8542806584342225,
        -0.6866423692961725,
        -0.1301538674554756,
        -0.29993356550923844
      ],
      [
        0.3939485694051145,
        -0.2324198561087034,
        -0.856092106008661,
        -0.787809675733121,
        0.16453254031129097,
        0.7490758676352974,
        0.9420919576967731,
        0.8559682276102483,
        0.3799392543098774,
        -0.7939150953297881,
        -0.28279844358267214,
        -0.7978466318168049,
        0.8111490473327286,
        -0.6210254495567082,
        -0.4670807178225011,
        -0.28711856784826073
      ],
      [
        0.17611557970974356,
        1,
        0.6228178824280619,
        -0.6342742828627523,
        0.9451753737976801,
        0.15012279195043,
        0.6738093193450836,
        -0.10416325843945544,
        -0.6311713195685978,
        -0.04651497914166891,
        -0.9037766822529639,
        0.7411243719699097,
        -0.8609982394791812,
        -0.4447662528193353,
        0.43225307442619054,
        -1
      ],
      [
        0.3898536820663461,
        0.6784241390400667,
        0.49783328499368873,
        0.14449969252329628,
        0.3765736454410531,
        -0.31256239504548056,
        0.1989696695126917,
        0.5389743409559069,
        0.6239996343220005,
        0.2506804076175275,
        -0.05912329870429726,
        -0.4182742451364026,
        0.1597890116411189,
        -0.4773350231739824,
        0.299954106727537,
        -0.6374421684484975
      ],
      [
        -0.6216678085899915,
        -0.17494543090921555,
        0.6278221313615528,
        0.8934863343766414,
        -0.9318374059974133,
        -0.8932813052816139,
        -0.19431987259194913,
        -0.20154403385071376,
        -0.0976931523279117,
        0.12518566980610263,
        -0.961970320870634,
        0.5376767160751412,
        0.19061881221687926,
        0.009039415426788058,
        -0.8245305395901151,
        0.20492753358747476
      ],
      [
        -0.5794741923933159,
        0.6209246514616481,
        0.04817323214070442,
        -0.8580064669077156,
        0.9367956298114436,
        0.7949749644277714,
        -0.973980807028439,
        -0.9146588110169783,
        -0.8517742345928285,
        0.8046860391718098,
        0.729169867384106,
        -0.21823633949249088,
        0.3805472984394141,
        0.3152418079102895,
        -1,
        0.3306310385339995
      ],
      [
        0.6129496162406154,
        -0.14644556673648917,
        -0.34527295682041237,
        -0.43667948361149483,
        -0.9755293393540648,
        -0.8106818441716026,
        -0.20941238370361104,
        -0.2709733500765699,
        0.3001519321389171,
        0.028625966726470758,
        0.8871377273372807,
        0.24480254526670994,
        -0.258102949330309,
        -0.6261908506252062,
        -0.9777021297781173,
        -0.014100045061047613
      ],
      [
        0.7098991675213345,
        0.5454530755162427,
        -0.09390602145267934,
        0.345841737369955,
        0.044485088129480974,
        -0.024640353546223303,
        -0.32947477541945863,
        0.11322711020783911,
        -0.13191285721705448,
        -0.4546723716761087,
        -0.55404100680448,
        -0.2607222914091357,
        0.623743864893003,
        0.8967151158141049,
        0.6287523426484588,
        -0.07900611733927825
      ],
      [
        0.9786145519761782,
        0.7349439444789293,
        0.9850717626238524,
        -0.677971616253946,
        0.11732515960960406,
        0.3494318751522283,
        0.8395688029050404,
        0.011720807943894093,
        -0.27353578997214806,
        -0.39209383618408805,
        -0.8755809276376602,
        0.4769797011184478,
        0.23321844304954542,
        -0.8530984967614118,
        0.9934477491404561,
        -0.06840778603248897
      ],
      [
        -0.5844915506535472,
        0.4553223236185511,
        0.8609897735197494,
        -0.5805335512423341,
        1,
        0.4230923047498018,
        -0.5181117278596193,
        -0.47758215778488333,
        -0.1208415444446419,
        -0.4200271825491586,
        -0.9199406557619445,
        0.12249406917580803,
        -0.20107253239080866,
        -0.5547274537917787,
        -0.36044253468427717,
        0.9255203064577758
      ],
      [
        -0.38360053777944725,
        0.9952785599808109,
        -0.10891919827650823,
        0.7522659888258929,
        -0.5077179656802627,
        0.1408313593753182,
        0.08801858479735712,
        -0.0727261979088338,
        0.8446325780152361,
        -0.04881171464568232,
        0.3211343743734631,
        -0.3628441097648192,
        -0.34983997235966546,
        0.1272776421423332,
        -0.7882078615806226,
        0.7502835289229675
      ],
      [
        0.5135915340337149,
        0.749078821250665,
        0.8186053552322644,
        0.5014542836578744,
        -0.5744736957884929,
        -0.34450688537542035,
        0.20791971510491897,
        -0.8672175016521516,
        0.29830868516160225,
        -0.6371876352934239,
        -0.7762689942202694,
        -0.32608083424071554,
        -0.05467328891683531,
        0.9514986298346271,
        -0.8832023606168597,
        -0.6975474537894873
      ],
      [
        0.63167410115103,
        -0.6865418901170677,
        0.7225744784214794,
        -0.5511442733612997,
        0.02854075796470371,
        -0.2753119168874479,
        0.4619437424711303,
        -0.5599215508188603,
        0.390662297344216,
        -0.9812751805679684,
        0.7504542524560589,
        0.6130967635202587,
        -0.5060892698854199,
        -0.5429678251015627,
        -0.9501819218098928,
        -0.04841607321678224
      ],
      [
        -0.5985883708410086,
        -0.33686780200908556,
        0.7590259029611317,
        -0.6901511408835178,
        0.5853614280631997,
        0.8302094792455385,
        -0.6667176056794546,
        -0.4365113588092149,
        -0.8518226412654207,
        -0.3080431897099717,
        0.9352852910042951,
        0.8022481279457231,
        0.7483537234223004,
        0.35028779610617555,
        -0.12177256334755174,
        -0.09123091380396511
      ],
      [
        0.7638712379774292,
        0.5225540186172706,
        0.3165323621560768,
        0.2567879394023633,
        0.9113460365420236,
        0.6331966372029981,
        0.5273550203257381,
        -0.04239758010725097,
        0.18225460502601787,
        -0.9386351045015997,
        -0.8192718466756829,
        -0.17124649190511285,
        -0.6365746836381194,
        -0.5114220004296367,
        -0.344423966448815,
        -0.6503697324570276
      ]
    ],
    "biases": [
      -0.4859240344144287,
      -0.25028478048899444,
      -0.099880840428495,
      0.012155112239892265,
      -1,
      0.3641466281225956,
      -0.7978167995874302,
      0.5032317051371373,
      -0.4818424089723848,
      0.541042726288325,
      0.8703258613047138,
      -0.561726540185455,
      -0.4338024196482726,
      -0.28674344872397695,
      -0.2286732385251213,
      0.4015045556717031
    ]
  },
  "layer_2": {
    "weights": [
      [
        0.5326889919466475,
        -0.6795352010626535,
        -0.9548459648379576,
        -0.8010595958648737,
        0.22779346174741666,
        0.8932502344792127,
        -0.4651125203475217,
        0.48121327170421935
      ],
      [
        0.37346463467765467,
        0.5887136362240376,
        0.16682280784011289,
        -0.9080959784204655,
        0.2126360852962746,
        -0.5396832791215241,
        -0.2472785744144652,
        0.8122952256941118
      ],
      [
        0.40618438474071283,
        -0.16426060294676031,
        -0.9826730954601033,
        -0.29741074318989735,
        0.22405239903384452,
        0.3866881709693065,
        0.2820375108532812,
        -0.737534032517941
      ],
      [
        0.3099132750150691,
        0.9739853739738464,
        1,
        0.03600405508090699,
        -0.7136853106181819,
        0.7946651184141095,
        -0.3844122286385034,
        -0.6446633411025737
      ],
      [
        -0.26367768021157884,
        0.24432031204820706,
        -0.2784819151617455,
        -0.9990078210830688,
        0.5498456993827459,
        0.01980551393524142,
        0.2927854144587411,
        -0.13415301866844623
      ],
      [
        -0.1571405959413715,
        0.36194954404618207,
        -0.14484657610149348,
        -0.16672169810577805,
        0.48985755871926695,
        0.5438541683461392,
        0.14289983536540224,
        0.6376117770287846
      ],
      [
        -0.6517201788209881,
        -0.41493843953733767,
        0.8919427313302541,
        -0.19322572239661487,
        0.15807603214736052,
        0.22213550516059236,
        -0.2320069424763314,
        0.3119999855014838
      ],
      [
        0.4236740583037437,
        0.6639703214413863,
        0.9415176309164315,
        -0.2594337247126983,
        -0.6590362470008259,
        0.7084757401155923,
        -0.30873901360086975,
        -0.24478247925893484
      ],
      [
        0.11224356926246154,
        -0.2856333276779982,
        0.3353042271183653,
        -0.864568849363104,
        -0.14108591318058214,
        -0.37036990945839243,
        -0.1821962906199834,
        0.16064115439397528
      ],
      [
        -0.11140033557155139,
        0.35883728184752284,
        -0.10776261319957126,
        -0.7928822406568737,
        -0.016672727295953236,
        -0.6185376719343741,
        -0.0787125314898598,
        -0.658078146716701
      ],
      [
        -0.7933033370509733,
        0.1935233842102435,
        -0.571793335556105,
        0.9156600361415161,
        -0.483201770208512,
        0.42402305896588655,
        -0.14890900945052724,
        -0.8921487058772607
      ],
      [
        0.5542801690668102,
        -0.9466261356816258,
        -0.03291264327544376,
        0.02277398882646887,
        -0.6575189635755604,
        -1,
        0.3817966212067486,
        -0.03291732919169714
      ],
      [
        -0.511429657300152,
        0.21446021520797295,
        0.14010397358571502,
        0.7688301878941627,
        0.8674158031050919,
        -0.6939932062092544,
        -0.9197793336794317,
        0.6192389325956328
      ],
      [
        0.341856442176343,
        -0.756922586571079,
        0.5213163758598475,
        0.6282174150651453,
        -0.4994601610271192,
        0.5120009812185784,
        0.7996489386136759,
        -0.6740476809888541
      ],
      [
        -0.9759868958817665,
        0.3012220614036188,
        0.13011181813386702,
        0.2611129993856311,
        -0.5752421041911078,
        -0.8721988915486143,
        -0.5169133822261747,
        0.4676372342354088
      ],
      [
        0.09487050460335872,
        -0.8071645781985828,
        0.3442139061524477,
        0.8716352138565217,
        -0.7317623611015428,
        -0.5539895978503323,
        0.9290849963619049,
        -0.9211373336670405
      ]
    ],
    "biases": [
      0.5146281722530706,
      -0.4642749009255433,
      0.7812218150845497,
      0.2569219002276938,
      0.9439966282727978,
      -1,
      0.759310318274613,
      0.5111574350081969
    ]
  },
  "layer_3": {
    "weights": [
      [
        -0.5178017844865727,
        -0.746542428052707,
        0.6051368362445224,
        0.7944127020725851,
        0.7894558150762075
      ],
      [
        0.7146841358657992,
        0.5590987693241594,
        0.4684818464755998,
        -0.7226967444792406,
        0.3045481414141598
      ],
      [
        0.9419938301472719,
        -0.9170276838165294,
        -0.6402107986965264,
        -1,
        0.24139848197234884
      ],
      [
        -0.8571536179515429,
        -0.8888764530329337,
        0.7066178956525201,
        0.33127399194812013,
        -0.8280554923879077
      ],
      [
        -0.7892544970763797,
        0.5946648690074758,
        -0.08660934749772499,
        0.25628473382793976,
        -0.6669561820511942
      ],
      [
        -0.06304642446387643,
        -0.20315775239039774,
        0.9190587438475637,
        0.9769903069619033,
        0.6584937813699766
      ],
      [
        -0.4586675224090004,
        -0.0014557552925465477,
        0.5247635664447508,
        0.6427298807229794,
        0.16927131708068902
      ],
      [
        0.5740915774450492,
        0.7169530232903351,
        0.6367360570319113,
        -0.7987242371453094,
        0.41984783365527395
      ]
    ],
    "biases": [
      -0.3370010751192531,
      -0.92302617268292,
      0.43146670396151193,
      -0.2824061934222766,
      -0.46274990732822235
    ]
  }
}