{
  "layer_0": {
    "weights": [
      [
        -0.8336068510976572,
        -0.6504715204560882,
        0.09517745645396189,
        -0.6930880054423018,
        -0.8659868043689531,
        0.24433870549700026,
        0.6174987501735515,
        0.30262753246416435,
        0.6649360044778873,
        -0.6785247356618175,
        0.38257184262398475,
        -0.31822924877032244,
        0.14891886290514567,
        0.4614872475816678,
        -0.7104257152251962,
        -0.7811651341831687,
        0.3946686397772843,
        -0.6908401586750095,
        -0.8476182243899157,
        -0.5365042812424372,
        -0.7474969193841777,
        0.8372431406010727,
        0.4763029886631325,
        0.5611672546786981,
        -1,
        0.35422714456935106,
        0.04321309179089905,
        0.6981175754822603,
        0.757724979905432,
        -0.9020602123873075,
        -0.20736518878474652,
        0.6650610105197036,
        -0.9388640656368364,
        -0.41725120865973103,
        -0.3101877390748117,
        -0.696599525888698,
        -0.14124314538207058,
        0.1659634626064833,
        0.1790017311461943,
        0.5971137051833217,
        -0.022903600700545097,
        0.5321995142510254,
        0.4079109573079612,
        -0.7127864779293068,
        -0.6119442928075483,
        0.8805424220234016,
        0.6742744713383252,
        -0.061479617023926014,
        0.7643963070195436,
        0.6120130907392102,
        0.730094822102481,
        -0.36815797413618695,
        0.11970005498621282,
        0.02007500531545466,
        0.0009968808949603377,
        -0.8749869634003776,
        -0.1857118042933846,
        0.7573456678752092,
        0.7518528769880625,
        -0.8093671081298873,
        0.6425708007667905,
        0.7068893198523002,
        0.6880314949484968,
        0.711139658829819
      ],
      [
        -0.20684286945644417,
        0.7854846833614351,
        -0.7007447781235677,
        0.05106590564903953,
        -0.8032974321923997,
        -0.46929388009277917,
        0.32322720853694975,
        0.1386887543762622,
        -0.2385382089066375,
        0.6472695074201432,
        -0.34026279344520444,
        -0.5892817449252129,
        0.24959626504161994,
        0.3885371318204569,
        0.4419377467264375,
        0.052655187533354034,
        0.861099285518057,
        0.49133716460531957,
        0.948175604312792,
        0.40912987674623624,
        0.7622187269112024,
        0.6241947399830804,
        0.15289889608897497,
        -0.06376223615187487,
        -0.8662994995215647,
        0.5805357776915778,
        0.7908911313758785,
        -0.8431361765604077,
        0.7682064240050591,
        -0.5130271952745719,
        -0.057785749932412436,
        -0.4320803864860522,
        -0.23594373300730345,
        0.45477316116035754,
        -0.4145172589583319,
        0.6200477906789595,
        -0.8339110212396067,
        0.5313004942926113,
        0.49358148435763005,
        0.5950412491826013,
        -0.22773865987376063,
        -0.3702401916146198,
        0.9111708105904984,
        -0.17315968958413525,
        -0.46624219099967895,
        0.08605356661738801,
        -0.9265010223374,
        -0.37652399560223504,
        0.4005226802700776,
        -0.5073605182436218,
        -0.4496242358742825,
        -0.8885001796076142,
        -0.025249754680409516,
        -0.2944303395336545,
        0.9440591673743333,
        0.6728371836267767,
        -0.8728532090037382,
        0.4160825493329349,
        0.4085681880974216,
        -0.5386217858309085,
        0.09977573408869445,
        -0.3179841579177597,
        -0.9102364711669036,
        0.26845733292880763
      ],
      [
        0.1844984212277556,
        0.8857097862357343,
        0.6317087846160209,
        0.4042532741971849,
        0.299546538568292,
        -0.42251088002031534,
        -0.7433255781244706,
        0.20449135569422094,
        0.4047386239815577,
        0.736663462546507,
        -0.45300974970466434,
        0.12014513331764597,
        -0.22693870823495518,
        -0.5599797007290986,
        -0.04686249320481096,
        0.22899823464320973,
        0.9389934559755286,
        0.4602628446459125,
        -0.2293556569083406,
        -0.4100296286777013,
        0.15081449585048914,
        -0.26296726561936906,
        0.7936702439614938,
        -0.4471313158067668,
        -0.7620175952239387,
        1,
        0.17888573882707107,
        -0.7600100473028543,
        -0.11112351191931502,
        -0.1576557367541993,
        0.3766277532617299,
        0.403479668765501,
        -0.8375703454048457,
        -0.15676083161234383,
        0.8875186262655055,
        -0.965972067848207,
        0.37242118771618415,
        0.8953303051528138,
        -0.3568430580296075,
        0.6703537398716519,
        -0.9130290046763305,
        -0.26608540563842364,
        0.45803031697761115,
        -0.38777565173566547,
        -0.09993338806346877,
        -0.2619313835177652,
        0.7244827497454609,
        0.025935066530749933,
        0.6673012471728592,
        -0.9155035610297622,
        -0.8721792705166538,
        0.8734578321510205,
        0.590556795773007,
        0.930827145559821,
        0.15255679630317848,
        -0.2610081392229729,
        0.5424203333597898,
        0.43630907800219,
        0.8801892690887181,
        0.6110934863179486,
        0.1468892734811713,
        0.408638363064303,
        0.25658519950025815,
        0.5278429896244675
      ],
      [
        0.3875272756246827,
        -0.6009576824197991,
        0.9928952413892063,
        -0.4058618879589752,
        0.1735833372570536,
        0.8390481608321306,
        0.1480321425866474,
        0.3514163408324069,
        -0.9152909233126966,
        -0.05190987866142968,
        -0.23867682861951928,
        -0.8923231141749355,
        0.5693599823196787,
        0.7869005637668525,
        -0.2274175231410122,
        -0.7201243477790419,
        0.41355186703498037,
        -0.8725586105669342,
        -0.7617346766184847,
        0.06630728608717971,
        0.26722751005205386,
        -0.3589828882489335,
        0.29452517159287994,
        0.7079216252375153,
        0.8080223729246931,
        0.4991912023806339,
        -0.652936484187568,
        -0.382250625985716,
        0.5787987745172074,
        -0.09745482636191356,
        -0.4425967194207832,
        -0.13590387291384234,
        0.8293742433397389,
        0.002717383677303924,
        0.9477954796721948,
        0.9965796575434495,
        -0.38644508473542744,
        0.4517245192819182,
        -0.29493138538468355,
        0.08515793961434134,
        0.37816228940565927,
        0.27929145426001345,
        -0.0044251821136417685,
        -0.8469896150510835,
        -0.47330533611375536,
        -0.4376588325493918,
        -0.8147854760710258,
        -0.10402248574517817,
        -0.5848404192654048,
        0.37055438980182076,
        -0.9135162578103214,
        -1,
        -0.20612408531766904,
        -0.18029739002282413,
        0.6171138148893194,
        0.5329605390047903,
        -0.19824301224353733,
        0.07543948840105581,
        -0.566982363282663,
        -0.3151109783826847,
        -0.27572362102318904,
        -0.3619105564404235,
        -0.045480149759554285,
        -0.7756518063648223
      ],
      [
        -0.39703956874972685,
        0.3357954300431362,
        -0.2640683316218537,
        0.5653625330804872,
        0.3617034060215736,
        -0.14084652105153295,
        0.7962576815670879,
        -0.6163147874548135,
        0.8513115229551765,
        -0.016233772895634456,
        -0.8333273359037798,
        0.42423750163372265,
        0.32932230357420317,
        -0.8264132841918712,
        0.5547930540387829,
        0.006504080007944763,
        -0.1765669238126066,
        0.6924214848836646,
        -0.2665040445732034,
        0.5893850586218218,
        -0.043080412318739957,
        0.8659667655947697,
        0.6157558761208761,
        0.6999800632865155,
        -0.9782097339630127,
        -0.7031752731886209,
        -0.1840904951170845,
        0.3096627199869273,
        0.2681361965727289,
        -0.34938377443059465,
        -0.018579732790353715,
        0.7928107112307434,
        0.7785641463042506,
        -0.45959117078791717,
        -0.6334121179046672,
        0.2768258194111335,
        0.8536858680591419,
        -0.18652618971983112,
        -0.6071612880962676,
        0.5204135127779657,
        0.18867065994580626,
        0.3280249154607361,
        0.2768289631767352,
        0.9526445093915215,
        0.8102846867355411,
        0.13358193185138562,
        0.9599099970561079,
        0.6359487239325546,
        0.2650741422259236,
        -0.15721063651147815,
        0.07701112893321509,
        0.611866464375009,
        0.20556877504533322,
        -0.7810775090670774,
        0.8415605796201167,
        -0.5588083608439058,
        -0.2948570181980683,
        0.7891604531460514,
        -0.2246726449631943,
        -0.41105437014898283,
        -0.8405800752929766,
        -0.3647158092210426,
        -0.16162046455602352,
        -0.6137247657655188
      ],
      [
        0.7861905400083372,
        -0.8536904419509747,
        -0.3429548492513978,
        0.21382946415557075,
        0.13957386002773106,
        0.3738497456442512,
        0.17309416449591397,
        -0.11782588414835143,
        -0.8694327928113846,
        -0.315142503784339,
        -0.8976112709584937,
        0.7627022900985516,
        -0.39258966443832727,
        -0.20386752240465897,
        -0.700024922255311,
        -0.4327776538622169,
        -0.6217367686213602,
        -0.591321147118724,
        0.5376595822291631,
        0.7572951894301971,
        0.5213205929132724,
        0.8078000914209571,
        -0.09313781864796475,
        -0.6413897269997353,
        -0.9265929540504182,
        0.06339966811985723,
        0.32241761265519947,
        -0.17436388471794498,
        -0.3000024237544108,
        -0.8316528919909898,
        0.6102098123735126,
        -0.42203877370267623,
        -0.8626880663851707,
        0.4511550115909114,
        0.002584451161858026,
        0.6454470958396948,
        -0.8268096596083214,
        -0.6716216637296837,
        0.9022081898516754,
        -0.9770819817497683,
        0.5763719097383248,
        -0.5049308454021876,
        0.35238199489626276,
        -0.3607717701971344,
        -0.6541806379660319,
        0.6115420203544316,
        0.3620211738247949,
        0.31472778784075545,
        0.42773344479922576,
        0.550762165425953,
        -0.9010428157667583,
        0.41891286367515695,
        0.14631837625305436,
        -0.48003157254856677,
        0.07042868728006596,
        0.30207755802071956,
        -0.22700156942644353,
        -0.928352108021059,
        -0.5231317806348694,
        -0.4515876172588979,
        -0.9962121307853988,
        0.35246344975389177,
        -0.9396582338078378,
        0.7313931265190624
      ],
      [
        0.18364050163316184,
        0.6790302856429113,
        -0.20267086585718283,
        0.46066952624043916,
        -0.4311295092825979,
        -0.40334629874045835,
        0.6550923956261502,
        0.4527234054077939,
        -0.8553628610256421,
        0.601927103509505,
        0.09776897934422735,
        0.925361020415831,
        -0.7406932194597647,
        0.09648871441573098,
        -0.020407664194503485,
        -0.2547902831969259,
        -0.24527109359710283,
        0.019398628569045392,
        0.8662028557668447,
        -0.5185125227648018,
        -0.3915301405521113,
        0.7829865876740805,
        0.20039164182706645,
        0.35739340902224503,
        -0.2802275868213332,
        0.6743464513404417,
        0.03606697332600746,
        -0.09304084651668723,
        0.6976849458950418,
        0.5190318000110363,
        0.5804812612213895,
        -0.8308553984975263,
        0.5880741495568264,
        -0.3113892642965817,
        -0.22908341026895232,
        0.8987922347792578,
        0.1357078140199839,
        -0.13665361906419315,
        -0.8876405519172376,
        -0.4377046812577287,
        -0.21577733891917722,
        0.40862226451578065,
        0.24022221437885619,
        -0.721409377401742,
        -0.11164332009980181,
        -0.6492388662653864,
        -0.9734050044135678,
        0.6328964953500814,
        0.4243672169566395,
        0.9658427238464355,
        0.039676062888331524,
        0.818382843487614,
        0.4869152333338631,
        0.12440527922117357,
        0.003746432377760551,
        0.674742741306254,
        -0.0659720429348699,
        -0.5141767046120868,
        -0.614419087578113,
        -0.15427563764009103,
        -0.9690105821502067,
        0.1859160855990346,
        0.6293130446912079,
        0.6957852840144259
      ],
      [
        -0.6781110978229811,
        -0.3340521004377671,
        0.009554397989411925,
        -0.7103092530053917,
        -0.39310462509176824,
        -0.33037082203374607,
        -0.13172760599224836,
        0.28899519198160717,
        -0.5008302453196946,
        -0.7631906719379927,
        0.5383118051113497,
        -0.2196394756866779,
        -0.2656940218385101,
        0.5422500369980909,
        0.2778496019019991,
        0.7683575387848621,
        -0.26571924774618483,
        0.8614454278415443,
        -0.4054267538711957,
        0.45523136987938495,
        -0.26814958325296573,
        -0.8288874049508034,
        0.49576227212127066,
        -0.6648031269186122,
        0.06660800873729418,
        -0.7657793704653313,
        -0.31035680085646083,
        -0.7296163851130691,
        -0.9568907356815952,
        -0.08234287076667715,
        -0.8168713995902884,
        -0.9422534180385537,
        0.23290342463367184,
        -0.24122612953946104,
        -0.2271422147697494,
        -0.40748766795287844,
        0.19609659318506809,
        0.05199415035008616,
        -0.018115124987832572,
        0.3255412671790942,
        -0.4328933951331026,
        -0.6492143545114434,
        0.3873168804040709,
        0.8067433608114961,
        -0.8747048120925056,
        0.900405040066258,
        -0.9592992101381856,
        -0.4368012120402679,
        0.4804953101073689,
        0.5114377475574786,
        -0.9992352172750975,
        0.1667938757874287,
        -0.7226577239976529,
        -0.7539341764452061,
        -0.04869855397707518,
        0.9049508226237075,
        0.8900676996264986,
        0.3070086565384746,
        -0.0772766749044152,
        -0.6823467923885387,
        0.9318860822322028,
        -0.5465887571169472,
        0.33028086282107116,
        0.4047343777064935
      ],
      [
        -0.6953535363964137,
        -0.6894916402707949,
        0.19216282528092843,
        0.04771470797986907,
        0.1587559315738805,
        -0.32072234325738225,
        0.00874246536479427,
        0.39328149418826147,
        -0.21435338989631036,
        -0.6656284137754311,
        -0.3660203083478237,
        0.20379629589884304,
        0.7356928843684011,
        -0.11582513738136073,
        -0.8714405078842772,
        -0.7765525597643618,
        0.8529870675980806,
        -0.150929159228603,
        -0.6504662915790359,
        -0.7676153503165105,
        0.6448386639375336,
        0.25881092126183114,
        -0.35352516564758635,
        0.27925758234749326,
        -0.37449802444820274,
        -0.017062255758170962,
        -0.06849179283873813,
        -0.40782899441974313,
        -0.2892983802049259,
        0.6776304988900991,
        0.2836037129060032,
        0.8307126319971498,
        0.500177684898685,
        -0.786861290659021,
        0.9292415109426079,
        -0.7689894777594624,
        -0.4154969544909093,
        0.6408142113597134,
        -1,
        -0.4816810344446163,
        0.9014102414498132,
        0.6551550464618036,
        0.3231298232643993,
        0.7618176492828826,
        -0.1713041928625139,
        0.1926551526500959,
        0.8455008825293551,
        0.6107098989199541,
        -0.5779750667827549,
        0.08487120571955876,
        -0.8048908627522064,
        0.3052764626366331,
        0.8487293251519751,
        0.3314088977349959,
        0.8037860759099519,
        0.08346629310482122,
        -0.6956563147933129,
        0.7093840835013688,
        0.07285759532759131,
        -0.3305579988602718,
        0.2876623882328997,
        -0.8457253236895566,
        0.31203619440748065,
        -0.019982314532776033
      ],
      [
        -0.912686547677232,
        -0.528352376048596,
        0.9563198089599609,
        0.30245226249427537,
        0.05409993305852088,
        0.801029664544549,
        -0.9708244481391014,
        0.9723182801859283,
        0.12219483284550627,
        -0.697472890620483,
        -0.47094157751655774,
        0.6796390563351584,
        -0.39591969379201347,
        -0.16568216472582797,
        -0.36648551918789146,
        -0.6764607195383014,
        -0.30890787545133364,
        0.5997899216430616,
        0.04259358598044858,
        -0.18700634405308536,
        0.20609814881885222,
        -0.18762941251808432,
        0.9107949525020332,
        -0.05695271338752029,
        -0.7337251289832735,
        0.07110204048873979,
        -0.4047174661050309,
        -0.27182087063727267,
        -0.7639702892331602,
        -0.39238655143599616,
        0.8182220983783451,
        -0.40794112187918324,
        0.6608839476561976,
        0.11818236879686882,
        0.22038617839054941,
        0.08856220987005127,
        -0.6059444324054042,
        0.19374409814872848,
        0.4209975254415687,
        -0.6019891851020656,
        -0.39318701126560335,
        -0.37678373143764615,
        -0.9566396898098262,
        -0.29128994254829654,
        -0.5639386887723771,
        -0.051296691627843734,
        -0.18494504580072196,
        -0.2988462685262275,
        0.680507193915386,
        0.14031460073772986,
        -0.1541008363075655,
        -0.30530018548254517,
        0.30062659927187096,
        -0.13992448458376405,
        0.5907114298791947,
        1,
        0.14041794189469273,
        0.15128800414444982,
        0.6781675575081889,
        -0.8611728592758379,
        0.2562585328419797,
        0.6947752897056194,
        0.7225802737674061,
        -0.33088622514581706
      ],
      [
        0.14109120793436075,
        -0.33476111933742003,
        0.4089752082734856,
        0.3487554842008534,
        0.12676817013409133,
        -0.2678632375691959,
        -0.494788998774159,
        -0.02074080755658837,
        -0.326157364984197,
        0.839506966160511,
        0.7741396667470153,
        0.0663800264960757,
        0.8628579757819878,
        0.7974991261821268,
        -0.4554477632572999,
        0.8734394185955487,
        0.14990897641479628,
        0.9080861244653037,
        -0.6862183387814744,
        0.3662604289225315,
        -0.5314238044079556,
        -0.013794954164770832,
        0.7154257132689618,
        0.8691383002668575,
        -0.048448739282673355,
        0.11119542710687091,
        -0.206109135215162,
        0.1950732221444849,
        0.8257108744183154,
        0.03894142336203387,
        -0.3377910813278332,
        0.4131649345012267,
        0.30235477955945134,
        0.1190150870665743,
        -0.7555057876957704,
        0.4323551058334501,
        -0.5359652842258973,
        0.19450316006270052,
        0.5893128232118133,
        -0.9011540644446328,
        0.8071170086007952,
        0.11900149932671222,
        0.07367760847797122,
        0.35529901410900144,
        -0.33928426113910637,
        0.4591253348316083,
        -0.7912643413322024,
        -0.015042120762982397,
        -0.2202184172021496,
        -0.8807412215954488,
        -0.21202098973465677,
        0.3544627071519649,
        -0.17480282367189995,
        -0.767011967397112,
        -0.13439490041809724,
        0.24777059991231914,
        -0.9151787259426996,
        0.7572737099024056,
        0.45229767910903235,
        0.16832902800472835,
        -0.7714614754216799,
        -0.2602407872797392,
        -0.15532631831821547,
        -0.35874359803655037
      ]
    ],
    "biases": [
      -0.767619465702816,
      -0.2926213440999493,
      0.8052430842373965,
      -0.8969244454649824,
      -0.9737832546234131,
      -1,
      0.47394663227979467,
      -0.32882324977974875,
      0.8032107814874014,
      -0.674812517507506,
      0.940431883699675,
      0.7142349590430471,
      -0.7760310090329354,
      -0.3057766472988236,
      -0.1273595791719386,
      0.4614020279072393,
      0.1600541524439075,
      -0.03997418107728875,
      0.7656051585528552,
      0.567267358870546,
      -0.9498676868276285,
      0.23695885674228634,
      0.005762827474510064,
      0.7284230233332081,
      0.30783476139520605,
      -0.38259219905471503,
      0.0446769033207848,
      0.3510746488914929,
      0.0832559152662654,
      0.05139462352078681,
      -0.7798862466786991,
      -0.30149087604547725,
      0.847552785982587,
      -0.13083884340470697,
      -0.11718237538981888,
      1,
      -0.5581071823710859,
      -0.28319922734775804,
      -0.006568381590232529,
      -0.3882191531554557,
      0.4058444123864035,
      0.6908172107261654,
      0.5702744838949441,
      -0.4896687758105321,
      -0.06792887661512197,
      0.3911289801358424,
      -0.46292175759376825,
      0.475017110240605,
      0.8983795015733332,
      -0.2777975518430726,
      0.12833173856717559,
      0.2781018158138462,
      0.72942468802598,
      -0.7162040657719939,
      0.9060584242801771,
      0.046205058693207,
      0.538730765257147,
      0.32029357708929945,
      -0.7735288339247917,
      0.04463677972914738,
      -0.5108216480072181,
      0.1811932470201618,
      -0.501918302659759,
      -0.04801237532276059
    ]
  },
  "layer_1": {
    "weights": [
      [
        0.8299336681648981,
        -0.2836618253563849,
        -0.24680112168351565,
        -0.5121616829358903,
        0.23158725694968615,
        -0.5446894605031135,
        -0.865705404065167,
        -0.6995417919884969,
        -0.2907575747506292,
        0.40195393615598285,
        0.7175022569914655,
        -0.22001408795075775,
        0.29141885106501514,
        -0.44478354005657134,
        0.03739044687007407,
        0.5992816751069602
      ],
      [
        0.9936807734915278,
        -0.805563145448151,
        -0.00533265633586405,
        0.11101419428941715,
        0.6067245355284067,
        -0.533050191632753,
        0.6159845363983562,
        0.21181291875602554,
        -0.22210710807519018,
        -0.7869127724546638,
        -0.6278746151027166,
        -0.8520212625406736,
        -0.9439341293925398,
        -0.04421645326780802,
        0.6408034574770415,
        -0.3347777403361536
      ],
      [
        -0.7459396252693551,
        0.7684093250562971,
        0.40134478586409494,
        -0.03473634999817493,
        0.23584697846175787,
        -0.6760252610325413,
        0.06651882175514427,
        -1,
        0.013870434274795292,
        -0.6173628003592505,
        -0.44294514206155716,
        0.8259672106180674,
        0.026684194355177278,
        0.9009096274236955,
        0.4985023687822205,
        -0.7899161415298869
      ],
      [
        -0.11848815441909255,
        0.48054650517570924,
        -0.06060129547814609,
        0.796033497510065,
        -0.8519041498887286,
        -0.1014360253205073,
        -0.9720110619311455,
        0.8358733255075463,
        0.28078854188167574,
        0.022014337572860112,
        -0.6348784136366828,
        -0.8046154298214374,
        0.4409738483254202,
        0.6692513537582925,
        0.3562121422305445,
        -0.7271736784444933
      ],
      [
        0.8234290800594382,
        0.6812491937850356,
        0.8498009606884996,
        -0.7735349179855114,
        -0.006436131517111068,
        -0.249691813535022,
        -0.8556318514145146,
        -0.8031043066604483,
        -0.9132108972877786,
        -0.3271420463099014,
        -0.5031022800607539,
        -0.5890954543114606,
        0.4678744028661578,
        0.06291069384340664,
        -0.0690093059101501,
        -0.5804506588214272
      ],
      [
        -0.9399505334071206,
        0.916876625579184,
        0.3326461102732859,
        0.0869940174619968,
        0.4689026849186643,
        -0.07512212717192927,
        0.6222370348270374,
        0.0053837570823469984,
        -0.13121332085036091,
        0.7105990004740187,
        0.5693736808904771,
        -0.544417867096929,
        0.20219952941979685,
        -0.05867062325005748,
        -1,
        -0.5904931015589588
      ],
      [
        -0.5737476609996343,
        -0.2813593745444274,
        -0.42039756311248583,
        0.37120213470312446,
        -0.7403476437334724,
        -0.6344324110495249,
        0.23265259398496888,
        0.5732975058675704,
        -0.7294704987830738,
        1,
        -0.6997895396099828,
        0.6206558478079995,
        0.8498412281399935,
        -0.9349511708096341,
        0.5721530712780197,
        -0.5673708470188863
      ],
      [
        -0.6383598804203762,
        0.5582264469875298,
        -0.8700939266747294,
        -0.6930900765691658,
        0.025026821974023682,
        0.026110347201283277,
        0.22386055000753666,
        -0.9522156715393066,
        0.13394859105075813,
        -0.23240068078397166,
        0.35785546467070445,
        0.9470665292040614,
        -0.5493891086593382,
        -0.7645275098949826,
        -0.7190100823636681,
        0.06339095666625615
      ],
      [
        0.07257264734678805,
        -0.0911592143509344,
        0.2695190914042562,
        -0.4156399423534726,
        -0.08755914165602167,
        -0.6296030572143745,
        0.1783150945942961,
        0.7134858547788548,
        -0.1051238008506041,
        0.8322377577137388,
        -0.914920236221895,
        -0.3742443262287832,
        -0.9396803170864158,
        -0.2301258561255665,
        -0.0009723519954920566,
        -0.651261771252882
      ],
      [
        -0.28040033683711657,
        0.2607592398431047,
        -0.9559468479493445,
        -0.28442210603841467,
        -0.6854185953101831,
        -0.9133492411256773,
        0.6427739404186681,
        0.30015740671427227,
        -0.6973885326424626,
        -0.5347516278145813,
        0.3876034185802859,
        -0.6852058004756583,
        -0.4698240448381359,
        0.6029549308318214,
        0.18897240290710002,
        -0.47502103749258806
      ],
      [
        0.6233341578422504,
        -1,
        -0.29536773944809375,
        -0.8999881098018654,
        -0.7845853628501592,
        0.8697149467751171,
        0.203121037084238,
        1,
        0.8112772272426204,
        -0.22091156598451556,
        -0.6154864974638051,
        0.36463680534376647,
        0.7144259467848243,
        0.8742066135399807,
        0.614407524690925,
        -0.8765170954775237
      ],
      [
        -0.3993858077573594,
        -0.6168577770852216,
        0.5335722702427668,
        -0.34271942758491203,
        -0.17578231369477437,
        0.6078688663655887,
        -0.5053159199138061,
        -0.22981871817927535,
        0.8423140484591918,
        -0.5902309069310205,
        0.9173744345510041,
        -0.010223752172889403,
        0.589340232494463,
        -0.498921486651994,
        0.7501085380001942,
        -0.017577991163548887
      ],
      [
        0.5796927295230263,
        -0.822270827551213,
        0.2958904987985176,
        0.6963038380130437,
        -0.5333273614624402,
        -0.29249231211191645,
        -0.7122630395652564,
        -0.41189191439070605,
        -0.5624531134689543,
        0.29183385406964524,
        0.013436655292714374,
        -0.6905524033236495,
        0.1377808066084795,
        -0.3407889280685068,
        -0.0267700912566948,
        0.9599800561361285
      ],
      [
        -0.491314801243535,
        -0.8547303623767362,
        0.6162679250397176,
        -0.36252771738195977,
        0.6726557975199939,
        -0.3316548734268133,
        -0.6664574416954878,
        -0.8374341786547067,
        0.27816394445903003,
        0.18524348526785112,
        0.08348286655733876,
        -0.8277766833902219,
        -0.39202675338871545,
        0.04328227883056226,
        -0.8385309992207904,
        -0.17121176680089734
      ],
      [
        -0.6794779375140642,
        0.9151468480644562,
        0.7439950233556082,
        0.4795618496918545,
        0.862186773771626,
        0.2690466839584419,
        0.012452167214539449,
        0.140844759970667,
        -0.528549623467276,
        0.08398490675596487,
        0.030950489022576598,
        -0.4003485180246388,
        0.6402480985568911,
        -0.4992903838021922,
        0.18254433817198298,
        0.8660774905619298
      ],
      [
        -0.8148449532755874,
        -0.40843432184900397,
        0.6373627176704032,
        0.5134943016184254,
        -0.7680429194485326,
        -1,
        0.6075557900743639,
        -0.40126839741836856,
        0.7307313914966372,
        0.28199901102425573,
        -0.9197957089932567,
        -0.18611765928042404,
        0.13036323466056693,
        0.9829814761992997,
        -0.9139667146785793,
        -0.6922184429520206
      ],
      [
        -0.687852400732116,
        -0.5482793770871385,
        0.35769021924843736,
        0.5346743590377844,
        -0.9435072417229771,
        0.1747100764869854,
        0.1389691155761119,
        0.027379461809425642,
        0.13595479870260072,
        -0.5627318966394677,
        0.7799930229426514,
        -0.8204417839773934,
        -0.25050109540058996,
        0.8625825662633151,
        -0.15908573027290807,
        0.708978778993351
      ],
      [
        0.3035300681295996,
        -0.7010515882304725,
        -0.23805764112832978,
        -0.28638663892953486,
        -0.49608898485583325,
        0.8921730680880714,
        0.12627936265701933,
        -0.3254727443965822,
        -0.2381560079221247,
        -0.05271346891194698,
        0.7948567417030792,
        0.04037817237791322,
        -0.7496227472027416,
        -0.33152150037250644,
        0.05162937168591213,
        0.42698482207716437
      ],
      [
        -0.40916932581791465,
        -0.2035587910087229,
        -0.2396659178109656,
        -0.3381129787183803,
        -0.12096047149698533,
        0.7505000763254827,
        -0.4639970793441704,
        -0.7576225944479581,
        -0.8920810912199945,
        -0.5471608899666116,
        0.6525654494543852,
        0.350054737774429,
        0.6141610291653993,
        0.8830535404749948,
        0.24768161149212548,
        -0.43684700692444656
      ],
      [
        -0.14291703369842856,
        -0.43431879754109426,
        0.02380174235208044,
        -0.35703764099877744,
        -0.1237296719735455,
        0.9892243924462036,
        -0.7072064445184004,
        0.7153590724377944,
        -0.37212721784503305,
        0.8193884799846904,
        0.9620699679898982,
        -0.6000195119819172,
        0.8103640928318724,
        -0.7975854394954074,
        0.016497036567961296,
        0.7774908806969604
      ],
      [
        -0.8944572831017332,
        -0.566638135791663,
        0.7363558685752024,
        0.6048092246202017,
        0.5731979250151861,
        -0.8777392366911065,
        -0.9456841994647278,
        -0.23217653481480466,
        -0.01478210073338936,
        0.18204343660496064,
        -1,
        -0.7822846654080535,
        0.6785608049251556,
        0.5989938550542191,
        0.8685885618000144,
        0.23646406769401368
      ],
      [
        0.7320285697532951,
        -0.5622037658907869,
        0.5332811590571633,
        0.3237788715047713,
        0.2978190366843052,
        0.7858959890717552,
        0.5676692912526868,
        -0.009792332099247363,
        -0.88372630850469,
        -0.6872275091240055,
        -0.7455628746133807,
        0.2857032741640647,
        0.8137821079488533,
        0.8854319370978688,
        -0.2917827858481032,
        0.24404741869972071
      ],
      [
        -0.4655924444942988,
        -0.24294928702404528,
        0.4964665427055109,
        -0.2520283874009971,
        -0.7651821940157193,
        -0.07717474003393385,
        0.9125510743265812,
        -0.7700001782933552,
        -0.05787720534326006,
        0.24067716470539915,
        -0.6885197830865302,
        0.9080414057393063,
        -0.3191533826674138,
        -0.5872960205212566,
        0.13851643663813348,
        0.5867862654449181
      ],
      [
        0.7987576285645209,
        0.6130025613677126,
        -0.4368526020886655,
        -0.6324230568753659,
        -0.5209045516800859,
        -0.22166505295058875,
        -0.05203280328675652,
        0.09452520661217817,
        -0.9553521675537666,
        -0.5999090845299755,
        -0.7454751605945639,
        0.46475852990332933,
        -0.1922982346678562,
        -0.9255480793984346,
        -0.877816501932941,
        -0.3658863077018874
      ],
      [
        -0.8868468529842419,
        -0.22621767776422283,
        0.8967663468716159,
        0.034523191014042304,
        0.9261266239101122,
        -0.17680817985737707,
        -0.8867047092023549,
        -0.4170320999571111,
        0.34474737639076863,
        -0.4002313536058812,
        0.875845316833696,
        0.6940674968807641,
        -0.7584955490437411,
        -0.36164876427030884,
        0.38294589115096717,
        -0.6538461315986112
      ],
      [
        -0.29967113801914325,
        0.37281321988140104,
        -0.6272218467159861,
        0.8994978038756242,
        0.8032357339606094,
        0.5339048000650761,
        0.339526423967572,
        0.00571534282986734,
        0.09896889554493482,
        0.15708690331014283,
        -0.14264898518126734,
        -0.2956720131607067,
        1,
        0.17344958777964758,
        -0.45939568004901,
        -0.32860026008080634
      ],
      [
        0.4525119282366697,
        0.5197868754517114,
        -0.5221460618727101,
        -0.17245391402070737,
        0.7920949027837668,
        -0.8717628008234284,
        -0.614383806718808,
        -0.3810413127191331,
        0.43698135734190746,
        -0.9487594544015039,
        0.010256397862745757,
        0.4265178402762162,
        0.6661004321472311,
        0.9391207578827677,
        -0.8526012693014481,
        0.3031769501079091
      ],
      [
        0.9044950622772314,
        0.8331982979747585,
        0.10044870734522218,
        0.31680522093512525,
        -0.286602893836128,
        0.45044011019540314,
        0.5985284883756904,
        -0.5798749867738455,
        -0.17718082067689478,
        -0.061133452251860315,
        -0.2512955045947142,
        -0.7577988511157597,
        -0.3541263158901037,
        0.3154983498960427,
        0.4271980172266257,
        -0.8143302623665485
      ],
      [
        -0.6631665089173205,
        0.6623045096754075,
        0.18239998462243479,
        0.43075576878024224,
        -0.12900809804114624,
        -0.2953821868841516,
        0.39827957628281363,
        0.6291745207541012,
        -0.4567625720357401,
        -0.3009375334682958,
        0.5562357182711983,
        0.9469839833175389,
        0.03708749934626751,
        0.5717267272137055,
        -0.09378068320322124,
        -0.3538763870336987
      ],
      [
        0.7604118166185433,
        0.9997117970743584,
        0.6026849570990958,
        0.6970481762916468,
        0.8795836534672773,
        -0.7034706763246302,
        0.14616954734077273,
        0.2224143982953425,
        0.31680634205368075,
        -0.006126293154550551,
        0.11018010203239756,
        0.6532164656291599,
        0.6717550468714827,
        0.707205739326881,
        -0.2615050821054678,
        0.4469447730770884
      ],
      [
        0.3884367361854908,
        0.5995487338181814,
        0.27118276380607764,
        0.775551793271837,
        -0.35367787075741985,
        -0.2900503238767554,
        0.1329903842964701,
        0.3831078134696122,
        -0.020417603607074827,
        -0.8896043884632362,
        -0.7444229681932066,
        -0.571540200276768,
        -0.8161732591332336,
        0.172563041528702,
        0.8362455044398591,
        0.3758861795112431
      ],
      [
        0.09003539727713276,
        -0.15864579588050506,
        0.47921103590509784,
        0.7194877468779273,
        0.7835992459619902,
        -0.0031877829124305605,
        0.3965697046988533,
        0.9469492729103612,
        -0.8180260106413763,
        0.613826314256828,
        0.04756162331736904,
        0.9158188394801666,
        0.10932126832288752,
        -0.1407200840516343,
        0.6041979412598031,
        0.4071472408459975
      ],
      [
        -0.3281549189703075,
        0.031090105230686577,
        -0.9714694619178772,
        -0.3052046212550185,
        0.619384267894243,
        -0.22535636380170018,
        0.5302781064779049,
        0.8856198584032046,
        0.7009518346150969,
        0.04624083182044782,
        0.2760765347033045,
        -0.9588798593430334,
        0.21061923406641128,
        -0.855910610343859,
        0.629524331007817,
        -0.39987987344777126
      ],
      [
        -0.7660246077743925,
        -0.09173718526672832,
        0.8158182147175248,
        -0.014118969719813438,
        -0.3973477298526528,
        -0.30389906757639196,
        -0.6789867558307358,
        -0.9066482434506855,
        -0.2690459107759926,
        -0.5319312460981149,
        0.3992129959040495,
        0.7387957890115879,
        -0.2662099230598455,
        -0.9602233258672999,
        -0.6456548777628873,
        -0.30822807878183145
      ],
      [
        -0.9309038727091509,
        -0.2096444384705597,
        0.4909759100811592,
        0.5309099892323454,
        -0.4759756299815769,
        0.2545296767553154,
        0.12270998391271341,
        0.2967026369196854,
        0.4281421898097622,
        0.6459500466644851,
        0.04206113932949729,
        0.3265088010790451,
        -0.9705171287178945,
        0.6920213163804417,
        0.4418715964119493,
        -0.3757131752386948
      ],
      [
        -0.9026120458062911,
        0.6753021917928428,
        0.5699533328974696,
        0.6045779493393906,
        0.15551788806121813,
        -0.8340056597948885,
        -1,
        -0.09158379771493858,
        -0.6450311744392652,
        0.08517519776095336,
        -0.7301735223229234,
        0.15388920204395268,
        -0.8633344902050782,
        0.9547282457351685,
        -0.5397645873566501,
        -0.3374180042711308
      ],
      [
        -0.1493226339144229,
        0.21863054430033632,
        0.4272884499969065,
        0.5343276748409829,
        0.2764231522305559,
        -0.6323092501421393,
        -0.21893882404388285,
        -0.16145538531592504,
        -0.5683361032311709,
        -0.9441531120110174,
        0.42742753386028914,
        -0.735296392187301,
        -0.26299361404614924,
        0.3524996389382679,
        -0.8851121153998218,
        0.06679509374753267
      ],
      [
        -0.44277015060856856,
        0.7376152494900783,
        0.4688750273399513,
        -0.391750576944033,
        0.9191293045573549,
        0.21872850295586904,
        -0.3061258728546,
        0.4920708274067175,
        -0.783634636616977,
        0.09377456029510192,
        0.03405796236495133,
        0.8569863662189252,
        -0.6773244551268911,
        -1,
        -0.47170143380071755,
        0.9885962009429932
      ],
      [
        -0.16527655621635487,
        0.19616954167249023,
        0.7982741809698417,
        0.4104080769238674,
        -0.5119365235051518,
        0.21698909279114897,
        0.08408624779673202,
        0.8553753063029925,
        -0.32055825816392436,
        0.9061835069872268,
        -0.6263343483059811,
        0.20203398738719566,
        -0.06092051616758219,
        0.24727726113698287,
        0.05610029070587335,
        0.5239762416033301
      ],
      [
        -0.45391908141530957,
        -0.9734324991818925,
        0.23601938452160862,
        0.63014697717967,
        -0.9264527984773843,
        -0.5623335058431188,
        -0.9497527555857346,
        -0.9592940567957674,
        -0.3047884155906835,
        0.05353761700636351,
        0.7937186818698828,
        -0.5743982699159578,
        -0.23806902992353104,
        -0.7381918126722251,
        0.888194210222172,
        -0.25542688813602554
      ],
      [
        0.8075731683557634,
        -0.017130104757333165,
        0.9132732959459238,
        -0.9072740177897305,
        -0.3819873167769413,
        -0.07175758056303914,
        -0.7332646959611219,
        0.8013515784195608,
        -0.17876081628032123,
        -0.9134653567575858,
        0.7278469100128867,
        0.07528737227249943,
        0.925024280816252,
        0.3748956806153317,
        0.0910881085313002,
        -1
      ],
      [
        0.2986916541805065,
        0.5542582634948928,
        0.5921655550855838,
        -0.28165053069696494,
        -0.619733758979752,
        -0.5372837412386717,
        -0.31200999301652615,
        -0.47786308239325703,
        -0.977472551425852,
        0.6952216507068626,
        -0.8012879393752249,
        -0.8901029887464738,
        0.8315917882334873,
        0.7937998789535043,
        0.1647721386856054,
        -0.5049781975911548
      ],
      [
        0.5206625789129627,
        -0.7352064706412046,
        0.2703863082135456,
        0.18068632299275242,
        0.30566668856807244,
        0.7451909272898597,
        -0.2141096777424544,
        0.6934352068385151,
        -0.09419253952307283,
        -0.7743861847926662,
        0.9078785656299366,
        0.21128405671476402,
        -0.5715400652437961,
        -0.7589629877407739,
        -0.14817445862496845,
        -0.2889972745247645
      ],
      [
        -0.9672164812437548,
        -0.4146076157504302,
        -0.4015801789295043,
        0.01756422165068491,
        -0.545532693682751,
        -0.9572672547663964,
        0.835500963644432,
        -0.9513259245863708,
        0.6396421877845334,
        0.6806072319963077,
        -0.33381456183739566,
        -0.28594011472913755,
        -0.13963087782676228,
        -0.9989121024269139,
        0.7534387367173104,
        0.7900321022299874
      ],
      [
        -0.41847844275548846,
        0.3074508866838122,
        -0.14532817658076339,
        0.6686941859425071,
        0.5541586949684699,
        -0.47624115213339197,
        0.8320913895031701,
        0.6030178918335846,
        0.777244281063816,
        0.7043908555989984,
        0.7354497663299853,
        0.7247440483471094,
        -0.5726088784580725,
        0.5800488060413072,
        -0.3300843891784843,
        0.7382014761831689
      ],
      [
        -0.47366426681689394,
        -0.2553041677398202,
        0.567305602109116,
        0.02269039468034513,
        0.4111027533218404,
        0.3687356256619402,
        0.17511459202457205,
        -0.1328105683559935,
        0.6485864516937511,
        0.5012898637983857,
        0.1261027051301636,
        -0.4783986742555182,
        -0.4863087905635144,
        0.8155948568656866,
        -0.16251674283039177,
        -0.9125623943334422
      ],
      [
        0.37962370888293256,
        0.1507864086885168,
        -0.6200752248988548,
        0.18074918909427393,
        -0.8655904964954052,
        1,
        -0.35028196646314974,
        0.45525739625901,
        -0.4694124503087591,
        0.11204510465882248,
        0.07110466559230495,
        -1,
        -0.9513998305055167,
        0.7407172908219031,
        0.8025691395479311,
        -0.8782335434644214
      ],
      [
        -0.6945996034043206,
        -0.5713555583026996,
        0.6833987673711734,
        -0.5874533915512343,
        -0.2925935501355758,
        -0.7540479264359164,
        0.34600289279052576,
        -0.9183730401839166,
        0.6336957139903325,
        0.2759236869266811,
        -0.9802957773208618,
        0.9026968027614667,
        0.9227865311849914,
        -0.38397492070770545,
        0.4873277003779515,
        -0.1676382193852593
      ],
      [
        -0.6005821001082774,
        -0.12529782601756217,
        0.9318947805187477,
        -0.23071306158369304,
        0.7415742007384241,
        -0.11964721951898125,
        0.37187947868048304,
        0.7745477903445035,
        0.34008974588558033,
        -0.6215262325283292,
        -0.9534004960148803,
        0.05097923491625494,
        0.5418595896767239,
        0.18675705095431777,
        -0.23032875250336496,
        0.266241328900916
      ],
      [
        -0.7888132700241623,
        0.853010914550355,
        -0.4584259579167227,
        0.134598757346457,
        0.5281358940459527,
        0.6779504244437202,
        0.711302607071123,
        -0.15187767947131758,
        0.9937342482689179,
        -0.41191149846198644,
        -0.4694461224481952,
        -0.7469712616459403,
        0.36827332947109487,
        -0.32371953149125754,
        -0.40248248345380755,
        -0.754490650167794
      ],
      [
        -0.8749441076357076,
        0.07600429039484365,
        -0.4490640742009302,
        -0.6123347948580778,
        -0.7382359524636563,
        -0.8228886363899102,
        0.6701929547796608,
        0.07544125205527336,
        0.2139165936484041,
        0.3651960825820706,
        -0.041906740365072775,
        0.9423548764982103,
        0.24086999260468564,
        -0.9910593897100932,
        -0.7398965061504935,
        0.2789528737113278
      ],
      [
        -0.5539532682007514,
        -0.15009839422574742,
        0.13263398677656718,
        -0.9234949967495444,
        -0.5158267006024679,
        -0.07480073740602938,
        -0.4898933528957732,
        0.5336721122148187,
        -0.9068790060084729,
        -0.3907638832392434,
        0.370344921677481,
        0.016630155151487823,
        0.08412683253478502,
        0.9270739887187534,
        0.33329074129262,
        0.1317888998856564
      ],
      [
        0.0850914797944559,
        -0.15816778430756925,
        0.5535358079338909,
        -0.3350322602045103,
        0.8019303530777572,
        0.2992656796268468,
        0.20920009445802662,
        -0.022936414880766216,
        -0.5293059895705526,
        0.20742472641034534,
        -0.12978340007563183,
        0.25061638158465255,
        -0.673580077313946,
        -0.6792998969584922,
        0.9035651598613582,
        -0.26016170923450255
      ],
      [
        -0.33640619776056213,
        0.6908576181222952,
        -0.7255512150045265,
        0.187392075369301,
        0.47067717468078596,
        0.47313528022440055,
        0.9443767806063535,
        -0.5899249514473879,
        -0.8675741269207483,
        -0.5408878409487992,
        0.0013496742719151542,
        -0.1451144551853605,
        0.20100273387225345,
        0.100210422833446,
        -0.3119812617971265,
        0.11067863798198142
      ],
      [
        0.1905270447267759,
        0.21487586892211588,
        0.5326282845513634,
        0.7992161001562212,
        0.3019959255789585,
        0.09321373245672877,
        0.3664219895901405,
        0.5175165561966275,
        -0.9206119779250033,
        -0.2612586871958587,
        -0.27301377752189687,
        -0.08346339969133071,
        -0.6769075833456984,
        -0.35066045100954807,
        -0.38039448336144716,
        0.040723925082994904
      ],
      [
        0.6529926729934333,
        -0.20818469324616481,
        0.6227670955171518,
        0.13437088900543948,
        0.6114301459840553,
        -0.9020062315537205,
        -0.7084863308777842,
        0.8235587119132202,
        0.30621778512758185,
        -0.30846737966161686,
        0.3883213467989674,
        0.3975971359474154,
        0.7586320446522922,
        -0.7738366008719786,
        0.10786882530308611,
        -1
      ],
      [
        0.23582025462112685,
        -0.9560186739070147,
        0.6755266063234991,
        -0.23801609547293592,
        0.5787844529128767,
        0.7625502103441958,
        -0.2942038567920884,
        -0.970731258392334,
        -0.2341175099426264,
        -0.06476389630622777,
        -0.38606714277958354,
        -0.554290366190957,
        -0.6954498190822022,
        0.8312710084203747,
        -0.3919531462880887,
        -0.6715756213832786
      ],
      [
        0.6469318132613047,
        -0.008929931139577482,
        -0.1929921996302508,
        -0.8180448244062984,
        0.29233517594549885,
        -0.8787631971111689,
        0.6670480129945736,
        -0.29583627972186544,
        0.23492644239326116,
        0.7337212108138154,
        0.2425852935730006,
        -0.14583943414178213,
        0.08096863641551011,
        -0.2436709490373162,
        0.8603358926459732,
        -0.3949760284990332
      ],
      [
        -0.7546765651672516,
        1,
        -0.4547387504564673,
        0.010028295373364677,
        0.16764747131340232,
        0.20449767824579765,
        0.016293329547881354,
        0.5694283112363268,
        -0.8069250926991233,
        0.6378475189280657,
        -0.23057118481168493,
        -0.8672285074891243,
        0.8462245871448885,
        0.7490073150634835,
        -0.5530786055484034,
        -0.757788787068475
      ],
      [
        0.5073321477086713,
        -0.619946473238461,
        -0.5703982281025277,
        -0.5229154724118007,
        0.887090285137169,
        -0.18892292182054202,
        0.25729402290792086,
        -0.42678662142605533,
        -0.7752708565041957,
        -0.39210054704128083,
        -0.08625817675423302,
        0.014621236779972641,
        -0.3152803249776692,
        0.797995447654988,
        0.7790069347834252,
        -0.7423566979242361
      ],
      [
        0.30754498093069704,
        -0.8002405983599699,
        0.11853426080396964,
        0.9007375690617583,
        -0.014408859028208664,
        -0.6491296595414185,
        -0.7998007200215567,
        -0.9424584266434044,
        0.7274490136175472,
        -0.712700064682745,
        0.9418324377862746,
        0.839024444891301,
        -0.04015015721577861,
        0.6735978820462948,
        -0.8627578228662729,
        -0.35621141861609196
      ],
      [
        0.04443358757325053,
        -1,
        -0.8338898772461695,
        0.18323211144348855,
        0.3291079278217329,
        -0.6875702970690943,
        0.12222110904404376,
        -0.31052285082303543,
        0.7479012021525706,
        -0.22933344516259702,
        0.1194710308125214,
        0.46254003267683547,
        -0.3120612605325922,
        -0.8766365725580546,
        -0.08618079095029352,
        -0.4523964307459539
      ],
      [
        0.7735503265288615,
        -0.858862077552456,
        0.2646748440370236,
        0.5279496717822694,
        0.4857222676334132,
        -0.6217685137517722,
        0.19532187761339265,
        -0.35710605311897237,
        -0.002516233258822545,
        0.01210162671043203,
        -0.2263031467308376,
        -0.6045358880350453,
        -0.8491251536095542,
        0.028661422871026705,
        0.3049954891780792,
        -0.39384300874274997
      ],
      [
        0.1419685707196254,
        0.8621573701594243,
        0.5228876642736396,
        0.3792507437520336,
        -0.30351888548505235,
        0.8123401132717628,
        0.3483219367794534,
        0.09067100690532527,
        -0.3678036741679952,
        0.6243383476811272,
        0.1120283897207953,
        -0.9191126087890218,
        -0.5033434669175701,
        -0.5095861816207538,
        -0.35226025786040527,
        -0.5480700705800332
      ]
    ],
    "biases": [
      -0.3799926046943372,
      -0.06280355109299202,
      -0.443141072392083,
      -0.4505504411677393,
      -0.6643616577494267,
      0.6246093352584369,
      0.9693488590567156,
      0.23123509962388877,
      -0.7701200756972801,
      -0.13487853522643664,
      0.799438780140428,
      0.06415433390304985,
      0.6323403102700058,
      0.9283235095314347,
      -0.09740766508990535,
      -0.17057032525709978
    ]
  },
  "layer_2": {
    "weights": [
      [
        0.41416861718064524,
        0.05353591490337688,
        0.07226355601758237,
        0.729931414677702,
        0.3566490726180115,
        0.5142465538398883,
        -0.8338778503798058,
        -0.9137755120062635
      ],
      [
        0.8634252072029295,
        -0.8173879344626431,
        -0.4850243783871724,
        0.26093826243859053,
        0.04447176544389943,
        0.24721377539260853,
        0.29565570007068354,
        -0.9647775311841474
      ],
      [
        0.2858004346222878,
        -0.8438115264621805,
        -0.9971312551850474,
        -0.29168170258116655,
        -0.043881219746213625,
        -0.341820810714409,
        0.1520182921083005,
        -0.27084556488485956
      ],
      [
        -0.5669133341631468,
        -0.6215613177842292,
        0.09868392459514556,
        -0.4827789310965498,
        0.939161462733601,
        -0.32284866147714664,
        0.49597482289236544,
        -0.5846819727716384
      ],
      [
        0.1988971563089333,
        -0.7420751817600195,
        0.31549481880252317,
        -0.18949418277348376,
        0.7892082891504256,
        -0.15455237425574175,
        -0.7772403965931597,
        -0.7735190551576789
      ],
      [
        -0.7831438354394279,
        -0.43177138587754404,
        -0.25457992757464293,
        -0.9907378212158344,
        -0.20893505408270344,
        -0.6620782382646592,
        0.969641923904419,
        -0.8580723158820001
      ],
      [
        -0.22078988284630433,
        0.7909939736361888,
        0.41347453918396904,
        0.28126422556775865,
        0.30855784151332427,
        0.12228628022443234,
        0.1414227435550188,
        -0.7217163540126778
      ],
      [
        -0.7341210726669604,
        0.1821086447119297,
        0.06387539847140462,
        -0.5360788120230459,
        0.14134791975387787,
        -0.6065397662982013,
        -0.5762660165792938,
        -0.7014509847882436
      ],
      [
        0.33864059087071235,
        0.49586812696803945,
        -0.3816668776759749,
        0.0741651433348804,
        0.4621916255661484,
        -0.273095922885724,
        0.32100697895186675,
        -0.17629303568402116
      ],
      [
        0.45416834434707376,
        -0.35250429426420843,
        0.5378170158422313,
        -0.12339696681102352,
        0.3853530056429244,
        0.9239768804736388,
        -0.8136448295318547,
        -0.24215164182341267
      ],
      [
        0.4839822814605546,
        0.3467564168280469,
        -0.8522392497945427,
        -0.4990198721106876,
        -0.7321274128232166,
        -0.6645013335798927,
        -0.39773205460993305,
        0.23218846812119476
      ],
      [
        -0.07008433325845254,
        0.955290666276754,
        0.26614711358803556,
        -0.6484534543164732,
        -0.802131360234768,
        -0.9026063000534578,
        -0.7389623223864985,
        -0.45308716914949837
      ],
      [
        0.8422307188948513,
        0.1834849118681176,
        0.37535003297865654,
        0.2568632945503067,
        -0.8892476860013045,
        0.7025963557779582,
        -0.9162854665730836,
        -0.4415344717778259
      ],
      [
        0.08872773316198422,
        -0.15602509559508643,
        -0.5873054155215985,
        -1,
        0.12860527654045753,
        0.3462841827390487,
        -0.8483751483789446,
        0.9000938182877168
      ],
      [
        0.1588264088517541,
        -0.969956918022657,
        -0.9458451551751637,
        0.33547951258284925,
        -1,
        0.10792821379881726,
        -0.09925332975942407,
        0.9512190410152372
      ],
      [
        0.6585178861852531,
        -0.04303592237773535,
        0.2687350869879725,
        0.9297326403757008,
        0.42972566818204544,
        0.42507778966114057,
        0.9124824638680231,
        0.18897810029614737
      ]
    ],
    "biases": [
      0.8288677687504336,
      -0.5699755849504061,
      -0.9211248723958178,
      -0.03781512408515515,
      -0.6098207003125017,
      0.05672777056320127,
      0.09674213814743023,
      -0.44318346075884724
    ]
  },
  "layer_3": {
    "weights": [
      [
        0.04473356756789354,
        -0.6268213960454375,
        0.8924730944742557,
        0.7663004299595961,
        0.08314249748584862
      ],
      [
        -0.8112030926578673,
        0.8755036725382951,
        -0.5204390142036167,
        0.0027584812089338022,
        -0.6276419811338898
      ],
      [
        0.1390194446189974,
        0.10737067209226038,
        -0.2121658298612369,
        -0.028075786215411912,
        0.41350210722700503
      ],
      [
        0.5472977733534491,
        -0.5841656307829408,
        -0.6280258598499207,
        0.4611700065673254,
        0.08347611697459012
      ],
      [
        -0.5539836993345075,
        0.9916678057844838,
        -0.9767863145782558,
        -0.04458794993555325,
        -0.698547733378035
      ],
      [
        0.5923119810815212,
        -0.7845190893757561,
        0.28635297863432424,
        -0.9178882725659184,
        0.2174757637587033
      ],
      [
        -0.595213963708942,
        -0.2986918041027329,
        0.7646413736440811,
        0.1016158049253743,
        -0.7958147516312447
      ],
      [
        -0.8185642381525147,
        -0.8351375892600187,
        0.7772835386640264,
        0.7378164784636358,
        -0.4794022495545468
      ]
    ],
    "biases": [
      -0.05540074910657763,
      -0.994219449138626,
      -0.8959298612531766,
      -0.6580179501492415,
      -0.7266891392487468
    ]
  }
}